3124 100
女裤 0.127841 0.025501 0.362925 -0.248316 -0.319199 -0.039524 -0.120867 0.093379 0.201787 -0.058943 0.276798 -0.264812 -0.144781 -0.331706 0.054307 -0.007384 0.243558 0.158302 -0.211831 -0.348062 -0.172198 0.131487 0.133781 0.171433 -0.032417 0.358695 0.167876 0.051177 0.274607 -0.245211 0.307238 0.007251 0.138976 -0.132778 -0.375090 -0.185287 -0.035803 0.163558 -0.115431 0.010751 -0.155830 0.057624 -0.242114 0.177263 0.141327 0.117064 0.348044 -0.102419 -0.115825 -0.056554 -0.071243 0.150485 -0.270923 0.207520 -0.076488 0.192005 -0.276958 0.060439 -0.166991 -0.055867 -0.102973 0.132389 0.398598 -0.016765 0.266182 0.074371 0.240481 -0.201918 0.297748 -0.121000 -0.282880 -0.147800 -0.091944 0.339474 0.217734 -0.196364 0.089665 -0.194730 0.332440 -0.009110 -0.020597 0.069059 0.157861 0.091024 0.537540 -0.196849 -0.354432 0.049685 0.419472 -0.017828 0.167256 -0.030737 0.193300 -0.378243 0.200010 -0.052936 0.164087 0.016158 0.436684 0.092653 
包 -0.541526 -0.307387 -1.878657 0.289849 -0.273444 0.410469 -0.226919 -0.437533 -0.216715 0.718483 0.482122 0.779535 0.312457 0.846546 0.986514 -0.762799 -1.168986 1.362960 0.880985 -0.025295 -0.456196 0.019979 -0.482830 -0.207138 0.515682 -0.320769 -0.136030 0.356586 -0.962562 0.565574 -1.450300 -0.424754 -0.651348 0.071533 2.436682 1.211594 -0.370299 -1.407586 -0.336094 0.505454 1.723496 -0.101237 0.381565 -1.122781 -0.861297 0.110913 -0.638728 0.539298 0.479920 0.317876 -0.229722 -0.518623 1.404626 -0.474691 1.481949 -0.015023 0.683356 0.014629 -0.491099 -0.063292 0.316582 -0.239989 -0.370484 0.080968 0.286966 -0.139151 0.491509 -0.174012 1.104043 0.439210 0.009114 -0.457907 0.291837 -0.580307 -0.107346 -1.576437 -1.038005 0.017185 0.149379 -0.201790 -0.390059 -0.546116 -0.496959 -0.267075 -0.902004 0.488087 1.087298 -0.179030 -0.147618 0.509066 0.382377 -0.768958 -0.851280 0.120200 -0.732934 0.142539 -1.696441 -0.293188 -1.429900 -0.478600 
袜 -0.231476 0.255123 -0.362409 0.297668 0.974484 0.660632 0.948763 0.270128 0.593691 -0.678710 -2.068118 0.467691 -1.321510 0.468832 -1.449260 0.988839 -0.719262 0.044857 0.439141 0.854726 0.209408 1.126024 0.379301 0.824344 -0.320405 0.108163 -0.923125 0.217693 0.351601 0.392022 -0.278908 0.366113 -0.473299 0.286816 -0.405754 -0.886419 -0.099979 -0.237348 0.769675 -1.725853 -0.843175 0.262439 0.894569 -0.397504 -0.365410 -0.798349 -1.749955 -1.097141 1.202100 1.137494 -0.400608 0.043798 0.232011 -0.709586 -0.213611 -0.643039 0.678965 -0.219331 1.247878 0.078003 -1.652129 1.502378 -1.579779 -0.145045 -1.344829 -0.088093 -0.388771 0.573911 -0.082348 0.639663 0.901239 -0.314382 0.089753 -1.219680 -0.308958 1.652598 0.805424 0.165213 -1.002164 1.154254 -0.105776 -0.400506 -0.759694 0.769786 0.344813 -0.155960 0.538121 0.390255 -0.102052 -0.559328 -1.237741 1.186961 -0.077062 0.955060 -0.456860 0.259464 0.373512 0.713817 -0.301673 -0.484616 
链 0.493910 0.008533 0.074471 0.832062 1.037399 -0.976977 -0.167613 -0.216285 -0.390112 0.120402 0.605263 -0.402880 -0.474917 1.024481 0.366994 -0.638849 0.292073 -0.941390 -0.743751 0.457700 0.115185 -0.114712 -1.168724 -0.729573 0.334839 -2.337929 -0.690135 -0.590506 -0.636447 1.091988 -0.586696 0.041113 0.068151 1.036089 0.114649 0.068272 0.625677 0.663364 1.069205 0.897675 -0.807851 0.626854 -0.121578 -0.372745 0.618963 -0.793254 -0.122569 0.628554 0.109519 0.379401 0.652503 -0.877797 0.602983 0.070674 -0.422045 -0.188456 -0.485448 -0.025485 -0.969048 -0.485653 0.691278 -0.868579 -0.732515 -0.523832 -0.535135 -0.018468 -0.842709 0.125734 -1.126378 -0.150330 -0.354747 1.354615 0.152007 -0.501759 0.281470 0.463779 -0.546265 0.532643 0.040103 -0.022629 -0.228268 0.472448 0.035156 -0.556805 -1.072543 -0.363797 0.371892 0.194347 -0.604596 0.485864 -0.248407 -0.043613 -0.533671 2.247053 -1.602517 0.548050 -0.164597 -0.525948 0.219456 -0.599198 
夹子 -0.460797 0.399735 -1.068946 -0.282348 0.511970 -0.608099 -0.116805 -0.692053 -1.273308 0.628850 -0.294431 0.118173 1.291127 0.553661 -0.464099 0.322580 -0.606107 -1.259500 0.372394 0.887357 0.571137 -0.762857 0.099476 0.597611 -0.338919 -0.362698 0.098683 -0.618623 1.125720 -0.383003 0.225307 -0.287616 0.509612 -0.168193 0.588281 1.946866 0.501706 0.614735 -0.278412 0.333876 0.779538 -0.158503 0.910564 0.420284 -0.627344 1.321362 -0.517527 -0.294387 0.119546 -1.116098 0.205234 -0.173698 0.065989 -0.438528 -0.720224 -0.807672 -0.112366 0.651264 1.416636 -0.266629 0.508184 -0.178513 -1.380111 0.905329 -0.195223 -0.267897 -1.303011 1.271987 0.095875 -0.703740 0.115477 -0.331019 -0.167116 0.374910 -2.449844 0.302514 -0.494180 0.913809 -1.279705 -0.578122 0.202396 0.788696 0.492252 -0.398600 -0.441786 1.736792 -1.196794 -0.291716 -0.171548 0.961076 -0.020112 0.223934 -0.144660 0.042886 0.524392 -0.457400 -0.590590 0.148389 -1.793951 -0.040572 
人造花 -0.045478 0.351496 0.410106 0.222870 -0.445035 -0.028893 -0.379877 0.050597 -0.403355 -0.804471 0.082928 -1.322664 -0.015735 -0.039957 -0.550442 -0.201428 0.457809 -1.263179 -0.517860 -0.131976 0.549378 0.666236 1.010177 0.143561 -1.344005 -0.246729 -0.535302 -0.502753 -1.924945 1.446632 -1.639372 -0.235557 -0.751305 0.797791 1.742345 0.894441 0.308188 -1.444821 0.701563 -0.724562 0.494214 -0.868350 1.052276 -0.039900 -0.423772 -0.295575 -2.067510 0.488360 -0.967542 -0.249020 1.001250 -0.676066 0.295364 -1.150528 -1.836581 -0.331068 0.601449 -0.433145 0.296789 0.721280 -0.293691 0.088897 -0.890600 0.036708 0.073217 -0.583118 -0.799092 -0.206913 -0.277679 -0.140455 0.503945 -0.332257 -0.134274 0.686086 -0.573394 1.556671 0.646981 -0.731207 -0.211372 -0.039036 0.889666 0.318137 0.579256 -0.109341 0.746698 0.309357 -0.299144 -0.725935 -0.575625 -0.832059 0.417388 -0.177370 -0.795023 1.276478 -0.491626 0.605779 0.068187 0.083733 -0.501416 0.694091 
打底裤 -0.381542 0.264579 0.152629 0.560151 0.755175 0.744607 0.840371 0.276878 0.382224 -0.594421 -2.350015 0.570004 -0.901564 0.643400 -1.535769 0.841577 -0.528971 -0.217560 0.790302 1.430880 0.560081 0.956388 0.308028 0.584559 -0.495518 0.062451 -0.762101 0.186281 -0.199492 0.548419 -0.289986 0.336326 -0.486811 0.274513 -0.723454 -1.110934 0.073190 -0.409142 0.520264 -1.412001 -1.025152 -0.063596 0.253576 0.034828 0.004174 -0.652725 -1.223356 -0.655637 1.223547 0.965812 -0.216648 0.268486 -0.040735 -0.473555 -0.454608 -0.651038 0.446227 -0.460331 1.082812 0.339362 -1.338390 1.598775 -0.797780 0.029166 -1.293826 -0.099403 -0.110710 0.399130 -0.432467 0.255865 0.817946 -0.281114 0.335450 -0.687533 -0.359597 1.291709 0.588013 0.282741 -1.061993 1.301059 0.227170 -0.095572 -0.409581 1.050819 0.524603 -0.067070 0.497851 0.100565 -0.112383 -0.850411 -0.897159 0.939209 0.075631 1.088870 0.012037 0.233241 0.949694 0.421380 0.101156 -0.213379 
玩具 -0.306892 -0.026999 -0.561784 0.256566 0.173674 0.175417 0.285375 -0.112722 -0.445888 0.253073 0.556512 0.244815 0.099457 -0.014388 1.111726 -0.330896 -0.246590 0.246952 0.009940 -0.479323 0.627376 0.065028 -0.004444 -0.364588 -0.268947 0.265292 -0.332133 0.403577 -0.835164 0.905183 -0.818670 0.133285 0.332094 -0.254462 0.650851 -0.314060 0.285468 -0.280293 0.151266 0.231063 0.036888 -0.184728 -0.258416 0.034647 0.173498 0.040928 -0.089098 0.501439 -0.502070 -0.016184 0.068233 0.439419 0.310141 -0.113658 -0.402814 0.254050 0.483686 -0.067292 -0.840444 0.910499 0.180625 -0.505676 0.075367 0.102947 -0.470347 -0.665315 -0.281943 0.456285 -1.205030 0.355326 0.714276 -0.126072 0.555528 -0.616820 -0.273209 0.104906 -0.201583 0.302289 -0.216728 -0.191903 0.255382 -0.566302 -0.560654 -0.484997 -1.575699 0.804594 1.861543 -0.168214 -1.459234 -0.987857 -0.796141 -0.166334 -0.917299 1.293654 -1.138334 0.744803 -0.276217 -0.054232 0.173429 -0.174503 
饰品 0.651618 0.173672 0.334091 0.048082 0.295781 -0.791771 -0.538159 -0.051966 -0.379075 -0.192868 0.879389 -0.724538 -0.105263 0.355956 0.446265 -0.546310 0.507177 -0.947849 -0.736951 0.060312 -0.222978 -0.269903 -0.859703 -0.361576 0.023683 -1.595494 -0.505803 -0.744235 -0.359718 0.521164 -0.065008 -0.234041 -0.240957 1.053862 0.645056 0.796813 0.601707 0.097247 0.961302 0.974506 -0.115875 0.104701 0.469411 -0.290300 0.141393 -0.456631 -0.140010 0.442728 0.046394 -0.095279 0.722879 -0.999982 0.473556 -0.124529 -0.976741 -0.368873 0.113537 0.053316 -0.138968 -0.313243 0.439599 -0.890214 -1.436109 -0.055058 -0.177893 -0.160751 -1.057971 0.478527 -0.831283 0.144074 0.071901 1.054210 0.056454 -0.277556 -0.537615 0.653819 -0.645806 0.437379 -0.561877 -0.039666 0.205455 0.610414 0.198915 -0.516466 -0.997736 0.150306 -0.145669 0.017916 -0.509268 0.558365 -0.039521 -0.186118 -0.389931 1.818724 -1.216221 0.779919 -0.672456 -0.282191 -0.457631 -0.323704 
项链 0.706973 0.034253 0.326395 0.654016 0.867488 -0.898031 -0.400922 -0.119521 -0.011678 0.020180 0.478449 -0.334031 -0.630100 1.174841 0.123824 -0.596406 0.259032 -0.718662 -0.528289 0.543738 -0.386276 -0.041443 -1.333370 -0.593849 0.385429 -2.585458 -0.949912 -0.768157 -0.442537 0.965748 -0.328326 -0.072129 -0.234931 1.373364 0.232569 0.282980 0.477560 0.447421 1.193551 0.842282 -0.649198 0.645111 0.122112 -0.622749 0.403851 -1.009095 -0.144668 0.429683 0.528007 0.499258 0.632979 -1.172506 0.663366 0.223432 -0.258053 -0.397810 -0.204817 -0.053305 -0.547873 -0.741835 0.525713 -0.702596 -1.165614 -0.647958 -0.522626 0.145680 -0.793903 0.190622 -0.937691 0.105429 -0.152667 1.598303 -0.040059 -0.764419 0.099217 0.567297 -0.663748 0.503963 -0.297850 0.048063 -0.267057 0.596887 -0.021784 -0.361990 -1.021912 -0.427676 0.068389 0.278666 -0.254393 0.706973 -0.218598 -0.001287 -0.334888 2.197130 -1.468249 0.560251 -0.431059 -0.447051 -0.183428 -0.762332 
耳环 0.767936 0.052900 0.345860 0.249162 0.799854 -0.602286 -0.370785 -0.057314 0.009148 -0.097540 0.567943 -0.230195 -0.432506 0.925671 0.174661 -0.606025 0.434161 -0.524648 -0.428202 0.201869 -0.429210 -0.080400 -0.887476 -0.431999 0.170268 -2.207105 -0.786026 -0.722177 -0.268566 0.603552 0.144615 -0.304973 -0.369194 1.304608 0.596492 0.427054 0.473270 0.119690 1.274621 0.922278 -0.511274 0.335799 0.308656 -0.792776 0.283104 -0.790430 -0.013174 0.466588 0.538936 0.193525 0.613068 -0.953112 0.434172 0.152314 -0.374720 -0.492524 0.295414 0.041731 -0.263498 -0.479290 0.308305 -0.606586 -1.308363 -0.521011 -0.302392 0.203979 -0.800042 0.160296 -0.951031 0.503074 0.092805 1.399175 0.113252 -0.535149 -0.098549 0.561650 -0.701014 0.497573 -0.326471 0.021091 -0.307714 0.385744 -0.184771 -0.343117 -0.943780 -0.133238 0.100601 0.194511 -0.321907 0.356104 -0.250158 -0.183111 -0.341053 1.903018 -1.245249 0.594070 -0.593291 -0.467885 -0.408663 -0.733085 
杯 -0.560970 -0.024147 -0.692622 0.517075 0.990996 -0.058411 0.715144 0.056939 -0.820568 0.221779 -0.583373 0.500478 0.323127 0.384803 0.441598 0.179178 -0.434588 -0.794894 -0.194828 0.382625 1.277595 -0.636893 0.457342 -0.453199 0.058037 0.057013 0.352961 0.225073 -0.180340 0.466558 -0.337408 -0.021722 -0.132817 -0.425827 0.023415 -0.311280 0.410103 0.166764 0.203876 0.308111 -0.708468 -0.132721 0.109145 0.061067 0.560266 -0.025120 -0.720678 0.275738 -0.218341 -0.082725 0.389845 0.770129 0.164989 -0.631063 -0.814803 0.105425 0.245972 0.216273 -0.584837 0.677224 -0.125293 -0.185838 -0.002718 0.343050 -0.732724 -0.660289 -0.893519 0.193030 -1.128024 -0.084896 0.166608 0.090782 0.402701 0.146152 -0.239604 0.362343 0.254658 1.195823 -0.392370 -0.067624 -0.131611 -0.486811 -0.087708 -0.086293 -0.803607 0.662205 0.850947 -0.201753 -1.583981 -0.698666 -0.690003 -0.059207 -0.081953 0.695910 -0.251426 0.019487 0.144503 -0.420020 0.222176 0.098214 
刀具 0.071753 -0.237295 -0.588687 0.060677 0.421106 -0.298273 0.598955 -0.106685 -0.601522 -0.269540 -0.781039 0.350191 1.521209 -0.941609 -0.611269 0.449842 -0.161214 -0.869479 0.296967 1.080429 0.887483 -0.902915 0.230677 -0.742121 0.378078 -0.050351 0.701259 0.050603 -0.327012 -0.421737 0.020013 0.189077 0.459276 -0.426809 -0.073525 0.342021 -0.239123 0.097652 -0.578808 -0.337897 0.229867 -0.398838 0.210754 0.286612 -0.554659 0.598905 -0.249543 0.121947 -0.602402 -0.360096 -0.239962 0.050285 -0.117805 -0.645343 0.436149 -0.512939 0.260578 0.051802 0.836005 0.299758 0.513819 -0.720610 -0.343334 0.522213 -0.647081 -0.384009 -0.372904 0.651965 -0.881283 -0.092811 1.178852 0.308248 0.347756 -0.665231 -0.595863 0.668565 0.571897 -0.041973 -0.801983 0.154603 0.631565 -0.439940 -0.283475 -0.371251 -1.257491 0.241587 0.975467 -0.422150 -1.528857 0.158825 0.281839 0.962178 -0.266653 -0.363251 0.571774 -0.144546 0.711722 0.175701 -0.811984 0.623383 
手链 0.628474 -0.016832 0.312008 0.610865 0.833832 -0.895121 -0.391372 -0.257221 0.077133 0.180024 0.343441 -0.246325 -0.553958 1.293343 0.060015 -0.625335 0.106013 -0.789820 -0.482786 0.534355 -0.349818 -0.022121 -1.209888 -0.565994 0.275022 -2.426949 -0.875729 -0.806270 -0.433276 0.869905 -0.454721 -0.119059 -0.215460 1.334140 0.406402 0.394452 0.586399 0.294642 1.144787 0.799943 -0.373719 0.702765 0.152052 -0.749773 0.297846 -0.990992 -0.246997 0.415291 0.470622 0.260294 0.635395 -1.160711 0.640877 0.164310 -0.186156 -0.417148 -0.106238 -0.128724 -0.446307 -0.657695 0.564754 -0.635183 -1.170076 -0.529423 -0.360322 0.126258 -0.809176 0.181683 -0.787221 0.199686 -0.151647 1.392850 0.020705 -0.647234 0.102966 0.520569 -0.609043 0.450671 -0.254540 0.025178 -0.307279 0.592459 -0.004158 -0.360757 -0.963824 -0.267811 -0.022622 0.154854 -0.119245 0.569595 -0.179420 -0.006170 -0.298410 2.110868 -1.347210 0.567675 -0.455835 -0.445691 -0.341044 -0.673681 
车 -0.074337 -0.197452 -0.978806 0.368857 0.217294 0.179613 0.431908 -0.316149 -0.842407 0.182732 0.131994 0.521677 0.710485 0.113779 0.504668 -0.244042 -0.048063 -0.093090 -0.023794 -0.115242 0.735285 -0.303608 -0.046652 -0.323199 0.011328 -0.038942 0.043477 0.393252 -0.907295 0.752267 -0.905330 0.114535 0.302862 -0.310609 0.719264 0.000421 0.112071 -0.088543 0.163556 0.325506 0.296794 -0.008060 -0.045348 0.035913 0.018341 0.134290 -0.124790 0.460731 -0.660869 -0.223759 0.079090 0.236755 0.145591 -0.274094 -0.330164 -0.012089 0.390799 -0.021156 -0.729867 0.896348 0.365100 -0.712166 -0.129375 0.339633 0.034064 -0.597086 -0.281126 0.401333 -0.838547 0.188966 0.477483 -0.243846 0.581375 -0.349669 -0.115407 0.152190 -0.206110 0.022858 0.040158 -0.114136 0.374620 -0.666322 -0.422929 -0.593822 -1.057816 0.544450 1.465013 -0.243236 -1.607147 -0.689314 -0.420612 0.221566 -0.632533 0.769982 -0.698645 0.223380 -0.102968 0.128165 0.010450 -0.114407 
西装套装 -0.180734 0.094521 0.461351 0.774377 0.145938 0.348675 0.645256 0.310924 -0.594078 -0.712241 -0.731987 0.474541 0.548878 -0.278806 -0.234713 -0.039929 0.119278 -0.247388 0.418395 0.669509 1.066434 0.169826 0.407234 -0.470544 -0.099864 0.050231 0.274277 0.083686 -0.709785 0.424934 0.095162 0.464036 -0.521668 -0.206186 0.094643 -0.514425 0.236215 -0.322563 0.177293 -0.399499 -0.102387 -1.051482 -0.044937 0.378014 0.210694 0.161213 -0.480302 0.265774 -0.244416 0.321262 -0.068324 0.055994 0.389331 -0.128669 -0.144658 -0.274518 0.328367 -0.596327 0.158403 0.803559 -0.056530 -0.160900 -0.255811 -0.023472 -0.754882 -0.187805 -0.013137 0.007401 -0.858094 0.154778 1.103003 0.258282 0.073104 -0.136442 -0.015230 0.892296 0.519814 0.314515 -0.789976 -0.069161 0.537239 -0.252645 -0.477640 -0.252271 -0.723173 0.435401 1.160596 -0.302572 -0.670297 -0.766595 0.209822 0.113801 -0.229382 0.470406 0.276177 -0.083156 0.178400 -0.017993 -0.059552 0.577816 
女童外衣 -0.453650 0.272484 0.448887 0.591602 0.093025 0.790892 0.621350 0.359895 0.194373 -0.488087 -1.626482 0.733945 -0.114124 0.206149 -0.922257 0.507524 -0.388851 0.302244 1.089880 1.117561 0.593066 0.449120 0.097924 0.055493 -0.197349 0.278305 -0.057749 0.263682 -0.485615 0.170093 0.116234 0.404393 -0.711702 -0.113065 -0.200298 -0.882248 -0.101718 -0.608679 0.093032 -0.926961 -0.106602 -0.771930 0.210227 0.130062 -0.247195 -0.315372 -0.773587 -0.044504 0.703558 0.664468 -0.225657 0.176665 0.448677 0.043628 0.580843 -0.351635 0.591986 -0.886861 0.977382 0.390416 -0.494848 0.801012 -0.283528 -0.092886 -0.958854 0.138467 0.444708 0.111481 -0.645222 0.374466 0.880400 0.100385 0.012310 -0.450482 0.036353 0.660984 0.469315 0.444390 -1.040987 0.440542 0.394149 -0.135715 -0.514490 0.357246 -0.427912 0.172234 0.850719 -0.093380 -0.016778 -0.685978 -0.216457 0.031187 0.197389 0.218176 0.601108 -0.243989 0.065601 0.318440 -0.471846 0.285731 
手包 -0.505427 -0.305733 -1.643004 0.346611 -0.002349 0.429058 -0.147699 -0.381284 0.022111 0.753893 0.018355 0.928257 0.177613 0.947646 0.518631 -0.477771 -1.193337 1.223961 1.009375 0.281241 -0.691409 -0.050533 -0.557555 -0.057066 0.610482 -0.590847 -0.315577 0.326281 -0.598425 0.308832 -1.002427 -0.353353 -0.673478 0.187715 1.922694 1.049582 -0.422294 -1.213403 -0.361517 0.272323 1.565220 0.019000 0.445620 -1.148054 -0.929859 -0.086431 -0.626288 0.253162 0.833010 0.435456 -0.211783 -0.594934 1.179841 -0.294757 1.691316 -0.122977 0.629106 -0.054074 -0.034432 -0.295131 0.286419 0.036316 -0.509343 -0.123233 0.069543 0.173670 0.405816 -0.017383 0.984671 0.454211 0.154565 -0.267511 0.242136 -0.864852 -0.173183 -1.291808 -0.951586 0.129237 -0.105648 -0.138200 -0.451889 -0.387657 -0.481203 -0.111577 -0.874308 0.352108 0.708119 -0.095346 0.097971 0.643064 0.177531 -0.546413 -0.542664 -0.073110 -0.378881 -0.048748 -1.455066 -0.220992 -1.549973 -0.526798 
绳 0.005579 0.048492 -0.253868 0.358801 0.784797 -0.409330 0.285507 -0.762649 -0.501934 0.232737 -0.819635 0.442317 0.323631 0.841118 -0.511315 0.407419 -0.572069 -1.329464 -0.501087 0.611045 0.860935 -0.542043 -0.190772 -0.511351 -0.282579 -0.128364 -0.246660 -0.339717 0.095103 -0.045077 0.036594 -0.067808 0.267441 0.337384 -0.486871 0.242955 0.370821 0.769991 0.547033 -0.092130 -0.086365 0.325924 -0.005207 0.270255 -0.173388 -0.260564 0.234626 -0.411972 -0.288066 -0.555320 0.433584 -0.287989 -0.183780 -0.371115 -0.634312 -0.581130 0.314971 0.405180 0.502343 -0.115217 0.238889 -0.581859 -0.658261 -0.232060 -0.626210 -0.250230 -0.806850 0.521253 -0.757154 -0.564619 0.316120 0.585156 -0.261869 -0.141869 -0.354040 0.944024 0.120286 0.022403 -0.394799 -0.169089 -0.106676 0.227807 0.309730 -0.414066 -0.875750 0.249117 -0.359675 0.110510 -0.675741 -0.128413 -0.206145 0.849335 0.498292 0.683868 -0.004566 0.106823 0.472553 -0.190837 0.360529 0.111460 
办公用笔 -0.565401 -0.403995 -1.321561 1.331227 1.010958 0.445528 0.420152 -0.678490 -1.172568 0.511386 -0.430709 0.888733 0.873184 0.104716 0.180773 0.203243 -0.383729 -0.174183 0.758967 0.519623 1.021486 0.152158 -0.001621 -0.556590 -0.346297 -0.032440 -0.192647 -0.132996 -0.924425 0.562713 -1.095596 0.165288 0.204159 -0.405788 0.012459 -0.252331 -0.281253 0.113113 0.182753 -0.777052 0.398643 -0.386538 0.579499 0.194933 0.105627 0.129859 -0.351355 0.386270 -0.567256 0.003911 0.282654 0.537228 0.329187 -0.705692 -0.048930 0.312833 0.320832 -0.026714 0.008456 0.344230 0.547638 -0.214414 0.373185 0.150772 -0.153183 -0.012798 -0.614096 -0.122911 -0.175530 -0.214051 0.466872 -0.606456 -0.339977 -0.362976 -0.811020 0.151934 -0.017372 0.324154 -0.324050 -0.836457 0.189179 -0.738424 -0.127266 -0.411784 -0.515567 0.389956 0.294158 0.073894 -0.899589 0.060229 -0.298957 -0.163418 -0.681259 -0.328752 0.110633 -0.868751 0.501670 0.013366 -0.435265 0.022349 
线 0.068378 -0.253918 -0.119276 0.280226 0.397269 -0.405054 0.395339 -0.503889 -0.203095 -0.037600 -0.559730 0.263968 0.418596 0.194834 -0.371798 0.472871 -0.148570 -0.865587 -0.332181 0.321086 0.560671 -0.585295 0.045756 -0.556477 -0.028879 0.042488 0.278341 -0.348744 0.081084 -0.226362 0.076516 0.071435 -0.050250 0.102648 -0.068857 0.056065 0.187744 0.534793 0.385686 -0.198767 0.098426 -0.027838 0.000452 0.280310 -0.388722 -0.239929 0.016115 -0.326245 -0.226380 -0.261224 0.324272 -0.199357 0.255389 -0.358376 -0.096619 -0.744862 0.329549 0.232888 0.690797 0.108778 0.306256 -0.592166 -0.666874 -0.143886 -0.602911 -0.147520 -0.547361 0.447797 -0.936716 -0.191504 0.744448 0.557236 -0.275905 -0.505787 -0.251308 0.750321 0.018161 0.042085 -0.528066 -0.101819 0.055805 -0.016632 -0.090977 -0.456074 -1.166637 0.410969 0.078453 -0.020249 -0.929719 0.051872 -0.095876 0.850052 0.367619 0.026011 0.138474 -0.218274 0.609387 -0.158041 -0.103832 0.207951 
帽 -0.417805 0.096782 0.046657 0.118155 0.030284 -0.215539 0.077279 -0.049265 -0.365195 -0.146139 0.069104 -0.181287 0.219519 0.181254 0.304481 -0.044261 -0.127520 -0.648048 0.022395 -0.068174 0.568126 -0.026204 0.331115 -0.118789 -0.535664 0.169788 -0.167435 -0.269801 -0.633000 0.538428 -0.250556 0.016305 -0.096760 0.029884 0.597272 0.171916 0.300268 -0.145074 0.129669 -0.012090 0.273898 -0.495580 0.297018 0.022001 -0.048140 -0.079615 -0.478142 0.265734 -0.490931 -0.287646 0.131329 -0.059244 0.255341 -0.344381 -0.720353 -0.063334 0.344488 -0.126916 0.213175 0.320428 0.134876 -0.345832 -0.439146 0.130514 -0.258831 -0.173121 -0.670362 0.204549 -0.681822 -0.032527 0.481703 -0.025756 -0.055109 0.161286 -0.320545 0.628316 0.145235 0.100524 -0.339350 -0.029966 0.111333 -0.167254 0.016813 -0.365496 -0.491643 0.547433 0.382011 -0.115940 -0.523039 -0.343854 -0.076697 -0.254658 -0.337873 0.428041 -0.025286 0.083904 -0.487855 0.196098 -0.229165 0.177335 
背包 -0.503127 -0.327620 -1.568232 0.272593 -0.104558 0.616844 -0.060521 -0.368949 0.070788 0.700288 -0.014604 1.069108 0.124565 0.783621 0.724899 -0.302885 -1.121879 1.112957 0.960070 0.240904 -0.527847 -0.164521 -0.678820 -0.200470 0.635384 -0.461386 -0.218334 0.483053 -0.614667 0.325778 -1.100567 -0.283489 -0.675485 0.195453 1.681925 0.695063 -0.445154 -1.071975 -0.308432 0.184156 1.480308 0.258326 0.440969 -1.123238 -0.838774 -0.085730 -0.697936 0.492561 0.564523 0.495740 -0.252010 -0.336612 1.135897 -0.179371 1.757776 -0.079456 0.865803 -0.057503 -0.034973 -0.173253 0.289752 -0.129645 -0.179503 -0.048706 0.114295 0.253819 0.593351 -0.009341 0.633842 0.456753 -0.045137 -0.272193 0.105154 -0.925100 0.150411 -1.458543 -0.762059 0.130673 -0.006151 -0.305429 -0.547719 -0.459676 -0.703776 0.034108 -1.089466 0.338097 1.060505 -0.042175 -0.171041 0.450132 -0.253841 -0.389767 -0.369731 -0.278788 -0.347172 -0.275348 -1.254944 -0.127848 -1.381311 -0.629612 
架及笼 -0.782678 -0.055708 -1.187380 0.802546 0.936511 0.048403 0.714745 -0.164415 -1.108419 -0.030858 -0.797114 0.621960 0.554912 0.950753 -0.057459 0.260668 0.077491 -0.676263 0.012950 0.570445 0.945091 -0.516151 0.386295 -0.286732 -0.108950 -0.174368 0.007120 -0.045578 -0.282474 0.642853 -0.627632 0.060390 0.253520 -0.390008 0.152187 0.139794 0.433782 0.216281 0.053453 0.196390 -0.334078 -0.136414 0.057846 0.216885 0.373275 0.164564 -0.424503 0.395936 -0.369889 -0.392648 0.169896 0.244040 -0.228968 -0.479141 -0.844734 -0.096861 0.180516 0.123301 -0.393650 0.505275 0.195692 -0.443168 0.113574 0.418924 -0.061056 -0.461024 -0.661312 0.154154 -0.829569 -0.051440 0.023197 0.072659 0.352997 0.349916 -0.210995 0.269070 0.060656 0.326121 0.008397 -0.081290 0.123679 -0.020450 0.138015 -0.154722 -0.207301 0.512792 0.595173 -0.180869 -1.127984 -0.469840 -0.617893 -0.092959 -0.296994 0.577274 -0.190737 -0.044593 0.186074 -0.131812 -0.034512 0.015698 
皮筋 0.035517 0.319973 0.430670 -0.031553 -0.023851 -0.438297 -0.336949 -0.174371 -0.219893 -0.003352 -0.264824 -0.236644 0.191299 0.656262 -0.314588 0.029482 -0.111767 -1.068436 -0.136739 0.310439 0.022451 -0.074148 -0.122837 0.180339 -0.619312 -0.404022 -0.557801 -0.647101 -0.033370 0.014955 -0.028757 -0.226252 -0.147526 0.650958 0.441909 1.037933 0.368037 -0.057447 0.195543 0.180850 0.402033 -0.134161 0.738932 0.093951 -0.268272 -0.091520 -0.455982 -0.096964 0.050024 -0.529265 0.338801 -0.668939 -0.000129 -0.324911 -0.875842 -0.592187 0.306229 0.001329 0.904293 0.029219 0.063487 -0.206175 -1.338984 0.337995 -0.208531 -0.154593 -0.949485 0.743823 -0.213021 -0.143953 0.244220 0.265356 -0.044167 -0.123820 -1.039220 1.031495 -0.106112 0.130119 -0.952974 0.045457 0.240662 0.636940 0.397139 -0.360095 -0.258626 0.515708 -0.977506 -0.003193 0.073914 0.299151 0.152521 0.071039 -0.106052 0.685568 -0.238320 0.483599 -0.328533 0.151598 -0.710444 0.299277 
板 -0.389648 -0.037517 -0.968593 0.507896 0.645286 -0.000028 0.457798 -0.201200 -0.635647 0.054658 -0.518605 0.501139 0.474846 0.089219 -0.021292 0.163139 -0.083221 -0.364287 0.268010 0.583263 0.399631 -0.506452 -0.100697 -0.388987 0.108918 -0.263700 -0.065207 0.200196 -0.184369 0.136543 -0.548366 0.124622 0.010341 -0.148787 -0.100251 0.028028 0.032940 0.174677 -0.333477 -0.054689 0.143490 -0.033923 0.058788 0.079754 -0.070661 0.112475 -0.249729 0.073775 -0.103418 -0.331496 0.092671 0.249255 -0.015398 -0.331264 0.102285 -0.124615 0.187653 0.124803 0.172323 0.141865 0.337772 -0.454743 0.066755 0.089038 -0.099776 -0.363954 -0.258024 0.192462 -0.533655 0.012743 0.175009 0.204678 0.131831 -0.342771 -0.222304 0.248771 -0.101497 0.083918 -0.099494 -0.095721 -0.082736 -0.228932 -0.212838 -0.148013 -0.601793 0.145514 0.406281 0.086383 -0.815381 0.030717 -0.349612 0.120999 -0.125033 0.058455 -0.003847 -0.164021 0.213284 -0.116907 -0.243571 -0.158018 
发绳 0.106772 0.392337 0.485906 -0.038062 0.158967 -0.493655 -0.393865 -0.130514 -0.192841 -0.037669 -0.409455 -0.223284 0.121840 0.813207 -0.513048 0.048736 -0.076598 -1.232239 -0.196978 0.545446 -0.045306 -0.135778 -0.273034 0.183538 -0.636065 -0.633151 -0.658948 -0.754140 -0.001772 -0.011842 0.059790 -0.225705 -0.269232 0.903719 0.426605 1.215664 0.393591 -0.072866 0.281003 0.179896 0.332195 -0.157586 0.861431 0.001782 -0.336219 -0.207715 -0.512069 -0.150245 0.174977 -0.502202 0.415000 -0.854519 0.046441 -0.333020 -0.911104 -0.674021 0.317636 -0.010053 1.202896 -0.157062 0.070049 -0.194742 -1.641807 0.309886 -0.303148 -0.011499 -1.113610 0.892497 -0.289912 -0.127492 0.273172 0.435672 -0.119732 -0.192395 -1.150210 1.208981 -0.085093 0.154286 -1.076366 0.069819 0.218795 0.802867 0.459259 -0.296739 -0.277393 0.434890 -1.199150 0.002886 0.199145 0.453653 0.195588 0.046666 -0.000357 0.708195 -0.193786 0.498571 -0.395530 0.140244 -0.861269 0.297093 
针钉 0.198708 -0.066501 0.079755 0.118115 0.576637 -0.313207 0.527956 0.016472 -0.068325 -0.436616 -0.919951 -0.009259 0.146296 0.036210 -0.742196 0.530456 -0.156657 -0.738886 0.170774 0.791710 0.698549 0.015972 0.145460 0.010274 -0.330234 -0.190113 -0.154864 -0.256272 0.204204 -0.120203 0.257171 0.211565 0.087676 0.055109 -0.335040 -0.195924 0.098149 0.501025 0.542757 -0.484140 -0.523873 -0.131998 0.394057 0.243406 -0.224935 0.105213 -0.342254 -0.576499 0.364896 0.141201 -0.092285 0.073420 0.002214 -0.310605 -0.394666 -0.617350 0.123784 0.207210 0.973002 0.014949 -0.338948 0.227090 -0.924787 0.108619 -0.853652 -0.209287 -0.675534 0.579516 -0.594527 0.024317 0.647278 0.331086 -0.143777 -0.552347 -0.536054 1.203048 0.263070 0.328365 -0.852854 0.475298 0.240622 0.089716 -0.343158 -0.192518 -0.389745 0.334663 0.089310 0.043585 -0.651583 -0.077370 -0.327553 1.122110 0.064698 0.587632 -0.048317 -0.226125 0.563788 0.268162 -0.198275 0.002286 
圣诞灯具 -0.347955 -0.107177 -0.717639 0.707285 0.657179 0.121246 0.579913 -0.165871 -0.754728 -0.115781 -0.165273 0.212578 0.259604 -0.025086 0.417933 -0.110904 -0.241696 -0.430761 0.019002 0.060455 0.938277 -0.272565 0.315535 -0.441899 -0.335609 0.082390 -0.069437 0.122493 -0.997592 0.736672 -0.952063 0.094652 0.004317 -0.191617 0.443913 -0.417632 0.372199 -0.161410 0.290592 -0.023711 -0.082407 -0.256971 -0.004289 0.074283 0.119202 0.053935 -0.545478 0.493368 -0.526942 -0.139439 0.120617 0.333475 0.138520 -0.445082 -0.700715 0.152720 0.319976 -0.007194 -0.497650 0.733954 0.093616 -0.359045 0.049623 0.133873 -0.352515 -0.726252 -0.375586 0.003424 -0.967079 0.096394 0.555495 -0.003683 0.324415 -0.050014 0.032437 0.499031 0.199585 0.167678 -0.120706 0.047463 0.257827 -0.536961 -0.223455 -0.332771 -0.789737 0.321230 1.160718 -0.023303 -1.330148 -0.811932 -0.395574 -0.012219 -0.585669 1.024104 -0.581602 0.400923 0.207030 -0.110277 0.447330 0.058717 
珍珠 0.310540 0.251130 0.449878 0.051428 0.425297 -0.568468 -0.417378 -0.000568 -0.032822 -0.047655 0.006701 -0.330220 -0.278691 0.765096 -0.306147 -0.191302 0.174051 -0.924339 -0.366363 0.427769 -0.332995 -0.036954 -0.654522 -0.102006 -0.141717 -1.423704 -0.621873 -0.875571 0.034125 0.246780 0.135393 -0.205183 -0.228915 1.087066 0.256110 0.781746 0.381389 0.156820 0.703482 0.449353 -0.094275 0.119128 0.564882 -0.380625 0.025707 -0.475632 -0.282929 0.113866 0.303255 -0.075794 0.451336 -0.916279 0.268780 -0.008110 -0.601203 -0.552105 0.028327 -0.130633 0.529484 -0.525955 0.139011 -0.224401 -1.344313 0.009493 -0.368255 0.174266 -0.935518 0.529922 -0.481289 0.092127 0.095664 0.771603 -0.116897 -0.351709 -0.575077 0.922872 -0.370371 0.280953 -0.612338 0.162256 -0.147170 0.722854 0.300264 -0.193719 -0.395909 0.041607 -0.804565 0.222911 0.154229 0.677088 0.003973 -0.011455 -0.049625 1.115611 -0.665928 0.479798 -0.409429 0.016008 -0.587132 -0.331383 
垫 -0.651621 -0.079706 -0.462855 0.147605 0.496826 0.304512 0.475911 0.009075 -0.549326 0.197338 -0.398195 0.457891 0.074768 0.437398 0.097241 0.335393 -0.393033 -0.150530 0.208929 0.369613 0.664567 -0.495319 0.102542 -0.098768 -0.054056 -0.031587 -0.177816 0.252031 -0.354739 0.503701 -0.508432 -0.005231 0.033999 -0.170013 0.195552 0.068546 -0.079726 -0.219594 -0.317956 -0.126370 0.080469 -0.116379 0.185986 -0.100739 0.028353 0.014400 -0.523054 0.268742 0.019061 -0.006645 0.087468 0.207450 0.044784 -0.469095 -0.100937 -0.086357 0.584320 -0.035355 0.140390 0.412589 0.060879 -0.119205 0.088935 -0.077522 -0.127098 -0.061456 -0.085475 0.183958 -0.645762 0.194182 0.264009 -0.146809 0.056289 -0.025013 -0.129661 0.193820 0.260315 0.159554 0.169541 -0.236811 -0.017707 -0.134361 -0.185882 0.104112 -0.400394 0.455457 0.857177 -0.283841 -0.965357 -0.541642 -0.514909 -0.271205 0.120610 0.076596 -0.042117 -0.038219 -0.029424 -0.021661 -0.413311 -0.108836 
发夹 0.019285 0.387655 -0.129268 -0.166399 0.292894 -0.450788 -0.419372 -0.177224 -0.181534 0.150730 -0.245617 -0.102263 0.187374 0.708761 -0.601822 0.054642 -0.289484 -0.860768 0.146929 0.763608 -0.377434 -0.200746 -0.479223 0.463565 -0.242222 -0.869644 -0.552087 -0.779052 0.483183 -0.244599 0.188083 -0.283581 -0.186874 0.808550 0.603833 1.549314 0.254497 -0.038561 0.079805 0.231764 0.667914 -0.099160 0.911857 -0.200898 -0.566061 0.139962 -0.482797 -0.172893 0.558243 -0.399458 0.290465 -0.874353 0.255458 -0.142249 -0.350209 -0.761059 0.102486 0.073617 1.441032 -0.621472 0.174258 0.006096 -1.724034 0.377687 -0.255376 0.260210 -0.824501 1.004909 0.134379 -0.151120 0.156870 0.329200 -0.175384 -0.298565 -1.435823 0.671916 -0.450410 0.344568 -1.164368 -0.009953 -0.011342 0.860184 0.350024 -0.126223 -0.371220 0.603620 -1.284511 -0.029384 0.463837 1.027514 0.167697 -0.001264 0.016486 0.425397 -0.042612 0.178776 -0.750693 0.229842 -1.532367 -0.075292 
扣 -0.110162 0.087722 -0.190807 0.415811 0.183938 -0.407998 -0.059847 -0.390568 -0.370428 -0.193620 -0.024763 -0.440722 0.405756 0.303856 0.094232 -0.053459 0.098155 -0.708056 -0.073990 0.163673 0.490046 -0.110241 -0.071231 -0.506500 -0.398647 -0.293166 -0.203640 -0.537857 -0.479938 0.449126 -0.361680 0.042232 0.201872 0.153636 0.547367 0.186741 0.329851 0.220202 0.614643 0.242346 -0.158790 -0.131941 0.178611 0.075442 0.137707 0.013828 -0.314393 0.398615 -0.338715 -0.331941 0.184690 -0.431871 0.426738 -0.362951 -0.741549 -0.324578 0.085192 -0.064486 -0.215733 0.124766 0.295049 -0.355807 -0.533348 0.331604 -0.262637 -0.667599 -0.956012 0.150245 -0.644439 -0.116997 0.219519 0.249738 0.103046 0.001762 -0.612641 0.635444 -0.043540 0.281862 -0.400507 0.168093 0.385279 0.113972 0.291824 -0.466185 -0.588562 0.282645 0.174902 0.001337 -0.609110 0.146050 -0.016755 0.069288 -0.686288 1.160986 -0.594438 0.221214 -0.042482 -0.041216 -0.071902 0.034240 
金表链 0.218932 0.051642 -0.204518 0.269768 0.324933 -0.357209 -0.066843 -0.221717 -0.354026 0.082549 0.312014 -0.237155 0.281991 0.326591 0.081183 -0.184632 0.153183 -0.544748 -0.136951 0.079432 0.057557 -0.085571 -0.378743 -0.347757 -0.001298 -0.873831 -0.201450 -0.435291 -0.119800 0.281592 -0.187917 -0.051599 0.166332 0.369896 0.414462 0.468193 0.182980 0.216916 0.525086 0.400492 -0.097809 0.034327 0.285882 -0.120939 0.145712 -0.033659 -0.121185 0.188993 -0.061506 -0.144622 0.291072 -0.464150 0.428962 -0.134035 -0.320753 -0.261576 -0.037735 0.013009 -0.216563 -0.066054 0.294800 -0.424783 -0.610239 0.088115 -0.231917 -0.224185 -0.661438 0.308672 -0.410814 -0.023472 0.161676 0.418032 0.016963 -0.219796 -0.459683 0.570648 -0.337846 0.378305 -0.186429 -0.124231 0.081177 0.176235 0.097482 -0.404426 -0.622283 0.320784 -0.050162 -0.050783 -0.395846 0.264228 -0.053305 0.113226 -0.339510 0.846836 -0.529816 0.127856 -0.174354 -0.128438 -0.392496 -0.200627 
圈 0.294971 0.313238 0.528179 0.291416 0.341024 -0.458475 -0.321978 -0.108381 -0.228918 -0.108505 -0.200226 -0.249448 -0.057079 0.713933 -0.320869 -0.083912 0.278165 -1.031177 -0.277170 0.402724 0.030975 0.027756 -0.354342 -0.131733 -0.451593 -0.863493 -0.691896 -0.562867 -0.246264 0.343302 -0.072338 -0.085668 -0.132343 0.773352 0.175711 0.509528 0.379706 0.104081 0.537138 0.259517 -0.254629 0.027947 0.495398 -0.013072 0.102275 -0.370173 -0.260839 0.088987 0.035569 -0.229111 0.422267 -0.679110 0.025129 -0.115562 -0.954809 -0.420223 0.176466 -0.068983 0.355536 0.035025 0.095627 -0.229733 -1.149670 0.090504 -0.255889 -0.100950 -1.006734 0.522316 -0.710157 0.074607 0.136827 0.691992 0.025766 -0.206686 -0.716008 0.955937 -0.049139 0.305495 -0.686171 0.128727 0.205838 0.534478 0.310138 -0.301799 -0.339735 0.211782 -0.507045 0.055238 -0.145484 0.077952 -0.067827 0.017028 -0.209837 1.254139 -0.559407 0.561716 -0.099111 -0.084648 -0.368412 0.129913 
耳钉 0.613534 0.065288 0.269474 0.330366 0.692320 -0.523656 -0.332497 -0.003957 0.030616 -0.089104 0.427937 -0.226090 -0.454453 0.892060 0.038832 -0.506836 0.307190 -0.510959 -0.301743 0.338057 -0.477531 -0.020819 -0.857459 -0.357832 0.167071 -2.021236 -0.772813 -0.670787 -0.283468 0.517836 0.120377 -0.253172 -0.369554 1.215930 0.526547 0.478724 0.410421 0.057556 1.129355 0.737326 -0.370210 0.320524 0.359577 -0.742092 0.243354 -0.716626 -0.062950 0.362354 0.548488 0.226792 0.542758 -0.974529 0.448910 0.145374 -0.328810 -0.475008 0.258175 -0.026957 -0.126266 -0.553002 0.259998 -0.478255 -1.297177 -0.455612 -0.320555 0.208270 -0.755151 0.244628 -0.765343 0.444481 0.113406 1.237707 0.036140 -0.561054 -0.164812 0.609944 -0.678037 0.440287 -0.401378 0.093884 -0.250145 0.475788 -0.101235 -0.316609 -0.822693 -0.145857 -0.055555 0.228437 -0.214068 0.453570 -0.175158 -0.124526 -0.300959 1.741335 -1.120815 0.572821 -0.594068 -0.350517 -0.524288 -0.609813 
普通发圈 -0.095005 0.269918 -0.032965 -0.009863 0.043526 -0.405931 -0.324797 -0.144057 -0.224990 -0.020259 -0.057300 -0.257850 0.236638 0.487579 -0.258198 -0.017116 -0.116872 -0.781550 0.012703 0.353954 -0.159197 -0.128640 -0.219788 0.267876 -0.413959 -0.543472 -0.465995 -0.634077 0.027379 0.018765 -0.042785 -0.302898 -0.241788 0.619788 0.667729 1.222002 0.253974 -0.161184 0.162532 0.237810 0.614311 -0.256888 0.688247 -0.108460 -0.418040 0.060625 -0.533361 0.036170 0.142335 -0.467764 0.296693 -0.757815 0.173314 -0.247327 -0.551769 -0.536615 0.225647 -0.041155 0.927107 -0.259014 0.187455 -0.176857 -1.217028 0.292229 -0.089885 0.010164 -0.770397 0.655186 0.016561 -0.115428 0.152695 0.218044 -0.119265 -0.110074 -1.041604 0.679634 -0.235226 0.164457 -0.863943 0.038369 0.157195 0.640801 0.352527 -0.251938 -0.309564 0.450556 -0.941408 -0.049149 0.220928 0.637788 0.210034 -0.066785 -0.178061 0.476323 -0.165304 0.257663 -0.635105 0.216568 -1.059487 0.052108 
各种钻 0.116782 0.189500 0.089869 0.252385 0.236427 -0.424938 -0.238030 -0.088144 -0.211971 -0.085337 0.203827 -0.411454 0.029544 0.442247 -0.008501 -0.276124 0.279422 -0.727532 -0.266250 0.321762 -0.060998 -0.103344 -0.386209 -0.262948 -0.158181 -0.988930 -0.368684 -0.618674 -0.374535 0.463943 -0.313049 -0.140619 -0.224932 0.661001 0.405013 0.536723 0.337687 -0.060090 0.521467 0.331473 0.011304 -0.043568 0.435302 -0.180999 0.093385 -0.258161 -0.206566 0.301957 -0.126129 -0.095368 0.449588 -0.731856 0.286149 -0.198845 -0.655363 -0.357483 0.121967 -0.153015 0.011408 -0.271472 0.347104 -0.396211 -0.820560 -0.027467 -0.161313 -0.106093 -0.654432 0.207584 -0.417255 0.013370 0.058561 0.572112 0.042841 -0.161872 -0.393661 0.580050 -0.284849 0.176216 -0.335616 0.114921 0.021386 0.474514 0.236138 -0.262518 -0.461123 0.029648 -0.262657 -0.015405 -0.239556 0.386230 0.076386 -0.073999 -0.252436 1.060587 -0.671003 0.422372 -0.306134 -0.102537 -0.465219 -0.131734 
发箍 0.028131 0.362797 0.077486 -0.111802 0.105536 -0.383311 -0.390196 -0.038422 -0.084613 0.003477 -0.204518 -0.186471 0.039412 0.675956 -0.418988 0.002077 -0.186113 -0.770508 0.034238 0.563420 -0.305113 -0.076217 -0.398188 0.382187 -0.382304 -0.731250 -0.584481 -0.704078 0.186214 -0.060035 0.034023 -0.288942 -0.348029 0.820601 0.581886 1.241986 0.254002 -0.145383 0.198976 0.233469 0.549736 -0.165673 0.779528 -0.214965 -0.449538 -0.052914 -0.521625 -0.095046 0.399433 -0.325734 0.291076 -0.811560 0.230596 -0.196653 -0.472603 -0.608882 0.178873 -0.048035 1.163238 -0.427566 0.062160 -0.005742 -1.479094 0.270228 -0.213560 0.162971 -0.711466 0.783586 0.100284 -0.092005 0.128912 0.336807 -0.158002 -0.241907 -1.089801 0.716976 -0.337724 0.230455 -1.005782 0.095910 0.065369 0.713312 0.315869 -0.136196 -0.230876 0.377511 -1.114291 0.033949 0.387210 0.767203 0.170659 -0.043328 -0.008471 0.562216 -0.165783 0.286144 -0.663211 0.204894 -1.162005 -0.037633 
头饰 0.004702 0.386687 0.169116 -0.077944 0.207770 -0.335194 -0.355246 -0.069956 -0.067207 -0.028065 -0.378655 -0.140773 -0.046501 0.761449 -0.597641 0.043930 -0.218866 -0.826837 0.034490 0.612894 -0.311402 0.009492 -0.333373 0.396465 -0.418092 -0.734682 -0.628654 -0.689210 0.169549 -0.065633 0.066383 -0.263595 -0.321580 0.867163 0.521889 1.230331 0.280866 -0.196776 0.211645 0.045384 0.476516 -0.088277 0.859251 -0.214251 -0.453983 -0.150507 -0.586899 -0.186262 0.481454 -0.260460 0.304915 -0.813605 0.208748 -0.221543 -0.493182 -0.671778 0.240954 -0.080715 1.247745 -0.410451 -0.042959 0.096580 -1.566095 0.218945 -0.285335 0.197936 -0.716571 0.800011 0.057817 -0.027347 0.223975 0.348630 -0.166696 -0.290342 -1.047290 0.858180 -0.264524 0.182756 -1.019647 0.109221 0.079347 0.720319 0.317964 -0.053918 -0.187099 0.348990 -1.138119 0.013662 0.421964 0.673883 0.136190 0.020022 0.016437 0.532530 -0.152006 0.305413 -0.574197 0.209796 -1.192499 0.022758 
钥匙扣 0.017488 -0.012020 -0.341755 0.390944 0.326122 -0.357345 -0.097646 -0.390125 -0.461137 -0.026188 0.158656 -0.269104 0.506012 0.161921 0.186598 -0.258679 0.047919 -0.614385 0.053442 0.172807 0.388905 -0.237152 -0.210317 -0.771514 -0.044314 -0.618330 -0.087032 -0.457914 -0.558991 0.401884 -0.433579 -0.005659 0.160118 0.146816 0.504576 0.153818 0.254693 0.178203 0.434119 0.398002 -0.152735 0.001636 0.116257 -0.040622 0.181930 -0.030178 -0.330017 0.452777 -0.288239 -0.080914 0.266216 -0.321654 0.506066 -0.235234 -0.367653 -0.169898 -0.009666 -0.140211 -0.413577 0.072651 0.405408 -0.477686 -0.400873 0.297378 -0.171666 -0.535676 -0.769533 0.090988 -0.673974 -0.056775 0.290449 0.344344 0.242239 -0.151641 -0.456623 0.430075 -0.073322 0.337981 -0.223064 0.028095 0.301920 -0.039474 0.167337 -0.412651 -0.813904 0.148271 0.440842 -0.053472 -0.651350 0.146389 -0.040308 -0.043290 -0.691215 1.052054 -0.529621 0.158019 -0.017586 -0.143762 -0.104799 -0.106819 
布 -0.498992 0.145544 -0.254923 -0.007652 -0.030115 0.143199 -0.018314 -0.085535 -0.389176 -0.005285 -0.187794 0.016619 0.133207 0.536271 -0.034465 0.053722 -0.280755 -0.318342 0.217472 0.124009 0.207542 -0.038836 0.175990 0.122535 -0.367859 0.029856 -0.357829 -0.169939 -0.471951 0.459116 -0.427195 -0.156334 -0.199736 0.224355 0.694945 0.623361 0.053961 -0.487805 -0.081295 -0.118623 0.536610 -0.352984 0.470179 -0.137557 -0.269274 0.039264 -0.599133 0.108450 -0.132500 -0.166189 0.193660 -0.297348 0.289676 -0.351557 -0.368493 -0.172630 0.350200 -0.069930 0.272713 0.124276 0.057949 -0.033633 -0.507172 0.077107 0.027913 -0.004229 -0.238883 0.194963 -0.051002 0.026357 0.226411 -0.183174 -0.017461 0.187462 -0.402943 0.368063 0.015475 -0.038926 -0.255031 -0.117248 -0.009730 0.038039 0.051490 -0.088525 -0.070741 0.462309 -0.019148 -0.171201 -0.118489 -0.080009 -0.015874 -0.357873 -0.129850 0.323685 0.003950 0.023496 -0.552047 0.141572 -0.679813 0.038825 
纸 -0.486500 0.065169 -0.515301 0.330052 0.376895 0.251427 0.300370 -0.102756 -0.450119 0.080387 -0.457793 0.312482 0.262143 0.342529 -0.165455 0.162588 -0.247785 -0.154162 0.396654 0.333296 0.318948 -0.152782 0.158189 -0.131351 -0.042766 0.001268 -0.197167 0.130136 -0.298133 0.284391 -0.430191 -0.020998 -0.070134 -0.218238 0.383102 0.119104 -0.084216 -0.188947 0.051762 -0.218496 0.190674 -0.244972 0.330149 -0.025690 -0.103106 -0.051920 -0.625655 -0.000993 -0.088689 0.018544 0.099239 0.012734 0.157819 -0.264617 -0.055947 -0.080466 0.249930 -0.044874 0.269852 0.178890 0.000441 0.034527 -0.085491 0.092339 -0.250675 -0.078650 -0.080747 0.114141 -0.201363 0.079460 0.324324 -0.114197 0.035030 -0.140779 -0.278168 0.344406 0.109268 0.151825 -0.098161 -0.251409 -0.038725 -0.165111 -0.112123 0.062902 -0.270552 0.309321 0.358067 -0.147707 -0.485031 -0.264773 -0.321680 -0.067650 -0.192603 -0.034046 0.087125 -0.244577 -0.038713 0.004479 -0.454072 -0.068503 
工艺品 -0.361265 0.052331 -0.533443 0.368821 0.444109 0.149709 0.096193 -0.099087 -0.394029 0.124637 -0.086526 -0.000830 0.321120 0.223079 0.269567 -0.004200 -0.111108 -0.499350 0.043037 0.014304 0.473502 -0.191355 0.137119 -0.394926 -0.213070 -0.195540 0.004295 -0.116470 -0.436217 0.676665 -0.750349 -0.012446 -0.034646 -0.097326 0.431660 0.079017 0.173884 -0.316038 0.186871 0.052913 0.008337 -0.267624 0.234501 0.017390 0.010888 0.045279 -0.533468 0.340971 -0.283702 -0.082752 0.258161 0.004740 0.358047 -0.191572 -0.475012 0.089061 0.268893 -0.045032 -0.175798 0.411626 0.226183 -0.164649 -0.088623 0.157879 -0.390312 -0.369211 -0.501298 0.078115 -0.709274 0.096754 0.385122 0.121644 0.156511 0.053839 -0.248662 0.248801 0.062220 0.218849 -0.288817 0.103993 0.137575 -0.048530 0.105481 -0.017825 -0.567272 0.357151 0.435554 -0.213681 -0.697695 -0.302032 -0.193420 -0.187973 -0.375511 0.539448 -0.320318 0.096489 -0.127236 -0.253067 -0.247785 0.096510 
西服裙 -0.392634 0.210442 0.351114 0.532206 0.219822 0.677081 0.573112 0.363939 0.171870 -0.493062 -1.547663 0.555923 -0.283341 0.218137 -0.967579 0.518211 -0.410135 0.172005 0.839543 0.901728 0.394306 0.552752 0.246057 0.145997 -0.232015 0.216042 -0.259311 0.261606 -0.383363 0.240207 0.069894 0.293184 -0.622336 0.010536 -0.226731 -0.730392 -0.089086 -0.565007 0.167263 -1.021140 -0.198656 -0.535010 0.248539 0.039847 -0.257502 -0.338846 -0.889843 -0.196430 0.703422 0.686802 -0.198655 0.064074 0.312962 -0.096684 0.335788 -0.351216 0.503655 -0.719217 0.965957 0.281950 -0.616386 0.770323 -0.473369 -0.097858 -0.836956 0.082767 0.267249 0.151970 -0.429922 0.343762 0.849629 -0.018745 0.026763 -0.527511 0.024055 0.857391 0.536822 0.235179 -0.878273 0.437446 0.248991 -0.190428 -0.563082 0.419840 -0.134977 0.127776 0.714526 -0.059115 -0.007069 -0.603417 -0.297033 0.214843 0.095180 0.312512 0.388400 -0.081640 0.105147 0.305309 -0.418412 0.086602 
塑料镜盒 -0.423388 -0.003814 -0.784626 0.426801 0.669433 0.101877 0.339494 -0.226442 -0.690661 0.049507 -0.502852 0.380455 0.588610 0.361167 -0.058428 0.131747 -0.260970 -0.578552 0.187506 0.331659 0.715968 -0.292863 0.185296 -0.160714 -0.172196 0.048656 0.038236 -0.017832 -0.199417 0.231291 -0.285132 0.034273 0.089942 -0.259447 0.385068 0.187777 0.160333 0.083247 0.084253 -0.012909 0.057879 -0.213906 0.310128 0.230317 -0.056414 0.220328 -0.276336 -0.020937 -0.313956 -0.271739 0.121495 0.136090 0.009906 -0.433676 -0.482304 -0.133129 0.291746 0.132933 0.127593 0.448028 0.108142 -0.210842 -0.155974 0.187210 -0.176715 -0.303958 -0.492617 0.206969 -0.402718 -0.110874 0.233409 -0.105608 0.126075 0.018045 -0.536385 0.387691 0.046685 0.277962 -0.294186 -0.206509 0.099245 -0.055728 -0.031021 -0.245286 -0.326075 0.554653 0.292773 -0.138054 -0.769195 -0.197614 -0.267773 0.152035 -0.202122 0.280280 -0.069915 -0.136589 0.060599 -0.030710 -0.262203 0.091865 
钱包 -0.503132 -0.283052 -1.439381 0.154445 -0.004714 0.342894 -0.060644 -0.362953 -0.055184 0.677374 -0.029635 0.847647 0.194128 0.734482 0.307149 -0.404762 -0.999529 1.141367 0.944530 0.288528 -0.508893 -0.006310 -0.400235 -0.023767 0.457516 -0.335454 -0.157537 0.314553 -0.470724 0.188198 -0.898749 -0.292369 -0.588928 0.072256 1.702916 0.906360 -0.362989 -1.057645 -0.400639 0.144295 1.365287 0.010290 0.398669 -0.939901 -0.811882 -0.062260 -0.497518 0.244224 0.680923 0.339295 -0.228082 -0.423373 1.042384 -0.229602 1.472995 -0.136517 0.614588 -0.032742 0.005007 -0.173347 0.261706 -0.029596 -0.525424 -0.063463 0.026736 0.099776 0.348632 0.009038 0.737739 0.474846 0.220461 -0.331431 0.176956 -0.765326 -0.165593 -1.099308 -0.790658 0.123834 -0.216794 -0.062414 -0.270205 -0.382048 -0.427199 -0.086966 -0.774748 0.268076 0.707928 -0.082409 -0.034512 0.488978 0.177769 -0.515072 -0.497285 -0.085528 -0.363839 -0.049243 -1.328488 -0.134003 -1.318946 -0.380370 
手镯 0.546620 0.036151 0.182072 0.431637 0.792279 -0.686734 -0.289578 -0.188233 -0.009596 0.088927 0.303198 -0.159475 -0.425679 1.067160 0.089808 -0.477746 0.154285 -0.613717 -0.333757 0.469176 -0.331246 -0.034893 -0.967295 -0.434218 0.251740 -2.040487 -0.744072 -0.686613 -0.227232 0.630489 -0.093871 -0.169913 -0.175670 1.120400 0.267929 0.346023 0.455481 0.317444 1.008935 0.772811 -0.437611 0.483211 0.156325 -0.608781 0.325988 -0.694431 -0.031000 0.306336 0.493023 0.163811 0.513151 -0.911015 0.488540 0.156606 -0.259263 -0.407699 0.030787 -0.028452 -0.310385 -0.557438 0.408092 -0.551142 -1.076228 -0.429263 -0.345413 0.081338 -0.736402 0.180814 -0.755274 0.264020 -0.050955 1.253277 0.000429 -0.573018 -0.049411 0.501883 -0.613219 0.482539 -0.317700 0.052850 -0.272534 0.500984 -0.019333 -0.311105 -0.855093 -0.177769 -0.020080 0.176909 -0.168235 0.512617 -0.218960 -0.028044 -0.259471 1.788108 -1.140523 0.473910 -0.463000 -0.358369 -0.307706 -0.600969 
珠 0.093480 -0.018621 -0.046473 0.534788 0.531445 -0.494129 0.063527 -0.184856 -0.505326 -0.012705 0.290810 -0.332329 0.063904 0.432243 0.354172 -0.293222 0.175096 -0.897482 -0.463451 0.205295 0.531868 -0.235587 -0.277662 -0.616925 -0.161737 -1.036985 -0.359189 -0.392260 -0.812185 0.802585 -0.591742 0.009122 0.023994 0.514875 0.281784 -0.004959 0.466308 0.177498 0.595984 0.469266 -0.370616 0.084031 0.065104 -0.079733 0.338977 -0.395576 -0.249074 0.510460 -0.414639 -0.075391 0.470058 -0.336144 0.292706 -0.276173 -0.829076 -0.130431 0.087197 -0.054111 -0.584871 0.146276 0.389344 -0.669679 -0.408536 -0.055331 -0.256973 -0.368559 -0.759432 0.045655 -1.039372 -0.079229 0.053698 0.705049 0.153457 -0.058157 -0.083603 0.606880 -0.134639 0.318729 -0.143555 -0.063865 0.094788 0.150542 0.093510 -0.472017 -0.719175 0.056603 0.351766 -0.014695 -0.934215 -0.109293 -0.152746 -0.094816 -0.417889 1.530025 -0.916443 0.550552 -0.020135 -0.324661 0.136812 -0.122652 
书包 -0.413865 -0.277126 -1.389768 0.208477 -0.086907 0.506825 -0.105539 -0.308703 0.073573 0.600464 -0.048551 0.953613 0.166236 0.738308 0.583464 -0.257664 -1.010182 0.915837 0.883679 0.294550 -0.513318 -0.155066 -0.611952 -0.163306 0.555391 -0.492000 -0.220488 0.344860 -0.505053 0.243872 -0.949403 -0.255782 -0.622914 0.264028 1.564984 0.747395 -0.389010 -0.946182 -0.253904 0.130381 1.346856 0.200871 0.472760 -1.012163 -0.781583 -0.091020 -0.653913 0.398406 0.569482 0.401837 -0.177995 -0.360376 1.045328 -0.164854 1.571287 -0.138752 0.793299 -0.049840 0.101582 -0.224384 0.279387 -0.139497 -0.307491 -0.020880 0.098434 0.252291 0.441984 0.030699 0.590600 0.439338 0.007708 -0.223604 0.058841 -0.816933 0.009131 -1.278920 -0.702545 0.125945 -0.085595 -0.300240 -0.468976 -0.355359 -0.610921 0.007328 -0.999423 0.326312 0.821028 0.007875 -0.116489 0.491138 -0.207015 -0.358996 -0.340995 -0.280441 -0.301005 -0.231751 -1.160544 -0.062246 -1.379052 -0.578711 
吊坠 0.521024 0.020269 0.286976 0.518870 0.758570 -0.622775 -0.218628 -0.106471 -0.064378 -0.072464 0.237883 -0.222878 -0.415553 0.947698 0.047404 -0.411288 0.240274 -0.691006 -0.378848 0.448178 -0.171578 -0.004771 -0.908517 -0.507423 0.196445 -1.971748 -0.723483 -0.637938 -0.435523 0.773877 -0.197356 -0.073096 -0.214095 1.076358 0.232004 0.142804 0.445301 0.277153 1.049391 0.643513 -0.579494 0.431127 0.141381 -0.548449 0.380965 -0.788247 -0.129673 0.373955 0.385188 0.315315 0.519051 -0.869514 0.473176 0.087886 -0.384783 -0.362617 0.002634 -0.123259 -0.402179 -0.476161 0.344733 -0.518711 -0.999219 -0.427720 -0.479649 -0.005197 -0.744463 0.190249 -0.911978 0.234551 0.060146 1.247225 0.051854 -0.575186 -0.003580 0.640968 -0.481455 0.431234 -0.285651 0.162748 -0.156077 0.421397 -0.022429 -0.288987 -0.852307 -0.279925 0.198405 0.209495 -0.390443 0.371812 -0.251489 0.000992 -0.332166 1.884407 -1.214957 0.526791 -0.326207 -0.342229 -0.164469 -0.557307 
头带 0.006601 0.331520 0.214652 -0.026663 0.163837 -0.442960 -0.339432 -0.045858 -0.189099 -0.039368 -0.056057 -0.347398 0.063293 0.539133 -0.177597 -0.074686 -0.026785 -1.009150 -0.215684 0.294398 -0.053083 -0.071126 -0.200473 0.156010 -0.502569 -0.563804 -0.499391 -0.654153 -0.102842 0.159937 -0.100175 -0.251463 -0.229589 0.716824 0.487173 0.984103 0.355748 -0.147944 0.273132 0.233473 0.353560 -0.218763 0.665910 -0.090672 -0.260054 -0.090761 -0.525652 0.082653 0.022971 -0.386360 0.409700 -0.666665 0.114228 -0.255476 -0.826450 -0.444958 0.159032 -0.053266 0.784113 -0.175845 0.111085 -0.220562 -1.225507 0.234725 -0.192261 -0.021189 -0.863963 0.607318 -0.222311 -0.102976 0.210928 0.330310 -0.107688 -0.065607 -0.858393 0.869612 -0.163950 0.147233 -0.826995 0.060477 0.117522 0.595086 0.330082 -0.222190 -0.296070 0.309677 -0.838129 -0.009344 0.067242 0.397753 0.167043 -0.087780 -0.153863 0.695485 -0.285725 0.396687 -0.451683 0.123579 -0.771192 0.114984 
摆件 -0.207698 0.001546 -0.523338 0.460203 0.488402 0.077574 0.220790 -0.128710 -0.636025 0.062772 -0.047098 -0.015822 0.417524 0.031442 0.372574 -0.078955 -0.119405 -0.658840 -0.042869 0.034565 0.782930 -0.239904 0.247077 -0.534303 -0.294734 -0.113770 0.050674 -0.067814 -0.756627 0.737582 -0.874246 0.055043 0.017055 -0.097964 0.475832 -0.053805 0.199663 -0.240699 0.232278 -0.029321 -0.037378 -0.329250 0.242763 0.135870 0.055648 0.056846 -0.604685 0.411447 -0.560465 -0.170302 0.312100 0.090488 0.270929 -0.363800 -0.704385 0.098936 0.312434 -0.052924 -0.252304 0.604587 0.219920 -0.329643 -0.152594 0.198017 -0.467100 -0.531607 -0.631037 0.157249 -0.926987 0.053184 0.546061 0.076341 0.229791 -0.013285 -0.245424 0.537871 0.163593 0.206331 -0.315558 0.023924 0.267159 -0.257094 -0.024851 -0.233688 -0.756395 0.401463 0.764619 -0.228221 -1.138883 -0.523279 -0.203263 -0.083566 -0.531746 0.786202 -0.443801 0.212737 0.021586 -0.264078 -0.035805 0.184063 
水晶 0.061544 0.001607 0.010042 0.320481 0.328211 -0.218103 -0.115722 -0.093998 -0.034402 0.038686 0.145637 -0.245613 -0.264588 0.499802 0.155422 -0.270536 -0.004167 -0.327216 -0.181335 0.094271 -0.014745 -0.001655 -0.350294 -0.214913 -0.037899 -0.830627 -0.420059 -0.295969 -0.352148 0.628806 -0.426797 -0.059209 -0.194288 0.483928 0.306274 0.096063 0.257554 -0.058273 0.542965 0.263298 -0.167183 0.147471 0.225450 -0.350762 0.160130 -0.439815 -0.305009 0.280825 0.086513 0.155512 0.322677 -0.400147 0.323208 -0.091606 -0.306680 -0.180587 0.149442 -0.109927 -0.258598 -0.133247 0.168609 -0.246341 -0.472323 -0.214654 -0.246742 -0.123598 -0.454391 0.063856 -0.503870 0.161433 0.015763 0.513994 0.055404 -0.265900 0.000324 0.281162 -0.212431 0.254003 -0.201118 0.054853 -0.058124 0.181916 -0.012516 -0.070890 -0.504959 0.010894 0.171211 0.018438 -0.244835 0.068739 -0.289549 -0.095212 -0.260154 1.121490 -0.743463 0.374440 -0.282774 -0.195129 -0.211966 -0.271627 
戒指 0.468142 0.040170 0.190189 0.359338 0.576590 -0.472004 -0.314980 -0.070851 -0.043434 0.002909 0.310382 -0.187247 -0.298486 0.850084 0.096439 -0.469836 0.148737 -0.475802 -0.312183 0.368680 -0.319656 -0.052442 -0.815546 -0.428275 0.224661 -1.705752 -0.634632 -0.572865 -0.268191 0.551971 -0.125622 -0.126617 -0.181577 0.972921 0.353690 0.335182 0.343328 0.099366 0.854469 0.628681 -0.303970 0.341777 0.169494 -0.584125 0.249940 -0.601576 0.024614 0.328773 0.341985 0.232514 0.380059 -0.819581 0.436513 0.113362 -0.192009 -0.310645 0.103888 -0.110173 -0.246565 -0.460646 0.376403 -0.491006 -0.916468 -0.421539 -0.323894 0.076628 -0.592182 0.207112 -0.649988 0.263725 0.073852 1.062814 0.034694 -0.509242 -0.064915 0.448575 -0.589978 0.379052 -0.305965 0.062598 -0.219679 0.429688 -0.019786 -0.279842 -0.882976 -0.176088 0.114701 0.122291 -0.263827 0.406707 -0.165463 -0.061091 -0.282038 1.589143 -1.056460 0.502416 -0.485893 -0.304926 -0.385770 -0.460131 
男童恤 -0.336247 0.174127 0.267267 0.486565 0.138516 0.642408 0.442130 0.286357 0.233171 -0.386264 -1.373549 0.531071 -0.193635 0.227415 -0.855477 0.442323 -0.375082 0.226089 0.903670 0.942137 0.350143 0.461659 0.081916 0.089814 -0.162030 0.157097 -0.184984 0.185793 -0.416622 0.158392 -0.000370 0.283781 -0.630642 0.029094 -0.068199 -0.579237 -0.103125 -0.584111 0.144099 -0.841596 -0.081514 -0.521054 0.266665 -0.008195 -0.295007 -0.330023 -0.757190 -0.099719 0.661254 0.606747 -0.151898 0.067626 0.357543 -0.080788 0.439506 -0.346688 0.535174 -0.690362 0.940540 0.208256 -0.478925 0.701269 -0.372557 -0.084574 -0.758874 0.145396 0.323813 0.138404 -0.376508 0.292846 0.702891 0.041401 0.001509 -0.461630 -0.015968 0.602664 0.384709 0.263014 -0.864675 0.413158 0.303814 -0.100295 -0.408639 0.360850 -0.242748 0.103851 0.593760 -0.071708 0.012019 -0.482023 -0.186859 0.143510 0.120913 0.209986 0.415489 -0.169331 0.041512 0.273196 -0.506124 0.132883 
礼品 -0.382903 -0.002426 -0.623094 0.415505 0.541710 0.220637 0.245480 -0.133773 -0.481962 0.036146 -0.259795 0.128563 0.354054 0.180098 0.239726 -0.037906 -0.169209 -0.430049 0.125134 -0.029177 0.588781 -0.190202 0.228153 -0.356545 -0.204906 0.042457 -0.017954 0.045317 -0.512777 0.608264 -0.684514 0.027415 -0.097086 -0.198672 0.490066 -0.016453 0.105279 -0.260829 0.185721 -0.102261 0.035279 -0.245013 0.278145 -0.002108 -0.004994 -0.016318 -0.619259 0.238283 -0.359513 -0.026962 0.229554 0.137612 0.312632 -0.367785 -0.459309 0.036738 0.323364 -0.083742 -0.095295 0.505753 0.099618 -0.120729 -0.157861 0.105776 -0.370602 -0.409206 -0.454340 0.088066 -0.632200 0.065115 0.469436 0.004644 0.159101 -0.115082 -0.292757 0.396386 0.143360 0.288678 -0.357559 -0.019012 0.121868 -0.210470 -0.037023 -0.071397 -0.671375 0.417568 0.623457 -0.189248 -0.839223 -0.491682 -0.268910 -0.150841 -0.366732 0.482419 -0.240020 0.085302 -0.013561 -0.197375 -0.173207 0.110184 
工具 -0.156005 -0.230837 -0.754732 0.189096 0.476814 0.100820 0.441321 -0.041566 -0.431997 -0.012010 -0.803554 0.658492 1.002219 -0.310916 -0.449960 0.293878 -0.252228 -0.384689 0.373279 0.717807 0.509146 -0.782007 0.154680 -0.389654 0.243219 -0.074774 0.383752 0.207482 -0.249322 -0.324923 -0.053693 0.138450 0.161543 -0.253143 0.218387 0.348010 -0.227118 -0.085643 -0.512351 -0.324284 0.394315 -0.307710 0.300395 0.134596 -0.473170 0.330514 -0.160676 -0.074685 -0.183446 -0.331110 -0.192413 0.057272 -0.077693 -0.330396 0.476615 -0.382983 0.352133 0.054920 0.833229 0.111907 0.366585 -0.452116 -0.377912 0.240554 -0.393344 -0.074531 -0.142652 0.501510 -0.520122 0.004612 0.767824 0.144883 0.204060 -0.615903 -0.268059 0.408240 0.269403 0.007417 -0.638663 -0.045608 0.353598 -0.333162 -0.312139 -0.197609 -0.994296 0.245303 0.675070 -0.291949 -1.058811 0.035187 0.047024 0.474556 -0.174731 -0.419632 0.461537 -0.185725 0.342334 0.163041 -0.810274 0.344857 
勺 -0.413545 -0.158508 -0.741472 0.349759 0.586008 0.100268 0.511250 -0.045286 -0.596026 0.136153 -0.490615 0.450474 0.557260 0.243634 0.161616 0.113615 -0.336163 -0.383889 0.179743 0.340550 0.652101 -0.480661 0.177809 -0.438258 0.134518 -0.010605 0.208586 0.158115 -0.215728 0.237484 -0.383851 0.003875 0.041651 -0.356624 0.294837 0.094162 0.091133 0.040574 -0.005234 0.104683 -0.170431 -0.106801 0.078336 0.039470 0.137892 0.066880 -0.440327 0.108533 -0.218752 -0.112676 0.062121 0.335123 0.126030 -0.404030 -0.128182 -0.091066 0.234218 0.117294 -0.157589 0.501740 0.053905 -0.199566 -0.038698 0.215055 -0.409313 -0.433134 -0.388588 0.145066 -0.620373 -0.016479 0.362570 0.058660 0.290183 -0.049267 -0.265924 0.258634 0.117708 0.544764 -0.233598 -0.075292 0.033319 -0.331433 -0.165678 -0.085966 -0.601003 0.460784 0.779545 -0.251365 -1.066298 -0.305622 -0.289595 0.074686 -0.235899 0.247980 -0.015936 -0.073433 0.027779 -0.185311 -0.170217 0.070333 
儿童印花恤 -0.275136 0.188867 0.155296 0.369201 0.175373 0.517126 0.348033 0.212657 0.213598 -0.376508 -1.308549 0.414348 -0.358450 0.365927 -0.950215 0.478499 -0.391417 0.011051 0.711300 0.887862 0.192407 0.586796 0.146239 0.326289 -0.282113 0.103523 -0.399471 0.059016 -0.290700 0.217776 -0.081904 0.178059 -0.544794 0.216335 -0.017979 -0.348345 -0.091736 -0.577110 0.160318 -0.909909 -0.070507 -0.361707 0.403059 -0.087319 -0.334164 -0.392152 -0.880978 -0.277052 0.685842 0.528070 -0.079978 -0.081675 0.222106 -0.222437 0.168238 -0.410368 0.449935 -0.514553 0.995977 0.131770 -0.597629 0.837207 -0.609427 -0.051873 -0.613020 0.155700 0.102278 0.173015 -0.131290 0.247401 0.583224 -0.093412 -0.021163 -0.387163 -0.189230 0.720396 0.401493 0.085865 -0.731035 0.460201 0.247241 -0.015900 -0.288843 0.453043 0.158491 0.030751 0.220587 -0.046811 0.179199 -0.365024 -0.192954 0.248973 0.078151 0.281639 0.323763 -0.031590 0.119598 0.333176 -0.499687 0.072509 
九分裤 -0.239816 0.142342 -0.074513 0.354120 0.521502 0.527312 0.494969 0.159313 0.378594 -0.279008 -1.584232 0.578148 -0.646401 0.550385 -1.121941 0.606317 -0.536590 0.068326 0.739187 1.033466 0.096518 0.604887 0.040995 0.390588 -0.167683 -0.072112 -0.557088 0.100888 -0.028391 0.236810 -0.131531 0.161895 -0.502235 0.283861 -0.240038 -0.525689 -0.134597 -0.401904 0.291008 -0.989118 -0.342273 -0.005249 0.390890 -0.247221 -0.252680 -0.540471 -0.897280 -0.557043 1.066266 0.758397 -0.193194 -0.024503 0.184859 -0.281353 0.179494 -0.500965 0.460730 -0.360133 1.041421 -0.074518 -0.804572 1.010755 -0.795875 -0.091164 -0.856893 0.147338 0.033957 0.316232 -0.071179 0.303140 0.589042 -0.082071 0.087457 -0.746780 -0.207914 0.768480 0.264336 0.159809 -0.776201 0.778791 0.041734 -0.072567 -0.413894 0.705574 0.155668 -0.086881 0.248216 0.091941 0.106632 -0.253362 -0.573101 0.563181 0.106370 0.496812 0.061388 0.031958 0.324239 0.323381 -0.428840 -0.244348 
剪刀 -0.012885 -0.189497 -0.571203 0.050213 0.319842 0.004341 0.448635 -0.048322 -0.414380 -0.157543 -0.712440 0.458527 1.043836 -0.452734 -0.540904 0.366890 -0.259151 -0.475304 0.373542 0.788176 0.552989 -0.648026 0.190989 -0.410658 0.255319 -0.060435 0.419262 0.103545 -0.238135 -0.324457 0.020014 0.129522 0.182717 -0.273042 0.185979 0.350232 -0.213749 -0.116421 -0.411908 -0.334890 0.343076 -0.335020 0.307791 0.113969 -0.548751 0.371832 -0.290301 -0.070891 -0.231067 -0.205244 -0.270753 -0.027940 -0.032277 -0.469558 0.481810 -0.457116 0.301611 -0.031991 0.829811 0.189221 0.257364 -0.432490 -0.403553 0.298405 -0.473502 -0.142318 -0.176046 0.520814 -0.542480 0.040536 0.898377 0.075510 0.188913 -0.607324 -0.437955 0.438577 0.327978 -0.013678 -0.699547 0.073714 0.410886 -0.367681 -0.284388 -0.174970 -0.968609 0.292499 0.765380 -0.307744 -1.041694 0.116521 0.139839 0.652997 -0.226001 -0.315671 0.465499 -0.121455 0.378917 0.223818 -0.837441 0.417220 
毛绒玩具 -0.387216 -0.080361 -0.600019 0.308997 0.197885 0.184397 0.262901 -0.096244 -0.373638 0.153619 0.035150 0.325117 0.235004 0.136981 0.531421 -0.162970 -0.335521 0.092822 0.209701 -0.142148 0.452956 -0.183339 0.056194 -0.341941 -0.057725 0.122947 -0.064548 0.268659 -0.620433 0.562473 -0.663907 0.100675 -0.001861 -0.221856 0.543806 -0.101678 0.042053 -0.339821 0.015059 0.131510 0.251708 -0.181743 0.005811 -0.089117 -0.040566 -0.032219 -0.349805 0.411873 -0.257447 -0.025638 0.079069 0.202128 0.352475 -0.232224 -0.063902 0.136646 0.459220 -0.117155 -0.430717 0.555156 0.145848 -0.372196 0.017332 0.072445 -0.302180 -0.401978 -0.140778 0.177838 -0.601426 0.248355 0.470298 -0.153056 0.336456 -0.375135 -0.090881 0.047402 -0.150482 0.237194 -0.143607 -0.100303 0.145269 -0.431292 -0.345352 -0.282249 -0.965459 0.452704 1.153879 -0.194341 -0.969896 -0.539602 -0.436610 -0.171712 -0.438494 0.501383 -0.490064 0.271522 -0.223291 -0.091154 -0.136281 -0.016551 
化妆包 -0.388609 -0.249247 -1.294983 0.213221 0.000098 0.365538 -0.056862 -0.310899 -0.049352 0.544275 -0.025795 0.775138 0.163096 0.655781 0.337401 -0.332479 -0.904062 0.958353 0.824110 0.281987 -0.431616 -0.091318 -0.423530 -0.105154 0.433426 -0.360086 -0.161440 0.236583 -0.462458 0.257291 -0.846171 -0.247714 -0.495809 0.100449 1.433619 0.769971 -0.330925 -0.906732 -0.286503 0.139449 1.197140 0.038258 0.379107 -0.816311 -0.703764 -0.043848 -0.481923 0.251155 0.599685 0.355693 -0.184093 -0.382448 0.923726 -0.276819 1.311908 -0.110762 0.589864 -0.060557 0.044035 -0.201944 0.259194 -0.032243 -0.382081 -0.100117 0.013844 0.123758 0.303549 0.012993 0.665722 0.368470 0.152661 -0.219230 0.117193 -0.685625 -0.117883 -1.008434 -0.694674 0.092189 -0.127473 -0.057207 -0.347024 -0.348785 -0.399759 -0.038229 -0.751540 0.257278 0.689302 -0.097395 -0.053594 0.459739 0.067430 -0.384143 -0.433631 -0.083411 -0.322359 -0.118277 -1.091410 -0.101093 -1.227335 -0.385653 
灯具 -0.168056 -0.103258 -0.380468 0.378263 0.355400 -0.086032 0.268015 -0.160991 -0.576101 -0.019130 -0.002668 0.103320 0.447641 0.027459 0.271184 -0.077311 -0.067782 -0.435466 -0.038277 0.078890 0.708118 -0.380097 0.110836 -0.485235 -0.189801 -0.134870 -0.021628 -0.047501 -0.697069 0.462719 -0.571158 0.026559 0.083991 -0.138106 0.410701 -0.054665 0.210298 0.032026 0.194799 0.182678 0.003393 -0.175119 0.087379 0.122825 0.114098 -0.003763 -0.310496 0.413505 -0.434800 -0.221476 0.214265 0.133305 0.097782 -0.350174 -0.464157 0.025556 0.285312 -0.013128 -0.319411 0.482715 0.339820 -0.525864 -0.093080 0.176464 -0.150617 -0.465934 -0.520264 0.156304 -0.839687 0.077923 0.417344 0.119298 0.281182 -0.128983 -0.174972 0.363000 0.016807 0.251758 -0.213489 -0.064722 0.271267 -0.254772 -0.154294 -0.381624 -0.840815 0.347541 0.775640 -0.122290 -1.105369 -0.367905 -0.300611 -0.075142 -0.476335 0.722007 -0.393734 0.205618 0.131290 -0.095144 0.005259 0.043873 
箱 -0.340051 -0.172940 -0.895208 0.286525 0.245058 0.264085 0.187913 -0.275440 -0.228697 0.293803 -0.258797 0.500903 0.229699 0.370521 0.143767 -0.046086 -0.467744 0.248469 0.519032 0.266573 0.015314 -0.194503 -0.057379 -0.206845 0.183438 -0.114876 -0.051207 0.111572 -0.306892 0.264069 -0.559767 -0.048998 -0.176278 -0.127328 0.675259 0.272574 -0.097734 -0.304550 -0.107788 -0.001063 0.546040 0.020962 0.318896 -0.299888 -0.309739 0.037850 -0.454119 0.154530 0.193231 0.124146 -0.068830 -0.085745 0.448187 -0.251227 0.543593 -0.056637 0.389981 0.025673 0.128282 0.081513 0.169118 -0.100982 -0.155333 0.042848 -0.118211 -0.045041 -0.071986 0.084327 0.035806 0.149475 0.231475 -0.102339 0.092452 -0.391420 -0.185007 -0.342380 -0.204491 0.141705 -0.128706 -0.095470 -0.127913 -0.214012 -0.238578 -0.010789 -0.547039 0.253577 0.528287 -0.064843 -0.384508 0.048466 -0.227815 -0.130231 -0.254107 -0.068649 -0.079694 -0.241821 -0.381300 -0.085863 -0.712271 -0.224550 
女童套装 -0.343199 0.149812 0.178110 0.365328 0.157525 0.620887 0.450699 0.257059 0.157051 -0.328550 -1.257088 0.606102 -0.113769 0.212660 -0.699234 0.376824 -0.395685 0.261070 0.800868 0.827098 0.309663 0.347803 0.102706 0.116968 -0.098545 0.172171 -0.122747 0.219721 -0.274886 0.112723 0.048063 0.233430 -0.524200 -0.039099 -0.034664 -0.491072 -0.103758 -0.510531 0.031820 -0.775072 0.011234 -0.488022 0.244043 -0.028754 -0.246440 -0.243382 -0.673381 -0.143552 0.579277 0.529888 -0.207897 0.055421 0.338456 -0.081278 0.497614 -0.305900 0.492473 -0.575249 0.801800 0.229316 -0.432564 0.595706 -0.394298 -0.073848 -0.682809 0.145830 0.229762 0.167883 -0.289411 0.296412 0.707444 -0.018119 0.006088 -0.448114 -0.034319 0.479548 0.345038 0.239652 -0.786614 0.322285 0.215126 -0.152108 -0.467018 0.307696 -0.284020 0.145873 0.588164 -0.075354 0.016100 -0.416191 -0.199900 0.129889 0.115487 0.064228 0.414277 -0.169173 -0.005502 0.274107 -0.520138 0.141860 
球玩具 -0.308224 -0.034234 -0.495563 0.426766 0.363406 0.190161 0.328637 -0.084174 -0.350769 0.089583 -0.126730 0.347970 0.121683 0.161314 0.355381 -0.043763 -0.226840 -0.017660 0.188824 0.044457 0.467993 -0.090558 0.043629 -0.360855 -0.141342 0.072649 -0.198365 0.208568 -0.592480 0.526506 -0.608429 0.106806 0.014286 -0.113356 0.343728 -0.264910 0.135051 -0.237319 0.070289 0.001410 -0.008927 -0.165778 -0.058498 -0.033967 0.086618 -0.091977 -0.271227 0.315785 -0.211533 0.031768 0.055270 0.218900 0.220661 -0.190887 -0.201265 0.079877 0.360564 -0.099911 -0.347417 0.548253 0.087152 -0.186632 0.059219 0.050907 -0.315415 -0.385943 -0.194859 0.115458 -0.729480 0.199326 0.404838 0.009924 0.300081 -0.301010 -0.093997 0.173498 0.007080 0.222000 -0.195266 0.005092 0.167866 -0.376216 -0.282548 -0.153224 -0.779813 0.365885 1.011367 -0.055391 -0.888022 -0.566465 -0.421319 -0.091908 -0.416386 0.692779 -0.445978 0.262412 0.006759 -0.072320 0.063137 -0.047384 
女袜 -0.197001 0.121088 -0.240831 0.259198 0.640615 0.460418 0.569451 0.164871 0.360930 -0.367787 -1.455505 0.464100 -0.635914 0.398318 -0.989357 0.623971 -0.537602 0.028853 0.513899 0.833253 0.157449 0.553952 0.094788 0.383426 -0.150148 -0.076946 -0.577627 0.108424 0.137389 0.180345 -0.139432 0.248394 -0.419843 0.223824 -0.185444 -0.435988 -0.115920 -0.249748 0.423611 -1.061779 -0.348602 0.049702 0.592517 -0.278444 -0.364088 -0.469102 -1.048803 -0.656727 0.873485 0.698893 -0.246634 -0.050059 0.220819 -0.374117 0.129146 -0.505664 0.537338 -0.211417 0.996116 -0.027002 -0.881068 0.881824 -1.040154 -0.079529 -0.937920 0.059938 -0.190132 0.406086 -0.097365 0.419021 0.663495 -0.043757 0.021979 -0.888746 -0.290304 1.006697 0.409661 0.179576 -0.866342 0.687660 -0.020150 -0.194061 -0.509587 0.465003 -0.017421 -0.032893 0.390348 0.196698 -0.078132 -0.214450 -0.710853 0.687298 -0.005660 0.487801 -0.096427 0.026607 0.187996 0.432484 -0.475291 -0.280487 
塑料巧板 -0.275926 -0.073806 -0.549542 0.331861 0.402769 0.106875 0.252259 -0.111432 -0.358156 0.111243 -0.100738 0.293800 0.186471 0.249164 0.304063 -0.059575 -0.224843 -0.075691 0.146011 0.058281 0.394969 -0.146178 -0.012517 -0.293266 -0.063637 -0.041285 -0.206513 0.120317 -0.511185 0.495497 -0.535132 0.058133 0.033585 -0.100636 0.437375 -0.085546 0.133330 -0.148715 0.135730 0.074249 0.098139 -0.087316 0.041422 -0.073014 0.036446 -0.106899 -0.264852 0.249423 -0.183649 -0.026354 0.083286 0.135103 0.213644 -0.200697 -0.142197 0.000819 0.366005 -0.038182 -0.255782 0.425239 0.111773 -0.298485 -0.113887 0.050141 -0.289496 -0.328720 -0.257938 0.219583 -0.644051 0.157904 0.391887 0.036143 0.273677 -0.345214 -0.119054 0.211128 -0.058231 0.202564 -0.220702 -0.100360 0.106005 -0.326582 -0.275497 -0.220162 -0.803263 0.368336 0.880713 -0.095055 -0.856159 -0.416786 -0.415290 -0.030542 -0.433213 0.592689 -0.451662 0.225234 -0.129196 -0.044216 -0.087165 -0.097067 
连衣裙 -0.324531 0.111916 0.136710 0.452710 0.224513 0.558328 0.505114 0.261135 0.077844 -0.304250 -1.194679 0.567358 -0.127859 0.174421 -0.667396 0.381404 -0.394859 0.174466 0.708161 0.776944 0.383465 0.337902 0.102141 0.017743 -0.096538 0.141054 -0.141795 0.267212 -0.386338 0.191283 -0.036555 0.254384 -0.468183 -0.045002 -0.096166 -0.588409 -0.074912 -0.441405 0.098429 -0.714982 -0.113238 -0.408312 0.148641 -0.003526 -0.187170 -0.277529 -0.647599 -0.075160 0.525072 0.529194 -0.181850 0.129856 0.290885 -0.083128 0.371875 -0.269418 0.444993 -0.530933 0.642142 0.289478 -0.398852 0.492574 -0.314473 -0.068054 -0.706587 0.038011 0.199210 0.119552 -0.443920 0.302320 0.698922 0.037422 0.084540 -0.483001 0.034780 0.544926 0.336372 0.277571 -0.699523 0.319074 0.195787 -0.213309 -0.522702 0.280941 -0.341531 0.125750 0.763811 -0.065893 -0.198584 -0.507219 -0.283744 0.174955 0.037551 0.248639 0.270066 -0.057429 0.101230 0.195982 -0.332323 0.066638 
鱼钩 -0.294753 -0.073481 -0.560618 0.306545 0.426289 0.078384 0.317096 -0.101119 -0.422150 0.036356 -0.542986 0.352679 0.441504 0.205932 -0.156610 0.255348 -0.195632 -0.347455 0.201397 0.430614 0.500165 -0.341469 0.081616 -0.226250 0.047357 -0.047966 0.069999 0.023700 -0.077710 0.108757 -0.205080 0.087645 0.108474 -0.180865 0.143383 0.128974 0.008662 0.037865 -0.060981 -0.095176 0.005437 -0.100786 0.190432 0.009899 -0.066825 0.069943 -0.264302 0.005280 -0.053371 -0.111187 0.009998 0.065375 0.116523 -0.359430 0.005462 -0.210824 0.278438 0.090199 0.250270 0.182089 0.077590 -0.178458 -0.238870 0.177736 -0.312694 -0.218855 -0.372123 0.276758 -0.458731 0.034440 0.332656 0.056035 0.159996 -0.247310 -0.327446 0.258984 0.051657 0.206562 -0.298108 0.007145 0.063876 -0.200532 -0.079844 -0.081003 -0.453688 0.344580 0.433781 -0.163088 -0.763505 -0.103662 -0.306367 0.187035 -0.106606 0.101860 0.044606 -0.161577 0.098227 0.066979 -0.353288 0.003370 
手套 -0.366003 -0.053946 -0.628315 0.310309 0.348528 0.211789 0.476049 -0.053173 -0.401367 -0.069135 -0.444856 0.418566 0.335284 0.054796 0.025790 0.172797 -0.366045 -0.259002 0.203769 0.264200 0.762727 -0.166394 0.314306 -0.186414 -0.207044 0.195307 0.009331 0.141041 -0.515451 0.385656 -0.581826 0.151856 -0.039290 -0.215348 0.391539 -0.210563 0.038265 -0.187402 0.048668 -0.304046 0.117517 -0.252087 0.225605 0.054242 -0.134480 0.059915 -0.540638 0.144346 -0.262871 0.019581 -0.050223 0.302435 0.171700 -0.426882 -0.299139 -0.060593 0.412197 -0.060116 0.054232 0.561277 -0.003036 -0.139114 -0.173348 0.200570 -0.264300 -0.370846 -0.287502 0.174187 -0.522745 0.145372 0.520526 -0.185524 0.246546 -0.242037 -0.220853 0.351903 0.269839 0.127022 -0.324259 0.029633 0.222257 -0.443435 -0.329657 -0.150555 -0.644612 0.373744 0.788766 -0.054706 -0.998778 -0.482437 -0.432445 0.129866 -0.305516 0.405593 -0.104275 0.028826 0.191772 0.134884 -0.183470 0.047852 
蝴蝶结 -0.175548 0.198161 -0.030939 0.011362 0.108245 -0.183360 -0.149222 -0.164444 -0.231631 -0.043024 -0.214026 -0.229620 0.119999 0.469793 -0.194567 0.043263 -0.163671 -0.683603 -0.030877 0.251597 0.118331 -0.185280 0.037861 0.081803 -0.445458 -0.269723 -0.371489 -0.448309 -0.236066 0.213390 -0.225549 -0.171959 -0.164435 0.423337 0.567266 0.686668 0.261748 -0.163489 0.180743 0.071101 0.393660 -0.225023 0.514386 -0.033293 -0.270689 -0.037595 -0.515273 0.026251 -0.046116 -0.350320 0.327034 -0.428388 0.089322 -0.309024 -0.603301 -0.384594 0.308826 0.001714 0.603194 -0.069125 0.143392 -0.166003 -0.739996 0.129137 -0.083846 -0.089854 -0.600925 0.351547 -0.202335 -0.110021 0.221766 0.064354 -0.085812 0.009457 -0.635476 0.642696 -0.085476 0.049911 -0.538221 -0.025681 0.142572 0.409422 0.255658 -0.198063 -0.226157 0.423347 -0.443434 -0.111791 -0.107282 0.172031 0.006453 -0.048647 -0.121801 0.420918 -0.117260 0.235230 -0.292553 0.120414 -0.596266 0.088691 
铅笔 -0.402423 -0.190317 -0.885105 0.824862 0.709086 0.307443 0.457538 -0.369336 -0.726819 0.276123 -0.446324 0.705201 0.481662 0.309839 0.004337 0.096437 -0.347185 -0.076112 0.489931 0.528631 0.773807 0.035675 0.092991 -0.343546 -0.180831 -0.001467 -0.145086 0.022576 -0.701314 0.503539 -0.706119 0.161335 -0.039470 -0.285779 0.209693 -0.167429 -0.042177 -0.067284 0.114573 -0.408669 0.199112 -0.228445 0.277546 0.026986 0.100724 0.040357 -0.456291 0.254965 -0.220628 0.067901 0.107573 0.344525 0.304011 -0.541274 -0.116679 0.085498 0.376249 -0.057406 -0.001491 0.402641 0.214303 -0.118476 0.120461 0.192212 -0.292801 -0.162460 -0.364268 -0.003902 -0.245700 -0.018217 0.323621 -0.301534 0.027896 -0.221865 -0.428940 0.164043 0.025719 0.285559 -0.239924 -0.371720 0.163134 -0.539968 -0.223376 -0.235411 -0.445936 0.319537 0.555253 -0.007300 -0.769383 -0.097148 -0.216259 0.007104 -0.417804 -0.000686 -0.050315 -0.338106 0.229824 0.006177 -0.206861 0.010951 
休闲包 -0.398736 -0.216325 -1.260110 0.260827 0.050007 0.452366 -0.034381 -0.233130 0.043573 0.532841 -0.139862 0.847095 0.139874 0.727838 0.397172 -0.242453 -0.940731 0.857388 0.825624 0.324193 -0.459121 -0.074358 -0.518685 -0.068930 0.487289 -0.497159 -0.232415 0.306984 -0.472882 0.235031 -0.814622 -0.221123 -0.554087 0.214083 1.394739 0.674731 -0.365206 -0.896236 -0.208058 0.086572 1.163313 0.075492 0.422407 -0.873620 -0.718143 -0.107036 -0.586435 0.248897 0.616468 0.382998 -0.172701 -0.380127 0.933195 -0.231449 1.385849 -0.174092 0.663135 -0.084695 0.127955 -0.211581 0.211191 -0.013017 -0.361596 -0.064755 0.015289 0.215380 0.361336 0.043266 0.571643 0.384394 0.113943 -0.165593 0.117989 -0.762644 -0.079714 -0.984929 -0.615921 0.153306 -0.158379 -0.150511 -0.396163 -0.328974 -0.506801 0.018372 -0.826029 0.292630 0.674710 -0.012491 -0.056196 0.454488 -0.050341 -0.336320 -0.332625 -0.140669 -0.275860 -0.140044 -1.039458 -0.094528 -1.295841 -0.466924 
马 -0.197135 -0.052509 -0.400816 0.260578 0.301174 0.096071 0.232697 -0.077785 -0.292818 0.088368 -0.125146 0.240038 0.189161 0.207517 0.255281 -0.027630 -0.135603 -0.156320 0.143894 0.102189 0.372086 -0.162391 -0.012922 -0.248368 -0.021447 -0.078170 -0.102052 0.101654 -0.380113 0.450320 -0.448849 0.032124 0.018108 -0.085788 0.299696 -0.070723 0.076507 -0.113007 0.103601 0.086239 0.032096 -0.116969 0.054009 -0.024026 0.027305 -0.080145 -0.275272 0.222599 -0.133836 -0.008027 0.120781 0.115328 0.230812 -0.158110 -0.144442 -0.020442 0.297597 -0.093088 -0.208921 0.370662 0.118648 -0.245859 -0.140210 0.070050 -0.275916 -0.298650 -0.266522 0.208124 -0.568995 0.118911 0.345762 0.085006 0.238240 -0.225762 -0.122873 0.183445 -0.024972 0.199502 -0.186272 -0.028988 0.113822 -0.215303 -0.197079 -0.139874 -0.665663 0.318264 0.704022 -0.122534 -0.717117 -0.363540 -0.359241 -0.038105 -0.287809 0.498006 -0.316591 0.123417 -0.092460 -0.059853 -0.127230 -0.048835 
球 -0.046853 0.015580 -0.124316 0.324286 0.308463 0.010317 0.145984 -0.087549 -0.110897 -0.051686 -0.168511 0.099082 -0.105142 0.403664 0.047094 -0.009912 -0.055842 -0.165854 0.019781 0.206924 0.212913 0.023332 -0.127801 -0.207933 -0.060415 -0.308572 -0.282346 -0.042967 -0.386448 0.437808 -0.397670 0.062881 -0.130148 0.230708 0.226966 -0.151998 0.154621 -0.107164 0.362126 0.014129 -0.147549 -0.015131 0.096121 -0.151703 0.074032 -0.288827 -0.241359 0.131603 0.061027 0.172216 0.120708 -0.139384 0.231464 -0.127208 -0.176595 -0.132878 0.264117 -0.120445 -0.132313 0.128890 -0.015675 -0.099007 -0.302384 -0.120543 -0.316385 -0.191713 -0.246905 0.092088 -0.514581 0.129928 0.246207 0.252011 0.126750 -0.292760 -0.043078 0.270492 -0.081927 0.163471 -0.173377 0.122650 0.022009 -0.027611 -0.141795 -0.067909 -0.481039 0.097010 0.532612 0.014882 -0.491581 -0.195021 -0.276006 0.009358 -0.212959 0.765654 -0.462391 0.225306 -0.047432 -0.049982 -0.039910 -0.134787 
尺 -0.154236 -0.196114 -0.659023 0.300407 0.476452 0.102618 0.278068 -0.173093 -0.437507 0.025764 -0.607055 0.533485 0.737539 -0.047805 -0.331443 0.209367 -0.304862 -0.292421 0.454889 0.623277 0.432593 -0.441267 0.024894 -0.330394 0.133906 -0.129222 0.169041 0.040653 -0.265939 -0.074038 -0.241757 0.116234 0.011883 -0.191052 0.197263 0.220217 -0.198335 -0.053163 -0.343590 -0.267764 0.339687 -0.263666 0.301976 0.039812 -0.308091 0.211793 -0.262068 0.031862 -0.099919 -0.154997 -0.099062 0.047223 0.105866 -0.328219 0.444795 -0.220992 0.282159 0.025954 0.554966 0.125229 0.284776 -0.238654 -0.189434 0.195751 -0.356493 -0.063198 -0.165521 0.294847 -0.315252 -0.022671 0.542222 0.018973 0.027460 -0.457686 -0.355647 0.221920 0.122810 0.089170 -0.517580 -0.090083 0.155216 -0.274975 -0.272626 -0.142765 -0.705901 0.260530 0.489873 -0.162586 -0.709077 0.094617 -0.009034 0.255187 -0.173876 -0.248314 0.275168 -0.281081 0.212501 0.071735 -0.640433 0.107597 
树脂玩具 -0.046487 0.132764 -0.182464 0.234737 0.422900 -0.092444 -0.001416 -0.077662 -0.269019 0.040156 -0.092918 0.024396 0.190995 0.264440 -0.029310 0.031281 -0.056735 -0.588028 0.003776 0.292182 0.211663 -0.224253 -0.089548 -0.211772 -0.129806 -0.491042 -0.140831 -0.314593 -0.182397 0.310306 -0.279008 -0.032107 -0.036856 0.235158 0.281632 0.319658 0.173823 -0.085260 0.236824 0.123547 0.034119 -0.124898 0.344624 -0.028393 -0.064315 -0.025912 -0.326276 0.177568 -0.028830 -0.139815 0.260825 -0.240057 0.257116 -0.126562 -0.385259 -0.210350 0.173874 -0.045210 0.260753 0.041802 0.202055 -0.177443 -0.618565 0.142334 -0.387252 -0.117384 -0.587400 0.365963 -0.527648 0.051790 0.345215 0.268823 0.032076 -0.138594 -0.418868 0.475940 -0.041496 0.258481 -0.478905 0.072801 0.088789 0.181305 0.075407 -0.098300 -0.523627 0.275880 0.013638 -0.090542 -0.453193 0.134487 -0.117920 -0.035798 -0.221421 0.548384 -0.282934 0.130993 -0.163385 -0.072979 -0.418998 0.034708 
流行饰品 0.393544 0.105117 0.153046 0.303960 0.572226 -0.507087 -0.337674 -0.090568 -0.009361 0.007883 0.210973 -0.201173 -0.309942 0.870737 -0.057844 -0.361334 0.104649 -0.537158 -0.184092 0.437077 -0.387287 -0.053482 -0.845048 -0.284014 0.163487 -1.671017 -0.661105 -0.600091 -0.196326 0.447134 -0.076309 -0.172640 -0.273726 1.023250 0.413075 0.525421 0.335838 0.086427 0.815313 0.572535 -0.179279 0.323564 0.338827 -0.524067 0.072279 -0.569235 -0.154525 0.224444 0.469707 0.153011 0.431634 -0.898619 0.442768 0.042198 -0.209041 -0.453415 0.084366 -0.049403 0.039689 -0.544947 0.291103 -0.410512 -1.131429 -0.315701 -0.276027 0.147946 -0.634466 0.282026 -0.518955 0.194544 0.017829 0.991641 -0.032075 -0.499115 -0.245382 0.463874 -0.528905 0.375253 -0.434142 0.062636 -0.155856 0.509439 0.037453 -0.241272 -0.715019 -0.094580 -0.209649 0.163568 -0.045084 0.533159 -0.109187 -0.050032 -0.186221 1.381649 -0.892934 0.401254 -0.514737 -0.242354 -0.512146 -0.464049 
瓶 -0.292031 -0.082833 -0.570459 0.385428 0.496468 0.100249 0.429286 -0.097125 -0.641087 0.034503 -0.326034 0.333164 0.464429 0.038802 0.214333 0.092801 -0.198715 -0.387416 0.099654 0.244896 0.786051 -0.320358 0.259592 -0.406224 -0.081343 0.032957 0.125087 0.088788 -0.481986 0.416678 -0.555341 0.100852 0.028002 -0.274163 0.285333 -0.112400 0.121492 -0.074833 0.110642 -0.071938 -0.061719 -0.249915 0.147450 0.097723 0.060892 0.074818 -0.487566 0.256416 -0.320832 -0.099770 0.117257 0.302326 0.183002 -0.467426 -0.319136 -0.013355 0.303349 0.026872 -0.157770 0.558199 0.091695 -0.238681 -0.089195 0.241949 -0.370936 -0.461727 -0.444856 0.191777 -0.721897 0.039420 0.491767 -0.023472 0.270902 -0.131703 -0.292400 0.302278 0.189097 0.402812 -0.308791 -0.062919 0.226257 -0.412449 -0.159047 -0.199153 -0.701359 0.462382 0.863860 -0.194429 -1.114392 -0.462567 -0.320726 0.080416 -0.343955 0.478980 -0.159351 0.038472 0.156323 -0.076261 -0.030733 0.146368 
手电筒 -0.197978 -0.104043 -0.471675 0.392923 0.406823 0.009184 0.328616 -0.180201 -0.531887 0.004289 -0.189926 0.323454 0.442271 0.084850 0.120101 0.014052 -0.213173 -0.297774 0.167336 0.209101 0.620624 -0.318290 0.060319 -0.420650 -0.085489 -0.100988 -0.042000 -0.012749 -0.598966 0.329255 -0.529788 0.094697 0.012050 -0.135785 0.350454 -0.055500 0.137303 0.002934 0.170594 0.089755 0.108470 -0.154280 0.149931 0.072465 -0.001182 0.026032 -0.341450 0.303446 -0.279672 -0.102652 0.088980 0.101225 0.163738 -0.337762 -0.162734 -0.046062 0.351043 -0.060749 -0.097214 0.407837 0.248971 -0.418722 -0.204253 0.152058 -0.250854 -0.355848 -0.404038 0.163368 -0.666526 0.119300 0.491184 0.052411 0.213189 -0.270829 -0.192806 0.286272 -0.000780 0.262842 -0.287239 -0.061222 0.240059 -0.283130 -0.250668 -0.353580 -0.841650 0.342289 0.791304 -0.073414 -0.996517 -0.303084 -0.324332 0.026733 -0.426874 0.570403 -0.255318 0.121045 0.075156 -0.003904 -0.128128 0.030812 
鞋 -0.295489 -0.131218 -0.484901 0.338899 0.314972 0.186207 0.435252 -0.034177 -0.401023 -0.049882 -0.334795 0.261484 0.211504 0.084917 0.125621 0.065395 -0.206991 -0.156502 0.155427 0.137351 0.636255 -0.106909 0.238152 -0.254194 -0.122946 0.083516 -0.058657 0.163715 -0.597928 0.489775 -0.579529 0.123810 -0.098230 -0.183818 0.406499 -0.220849 0.069092 -0.213591 0.100430 -0.212345 -0.012057 -0.201203 0.149422 0.010528 -0.025069 -0.042808 -0.584722 0.205736 -0.203865 0.084163 0.054954 0.258077 0.193380 -0.451741 -0.276327 0.021058 0.377267 -0.066005 -0.141225 0.575098 -0.030108 -0.137560 -0.103349 0.132468 -0.308029 -0.377976 -0.256515 0.110052 -0.592854 0.158890 0.485654 -0.129158 0.271516 -0.247506 -0.121944 0.324948 0.177721 0.189372 -0.253628 0.015387 0.260360 -0.402551 -0.286777 -0.137743 -0.546338 0.347618 0.947570 -0.158868 -0.982070 -0.507419 -0.396045 0.077399 -0.422955 0.532489 -0.286063 0.142716 0.095716 0.020726 0.046170 0.043735 
熊熊 -0.257169 -0.019585 -0.492461 0.229872 0.106815 0.180966 0.083765 -0.111134 -0.114454 0.171668 0.049930 0.244782 0.034100 0.297444 0.338310 -0.189509 -0.337684 0.232966 0.271235 -0.019436 0.090614 -0.024997 -0.122920 -0.206299 0.010230 -0.148763 -0.190557 0.113742 -0.481321 0.460768 -0.568569 0.007338 -0.144658 0.019616 0.608729 0.087563 -0.041536 -0.418223 0.044451 0.096793 0.370914 -0.109692 0.096713 -0.274156 -0.194788 -0.139237 -0.345695 0.273517 0.000770 0.119948 0.068276 -0.060194 0.442093 -0.148211 0.208237 -0.001118 0.360001 -0.160392 -0.206036 0.193732 0.105922 -0.167969 -0.145195 -0.039095 -0.224461 -0.145629 0.010052 0.099631 -0.190807 0.217991 0.264899 -0.064227 0.158929 -0.379785 -0.051549 -0.095209 -0.213852 0.141905 -0.111052 -0.063299 0.001029 -0.219615 -0.264087 -0.133144 -0.633927 0.236170 0.702769 -0.099883 -0.417708 -0.173565 -0.232050 -0.210918 -0.359128 0.345263 -0.377169 0.165902 -0.345293 -0.060607 -0.394618 -0.112801 
织带 -0.244554 0.000477 -0.272331 0.228876 0.424263 0.010487 0.204722 -0.214330 -0.301538 0.016982 -0.374972 0.235698 0.100412 0.448524 -0.031229 0.112567 -0.294711 -0.450936 0.020017 0.329044 0.432674 -0.319989 0.010758 -0.245144 -0.171416 -0.234074 -0.239170 -0.156914 -0.347383 0.321227 -0.270372 0.005694 -0.069477 0.134002 0.245642 0.031471 0.207550 0.006398 0.215341 -0.005252 0.085582 -0.093240 0.154460 -0.035995 -0.061599 -0.217324 -0.342067 0.087670 -0.063479 -0.124956 0.236116 -0.093490 0.129991 -0.288885 -0.271016 -0.248533 0.370606 0.060764 0.211469 0.163422 0.170502 -0.266418 -0.317414 -0.037775 -0.331488 -0.153617 -0.419100 0.219721 -0.614819 -0.007140 0.393347 0.154084 0.027735 -0.215347 -0.223094 0.461633 -0.007947 0.188641 -0.307414 -0.061904 0.027465 -0.015485 -0.061128 -0.173630 -0.642155 0.346351 0.356875 -0.061404 -0.588102 -0.197789 -0.298430 0.099924 -0.050727 0.449711 -0.127386 0.103914 -0.013934 -0.023264 -0.176524 0.008656 
陀螺 -0.192074 -0.116512 -0.525933 0.362760 0.309111 0.068884 0.159855 -0.172608 -0.381494 0.146305 0.070103 0.235777 0.236745 0.259908 0.412719 -0.177091 -0.157162 -0.093936 0.085476 0.017203 0.325849 -0.234701 -0.083954 -0.421592 0.003982 -0.229274 -0.141181 0.072305 -0.627179 0.541131 -0.642749 0.002126 -0.025674 -0.025342 0.530766 -0.001546 0.111892 -0.161516 0.151046 0.206209 0.142085 -0.058574 0.035083 -0.148594 0.060092 -0.116109 -0.243847 0.395154 -0.250993 -0.021561 0.168101 0.015928 0.264671 -0.199145 -0.091234 0.036659 0.309779 -0.081705 -0.435212 0.346158 0.270288 -0.403394 -0.039452 0.016962 -0.140924 -0.339962 -0.231638 0.078418 -0.562828 0.157117 0.258518 0.103155 0.247095 -0.265587 0.005918 0.080893 -0.137872 0.150597 -0.042168 -0.135016 0.077758 -0.284726 -0.202934 -0.267658 -0.775417 0.253195 0.853781 -0.094350 -0.814536 -0.331951 -0.314058 -0.134131 -0.433704 0.600489 -0.496959 0.162401 -0.145523 -0.130565 -0.107936 -0.102220 
笔记本 -0.167848 -0.063339 -0.530192 0.327152 0.346858 0.056554 0.146808 -0.203326 -0.357591 0.124574 -0.246677 0.297175 0.310480 0.234222 0.016252 -0.006855 -0.239536 -0.220491 0.245437 0.370736 0.334175 -0.185650 -0.069213 -0.240352 0.006430 -0.252280 -0.112665 -0.032892 -0.399553 0.326681 -0.403132 0.001428 -0.104648 -0.006706 0.405362 0.163487 -0.003942 -0.143876 0.085869 -0.072223 0.226408 -0.116234 0.232425 -0.071889 -0.157489 -0.041611 -0.341174 0.162146 -0.046083 -0.021748 0.068259 -0.069117 0.257517 -0.246773 0.007632 -0.147688 0.289726 -0.012518 0.155851 0.195254 0.168186 -0.222100 -0.262988 0.079688 -0.245610 -0.134135 -0.342280 0.185133 -0.349991 0.092425 0.370310 0.046437 0.057864 -0.307092 -0.303520 0.228487 -0.066597 0.197559 -0.315317 -0.110454 0.078894 -0.145340 -0.136220 -0.146129 -0.622941 0.280460 0.444167 -0.086332 -0.566805 -0.014071 -0.171268 0.017635 -0.285453 0.259380 -0.141625 -0.020967 -0.099889 -0.043439 -0.466510 -0.032395 
裙 -0.252957 0.095487 0.066495 0.397267 0.251272 0.364446 0.385761 0.157157 -0.017190 -0.261237 -0.901807 0.349716 -0.064339 0.203075 -0.472077 0.282786 -0.247619 -0.018694 0.481596 0.588088 0.401035 0.227456 0.091619 -0.068896 -0.139205 -0.017741 -0.178711 0.132808 -0.445642 0.315380 -0.159668 0.191155 -0.343182 0.007042 0.036303 -0.405918 0.013175 -0.352028 0.185161 -0.526286 -0.130640 -0.337838 0.200882 -0.011583 -0.106305 -0.241472 -0.613467 0.005250 0.324420 0.386598 -0.055963 0.053759 0.250826 -0.162299 0.127150 -0.238094 0.396042 -0.416530 0.473352 0.261164 -0.257815 0.290162 -0.314758 -0.048216 -0.612102 -0.046449 0.007139 0.135649 -0.516436 0.234208 0.585101 0.098048 0.118655 -0.408409 -0.030316 0.577986 0.270575 0.212721 -0.578331 0.263778 0.216129 -0.146588 -0.355952 0.159384 -0.394203 0.138141 0.687474 -0.081986 -0.358961 -0.435747 -0.275770 0.171334 -0.077962 0.433738 0.037226 0.032886 0.099226 0.156938 -0.303541 0.053076 
挂件 -0.180773 0.003845 -0.363003 0.337413 0.291234 0.026095 0.112347 -0.152466 -0.208988 0.047185 -0.127769 0.043639 0.085476 0.343675 0.109220 -0.069983 -0.155390 -0.281058 0.070109 0.109956 0.255135 -0.053297 -0.047444 -0.266943 -0.146485 -0.290207 -0.202986 -0.127220 -0.397107 0.462628 -0.504172 0.000472 -0.076945 0.083667 0.399047 0.028286 0.133704 -0.115229 0.267038 0.024528 0.004617 -0.042001 0.156723 -0.109151 0.028461 -0.126378 -0.399059 0.250712 -0.062267 0.029593 0.158376 -0.148453 0.314767 -0.194531 -0.232404 -0.145708 0.243934 -0.101750 -0.149269 0.191703 0.097990 -0.153942 -0.282667 0.034160 -0.285782 -0.288854 -0.343378 0.113257 -0.472624 0.124701 0.280086 0.194638 0.139700 -0.197859 -0.179768 0.294393 -0.075235 0.159780 -0.234299 0.047274 0.123544 -0.048315 -0.018764 -0.111798 -0.514809 0.201694 0.428012 -0.043705 -0.495740 -0.179139 -0.252203 -0.021287 -0.299875 0.675253 -0.406247 0.183447 -0.094318 -0.098241 -0.187112 -0.075968 
储钱罐 -0.346641 -0.114618 -0.587297 0.317039 0.486131 0.179102 0.292937 -0.079437 -0.446641 0.149631 -0.405751 0.432345 0.368653 0.273531 0.069706 0.146130 -0.315225 -0.256513 0.222127 0.334606 0.491361 -0.334524 0.078757 -0.271369 0.013087 -0.044250 0.039361 0.069492 -0.251771 0.272064 -0.403301 0.046928 -0.058568 -0.176194 0.285590 0.063766 0.026874 -0.133645 -0.028722 -0.063418 0.097808 -0.188545 0.225523 -0.031683 -0.036968 0.056460 -0.398894 0.140453 -0.105051 -0.076838 0.052951 0.185075 0.202112 -0.282632 -0.015924 -0.049625 0.275487 0.005407 0.021994 0.286707 0.142815 -0.164542 -0.089250 0.171562 -0.327259 -0.227653 -0.287238 0.187301 -0.435100 0.049433 0.345330 0.013480 0.175044 -0.156581 -0.237178 0.178938 0.077909 0.354755 -0.335189 -0.103954 0.035792 -0.246033 -0.161506 -0.070527 -0.604492 0.393438 0.571271 -0.140235 -0.771167 -0.204165 -0.299949 0.025693 -0.165997 0.114378 -0.019975 -0.074317 0.015669 -0.086361 -0.345034 0.056159 
牛仔长裤 -0.264882 0.080083 -0.026136 0.347290 0.212308 0.409709 0.351820 0.095359 0.078227 -0.163320 -0.915179 0.425371 -0.137615 0.293145 -0.499674 0.253100 -0.365474 0.100881 0.577642 0.676201 0.275001 0.240658 -0.010925 0.028635 -0.097406 -0.044913 -0.232190 0.133837 -0.302661 0.233242 -0.172417 0.104969 -0.369072 0.104988 0.090412 -0.309052 -0.045264 -0.452501 0.155616 -0.504394 -0.026103 -0.233412 0.251461 -0.103829 -0.220119 -0.228656 -0.605338 -0.077056 0.491497 0.397542 -0.109689 0.010486 0.271395 -0.166403 0.272489 -0.263740 0.407500 -0.349126 0.553597 0.173129 -0.299176 0.432813 -0.359042 -0.038341 -0.555682 0.028424 0.068442 0.162337 -0.266563 0.214790 0.515422 0.006123 0.079565 -0.452050 -0.115218 0.397704 0.131358 0.206504 -0.585181 0.329284 0.150448 -0.138145 -0.336616 0.241277 -0.265247 0.127914 0.534630 -0.053151 -0.151416 -0.279041 -0.232127 0.140382 -0.059333 0.331073 0.068571 0.008496 0.051498 0.158470 -0.384544 -0.022217 
蜡染娃娃 -0.244904 -0.037651 -0.507062 0.274215 0.277771 0.137283 0.172572 -0.116883 -0.221955 0.126124 -0.118339 0.271456 0.141368 0.259019 0.242570 -0.070778 -0.269911 0.000979 0.209229 0.103976 0.240725 -0.118369 -0.054516 -0.248041 -0.043532 -0.094744 -0.128468 0.043024 -0.394171 0.404234 -0.493933 0.046340 -0.081169 -0.032640 0.448052 0.031073 0.040314 -0.250000 0.068417 0.032949 0.218391 -0.128513 0.126296 -0.144088 -0.107983 -0.053067 -0.321201 0.216446 -0.020160 0.028847 0.078510 0.018750 0.301470 -0.142426 0.060837 -0.025656 0.338598 -0.096085 -0.091971 0.288889 0.135794 -0.191067 -0.189407 0.038723 -0.293400 -0.220553 -0.178982 0.192267 -0.407265 0.183314 0.364671 0.013257 0.161760 -0.347040 -0.154238 0.089811 -0.126584 0.188696 -0.282599 -0.029525 0.059625 -0.208565 -0.233240 -0.121655 -0.700428 0.287821 0.634631 -0.100480 -0.592906 -0.205555 -0.289008 -0.098640 -0.300086 0.410351 -0.309588 0.101624 -0.223211 -0.081951 -0.318297 -0.077795 
球网 -0.109165 0.045948 -0.232875 0.221442 0.383984 0.061748 0.152004 -0.066090 -0.067010 -0.060750 -0.528279 0.235498 0.006809 0.352107 -0.367497 0.173340 -0.184857 -0.264081 0.185745 0.479589 0.144518 0.013191 -0.080283 -0.023262 -0.039970 -0.293866 -0.256090 -0.072371 -0.233682 0.207214 -0.211411 0.046141 -0.174341 0.198949 0.133839 0.108241 0.021531 -0.132202 0.161027 -0.227169 0.004715 -0.025180 0.284029 -0.147047 -0.175490 -0.205915 -0.397406 -0.084047 0.229441 0.119513 0.020137 -0.176228 0.160998 -0.254324 -0.004733 -0.260096 0.317901 -0.062437 0.409844 -0.001141 -0.068910 0.061595 -0.532339 -0.046064 -0.360653 -0.038216 -0.217147 0.249360 -0.232314 0.107347 0.326034 0.135591 0.047037 -0.384648 -0.196153 0.399941 0.017218 0.099783 -0.367682 0.190088 0.013498 -0.013035 -0.126743 0.036994 -0.292603 0.061666 0.188025 -0.006176 -0.287796 -0.026162 -0.214081 0.198535 -0.051697 0.353579 -0.112580 0.029815 0.009914 0.074902 -0.325228 -0.078439 
合金项链 0.405944 0.040212 0.116490 0.411596 0.651183 -0.558880 -0.281178 -0.104637 -0.047100 0.035019 0.217819 -0.143477 -0.355810 0.901930 0.024793 -0.384274 0.093321 -0.537212 -0.244097 0.464398 -0.284874 -0.059458 -0.906695 -0.393142 0.232712 -1.801690 -0.705139 -0.572195 -0.316367 0.632497 -0.219582 -0.100774 -0.229200 1.015019 0.358408 0.345030 0.327559 0.177654 0.838208 0.570814 -0.321754 0.369434 0.232110 -0.535441 0.177586 -0.677586 -0.210080 0.313089 0.446402 0.278737 0.448423 -0.887105 0.513672 0.065149 -0.179673 -0.375517 0.008855 -0.067087 -0.188163 -0.506485 0.353191 -0.481636 -1.002788 -0.385343 -0.385296 0.089392 -0.649007 0.239654 -0.654363 0.157435 -0.001276 1.081721 0.011395 -0.586782 -0.086498 0.463613 -0.524991 0.394536 -0.358242 0.067365 -0.189433 0.426864 -0.028000 -0.249786 -0.824980 -0.187196 0.020626 0.182702 -0.220345 0.511492 -0.178284 -0.037310 -0.257745 1.525388 -1.005262 0.419805 -0.427026 -0.272401 -0.402599 -0.548719 
鱼 -0.186599 -0.082123 -0.502008 0.341642 0.331576 0.095224 0.235420 -0.110353 -0.317089 0.046682 -0.106738 0.223719 0.223185 0.172405 0.215807 -0.069982 -0.144050 -0.140996 0.080691 0.065414 0.417700 -0.171866 0.012430 -0.363455 -0.023330 -0.114219 -0.097808 0.112640 -0.534501 0.491930 -0.566842 0.079477 0.009375 -0.067667 0.409219 -0.079901 0.073126 -0.183939 0.091241 0.069950 0.045784 -0.086921 0.017625 -0.075809 0.024474 -0.080650 -0.287373 0.304055 -0.247829 -0.012536 0.111708 0.078198 0.230564 -0.219901 -0.146271 -0.004035 0.289538 -0.092393 -0.290267 0.397171 0.155661 -0.299395 -0.046952 0.028715 -0.277345 -0.337626 -0.235890 0.117489 -0.603438 0.144777 0.356409 0.106772 0.248066 -0.267973 -0.043273 0.200632 0.001207 0.127320 -0.127361 -0.001700 0.158905 -0.289981 -0.190762 -0.163395 -0.704943 0.238746 0.810394 -0.123902 -0.826036 -0.385318 -0.302138 0.023038 -0.347538 0.549567 -0.375727 0.156869 -0.012038 -0.089003 -0.082850 -0.037555 
时装包 -0.354845 -0.174868 -1.109609 0.258004 0.085707 0.355258 -0.020031 -0.231842 -0.006687 0.462645 -0.183370 0.738990 0.123551 0.686241 0.280489 -0.231697 -0.834732 0.731662 0.725280 0.336325 -0.348094 -0.046329 -0.412565 -0.076586 0.407745 -0.435259 -0.252189 0.223561 -0.441742 0.240342 -0.700339 -0.187162 -0.490318 0.158685 1.272342 0.639988 -0.276322 -0.806751 -0.192484 0.096866 0.979735 -0.005870 0.352829 -0.770538 -0.623285 -0.092284 -0.527596 0.151705 0.598474 0.330266 -0.148091 -0.355640 0.803794 -0.247753 1.122986 -0.184948 0.500822 -0.063745 0.115326 -0.147169 0.163725 0.000189 -0.409961 -0.055746 -0.081601 0.102470 0.238585 0.058086 0.503037 0.357009 0.188189 -0.137535 0.173426 -0.672622 -0.131623 -0.719897 -0.575292 0.134857 -0.193697 -0.075322 -0.282138 -0.293019 -0.413090 -0.051521 -0.735650 0.290442 0.604406 -0.047372 -0.074224 0.370960 0.011418 -0.300125 -0.328659 0.012509 -0.263507 -0.040273 -0.901308 -0.092156 -1.125940 -0.382496 
圆珠笔 -0.314367 -0.188385 -0.651996 0.666460 0.541926 0.176788 0.305270 -0.261470 -0.605200 0.113294 -0.362612 0.445697 0.504874 0.131363 0.026901 0.105206 -0.259689 -0.266581 0.364343 0.411848 0.654571 -0.080002 0.026568 -0.347399 -0.155229 -0.155744 -0.114524 -0.048311 -0.571696 0.367407 -0.580477 0.099902 0.005085 -0.123689 0.197479 -0.062552 -0.038249 -0.039636 0.128598 -0.338455 0.163434 -0.248600 0.336147 0.058647 0.003807 -0.008680 -0.372656 0.243064 -0.274208 -0.010620 0.182018 0.190508 0.242926 -0.456843 -0.110385 0.013666 0.301373 -0.052869 0.084884 0.296588 0.246585 -0.212390 -0.055552 0.115695 -0.240203 -0.122329 -0.426493 0.059729 -0.402579 -0.017687 0.415797 -0.152530 -0.032173 -0.275011 -0.441570 0.313576 0.012857 0.235009 -0.347604 -0.296399 0.169578 -0.379408 -0.155129 -0.235230 -0.544331 0.301379 0.432917 -0.051584 -0.735002 -0.067588 -0.222612 -0.011466 -0.376737 0.137401 -0.039914 -0.255012 0.202755 -0.015533 -0.320049 0.039623 
棉服 -0.320034 0.080326 -0.067884 0.308934 0.193577 0.461804 0.400121 0.121220 0.016036 -0.190221 -0.961259 0.542855 -0.019365 0.185790 -0.472946 0.313258 -0.384546 0.153383 0.624951 0.665170 0.363043 0.170611 0.091725 0.029611 -0.070732 0.123602 -0.091926 0.187132 -0.241829 0.153001 -0.083944 0.166164 -0.332630 -0.095367 0.027820 -0.353935 -0.063828 -0.360619 0.013846 -0.554069 0.026638 -0.335713 0.222105 0.001456 -0.235398 -0.151500 -0.558755 -0.089177 0.404645 0.359477 -0.151852 0.102877 0.253115 -0.157705 0.314845 -0.218942 0.437296 -0.359993 0.564740 0.246258 -0.300081 0.402667 -0.274578 -0.007065 -0.568362 0.021794 0.098259 0.183985 -0.299973 0.219943 0.581536 -0.056339 0.067411 -0.409773 -0.123793 0.376770 0.232189 0.243174 -0.597707 0.237575 0.180365 -0.188563 -0.375145 0.199761 -0.329285 0.186440 0.595147 -0.067511 -0.178295 -0.346562 -0.247621 0.152401 0.007872 0.135250 0.236747 -0.092336 0.010314 0.211964 -0.372039 0.084570 
女士拉绒保暖裤 -0.258244 0.062078 -0.150020 0.323842 0.451504 0.477020 0.452772 0.105718 0.246814 -0.246057 -1.283941 0.472811 -0.456541 0.382701 -0.802187 0.462390 -0.454480 0.076080 0.586602 0.790808 0.192685 0.469971 0.095580 0.256669 -0.135405 -0.015297 -0.420525 0.133773 -0.126454 0.269709 -0.203708 0.172158 -0.386693 0.143299 -0.122277 -0.453961 -0.104783 -0.357576 0.240378 -0.819257 -0.254428 -0.057580 0.334544 -0.177807 -0.195060 -0.374005 -0.794731 -0.377597 0.722415 0.608397 -0.177880 0.039636 0.178963 -0.314521 0.117021 -0.385692 0.415731 -0.299325 0.724381 0.095131 -0.669432 0.777900 -0.563602 -0.055142 -0.703413 0.030227 -0.005989 0.230448 -0.128643 0.282841 0.546337 -0.143355 0.119132 -0.575940 -0.149454 0.615246 0.300654 0.149520 -0.622772 0.596052 0.030599 -0.153654 -0.378804 0.500498 0.037019 -0.025490 0.384350 0.064712 -0.096937 -0.321581 -0.480700 0.470357 0.013901 0.412848 0.027128 0.034323 0.256914 0.272652 -0.297386 -0.168469 
长款钱包 -0.353304 -0.219162 -1.117314 0.151235 0.058672 0.299998 -0.054964 -0.283801 -0.006740 0.517485 -0.125756 0.732713 0.120564 0.627504 0.154840 -0.280586 -0.808073 0.870585 0.787253 0.332850 -0.451306 -0.031363 -0.392832 -0.019341 0.391682 -0.366799 -0.176027 0.227018 -0.326715 0.120665 -0.669170 -0.214420 -0.470299 0.125416 1.291350 0.713587 -0.300431 -0.796596 -0.286790 0.106685 1.060091 0.048387 0.362952 -0.772556 -0.641529 -0.106476 -0.396893 0.157832 0.629321 0.303071 -0.179588 -0.375711 0.812571 -0.169537 1.237782 -0.152559 0.513950 -0.055022 0.097807 -0.212141 0.197968 0.000528 -0.479120 -0.071829 -0.030128 0.136042 0.258213 0.061730 0.583091 0.377786 0.195105 -0.179627 0.137297 -0.681856 -0.148725 -0.831776 -0.630412 0.119978 -0.224947 -0.021709 -0.240236 -0.275303 -0.375659 -0.029567 -0.658077 0.185241 0.541791 -0.046964 -0.003468 0.455791 0.069639 -0.346902 -0.340669 -0.066101 -0.275283 -0.071262 -1.006676 -0.089837 -1.125762 -0.335455 
职业网花 0.117862 0.229906 0.242654 0.090519 0.189800 -0.311146 -0.254880 -0.065154 -0.079656 -0.095008 -0.155647 -0.271076 -0.066086 0.540825 -0.357447 -0.067850 0.012965 -0.756290 -0.151613 0.367326 -0.083263 0.041745 -0.213025 0.059379 -0.350649 -0.700315 -0.496940 -0.529392 -0.223381 0.253009 -0.166831 -0.163274 -0.272908 0.723726 0.441007 0.693739 0.276120 -0.156531 0.389481 0.096847 0.150217 -0.073233 0.550627 -0.166753 -0.199377 -0.258124 -0.504040 0.023004 0.143221 -0.144427 0.363281 -0.647259 0.173853 -0.229173 -0.565743 -0.421845 0.203298 -0.081953 0.590681 -0.174693 0.025926 -0.098812 -1.046732 0.032492 -0.227176 0.012590 -0.657393 0.407218 -0.215383 -0.020814 0.175884 0.380675 -0.093753 -0.158818 -0.572390 0.772113 -0.104408 0.078393 -0.592851 0.071198 0.111633 0.480820 0.253824 -0.148273 -0.169576 0.165118 -0.595300 -0.033707 0.062131 0.282784 0.093298 0.014379 -0.107737 0.738035 -0.331581 0.330533 -0.269165 0.043393 -0.575563 0.045056 
皇冠 0.223666 0.134848 0.122059 0.146826 0.338090 -0.403697 -0.255802 -0.077165 -0.090858 0.050696 0.144628 -0.178027 -0.103928 0.581958 -0.054032 -0.221466 0.039283 -0.515735 -0.160636 0.320299 -0.220248 -0.073614 -0.531294 -0.098896 -0.025728 -1.048168 -0.486191 -0.508781 -0.089917 0.256247 -0.076211 -0.153329 -0.159324 0.691674 0.357357 0.573191 0.252833 0.074437 0.462535 0.412418 0.051805 0.108079 0.347289 -0.303135 -0.010576 -0.297206 -0.179826 0.149075 0.258033 -0.031138 0.318291 -0.634202 0.293596 -0.000667 -0.267350 -0.330677 0.044517 -0.049995 0.237697 -0.357483 0.249499 -0.295526 -0.886117 -0.071786 -0.211726 0.096029 -0.557166 0.354042 -0.323470 0.061487 0.047150 0.596557 -0.011751 -0.323579 -0.384841 0.444074 -0.343598 0.258241 -0.409793 0.018900 -0.083482 0.425866 0.091767 -0.222768 -0.503432 0.071274 -0.331893 0.071453 -0.013500 0.470725 -0.051305 -0.052538 -0.174544 0.878799 -0.548423 0.288864 -0.417947 -0.076636 -0.524723 -0.230898 
uxuzgxbxy 0.147244 0.029815 -0.016777 0.262357 0.401718 -0.205427 -0.096719 -0.060713 -0.039708 0.018458 0.014887 0.007306 -0.132349 0.523729 0.022874 -0.164340 -0.020900 -0.297141 -0.069624 0.290460 -0.051438 -0.042909 -0.424492 -0.270984 0.087505 -0.894339 -0.394123 -0.255393 -0.244758 0.398806 -0.238430 -0.054216 -0.175688 0.504025 0.277496 0.116150 0.177103 -0.031436 0.447077 0.260268 -0.133741 0.126133 0.175094 -0.308462 0.080982 -0.377779 -0.218151 0.199072 0.195103 0.139183 0.235262 -0.408642 0.337062 -0.033089 -0.121240 -0.175468 0.133210 -0.101536 -0.080619 -0.121750 0.145808 -0.235735 -0.563265 -0.170834 -0.284906 -0.021407 -0.369083 0.176576 -0.494526 0.187355 0.141269 0.551189 0.085088 -0.368229 -0.061538 0.333347 -0.216916 0.230889 -0.255050 0.079524 -0.087661 0.141035 -0.072283 -0.116589 -0.556094 -0.008252 0.216838 0.044403 -0.256285 0.135327 -0.160993 -0.037221 -0.208950 0.853270 -0.554654 0.248321 -0.261671 -0.137699 -0.272914 -0.251229 
