2767 100
女裤 0.087738 0.038318 0.341815 -0.256280 -0.317704 -0.008584 -0.131440 0.050726 0.189531 -0.078076 0.302031 -0.383122 -0.130234 -0.427494 0.036675 -0.033098 0.254311 0.120813 -0.150792 -0.296966 -0.219116 0.130723 0.134863 0.153021 -0.015185 0.366628 0.181327 0.109510 0.287312 -0.250643 0.335574 0.046514 0.115766 -0.104197 -0.341383 -0.238054 -0.080705 0.134845 -0.149350 -0.049334 -0.201282 0.066443 -0.230845 0.145017 0.062186 0.151484 0.252716 -0.161688 -0.068847 -0.046872 -0.121991 0.190610 -0.257643 0.169775 -0.103936 0.167054 -0.245644 0.079978 -0.111031 -0.055376 -0.077049 0.118660 0.364900 -0.070368 0.299839 0.091265 0.165451 -0.167036 0.282009 -0.146122 -0.268572 -0.190104 -0.079976 0.271715 0.202912 -0.158261 0.125775 -0.224592 0.345406 0.084888 -0.012029 0.094144 0.128546 0.170380 0.557429 -0.199556 -0.328230 0.021610 0.396457 -0.065405 0.166652 -0.068781 0.182398 -0.357214 0.292643 -0.130638 0.191117 0.036737 0.426751 0.051450 
uxuzgzc -1.293243 0.378987 0.917324 0.478259 1.305201 -0.102782 -0.242188 -0.337810 0.512154 0.281977 -2.303079 0.455305 -0.054462 1.807279 -1.227195 0.562897 -0.424065 -0.709660 0.665458 2.297064 -0.207460 -0.337780 0.574785 0.502206 -0.738919 0.156288 -1.444325 1.046089 -1.943456 1.498335 -1.959911 -1.073670 -1.211786 -0.807886 -1.475158 -0.721317 -0.621044 -1.021122 0.241399 -1.255754 0.958498 -0.593587 0.970044 0.383948 -1.244290 -1.538402 -0.822056 0.029828 0.953888 0.692150 0.094466 -0.438836 0.283657 -0.077906 -1.114442 -1.255154 -0.682122 0.124374 0.621978 -1.161955 -0.105539 -0.562499 -2.050955 1.575310 -0.195358 -0.698798 -0.544210 0.834679 0.051598 -0.838076 0.964821 0.569355 -0.260990 -0.846136 -0.607385 0.185425 -0.090453 0.658805 -0.375662 -0.011639 -0.175484 -0.077705 -0.251502 1.794158 -0.437627 -0.922327 -1.256226 -0.901665 0.257616 0.431487 0.846873 -1.030749 -0.676218 0.669247 -1.161106 -0.109752 0.166662 -0.597742 1.423750 -0.363405 
uxuzgxb 0.022969 1.088703 1.743739 -0.790223 -0.682068 -2.096840 -1.042690 0.294486 0.354137 -0.438614 -0.261821 0.885767 -0.312589 1.636916 0.673909 0.392621 -1.618162 -0.769898 -0.115119 1.950909 1.559859 -0.024553 -1.131774 0.972578 -0.690072 -0.790459 -0.312678 -1.102075 -0.598336 0.692003 -0.759515 -1.289846 -0.971646 0.397230 -0.101976 1.191731 0.467351 -0.922643 0.664205 1.561572 0.901881 -0.098895 0.015325 0.084594 -0.323992 1.535848 -0.760599 0.284571 0.703972 -0.712120 1.152230 -0.452744 0.488837 0.753971 -0.439078 0.811686 0.528414 0.522187 -0.091020 0.374020 -0.178251 -1.316329 -0.619219 -0.049264 0.834787 -0.541499 -0.182148 0.912722 0.242987 -0.435674 -0.382378 0.838432 0.377078 0.678161 -2.248455 0.171650 -0.514593 1.249691 -2.254817 0.429266 0.250291 0.435939 0.741075 -1.021136 -2.169100 0.921308 -1.071577 -0.301050 0.356274 1.757305 -1.168024 1.431502 -0.647622 0.281499 -1.969239 0.423975 -0.791542 -0.291710 -0.629172 1.923756 
uxuzgzf 1.982829 0.265743 0.922509 -2.122147 -0.013316 0.068065 1.164791 0.557293 0.351472 0.050196 -0.010717 -0.665239 -1.496342 -0.341466 0.232151 -0.195981 -0.329871 0.660247 0.973284 -0.204952 -0.380055 -0.193727 1.190264 -0.925714 0.681853 0.252198 0.695927 -0.071431 1.675062 0.273161 -0.567315 1.253782 0.551032 -0.074458 1.819779 -0.629569 -0.251997 0.008337 0.923250 -0.792292 -0.840062 -1.032583 0.206796 -1.064739 0.617183 -1.278665 -2.202359 -0.624349 0.328756 -0.122346 -0.126343 -0.318065 -0.074804 -0.362904 -0.780336 -0.912583 2.226926 -0.669433 1.493162 0.362265 -0.587933 0.237871 -0.648907 -0.705200 -1.100131 -0.506325 -1.040052 0.527530 -1.064290 1.923583 -0.520417 -1.187293 -0.479841 -1.947809 -0.517495 1.014138 0.012117 0.293905 0.614131 0.264865 0.349557 -0.302742 -0.499597 0.226971 -2.133366 0.512644 1.794572 0.733556 -1.929853 0.377519 -1.440296 0.574053 -0.161574 1.807457 0.054126 -0.274086 0.328572 0.770513 -2.815826 -0.941436 
uxuzgrz 0.359960 -0.662328 -1.636892 0.905661 0.842065 0.911169 0.239023 -0.306122 -0.486421 -0.260433 0.873927 0.374307 1.234586 0.207320 -0.164046 0.678840 1.048362 -1.074293 -0.695088 -1.074854 0.506484 -0.929724 0.251187 -0.293899 0.145607 0.318569 0.394346 -1.467170 -0.807395 -0.903773 -0.787226 -0.189051 0.474621 -0.114124 -0.490418 0.567742 1.212602 0.320650 -0.958653 0.936995 1.429514 -1.139224 1.204447 -0.235606 0.202949 -0.259574 -0.178118 1.492825 -0.352709 -1.585705 0.945962 0.626403 0.434105 -0.958665 -0.082699 -0.994179 1.074698 -1.130403 1.256097 1.857063 0.359991 -0.491750 0.153142 0.713315 -1.613497 -0.309438 -1.046287 0.613066 -0.868608 -0.786652 0.113997 -0.042128 0.761428 0.942183 0.198936 1.097864 -0.129476 0.812706 -1.198625 -0.616420 -0.031242 0.473122 0.360421 -1.071610 -1.958993 1.214345 -0.380827 0.152439 -1.861189 -0.735913 -1.248034 -0.410962 -0.611054 0.403899 0.139803 1.187526 -0.213551 0.029222 -1.114314 0.944973 
包 -0.063681 -0.085543 -0.276208 -0.866776 -1.175030 0.706798 -0.458827 -0.119316 -0.197543 0.853677 0.948502 1.105986 -0.223035 2.185364 0.960178 -0.422020 -1.756613 1.987634 0.740569 0.683465 0.332107 -0.385849 -0.354231 -0.168253 0.299733 -0.967680 -0.128801 0.389411 -0.876267 0.890068 -1.329507 -0.551175 -0.492456 -0.229426 1.824357 1.212989 -0.205850 -1.459242 -0.308468 0.521397 1.197381 -0.418523 -0.020959 -0.629622 -0.051114 0.320457 -0.338304 0.615751 0.569091 0.649789 -0.254069 -0.627174 0.802937 -0.083417 1.188502 0.208951 0.539173 -0.104630 -0.911897 -0.133904 -0.252736 0.393703 -0.803497 -0.184314 -0.317817 -0.350857 0.691756 -0.530440 0.525560 0.871642 0.914818 -0.214421 0.604829 -1.014715 -0.899537 -0.895724 -0.913993 0.213184 -0.176969 -0.390366 -0.869669 -0.365188 -0.414997 -0.464942 -0.480870 0.707896 1.367988 0.345126 -0.508849 0.578385 -0.190509 -0.545998 -0.714728 0.475583 -1.246940 0.641449 -1.177239 -0.222474 -0.858413 -0.345014 
uxuzgxc -0.764918 -0.403219 -1.261512 1.956259 1.880701 -0.972622 0.187278 0.014240 -0.641816 -0.474747 0.004073 0.681324 0.526557 0.615017 0.301891 -0.839371 0.692373 -0.921154 -0.016654 0.106552 -0.054376 0.221860 -1.773594 -0.599219 -0.302512 -2.293749 -1.055157 -0.710753 -0.199466 0.466594 1.126681 -0.165812 -0.131106 1.464741 0.156770 0.305649 0.566148 0.516455 1.612470 0.368410 -0.162755 1.164743 0.157942 -0.231869 -0.119737 -0.636612 0.515889 0.973597 -0.157817 0.557718 0.657153 -0.964588 0.397600 0.211566 -0.062539 -0.344911 -0.050509 -0.171788 -1.244907 -0.115734 0.475390 -0.990356 -0.859912 -0.468889 -0.625348 0.333448 0.226592 0.498433 -1.839271 0.650862 0.830154 2.490603 0.264624 -0.414096 0.049629 0.156523 -0.432053 0.309015 -0.167405 -0.269027 0.024152 -0.487843 -0.384887 -0.778115 -0.908482 -0.328693 1.102597 0.325718 0.629699 -0.332697 0.491907 0.094085 0.356695 0.409912 -0.965237 0.962524 0.085652 -0.659297 0.582227 -0.878943 
袜 -0.468650 0.814755 0.499861 -0.114671 0.562085 0.222748 0.715861 0.492496 0.926378 -0.260960 -1.953305 0.036057 -1.319508 0.233305 -1.256252 0.706873 -1.055901 -0.106689 0.976043 1.291824 -0.180018 0.721893 0.589002 0.115955 -0.429379 -0.198211 -1.166580 0.443878 -0.504337 1.719074 -1.563937 0.511649 -1.175715 0.478636 0.600639 -0.486189 -0.472449 -0.122345 0.563839 -1.844407 -1.007278 0.126951 0.693773 -0.160372 -0.345102 -1.067033 -1.582049 -1.283751 0.732015 1.064271 -0.485528 -0.056936 0.067902 -0.165389 -0.963245 -0.273907 0.399935 -0.352976 1.048363 -0.225618 -1.013366 0.715104 -1.677231 -0.045046 -0.474694 -0.518310 -0.278039 0.579649 -0.296235 0.721028 0.705910 -0.239607 -0.197947 -1.369101 -0.149352 1.109427 0.542088 0.178034 -0.562273 0.939700 0.551735 -0.382728 -0.444143 0.994521 -0.602100 -0.365116 0.948571 -0.169983 -0.138637 -0.101319 -0.395247 0.315048 -0.160406 0.920355 -0.267414 0.164583 0.456314 0.560350 -0.458512 -0.580022 
uxuzgxy 0.471145 -0.615216 -0.899027 0.167948 -1.291323 0.801531 -0.075510 0.144499 -0.439387 0.741574 1.392673 -0.414644 0.413670 0.150086 0.646434 -0.386723 -1.431039 1.313646 -0.401027 0.484221 0.670919 -0.702648 -0.853922 -0.415026 1.628358 -1.048380 0.671480 0.913573 -1.897192 0.361712 -0.815474 0.146231 -0.183342 -0.037781 1.925952 0.750873 0.388929 0.116195 -1.287609 1.258329 0.880309 -0.004840 1.028791 -0.488556 -0.328646 0.782968 0.023400 0.311188 0.479677 1.254067 -0.646891 -1.047763 0.780006 -0.681572 1.433026 0.453811 0.400903 0.261690 0.470221 -0.327676 0.031841 0.087698 -0.768576 -0.063665 -0.451467 0.061398 0.295247 0.576215 -0.148081 0.415666 2.072658 -0.513881 -0.127967 -1.462531 -0.113576 -0.351694 -0.447727 0.080114 -1.020562 -0.511979 -0.216233 -0.084408 -1.170873 0.004202 -0.646473 0.367244 1.043171 0.462673 -1.620779 0.424641 -0.475573 -0.126009 -0.061458 0.488517 -0.925783 -0.363037 -0.998104 -0.120002 -0.711323 -0.092477 
链 -0.291764 -0.362563 -1.971360 1.785175 2.062660 -1.266798 0.508887 -0.758980 -0.632035 0.038423 -0.185348 0.522853 0.077496 1.808708 0.528628 -0.598598 -0.520935 -0.941233 -0.286485 0.483059 0.695413 0.272173 -1.545764 -0.342782 0.183115 -1.435236 -0.003814 -0.995454 -0.006192 -0.096773 0.501503 -0.260387 0.215612 1.104688 0.250678 0.636893 0.420196 0.780659 0.501930 1.411517 0.249438 0.573931 0.180876 -0.030479 0.031044 -0.223803 -0.286870 0.360843 0.384742 0.094280 0.510968 -1.350434 0.599886 -0.226624 -0.147219 -0.279006 -0.161856 0.052717 -0.428736 -0.356159 0.110937 -0.834555 -0.976235 -0.457941 -0.394819 -0.055770 -0.876011 0.661813 -0.446946 0.166401 -0.525692 1.352678 -0.181462 -0.184184 -0.527413 0.367274 -0.680749 0.352368 -0.410980 0.117971 -0.196994 0.339534 -0.005914 -0.622517 -0.772395 -0.413204 -0.487608 0.658689 0.944157 0.687639 0.091004 0.499241 0.200541 0.289350 -0.656391 0.075972 -0.025167 -0.111696 0.257709 0.316759 
uxuzgzb -1.131592 0.476638 -0.742209 0.420463 0.033095 0.873499 0.222146 -0.007168 0.694543 0.357899 -2.252671 0.794807 -1.041519 0.620845 -1.616492 0.768645 -1.373960 -0.614633 1.089656 1.195437 0.543651 0.847870 -0.361747 -0.083869 -0.406387 -0.817076 -1.465392 -0.360822 -0.565658 1.989339 -1.206824 0.741990 -1.906029 1.369514 2.109627 1.273715 -0.418674 0.582018 -0.017826 -1.215191 -1.103921 1.030773 0.957596 -0.624515 0.752187 0.292505 -0.821426 -1.937494 0.309494 1.356751 -0.187862 0.510419 0.150251 -0.695906 -0.109868 0.926256 -0.264530 0.317983 0.848082 0.201633 -0.563636 1.310999 -0.454898 -0.672083 -0.402971 0.172028 -0.523052 0.115305 0.632843 0.337494 0.736862 0.105091 0.006191 -0.299007 -0.307142 0.821989 0.494862 0.280709 -1.607261 0.482176 0.401271 0.158119 -0.059656 0.580062 0.580234 0.682391 0.727416 -0.038481 -0.128882 -0.460310 -1.382035 0.436348 0.126658 -0.058955 1.007365 -0.277900 -0.056816 1.003946 -0.864549 -0.240464 
uxuzgxu -0.198380 -0.616153 -0.519404 -0.726312 -0.696340 0.692564 0.214650 0.145464 -0.998868 0.942163 -0.388778 1.507132 0.736622 1.226549 0.287602 0.253375 -0.806604 1.464177 0.937385 0.668680 -0.008141 -0.828996 -0.160425 0.043588 0.623987 -0.770008 -0.120217 -0.026267 -0.524515 0.082581 -1.204004 -0.487497 0.214579 -0.232021 1.569098 1.375034 -0.954116 -0.976624 -0.561181 -0.084613 1.129956 -0.349970 0.034010 -0.321608 -0.349573 -0.065047 0.930072 0.522037 0.062786 0.180474 -0.548877 -0.213512 0.704998 -0.246165 2.055405 -0.239257 0.364079 -0.396877 0.043087 -0.240254 0.539689 0.124945 0.271414 0.291312 -0.685252 0.041232 0.176561 -0.805268 0.282257 0.790601 0.894304 -0.051515 0.408867 -1.094478 -0.164147 -0.353443 -1.083629 0.447804 -0.201483 -0.671349 -0.372188 -0.778426 -0.797661 -0.591471 -0.420499 0.440905 1.318035 -0.001910 -1.109991 -0.241647 0.076614 0.060971 -0.156273 -0.053646 -0.148831 -0.158805 -0.604469 0.211893 -1.331215 -0.688016 
夹子 0.127682 -0.152910 -1.203189 -0.296217 0.600322 0.497314 0.299079 -0.524964 -1.537749 0.738589 -1.439342 0.713265 1.412160 1.331448 -1.057543 1.122208 -0.061416 -0.982669 0.348644 -0.019824 0.756091 -0.541642 0.663333 0.583039 0.147344 0.134760 -0.345790 -0.373051 -0.092518 0.668471 -1.036103 -0.033108 -0.100152 -0.656986 0.702111 1.388260 0.674553 0.332180 -0.688492 -0.223561 1.065652 -0.243597 1.205096 -0.092349 -0.152328 0.732188 -0.953096 -0.089307 -0.190710 -0.881210 0.381787 0.238608 0.288529 -0.771867 0.043573 -0.562342 0.025289 0.582507 1.785535 -0.001577 0.107312 -0.104759 -0.919265 1.180933 -0.858162 -0.603473 -1.473590 0.758078 0.521128 -0.860042 0.050513 -0.985693 0.296230 0.535484 -1.137067 0.204492 -0.282109 1.227846 -1.081043 -1.186898 0.057469 0.619496 0.024476 0.241616 0.895536 1.231384 -1.329310 -0.096869 -0.698990 0.088485 -0.880205 -0.023176 -0.238519 0.068999 1.025879 -0.700586 -0.632621 0.336865 -0.379330 0.511308 
uxuzgxv -0.121061 0.023182 -1.567719 0.150655 0.681782 0.723210 0.293398 -0.436622 -0.671143 0.777197 -0.989556 2.730024 1.375783 0.923057 -0.407170 0.411096 -0.580287 0.449965 1.396229 -0.111698 0.028378 -0.944232 0.316253 -0.699728 -0.203120 -0.729375 -0.551666 -0.227834 -0.029641 -0.232512 -1.053289 0.126718 0.319296 -0.342814 1.117538 1.224847 0.246012 -1.264110 0.497578 -0.114424 0.955198 0.047158 -0.391562 -0.604932 -0.350783 0.177586 -0.149316 0.859833 -0.050827 -0.587480 -0.274133 -0.169698 0.058678 0.322992 1.897372 -0.162318 0.637928 0.172155 -0.470977 0.022634 0.608207 0.423378 0.231923 0.237339 -0.103723 0.689572 1.270975 -0.449092 -0.178603 0.301790 0.342053 -0.146765 0.395375 -0.358036 -0.060242 -1.022342 -0.334724 -0.709841 0.179639 -0.115070 -0.941375 -0.438556 0.292593 -1.027681 -0.636493 0.839034 1.302999 -0.034843 -0.630605 0.822482 -0.088014 -0.419443 -0.765274 0.154404 0.003901 0.611861 -1.134773 -0.255464 -1.438828 -0.030916 
人造花 -0.428403 -0.086734 -1.163374 0.828224 0.566411 0.723868 -0.026406 -0.691783 0.548033 -0.864134 0.427005 -1.142345 -0.730977 1.049157 -0.488318 -0.719655 -0.866940 -1.146103 -0.298433 0.267620 0.242934 0.892465 0.595037 -0.480386 -1.468004 0.818909 -0.195487 -0.630373 -0.318840 0.575520 -0.204289 -0.482898 -0.679577 0.900067 0.184832 0.282492 0.478985 -0.532855 -0.036460 -0.177084 0.252087 -0.785235 0.319841 0.461357 0.555879 -0.221685 -0.625141 0.104693 -0.913003 -0.422337 1.258475 -0.366011 0.334106 -0.900892 -1.618404 -0.600814 0.436651 -0.957616 0.389682 0.532613 0.055556 -0.013084 -1.617595 -0.566209 -0.682325 -0.817936 -1.460500 -0.271742 0.300536 0.116605 -0.208300 -0.073998 0.488455 0.102527 -0.689847 1.901409 0.246349 -0.377229 -0.243772 -0.299763 0.481884 0.690959 0.325435 -0.279786 -0.708456 0.914387 -0.261330 -0.531858 -0.857925 -1.304593 -0.126748 -0.258784 -0.344640 1.142246 -0.693150 1.415797 0.080962 -0.095357 -0.478244 1.137717 
打底裤 -0.604658 0.633826 0.638710 0.585965 0.765504 0.352030 0.709653 0.209794 0.768193 -0.355070 -2.258166 -0.053124 -0.951499 0.271819 -1.248944 0.402588 -0.195938 -0.345778 0.666324 1.252771 0.134121 0.850558 0.826364 -0.045714 -0.721267 0.587163 -0.678214 0.673364 -0.349341 1.355506 -0.817331 0.388268 -1.099362 0.085412 -0.127500 -1.197617 -0.290496 -0.240609 0.675433 -1.638765 -0.996317 -0.338856 0.564888 0.034061 -0.311717 -1.371388 -1.588185 -0.694783 0.768383 1.007095 -0.053200 0.066796 0.446902 -0.365543 -1.410234 -0.723284 0.319991 -0.512630 0.926000 0.023119 -0.541379 0.556884 -1.476092 0.441145 -0.646658 -0.751486 -0.418599 0.585966 -0.834495 0.220177 0.419472 -0.107559 -0.007134 -0.771175 -0.048325 0.902510 0.556512 0.446155 -0.431937 1.073140 0.833757 -0.164840 -0.351743 1.263500 -0.623108 -0.258893 0.655675 -0.485079 -0.229699 -0.611040 0.029226 0.048414 -0.095676 1.290527 -0.096815 0.065325 0.735060 0.055649 -0.174782 -0.594923 
玩具 -0.659214 0.065832 -0.183806 0.921429 0.520822 -0.725840 -0.038648 0.053443 -0.543976 -0.341365 0.290991 0.573533 -0.038556 0.355770 1.237200 -0.703367 -0.507237 -0.340117 -0.632619 0.263228 1.097738 0.378457 -0.960925 -0.276656 -0.525190 -0.957220 -0.601109 -0.069918 -0.362557 1.292488 -0.113484 -0.155367 -0.007626 0.324044 0.277998 -0.211085 0.599646 -0.232165 1.202378 0.331453 -0.335968 0.356864 -0.047247 0.112110 0.026735 -0.020062 -0.458661 0.720156 -0.473608 0.406357 0.792201 -0.090270 0.930257 -0.294824 -0.357354 0.288892 0.399933 0.032743 -1.578517 0.705757 0.209046 -0.829048 -0.908406 -0.234940 -0.073061 -0.509556 0.089128 0.226945 -1.092849 0.235116 0.364523 1.024713 0.760719 0.047493 -0.483778 -0.300421 0.114274 0.564018 -0.365699 -0.288465 0.229648 -0.678112 -0.307559 -1.065514 -1.025621 0.540489 1.413158 -0.025271 -0.206150 -0.506885 -0.330446 0.782476 -0.435629 0.863449 -1.781617 0.943311 -0.123602 -0.646090 -0.095745 -0.274455 
uxuzgxf 0.096468 -0.272615 -0.952751 1.133310 1.387668 -1.165042 0.426570 -0.558654 -0.173627 -0.000545 -0.186297 0.005843 -0.404209 1.518088 0.423934 -0.944594 -0.727383 -0.369455 0.137410 0.419526 0.112374 0.563901 -1.178438 -0.584596 0.082482 -1.245057 -0.235082 -0.620865 0.117446 0.218426 0.632814 -0.051926 0.014910 1.145795 0.666620 0.037935 0.179760 0.444424 1.158125 0.751894 -0.255281 0.483932 -0.060026 -0.274169 0.071267 -0.724384 -0.225006 -0.073648 0.481537 0.508884 0.256917 -1.543551 0.512898 -0.084871 -0.413569 -0.551848 0.216409 -0.021701 -0.510658 -0.608448 -0.013216 -0.479477 -1.320563 -0.614731 -0.362190 -0.141658 -0.858518 0.355781 -0.618894 0.899943 -0.086270 1.332176 -0.521468 -0.895873 -0.413447 0.442631 -0.576751 0.019307 -0.047806 0.228850 0.094856 0.020779 -0.325537 -0.220190 -0.897788 -0.647323 0.219523 0.477551 0.811336 0.513214 0.468850 0.437395 0.138365 0.792268 -0.764948 0.122318 0.100690 -0.101182 0.077700 -0.326548 
饰品 0.212872 -0.291051 -1.364876 1.025077 1.321734 -0.890142 0.160880 -0.513400 -0.672643 -0.463334 -0.135405 0.315086 0.435637 1.610467 0.150971 -0.315256 -0.152781 -1.251222 -0.196411 0.128108 0.378383 0.094501 -1.206408 -0.365860 -0.187358 -1.084259 -0.341130 -1.426191 -0.302481 -0.065310 0.366354 -0.386952 -0.177634 1.238665 0.298785 0.902500 0.698946 0.493634 0.541402 1.193446 0.619527 0.067791 0.535056 -0.040106 0.175423 -0.125698 0.064521 0.418030 0.010159 -0.584261 0.821810 -1.074092 0.332250 -0.255377 -0.752804 -0.632425 0.335178 -0.145920 0.271579 0.143359 -0.005481 -0.890747 -1.219906 -0.112887 -0.579517 -0.237213 -1.165717 0.626489 -0.347397 0.193718 -0.458248 1.143698 0.039843 0.276366 -0.639251 0.735318 -0.586809 0.324133 -0.562979 -0.082750 0.292410 0.535732 0.206537 -0.668191 -0.673831 0.044268 -0.822408 0.422001 0.526222 0.319893 0.013527 0.243208 0.280165 0.352923 -0.377351 0.797220 -0.139592 0.040416 0.164572 0.620414 
uxuzfzg -0.535359 0.315814 -0.269074 1.460997 0.502046 0.731179 0.927689 0.406429 -0.128935 -0.563687 -1.542580 0.210797 0.202230 -1.029016 -0.827373 0.463586 0.835980 -0.410090 0.107231 0.178867 0.390453 0.406217 0.693327 -0.528517 -0.245356 0.403429 -0.066307 0.179289 -0.346018 0.070810 0.349780 0.661805 -0.187696 -0.169257 -0.127841 -0.926725 0.094581 -0.134111 0.367891 -1.117331 -0.698986 -0.800454 0.293998 -0.117358 0.034354 -1.125058 -0.783373 0.222332 -0.293431 0.223864 0.054225 0.428999 0.667364 -0.262949 -0.078616 -0.532644 0.725050 -1.162487 1.212031 0.828877 0.166746 0.617384 0.108656 0.297684 -1.143734 -0.164407 -0.095328 0.145398 -1.998228 0.445098 0.700376 0.186139 -0.026608 -0.270669 0.615525 1.410714 0.571190 0.709689 -1.008711 0.162021 1.191190 -0.089896 -0.403377 -0.339691 -1.608116 0.655990 1.756694 -0.923800 -1.514691 -1.247346 0.104831 -0.153847 -0.170502 1.146186 0.563341 0.225127 -0.249763 0.324742 -1.566123 -0.288614 
项链 -0.143747 -0.168775 -1.266162 1.427139 1.794852 -1.553530 0.060557 -0.544807 -0.312978 -0.053294 -0.455948 0.802596 0.171494 2.220350 0.142847 -0.468419 -0.610324 -0.948180 0.208035 0.936411 0.312929 0.182071 -1.843426 -0.160723 -0.015316 -1.864054 -0.532212 -1.219092 -0.284966 0.038872 0.470014 -0.581155 -0.275092 1.474003 0.256072 0.978217 0.318487 0.481228 0.841407 1.366884 0.529661 0.718995 0.242467 -0.176395 -0.206780 -0.196639 0.037450 0.338220 0.745621 0.116003 0.562221 -1.624430 0.430902 0.263223 -0.199451 -0.397949 -0.064683 0.130138 -0.311076 -0.575056 0.114936 -1.012612 -1.229848 -0.414194 -0.353911 0.035532 -0.683566 0.843442 -0.531587 0.297513 -0.039209 1.961572 -0.341300 -0.394467 -0.873157 0.434517 -0.906321 0.389004 -0.855227 0.193835 -0.108728 0.362468 0.062952 -0.484475 -1.152046 -0.540105 -0.684822 0.543485 1.240971 1.032323 0.226282 0.444101 0.224205 0.200843 -0.848740 0.290692 -0.144142 -0.151072 0.375450 0.305239 
耳环 0.123382 0.080593 -0.264456 0.595237 1.159749 -1.507034 -0.243727 -0.272376 -0.134633 -0.298626 -0.340028 0.476487 0.083033 1.972829 -0.049845 -0.326110 -0.549550 -1.019119 0.208327 0.892123 0.307472 0.206747 -1.357582 0.119807 -0.370884 -1.708183 -0.749768 -1.148971 -0.390854 0.314862 0.297345 -0.754790 -0.705495 1.372618 0.367431 1.031690 0.451400 0.205689 1.102636 1.133587 0.411924 0.528270 0.365687 -0.241963 -0.162982 0.080217 0.031479 0.277398 0.598421 -0.146840 0.684493 -1.284086 0.170712 0.245687 -0.593865 -0.428643 0.109034 0.304611 -0.083972 -0.414507 -0.026827 -0.948776 -1.348562 -0.174318 -0.203877 -0.093504 -0.763984 0.718063 -0.411373 0.359065 0.008923 1.788294 -0.095579 -0.143849 -1.066236 0.471711 -0.720272 0.550324 -0.958788 0.172961 0.006222 0.208601 0.000955 -0.366237 -1.038346 -0.262194 -0.738622 0.321603 0.894634 0.918387 0.039071 0.446832 0.021657 0.376597 -0.957909 0.404848 -0.181509 -0.272675 0.251098 0.391364 
杯 -0.333416 -0.055934 -0.440869 0.544323 0.789001 -0.495124 0.471542 0.041964 -0.283576 -0.080693 -0.260746 -0.015103 -0.307360 0.168692 0.520621 -0.107819 -0.401911 -0.887458 -0.703905 0.165540 1.032000 -0.143575 0.152834 -0.297310 0.131306 -0.369876 0.047933 -0.037050 0.016690 0.925057 -0.676667 0.187233 -0.289909 -0.143819 0.325963 -0.324448 0.340897 0.282007 0.470464 0.367023 -0.903763 0.155809 0.530443 -0.326963 0.588284 -0.391091 -1.591358 -0.312114 -0.021658 0.394788 0.761062 0.726610 0.492517 -1.191460 -0.916246 0.140402 0.313525 0.526158 -0.513788 0.616724 -0.521337 -0.134966 -0.513052 0.088755 -0.309615 -0.760485 -0.987566 0.169247 -0.247200 -0.134977 -0.514277 0.222103 0.301740 0.207528 -0.248397 0.007453 0.372770 1.321127 -0.506472 -0.064293 0.012095 -0.592505 -0.047154 -0.026490 -0.324423 0.556228 0.601428 -0.077583 -1.118843 -0.093568 -0.857357 0.754364 -0.403838 1.094266 -0.672064 -0.136968 -0.151650 -0.350001 -0.786753 -0.210904 
刀具 -0.654838 -0.359523 -1.555301 0.900667 0.926517 0.560755 0.651851 -0.267858 -1.088712 0.394547 -1.270728 1.117089 1.262521 -0.661679 -0.440170 0.345175 -0.436442 -0.404280 0.210120 0.437065 0.615186 -0.551968 0.271121 -0.605179 0.292054 -0.508958 -0.255865 0.364824 -0.778077 0.591691 -1.232908 0.160892 0.171543 -0.437593 0.844250 0.466611 -0.061059 -0.432189 0.031671 -0.610527 0.187536 0.135654 0.338777 -0.017164 -0.376523 0.119260 -0.147063 0.331869 -0.753073 0.216313 -0.202545 0.182221 0.461876 -0.900161 0.986321 -0.125845 -0.240745 0.336448 -0.375443 -0.130243 0.698044 -0.018575 -0.147781 0.660972 -0.324972 0.051191 0.241419 -0.220428 -0.046993 -0.299739 0.898589 -0.224239 0.380337 -0.264172 0.260699 -0.365845 0.398759 -0.246827 -0.005529 -0.234413 -0.170432 -0.752913 -0.347101 -0.307659 0.192352 0.261602 0.958919 -0.395690 -1.422161 -0.243628 0.212941 0.488781 -0.580908 0.292969 -0.115177 -0.043898 -0.110231 -0.389049 -0.785820 -0.154388 
手链 0.038700 -0.250660 -1.122346 1.199228 1.642797 -1.450364 0.083534 -0.649137 -0.153886 0.063870 -0.374611 0.756275 0.192351 2.125255 0.142031 -0.440592 -0.572875 -0.978152 0.117648 0.732764 0.322553 0.103204 -1.607334 -0.193772 -0.018533 -1.658333 -0.360145 -1.295622 -0.268066 -0.214615 0.302716 -0.566456 -0.099698 1.313682 0.226596 0.969061 0.486537 0.459649 0.693151 1.393905 0.720828 0.641146 0.198556 -0.253691 -0.206081 -0.243716 -0.022852 0.361438 0.736611 -0.245434 0.578365 -1.517656 0.366391 0.184115 -0.107418 -0.507799 0.127748 -0.002840 -0.018307 -0.435525 0.185799 -1.004000 -1.189263 -0.249001 -0.360152 -0.001768 -0.787447 0.850076 -0.449905 0.278680 -0.128211 1.621117 -0.283726 -0.350430 -0.742650 0.472605 -0.827205 0.346118 -0.834828 0.113686 -0.182880 0.466860 0.055422 -0.498673 -1.393294 -0.322333 -0.756262 0.459045 0.973059 0.939017 0.052089 0.426875 0.178556 0.406221 -0.768639 0.377945 -0.110889 -0.134058 0.159637 0.453849 
车 -0.488934 -0.389120 -1.097771 0.927945 0.327895 0.329351 0.044366 -0.358099 -1.017056 0.195994 0.280846 0.808915 0.489465 0.451543 0.739333 -0.555394 -0.469989 -0.037757 -0.428422 0.006483 0.836855 -0.168761 -0.722822 -0.326139 -0.008241 -0.846350 -0.369948 0.434008 -0.622403 1.131142 -0.630008 -0.003960 0.176837 -0.032845 0.642300 0.150542 0.368062 -0.106849 0.582938 0.397265 0.244657 0.364021 0.189690 0.039297 0.041046 0.098029 -0.110254 0.702154 -0.631302 0.306801 0.499192 0.016347 0.606927 -0.554389 0.149520 0.132922 0.155730 0.114999 -1.518591 0.527477 0.474132 -0.477525 -0.711441 0.078220 -0.054742 -0.376296 -0.020367 0.024166 -0.415471 0.184806 0.561502 0.366403 0.771040 -0.155022 -0.145333 -0.419317 -0.068641 0.149810 0.105670 -0.561621 -0.119190 -0.825424 -0.492236 -0.877006 -0.123448 0.527088 1.344482 0.047161 -0.864494 -0.617882 -0.285196 0.390969 -0.370563 0.694169 -1.272718 0.290624 -0.327255 -0.542209 -0.127153 -0.551535 
西装套装 -0.738447 0.174030 -0.334535 1.394295 0.359384 0.344582 0.476216 0.095295 -0.679348 -0.622107 -0.555731 0.330579 0.532595 -0.833237 0.070491 -0.174499 0.533050 -0.316133 -0.534639 0.038872 0.793344 0.384261 0.471563 -0.472293 -0.190980 0.035123 -0.145377 0.181253 -0.475781 0.546125 0.207800 0.227857 -0.344992 -0.331603 0.020161 -0.390858 0.232763 -0.365131 0.481285 -0.528818 -0.256219 -0.575372 0.102278 0.152907 0.186247 -0.240786 -0.273116 0.403626 -0.784518 0.355507 0.196523 0.155766 0.937330 -0.325849 -0.120177 -0.225998 -0.032574 -0.387745 -0.325764 0.630317 0.399094 0.015890 -0.218381 0.317190 -0.681000 -0.221946 0.026834 -0.147528 -1.056369 0.076436 0.887662 0.434163 0.215075 0.014323 0.261378 0.733092 0.388642 0.536165 -0.803110 -0.392212 0.574273 -0.330194 -0.376067 -0.725949 -0.892124 0.691687 1.320465 -0.813718 -1.107559 -0.967180 0.468883 0.198035 -0.407211 0.831709 -0.329881 0.318550 -0.473304 -0.286187 -0.583183 0.018791 
女童外衣 -0.493365 0.285155 -0.414793 1.510931 0.502909 0.594913 0.881373 0.362735 -0.207539 -0.542526 -1.276361 0.212166 0.221533 -0.969181 -0.582620 0.288575 0.838821 -0.396446 -0.019531 0.032549 0.459018 0.384018 0.523846 -0.551368 -0.197605 0.311440 0.027373 0.078957 -0.252120 0.052623 0.385106 0.662908 -0.087662 -0.152495 -0.117770 -0.947816 0.165160 -0.032185 0.434930 -0.901816 -0.702046 -0.704845 0.211954 -0.073722 0.081414 -0.998567 -0.699908 0.302417 -0.347298 0.189402 0.150045 0.439331 0.741082 -0.261243 -0.074144 -0.480036 0.689444 -1.069633 0.876671 0.857796 0.191723 0.521548 0.118796 0.201957 -1.072183 -0.170443 -0.042348 0.089710 -1.915541 0.438588 0.550315 0.231017 0.026232 -0.178029 0.572383 1.218722 0.500509 0.681975 -0.871943 0.130018 1.111530 -0.126779 -0.375035 -0.461241 -1.514649 0.597705 1.703555 -0.761836 -1.394852 -1.222722 0.085367 -0.066161 -0.151831 1.093358 0.371285 0.244246 -0.244060 0.251193 -1.439194 -0.290078 
手包 0.092348 -0.140410 -0.330725 -0.705900 -0.778004 0.470608 -0.312877 0.034882 -0.227125 1.001704 0.212745 1.413800 0.234740 1.855017 0.336549 0.034202 -1.528909 1.534206 0.937628 0.880227 0.089108 -0.727146 -0.484692 -0.062984 0.597922 -1.264160 -0.218732 0.251278 -0.946105 0.451010 -1.223698 -0.422303 -0.423848 -0.068659 1.698056 1.399827 -0.212337 -1.168876 -0.440734 0.508239 1.297517 -0.156576 0.164085 -0.740059 -0.382083 0.340391 -0.078490 0.439979 0.812665 0.525514 -0.369211 -0.788509 0.505451 0.151033 1.644249 0.185255 0.415139 0.005242 -0.249938 -0.359578 0.044805 0.303517 -0.465672 -0.107076 -0.329311 0.092704 0.710916 -0.158620 0.309047 0.682039 1.195545 -0.067213 0.351107 -1.188879 -0.729497 -0.734406 -0.966312 0.153446 -0.509262 -0.264186 -0.720530 -0.286443 -0.373862 -0.373507 -0.731895 0.463895 0.962353 0.231114 -0.549379 0.893934 -0.254359 -0.368677 -0.564455 0.216500 -0.753372 0.216876 -1.097924 -0.132009 -1.057499 -0.253371 
绳 0.873188 -0.471829 -0.446146 -0.256334 0.651119 -0.059648 0.626047 -0.618403 -0.349355 0.491162 -0.233661 -0.168949 -0.058470 0.294442 0.174875 -0.086958 -0.182547 -0.421321 -0.512906 -0.811818 0.218161 -0.339119 0.166879 -0.657827 0.485523 -0.136294 0.282921 -0.222542 0.342287 -0.063317 -0.352339 0.355994 0.643558 0.315686 0.794735 -0.007851 0.191219 0.827670 0.320734 0.047651 0.262216 0.017506 0.308973 -0.296178 -0.087358 -0.741472 -0.348526 -0.478885 0.003226 -0.503692 0.099835 -0.489196 0.175173 -0.778942 0.009185 -0.837940 1.047582 0.253920 0.996572 -0.154393 -0.070954 -0.563133 -0.973284 -0.336799 -0.948163 -0.205966 -1.235597 0.649957 -0.384149 0.140235 0.005992 -0.182354 -0.602259 -0.915399 0.052404 0.550253 -0.099395 -0.164475 0.223179 -0.623277 -0.108352 -0.207346 -0.313554 -0.135181 -1.023994 -0.024941 0.095243 0.545794 -0.702351 -0.008898 -0.366501 0.706612 0.494341 0.783986 0.157698 -0.406655 0.121612 0.073440 -0.585647 -0.308930 
办公用笔 -0.537148 -0.130724 0.243144 0.558148 1.095228 0.321382 0.016832 -0.318785 -0.223842 0.588648 -1.205044 0.243771 -0.202260 0.103853 -0.401609 -0.026010 -0.281009 -0.471836 0.387067 0.922166 0.242538 0.268683 0.573568 -0.244210 -0.549445 0.182335 -0.851296 0.785915 -0.775134 1.604876 -1.461566 -0.043733 -0.356285 -0.520074 -0.281134 -0.814010 -0.411084 -0.410824 0.903028 -1.432724 -0.072969 -0.358380 0.768850 0.085890 -0.190616 -1.118931 -1.078035 0.090681 -0.195664 0.701631 0.445498 0.218273 0.635405 -0.860700 -0.806867 -0.383889 -0.268633 0.200830 -0.400135 -0.411927 0.411349 -0.247905 -0.992285 0.516634 -0.284202 -0.338574 -0.979137 0.161082 -0.199714 -0.293007 0.478793 -0.082858 -0.122066 -0.686433 -0.497453 -0.137114 0.182098 0.663167 -0.087672 -0.639155 -0.084783 -0.755410 -0.361656 0.769988 -0.423277 -0.247893 0.043072 -0.207476 -0.603948 -0.071229 -0.123101 -0.365979 -0.949665 0.769394 -0.854567 -0.635587 0.316300 -0.373370 -0.059073 -0.818247 
线 0.722540 -0.633371 -0.553034 -0.240803 0.647562 0.120077 0.900561 -0.374593 -0.440520 0.312088 -0.360041 0.138487 0.212902 -0.134370 0.190531 -0.018943 0.117054 -0.127802 0.003317 -0.684835 -0.188882 -0.709176 0.527045 -0.887171 0.521387 -0.060385 0.337058 -0.112715 0.350786 -0.168884 -0.609659 0.499773 0.607043 -0.070083 1.011764 -0.096692 -0.033346 0.219087 0.562219 -0.413346 0.192064 -0.440220 0.042945 -0.255908 -0.167844 -0.944463 -0.202772 -0.105177 -0.278937 -0.355819 -0.082519 -0.211870 0.263277 -0.449659 0.231449 -1.064976 0.824989 0.001399 0.808988 0.011575 0.171221 -0.153092 -0.337818 -0.063792 -0.892076 -0.059326 -0.614843 0.251679 -0.710969 0.475797 0.267912 -0.361965 -0.566483 -1.154684 0.295217 0.427672 -0.148395 -0.367630 0.622553 -0.424309 -0.087600 -0.471438 -0.477680 -0.225763 -1.184044 0.178967 0.686413 0.207013 -1.353009 -0.017770 -0.060722 0.456867 0.221351 0.679707 0.037690 -0.313204 0.282035 0.017540 -1.003164 -0.567959 
帽 -0.321143 0.017801 0.034262 -0.050609 -0.088062 -0.158619 0.105545 -0.004474 -0.034979 -0.399428 0.443952 -0.270313 -0.065677 0.025295 0.640071 -0.123656 -0.277267 -0.415835 -0.288270 -0.131848 0.663252 0.085742 0.377978 -0.142334 -0.422609 0.370723 0.048800 -0.376404 -0.196673 0.341853 0.001046 -0.028644 0.100876 -0.181299 0.046245 -0.133332 0.341585 -0.243478 0.153528 0.099993 0.120928 -0.683287 0.045696 -0.059832 0.167258 -0.133977 -0.497469 0.325904 -0.457069 -0.398783 0.372625 0.123054 0.488455 -0.280999 -0.384066 -0.091026 0.701144 -0.341861 0.301727 0.598238 -0.006531 -0.180510 -0.382597 -0.019536 -0.449867 -0.216562 -0.661399 0.180621 -0.666678 0.084201 0.055368 -0.075223 0.222366 0.169064 -0.327646 0.602999 0.144598 0.397415 -0.606425 -0.184393 0.132647 -0.141584 0.001305 -0.788112 -1.185973 0.911005 0.642874 -0.177878 -0.934037 -0.225159 -0.384878 0.181840 -0.400108 0.641739 -0.397125 0.394155 -0.684823 0.182891 -0.774488 0.292874 
背包 0.018883 -0.153845 -0.280497 -0.510804 -0.837933 0.512441 -0.177478 0.031014 -0.211803 0.908363 0.328362 1.313688 0.057573 1.383266 0.831850 -0.056333 -1.390773 1.462691 0.719211 0.809483 0.192042 -0.763446 -0.639412 -0.268585 0.659236 -1.361750 -0.111368 0.545042 -0.847345 0.566967 -1.154998 -0.282292 -0.322560 -0.010800 1.633420 0.948216 -0.285579 -0.999886 -0.099701 0.501205 1.015099 0.130436 0.144359 -0.800728 -0.366593 0.275444 -0.314161 0.665991 0.560143 0.733808 -0.392471 -0.637723 0.583347 0.153749 1.645523 0.322686 0.724852 0.032956 -0.443120 -0.196989 0.075472 0.126386 -0.185312 -0.127327 -0.048995 0.296875 0.885512 -0.210227 -0.008759 0.756086 0.915098 -0.029932 0.132168 -1.276349 -0.369704 -1.079812 -0.693896 0.036849 -0.280257 -0.429112 -0.770857 -0.472085 -0.627434 -0.309687 -0.935691 0.468752 1.549776 0.299824 -0.744431 0.738127 -0.543993 -0.099950 -0.391173 0.293652 -0.976988 0.003749 -0.956269 -0.111336 -1.038099 -0.630111 
架及笼 -0.441240 -0.205557 -0.612270 0.403414 0.325816 0.108989 0.424780 -0.173999 -0.547619 -0.054043 -0.087173 -0.009910 -0.175876 0.486215 0.315618 -0.018693 -0.030948 -0.408726 -0.359685 0.374148 0.772374 -0.062508 0.195061 -0.149296 0.204184 -0.087031 -0.052554 0.123972 0.034447 0.938899 -0.528501 0.159642 0.010655 -0.366946 0.408356 0.087485 0.410101 0.346482 0.054770 0.255801 -0.469878 0.121173 0.428970 -0.073397 0.493037 0.023515 -0.996046 -0.045023 -0.122021 0.302485 0.442951 0.199072 0.234241 -0.922987 -0.522151 0.012746 0.320016 0.431671 -0.386228 0.241062 0.023821 -0.289912 -0.641863 0.284620 -0.273201 -0.526347 -0.902978 0.249434 -0.233658 0.029571 -0.009360 0.163746 0.409547 0.002197 -0.270938 0.040485 0.124845 0.643864 -0.268197 -0.337403 0.020511 -0.190503 -0.113128 0.019315 0.192575 0.686473 0.690398 0.033723 -1.147986 -0.295142 -1.086383 0.313955 -0.409555 0.877605 -0.536269 -0.293515 -0.154630 -0.267947 -0.564718 -0.358902 
皮筋 0.279554 -0.266388 -0.515170 0.261088 0.525045 0.228098 0.131705 -0.389095 -0.128907 -0.121400 -0.096528 0.192612 0.501046 0.752969 -0.200013 0.296060 0.262731 -0.732853 -0.165100 -0.313490 0.128595 -0.354976 0.328093 -0.130053 -0.271135 0.465838 -0.075797 -0.796335 -0.375560 -0.504654 -0.372000 -0.276663 0.171501 0.028886 -0.313858 0.407229 0.529743 0.069942 -0.472724 0.353840 1.043143 -0.762487 0.677710 0.062607 0.022200 -0.423093 -0.211946 0.567892 -0.071924 -1.114212 0.454110 -0.104086 0.132262 -0.454583 -0.377188 -0.970956 0.848572 -0.565414 1.249366 0.793531 0.121311 -0.497542 -0.726724 0.571447 -0.871572 -0.448775 -1.021097 0.641315 -0.364097 -0.256854 -0.055013 -0.130278 0.331370 0.112879 -0.330675 0.896488 -0.165879 0.398139 -0.748643 -0.398160 0.166331 0.471946 0.155851 -0.521974 -1.258047 0.626899 -0.722971 0.098007 -0.763570 -0.202694 -0.378188 -0.258390 -0.273407 0.523242 -0.075048 0.808654 -0.167794 0.186530 -0.572517 0.737731 
uxuzgzg -0.251518 0.192294 -0.096556 0.241682 0.360768 0.282067 0.558022 0.213324 0.390792 -0.168349 -0.948912 0.093337 -0.681046 0.070851 -0.599209 0.480720 -0.420567 -0.173751 0.275603 0.509131 0.018913 0.192290 0.416660 0.085497 -0.205509 0.163163 -0.498561 0.093147 -0.050525 0.615972 -0.409665 0.354173 -0.484561 0.254628 0.249758 -0.228071 -0.010420 0.015168 0.131851 -0.827902 -0.580724 0.084097 0.561655 -0.156087 -0.026986 -0.746775 -1.190946 -0.710584 0.414905 0.455532 0.047439 0.161420 0.126700 -0.485329 -0.536300 -0.224489 0.388452 -0.163399 0.662587 0.081772 -0.547092 0.331364 -0.844465 -0.062534 -0.275277 -0.411760 -0.346824 0.370782 -0.278787 0.276449 0.295835 -0.222526 0.013187 -0.581375 -0.030172 0.767905 0.326631 0.283807 -0.436053 0.312522 0.419016 -0.271346 -0.325322 0.436130 -0.359670 0.146378 0.712202 -0.305863 -0.523696 -0.116303 -0.379703 0.273353 -0.053157 0.633621 -0.173242 0.007789 0.203940 0.049890 -0.672043 -0.320198 
板 -0.374441 -0.032265 -0.470108 0.377103 0.706351 0.028568 0.392974 -0.072447 -0.455722 0.143407 -0.773038 0.362599 0.060333 -0.053720 -0.111460 -0.086107 0.063984 -0.375838 0.236397 0.459657 0.085367 -0.312874 -0.129886 -0.251994 0.062671 -0.406817 -0.455480 0.476352 -0.049576 0.624129 -0.903492 0.137167 -0.145774 -0.083114 0.080457 -0.054995 0.027404 0.045243 0.218267 -0.377368 -0.040223 0.253974 0.298146 -0.094033 -0.056685 -0.404803 -0.543986 0.071577 -0.091743 0.059907 0.192204 0.173918 0.253410 -0.584873 0.038799 -0.332303 0.026880 0.231681 -0.174305 -0.163579 0.293052 -0.348592 -0.370607 0.178756 -0.194473 -0.372763 -0.327179 0.151136 -0.318234 0.047583 0.062006 0.327769 0.169521 -0.458204 -0.171952 -0.007417 0.037692 0.161183 0.226488 -0.142897 -0.271479 -0.458329 -0.297546 0.149985 -0.108807 -0.003859 0.357326 0.129783 -0.475976 -0.015903 -0.341443 0.111506 -0.223455 0.400650 -0.244267 -0.199484 0.096918 -0.329852 -0.403682 -0.690527 
发绳 0.480578 -0.254796 -0.786077 0.276414 0.766122 0.210500 0.222087 -0.361134 -0.217903 -0.154055 -0.214449 0.334835 0.652225 0.906272 -0.363806 0.411533 0.346209 -0.949564 -0.139409 -0.290621 0.163878 -0.507225 0.289136 -0.203203 -0.249050 0.438011 0.003966 -1.097683 -0.356566 -0.735819 -0.377070 -0.246418 0.210208 0.200448 -0.252880 0.672925 0.645464 0.073432 -0.494952 0.496466 1.172643 -0.949636 0.755657 -0.076472 0.042934 -0.424676 -0.238242 0.648958 -0.091730 -1.415600 0.548785 -0.202448 0.125180 -0.452749 -0.353378 -1.076918 1.022373 -0.676612 1.672863 0.850194 0.168484 -0.544049 -0.691111 0.599055 -1.053093 -0.343617 -1.197037 0.782437 -0.510812 -0.259857 -0.182286 -0.118045 0.264061 0.221685 -0.372008 1.143634 -0.207963 0.420538 -0.892015 -0.408247 0.206281 0.625462 0.261779 -0.636943 -1.588998 0.735983 -0.845216 0.082481 -0.928337 -0.118316 -0.475115 -0.271379 -0.225980 0.492990 0.125974 0.866580 -0.288006 0.276488 -0.921594 0.961477 
针钉 -0.217220 -0.261721 -0.937788 0.611290 0.894965 0.100136 0.653895 -0.084833 -0.472231 0.029021 -1.303372 0.278618 0.604610 0.318885 -0.677573 0.422275 -0.139158 -0.597525 0.391137 0.138312 0.230652 0.028866 0.337322 -0.146438 -0.143551 -0.170287 -0.553709 -0.037780 -0.556384 0.460469 -0.697434 0.255557 -0.239208 0.113265 0.679713 0.283521 -0.028633 0.275025 0.221158 -0.616198 -0.076458 0.023929 0.605594 0.007113 -0.377375 -0.182027 -0.118536 -0.418496 -0.021719 0.192369 -0.269918 0.070369 0.253201 -0.348333 -0.000170 -0.480562 -0.155795 0.235781 0.945762 -0.191901 -0.155253 0.384546 -0.738204 0.509595 -0.702247 -0.200468 -0.464938 0.346310 -0.019514 -0.159313 0.501410 -0.150178 -0.264632 -0.467654 0.267572 0.629284 0.041948 0.040378 -0.264159 0.039097 0.166949 0.012176 -0.396945 0.027846 0.213526 0.113237 -0.021062 -0.135422 -0.466605 -0.319859 0.164577 0.398888 0.088737 0.320959 0.243304 -0.263466 0.156605 0.232129 0.046724 -0.213785 
圣诞灯具 -0.420754 -0.400355 -0.842196 1.054018 0.460199 0.178030 0.314227 -0.139935 -0.630068 -0.224290 0.595797 -0.037997 0.032662 0.079156 0.871034 -0.611736 -0.205776 -0.162370 -0.775790 -0.359073 0.704917 -0.031017 -0.135278 -0.434820 -0.131011 -0.235651 -0.008898 0.072482 -0.553156 0.655416 -0.483687 0.011158 0.174673 0.013277 0.210209 -0.483032 0.597929 -0.052295 0.338917 0.304534 -0.055802 -0.150685 0.239249 0.034729 0.169981 -0.248506 -0.574073 0.812095 -0.506608 0.143912 0.464440 0.157907 0.770724 -0.880939 -0.291827 -0.116461 0.455917 -0.257989 -0.795024 0.671031 0.138074 -0.229970 -0.693145 -0.010869 -0.547853 -0.601774 -0.326498 -0.152344 -0.682714 0.116392 0.307816 0.257498 0.616232 -0.016006 0.087362 0.122071 0.168114 0.387636 -0.074604 -0.346921 0.011168 -0.586697 -0.368629 -0.673464 -0.692969 0.511476 1.178342 0.155950 -1.023403 -0.779808 -0.288178 0.190634 -0.427669 1.106875 -1.101947 0.673172 -0.151398 -0.487489 -0.358855 -0.337001 
珍珠 0.292126 -0.132200 -0.693804 0.401761 1.065441 -0.664389 0.055295 -0.279906 -0.225901 -0.259497 -0.196430 0.398055 0.456740 1.187001 -0.256490 0.131001 0.177136 -1.085801 0.027524 0.093164 0.076420 -0.197170 -0.721965 -0.060764 -0.145156 -0.713605 -0.240931 -1.454364 -0.261751 -0.541439 0.174548 -0.429850 -0.068450 0.864252 -0.099007 0.952906 0.564971 0.359949 0.170683 0.880620 0.939273 -0.202174 0.604311 -0.261426 -0.014791 -0.154964 0.078928 0.564940 0.249870 -0.877697 0.544560 -0.791741 0.128969 0.038040 -0.329309 -0.806736 0.436013 -0.371713 1.008272 0.131332 0.051351 -0.709758 -0.716161 0.264914 -0.754170 0.002990 -0.968606 0.830975 -0.477521 -0.054162 -0.196337 0.740310 -0.080989 0.123036 -0.569222 0.972644 -0.547243 0.398017 -0.791756 -0.064705 -0.027459 0.644966 0.332719 -0.482911 -1.228277 0.135565 -1.075678 0.394242 0.160072 0.552009 -0.230143 0.009209 0.149503 0.123649 -0.142859 0.640085 -0.111281 0.232872 -0.161394 0.610355 
垫 -0.565952 0.081973 0.179430 -0.042418 0.049829 0.249877 0.040567 0.116123 0.011743 0.131856 -0.230427 0.021144 -0.609526 0.164913 0.075313 0.237927 -0.493199 -0.186961 -0.025915 0.581442 0.416493 -0.149109 -0.107496 0.080193 -0.086060 -0.169508 -0.537176 0.309121 -0.336222 0.968882 -0.602790 0.017732 -0.340500 0.022162 0.051400 0.021022 -0.043433 -0.201883 -0.145062 -0.248058 -0.116638 0.149009 0.690356 -0.325032 0.301419 -0.215538 -0.954407 -0.183378 0.231971 0.628975 0.387657 0.094336 0.309869 -0.731974 -0.332590 0.010064 0.436124 0.093196 0.095747 0.157163 -0.096450 -0.028217 -0.703015 -0.057766 -0.287672 -0.252776 -0.368790 0.436545 -0.166610 0.036838 0.341853 0.117314 0.154784 -0.230406 -0.397170 0.308853 0.235175 0.397125 -0.267764 -0.212268 0.009002 -0.168031 -0.157515 0.316805 -0.158763 0.484129 0.732431 -0.329070 -0.652712 -0.328763 -0.725762 0.002747 0.018995 0.206158 -0.378109 -0.110370 -0.064787 -0.082352 -0.445951 -0.366252 
发夹 0.431343 -0.204293 -1.127771 0.178592 0.798752 0.204051 0.187456 -0.296289 -0.624862 0.035536 -0.520754 0.796531 1.071435 1.163552 -0.746958 0.773158 0.224938 -0.958149 0.208706 -0.012825 0.236296 -0.673213 0.042342 0.132209 -0.016764 -0.002060 -0.162638 -1.258649 -0.474626 -0.646280 -0.528033 -0.320883 0.033385 0.178168 0.052439 1.280132 0.664893 0.088062 -0.646754 0.536230 1.492537 -0.761243 0.897769 -0.199115 -0.118794 0.107044 -0.104555 0.706963 0.065233 -1.342587 0.496252 -0.248494 0.123619 -0.258507 0.060435 -0.899198 0.640336 -0.456661 1.834272 0.501790 0.215097 -0.417963 -0.466066 0.765887 -1.036781 -0.091185 -0.937871 0.825756 -0.228242 -0.463288 -0.028316 -0.144894 0.242947 0.383675 -0.615346 0.917638 -0.435749 0.568806 -1.154226 -0.467241 0.035504 0.761566 0.294747 -0.492901 -1.096078 0.805234 -1.169663 0.034295 -0.708333 0.270132 -0.606611 -0.291160 -0.147450 0.075033 0.441100 0.544253 -0.489749 0.410372 -0.758996 0.998466 
扣 0.095265 -0.371561 -1.156310 0.611260 0.358495 -0.172364 0.346497 -0.601853 -0.516908 -0.078443 0.279060 -0.059198 0.443838 0.639154 0.578361 -0.241214 -0.441320 -0.044510 0.104234 -0.293242 0.533401 0.059838 -0.273713 -0.621081 0.015764 -0.113760 0.213490 -0.618792 -0.020121 -0.023563 0.063162 0.071752 0.494081 0.218989 1.012468 0.298583 0.374255 0.220250 0.370813 0.514244 0.251374 -0.152725 0.007234 -0.043713 0.181640 0.126053 -0.303934 0.503204 -0.157787 -0.340032 0.100052 -0.673597 0.672600 -0.489861 0.205258 -0.450201 0.520233 -0.136173 -0.012527 0.007696 0.133002 -0.114779 -0.754314 0.128165 -0.493524 -0.512655 -0.796434 -0.033772 -0.187452 0.332850 -0.110042 -0.108275 0.088796 -0.273857 -0.579372 0.211494 -0.267969 0.198575 -0.075626 -0.137096 0.084143 0.052888 0.020517 -0.683594 -0.377222 0.390106 0.307791 0.466563 -0.355710 0.168397 -0.072162 0.315425 -0.332706 0.734329 -0.482338 0.206682 -0.291450 -0.017066 -0.558383 0.161383 
金表链 0.131642 -0.202261 -0.898654 0.531666 0.677956 -0.238685 0.167982 -0.383253 -0.533199 0.015555 0.011387 0.342805 0.515720 0.731269 0.036036 0.003979 -0.119213 -0.489844 0.095303 -0.073848 0.241375 -0.074050 -0.570074 -0.238965 0.030677 -0.661822 -0.188528 -0.724383 -0.178838 0.005908 -0.178947 -0.165788 0.131004 0.357469 0.482044 0.646915 0.303421 0.205256 0.333281 0.457648 0.437202 0.048112 0.449897 -0.150746 0.104333 0.119534 -0.023671 0.338214 0.004815 -0.312534 0.366530 -0.465069 0.483151 -0.305740 0.031679 -0.357987 0.135528 -0.021092 -0.033562 0.108347 0.142777 -0.417576 -0.564933 0.185883 -0.492255 -0.211830 -0.570183 0.355210 -0.131128 -0.032861 0.044266 0.375305 0.068168 -0.081546 -0.429232 0.451141 -0.425364 0.372463 -0.220169 -0.245153 -0.047350 0.139060 0.047801 -0.495013 -0.376185 0.230558 -0.412652 0.243886 0.012593 0.141619 -0.182683 0.265078 -0.081260 0.199471 -0.276292 0.221752 -0.043961 -0.071538 -0.087613 0.239874 
圈 0.248407 -0.033290 -0.533537 0.679717 1.058199 -0.318622 0.031696 -0.474273 -0.017322 -0.183256 -0.386401 0.280053 0.316624 1.038722 -0.313924 0.069100 0.222531 -0.966295 0.034543 0.106264 0.057821 -0.046656 -0.185852 -0.213442 -0.379415 0.006171 -0.326321 -0.829507 -0.189208 -0.334538 -0.053875 -0.271641 0.019970 0.456765 -0.311159 0.358137 0.385377 0.228359 0.069245 0.460052 0.580528 -0.300133 0.507813 0.027023 0.013260 -0.503631 -0.151804 0.362593 0.130389 -0.799025 0.467106 -0.547365 0.114877 -0.176956 -0.598382 -0.861251 0.600281 -0.375627 0.817387 0.461650 0.099016 -0.557294 -1.008880 0.350198 -0.565448 -0.313879 -1.033071 0.729099 -0.439902 -0.064410 -0.334458 0.516820 0.131974 0.089359 -0.502375 0.658843 -0.197558 0.419193 -0.572750 -0.040481 0.169432 0.464203 0.249563 -0.396823 -1.067473 0.178861 -0.806646 0.199363 0.021641 0.043975 -0.143286 -0.124745 -0.128131 0.457632 -0.163726 0.699928 0.067163 0.006065 -0.279870 0.695745 
uxuzfzu -0.329621 0.287051 -0.184654 1.008422 0.232876 0.599129 0.666728 0.372948 -0.107284 -0.314758 -1.138830 0.315529 0.164729 -0.644160 -0.605630 0.331813 0.579616 -0.074835 0.196307 0.162448 0.245535 0.223424 0.484710 -0.402910 -0.059206 0.226552 -0.000554 0.150048 -0.263818 -0.014665 0.255228 0.501476 -0.154801 -0.146292 -0.016155 -0.663002 0.029542 -0.203952 0.259436 -0.816111 -0.444776 -0.621065 0.165367 -0.130216 -0.026241 -0.804963 -0.496066 0.192842 -0.109086 0.205885 -0.011182 0.290549 0.539913 -0.072845 0.145860 -0.385792 0.591634 -0.908805 0.855526 0.576172 0.142068 0.498549 0.159718 0.138602 -0.874793 -0.013074 0.111775 0.081725 -1.484187 0.431707 0.595906 0.097908 -0.051439 -0.335628 0.467254 0.955571 0.323850 0.478006 -0.761003 0.128859 0.869357 -0.082251 -0.384261 -0.279940 -1.302430 0.442462 1.457110 -0.663267 -1.139724 -0.865243 0.098637 -0.159579 -0.107684 0.809213 0.368158 0.145484 -0.314335 0.275543 -1.267611 -0.261563 
耳钉 0.086842 0.084437 -0.376055 0.688847 1.181147 -1.318693 -0.139430 -0.225356 -0.104390 -0.284487 -0.423782 0.504492 0.100325 1.803220 -0.169247 -0.209287 -0.355395 -1.001568 0.268875 0.829237 0.150700 0.173934 -1.242230 0.082326 -0.311117 -1.487167 -0.682026 -1.163617 -0.382449 0.067939 0.396129 -0.670971 -0.612734 1.273527 0.218377 0.987490 0.418890 0.198681 0.945969 0.963946 0.513150 0.431178 0.424309 -0.289526 -0.137471 -0.049811 0.036806 0.303464 0.604472 -0.203692 0.634205 -1.254537 0.200297 0.266166 -0.524203 -0.527891 0.184296 0.088921 0.171500 -0.372009 -0.007531 -0.866457 -1.262783 -0.122784 -0.341766 -0.050499 -0.739126 0.809909 -0.500805 0.327184 0.077938 1.647084 -0.148795 -0.183785 -0.940211 0.659583 -0.743060 0.539753 -0.973874 0.195520 0.037898 0.369048 0.088515 -0.401089 -1.161972 -0.233357 -0.790227 0.321360 0.775461 0.836044 0.041205 0.331279 0.063052 0.356077 -0.781531 0.502965 -0.168548 -0.149111 0.148224 0.434818 
普通发圈 0.378503 -0.307756 -0.957137 0.223990 0.386337 0.115189 0.165129 -0.250655 -0.516412 -0.190458 0.288724 0.393241 0.795810 0.728573 -0.012919 0.329165 0.160354 -0.630857 -0.110357 -0.347787 0.392664 -0.498032 -0.017130 -0.085408 -0.073724 0.023384 0.111893 -1.109776 -0.307031 -0.593336 -0.179436 -0.301191 0.213415 0.156774 0.108901 0.908127 0.704454 0.015493 -0.385514 0.763471 1.161598 -0.769629 0.481870 -0.143058 0.086085 0.128783 -0.124895 0.860550 -0.194847 -1.229108 0.562877 -0.239121 0.239644 -0.336185 0.041221 -0.675443 0.872204 -0.561064 1.090501 0.768665 0.270240 -0.482057 -0.276937 0.351278 -0.832690 -0.215143 -0.795357 0.500926 -0.409561 -0.176277 -0.068982 -0.067753 0.360754 0.345159 -0.477319 0.789233 -0.331435 0.447377 -0.905306 -0.400044 0.100211 0.520304 0.226431 -0.910256 -1.334528 0.899100 -0.481553 0.141258 -0.906362 0.047957 -0.572102 -0.063239 -0.245661 0.313208 0.000766 0.729411 -0.531272 0.245531 -0.906302 0.836403 
各种钻 0.145496 -0.157081 -0.894967 0.533429 0.953642 -0.289606 0.350962 -0.399700 -0.235959 -0.214070 -0.197076 0.095217 0.234407 0.899665 -0.147812 -0.189179 0.139640 -0.568561 0.199660 0.070096 -0.048263 0.007723 -0.342473 -0.362760 -0.146246 -0.308116 -0.042166 -0.873140 0.034737 -0.330519 0.152106 -0.218255 0.070427 0.540678 0.071738 0.363380 0.234217 0.108485 0.298238 0.330414 0.506403 -0.271804 0.320690 -0.076178 0.099675 -0.459238 0.057822 0.382351 -0.005977 -0.438262 0.348595 -0.843058 0.218711 -0.215920 -0.386764 -0.891539 0.424201 -0.484502 0.426358 -0.131832 0.195079 -0.422029 -0.697426 0.002940 -0.663349 -0.148235 -0.745304 0.315091 -0.352384 0.287110 -0.270086 0.529085 -0.058000 -0.240148 -0.313080 0.714231 -0.413935 0.074494 -0.043747 0.113865 -0.025373 0.401770 0.083381 -0.284760 -0.767177 -0.095089 -0.378991 0.249335 0.009804 0.154759 0.121199 -0.069105 0.136562 0.440651 -0.192792 0.516007 0.029021 0.086027 -0.230052 0.225031 
uxuzgxz -0.091175 -0.189944 -0.447530 -0.133278 -0.333317 0.433933 -0.090172 -0.049288 -0.378046 0.657211 0.123339 0.973860 0.171511 0.946628 0.333721 -0.017753 -0.802651 0.923251 0.501563 0.498941 0.136559 -0.554367 -0.469534 -0.141568 0.507262 -0.958849 -0.209464 0.433452 -0.646965 0.435063 -0.811123 -0.155269 -0.178997 0.009707 1.101290 0.705043 -0.139635 -0.582432 -0.132553 0.277609 0.742628 0.057430 0.176737 -0.493892 -0.256967 0.120845 -0.173781 0.433684 0.355388 0.447018 -0.212319 -0.330589 0.382710 -0.026934 1.091422 0.174957 0.349279 -0.034021 -0.324396 -0.042113 0.139409 0.132587 -0.212257 0.054651 -0.227454 0.040387 0.481476 -0.053076 0.026044 0.523220 0.855072 0.020609 0.282086 -0.832216 -0.306515 -0.549163 -0.529813 0.055723 -0.172145 -0.293140 -0.436490 -0.396631 -0.415974 -0.308696 -0.514548 0.337058 1.067825 0.236136 -0.636634 0.306898 -0.232417 -0.137246 -0.391522 0.221299 -0.635309 -0.025543 -0.580492 -0.071210 -0.656551 -0.588318 
发箍 0.407745 -0.157005 -0.856264 0.106587 0.508669 0.090745 0.105651 -0.193509 -0.382858 -0.129169 -0.126802 0.501197 0.708334 1.022113 -0.360863 0.479238 0.106069 -0.738850 0.050225 -0.063446 0.253295 -0.492136 -0.073430 0.072472 -0.141627 0.024066 -0.087892 -1.161806 -0.394775 -0.603342 -0.318633 -0.340996 -0.028977 0.296773 -0.009964 1.019524 0.604533 0.048918 -0.491213 0.663925 1.244002 -0.729722 0.666368 -0.187235 -0.022721 0.050110 -0.109075 0.643422 0.035429 -1.182564 0.469215 -0.280739 0.164865 -0.242985 -0.070906 -0.744532 0.714171 -0.509616 1.489821 0.552965 0.113033 -0.404953 -0.469613 0.495691 -0.880076 -0.150761 -0.797351 0.707815 -0.228844 -0.299058 -0.079285 -0.040698 0.229955 0.281945 -0.540987 0.868864 -0.395319 0.450266 -1.021599 -0.316265 0.074644 0.662007 0.271837 -0.569388 -1.147704 0.689533 -0.934184 0.142568 -0.615070 0.221241 -0.540443 -0.214941 -0.076879 0.197036 0.171882 0.659722 -0.447945 0.343049 -0.678216 0.884332 
头饰 0.410387 -0.170272 -0.849875 0.194959 0.719285 0.160304 0.177720 -0.262034 -0.318792 -0.098263 -0.301168 0.519481 0.694530 1.068095 -0.553928 0.517934 0.183801 -0.840642 0.070586 -0.060530 0.131929 -0.493650 0.082758 -0.000767 -0.152443 0.135600 -0.065303 -1.148717 -0.418250 -0.708075 -0.348572 -0.326789 0.040047 0.284560 -0.095207 0.984279 0.617790 0.071403 -0.555929 0.516551 1.267442 -0.749538 0.760592 -0.172275 -0.052814 -0.132794 -0.106577 0.593182 0.081672 -1.234014 0.468076 -0.268060 0.095184 -0.251965 -0.149170 -0.894646 0.772127 -0.604982 1.660014 0.585415 0.104546 -0.411471 -0.543205 0.535028 -0.963701 -0.132955 -0.893405 0.757546 -0.304316 -0.273556 -0.041717 -0.033429 0.186956 0.232796 -0.416610 1.023522 -0.369667 0.414847 -0.988268 -0.334091 0.113653 0.679493 0.284244 -0.478017 -1.325223 0.627570 -0.971841 0.093738 -0.664164 0.117889 -0.501333 -0.279737 -0.110082 0.205340 0.251249 0.692342 -0.361544 0.350754 -0.757351 0.933044 
钥匙扣 -0.324738 -0.312528 -1.211702 0.850611 0.370594 -0.304739 -0.057780 -0.593249 -0.652055 0.113673 0.187269 0.492699 0.782352 0.752566 0.518449 -0.267049 -0.687179 -0.189530 0.042546 0.118548 0.674636 -0.110785 -0.688592 -0.505483 0.049676 -0.612829 -0.000634 -0.544462 -0.555511 0.165442 -0.268970 -0.337593 0.131403 0.225779 0.736444 0.586407 0.410824 -0.053059 0.258624 0.769285 0.552457 0.206883 0.157109 -0.000842 -0.007829 0.456973 -0.134009 0.667998 -0.105329 0.034365 0.329793 -0.554709 0.759697 -0.413414 0.501793 -0.053001 0.009486 0.053909 -0.608620 -0.099927 0.314255 -0.345126 -0.658100 0.294239 -0.142480 -0.324099 -0.393680 -0.075670 0.009069 -0.059199 0.274592 0.291930 0.355893 -0.017319 -0.682638 -0.160247 -0.296718 0.348949 -0.361410 -0.231181 -0.130681 -0.146966 0.068052 -0.661111 -0.325606 0.315695 0.143409 0.249080 -0.111533 0.285663 -0.030383 0.257192 -0.537613 0.446262 -0.753477 0.239552 -0.358529 -0.330636 -0.183967 0.236230 
布 -0.047615 0.009668 0.206100 -0.579850 -0.334245 0.385819 -0.043639 0.020450 0.023569 -0.131199 0.203510 -0.073829 -0.193648 0.764940 0.014432 0.162468 -0.392422 -0.008938 0.176019 0.282929 0.190353 -0.153752 0.304779 0.027743 -0.256023 0.252564 -0.220974 -0.263134 -0.363478 0.379490 -0.401544 -0.258368 -0.173694 0.056170 0.190169 0.426892 0.126635 -0.467912 -0.339047 0.002965 0.592542 -0.684156 0.442008 -0.166526 0.161445 -0.088956 -0.395828 0.144714 -0.031752 -0.252644 0.296565 -0.159995 0.216222 -0.205240 -0.239104 -0.241311 0.584287 -0.350346 0.587844 0.250827 -0.049376 -0.068331 -0.494788 -0.012031 -0.327284 -0.184438 -0.396286 0.127982 -0.092012 0.134157 0.167781 -0.201915 0.237945 -0.078012 -0.426539 0.711695 -0.144426 0.300240 -0.497671 -0.316489 -0.024626 0.097353 -0.027648 -0.200035 -0.697238 0.694761 0.143151 -0.137033 -0.616638 -0.103584 -0.438742 -0.324569 -0.089241 0.410360 -0.149791 0.279475 -0.503989 0.229092 -0.748490 0.208046 
纸 -0.341759 0.367903 0.519273 -0.080489 0.372763 -0.196136 0.081327 0.081621 0.219838 -0.076111 -0.777818 -0.114419 -0.482540 0.392112 -0.375662 0.108990 -0.296903 -0.447760 0.417401 0.881290 0.062872 0.068638 0.154035 0.011873 -0.234163 -0.085719 -0.595887 0.162074 -0.203200 0.880721 -0.671474 -0.134319 -0.517062 -0.045660 0.118219 -0.132258 -0.166277 -0.159042 0.524104 -0.495511 -0.144637 -0.167145 0.468134 -0.118082 0.025710 -0.459855 -0.895938 -0.400400 0.126408 0.364393 0.300912 -0.048621 0.076955 -0.075976 -0.717108 -0.143434 0.011539 0.048268 0.386863 -0.149961 -0.249625 -0.097826 -0.606780 0.123468 -0.182346 -0.335695 -0.402285 0.380226 -0.068840 0.066956 0.174017 0.177988 -0.037262 -0.419232 -0.516416 0.606132 0.094980 0.464365 -0.310562 -0.051959 0.099041 -0.083995 -0.027622 0.499786 -0.534718 0.068308 0.063229 -0.271302 -0.323582 0.029956 -0.479158 0.065053 -0.357114 0.491167 -0.381164 -0.188002 0.098644 0.043567 -0.324119 -0.304642 
工艺品 -0.137005 -0.016537 -0.407630 0.569066 0.351597 -0.276463 -0.118321 -0.104035 -0.182701 -0.276702 0.407644 0.162532 0.259650 0.487707 0.503488 0.015625 -0.201282 -0.724384 -0.537299 0.110217 0.797750 -0.132310 -0.325110 -0.120138 -0.268076 -0.245000 0.070704 -0.670224 -0.435448 0.329564 -0.554127 -0.408566 -0.130358 0.054651 -0.042842 0.258239 0.630047 -0.194881 0.185969 0.758107 0.456847 -0.371467 0.415736 0.017888 0.107229 0.310239 -0.411438 0.701862 -0.110109 -0.433034 0.818558 0.040525 0.567491 -0.311529 -0.398179 0.008918 0.451158 -0.160971 -0.156962 0.773478 0.170110 -0.514967 -0.271929 0.138487 -0.374909 -0.387992 -0.524457 0.228627 -0.427074 -0.276271 -0.037217 0.421073 0.482571 0.584928 -0.501670 0.267217 -0.075917 0.676378 -0.893662 -0.058341 0.104894 0.100747 0.299217 -0.593539 -1.157617 0.724001 -0.039955 -0.049468 -0.587758 -0.050736 -0.643945 0.323685 -0.474171 0.536449 -0.874478 0.591329 -0.313963 -0.399933 -0.446088 0.657425 
西服裙 -0.499481 0.441137 0.233978 0.961679 0.416570 0.405538 0.627971 0.385917 0.163613 -0.528946 -1.307245 0.007002 -0.174103 -0.612561 -0.716910 0.330423 0.438951 -0.292131 0.179205 0.431466 0.180280 0.463496 0.630243 -0.307402 -0.358532 0.378768 -0.209127 0.281407 -0.332847 0.316651 0.142117 0.361201 -0.417393 -0.081650 -0.329894 -0.875913 -0.072784 -0.233086 0.404319 -1.065318 -0.594468 -0.647448 0.192953 0.012677 -0.115656 -0.963703 -0.761385 0.009211 -0.027187 0.339831 0.062410 0.207177 0.477514 -0.042375 -0.408594 -0.428923 0.409148 -0.930478 0.877577 0.440582 -0.000048 0.364581 -0.247665 0.199064 -0.753732 -0.265877 -0.070373 0.205286 -1.422225 0.347589 0.592643 0.210633 -0.072876 -0.409501 0.339483 1.232551 0.462209 0.512509 -0.762249 0.253826 0.882924 -0.123320 -0.378054 -0.001478 -1.338045 0.335273 1.221725 -0.735639 -0.880599 -0.836443 0.168369 -0.131030 -0.123529 0.928616 0.189839 0.214159 -0.098882 0.185809 -0.915795 -0.261997 
塑料镜盒 -0.055171 -0.173364 -0.518361 0.247022 0.458048 0.348149 0.255063 -0.151188 -0.487500 0.100798 -0.385302 0.135382 0.214279 0.242328 -0.076226 0.002839 -0.126164 -0.353754 -0.008432 -0.006985 0.369762 -0.072894 0.326299 -0.196388 0.069749 -0.065339 -0.216098 0.157916 -0.239490 0.612477 -0.582867 0.143531 -0.019026 -0.312012 0.576274 0.019889 0.159411 0.037409 0.125514 -0.238492 -0.013843 -0.153941 0.535611 -0.028486 0.090576 -0.239398 -0.529770 -0.131294 -0.288250 0.081835 0.175601 0.068120 0.266649 -0.691701 -0.273193 -0.277740 0.297256 0.123009 0.194655 0.216679 -0.002346 -0.049429 -0.553948 0.193361 -0.382955 -0.358605 -0.587117 0.063859 -0.107667 -0.063631 0.160908 -0.232021 0.183146 -0.240194 -0.162108 0.257350 0.045368 0.384383 -0.127518 -0.475184 -0.035941 -0.162901 -0.259867 -0.010551 0.035422 0.455533 0.393079 -0.045298 -0.864821 -0.320494 -0.335311 0.128397 -0.288995 0.663696 -0.266106 -0.133940 -0.020322 -0.096866 -0.387860 -0.273895 
钱包 0.101000 -0.206740 -0.445725 -0.643468 -0.804178 0.546909 -0.136784 0.046440 -0.308731 0.854246 0.399121 1.067537 0.246389 1.224990 0.230362 -0.056609 -1.207934 1.480802 0.720155 0.660060 0.213344 -0.603883 -0.313262 -0.152910 0.605741 -0.907674 0.023016 0.290891 -0.790373 0.310279 -1.044461 -0.218695 -0.274727 -0.178029 1.650154 1.117194 -0.083831 -0.974607 -0.528702 0.380769 1.028456 -0.195495 0.213700 -0.632113 -0.237511 0.314200 -0.026271 0.446498 0.550197 0.468124 -0.375798 -0.544843 0.545828 0.001469 1.535950 0.175560 0.545294 -0.018665 -0.161648 -0.144643 0.087786 0.294010 -0.442857 -0.072029 -0.412852 0.030976 0.602955 -0.153344 0.068660 0.722633 1.182393 -0.319771 0.312243 -1.062509 -0.525947 -0.594169 -0.748226 0.135889 -0.562124 -0.232742 -0.477915 -0.297405 -0.415183 -0.377532 -0.658161 0.486945 1.116490 0.226638 -0.869697 0.553072 -0.253545 -0.346862 -0.511333 0.330400 -0.690568 0.192872 -1.104872 -0.052070 -1.104280 -0.230455 
手镯 0.053028 -0.102709 -0.778644 0.856712 1.242725 -1.310657 -0.063695 -0.446711 -0.241916 -0.046361 -0.315070 0.712397 0.253563 1.819862 0.131499 -0.279123 -0.508086 -0.820773 0.179245 0.746644 0.329482 0.086636 -1.406907 -0.031478 -0.051372 -1.538819 -0.444904 -1.119390 -0.332223 -0.018766 0.286683 -0.577230 -0.252248 1.154913 0.248982 0.943045 0.416725 0.318151 0.686818 1.230007 0.575426 0.526491 0.252414 -0.232111 -0.160080 0.037470 0.067427 0.331409 0.638113 -0.196193 0.534474 -1.225478 0.323106 0.179496 -0.137233 -0.368802 0.144739 0.127540 -0.094760 -0.341923 0.102711 -0.881252 -1.038624 -0.166325 -0.273090 -0.054369 -0.612061 0.691653 -0.378350 0.231448 -0.013696 1.511249 -0.179324 -0.209350 -0.793962 0.364517 -0.749896 0.440742 -0.861330 0.125510 -0.113691 0.337574 0.066850 -0.490898 -1.062642 -0.227968 -0.629165 0.369906 0.815009 0.875159 -0.004231 0.410205 0.084820 0.295076 -0.761971 0.326493 -0.211343 -0.154623 0.189759 0.414717 
珠 -0.226605 -0.337928 -1.032153 1.175119 1.170702 -0.564699 0.421397 -0.474300 -0.321310 -0.235739 0.135836 -0.241716 -0.128444 0.704344 0.519018 -0.627575 -0.151610 -0.758996 -0.401948 0.030750 0.478528 0.298809 -0.571786 -0.534448 -0.175966 -0.501506 -0.082983 -0.489056 -0.064057 0.197002 0.330205 -0.025904 0.109181 0.689362 0.181014 -0.141554 0.409031 0.348614 0.614810 0.537324 -0.070613 0.128403 0.296551 -0.053621 0.196585 -0.659619 -0.499140 0.359446 -0.110203 0.117134 0.578399 -0.663981 0.657870 -0.634275 -0.641073 -0.585689 0.362741 -0.216787 -0.338442 0.110610 0.067914 -0.541424 -1.103212 -0.129391 -0.618925 -0.423904 -0.953263 0.317890 -0.651804 0.206549 -0.256173 0.876812 0.048009 -0.237386 -0.292831 0.566769 -0.152011 0.325075 -0.086946 -0.111408 0.077541 0.023465 -0.127908 -0.384616 -0.611045 -0.062632 0.098175 0.306613 0.004407 -0.146542 0.091030 0.211865 0.040546 0.843056 -0.698825 0.511865 0.078394 -0.273930 0.013894 -0.064431 
书包 -0.003742 -0.148031 -0.322867 -0.503877 -0.697859 0.492991 -0.179747 0.039284 -0.187409 0.877551 0.094289 1.321854 0.194795 1.372783 0.541924 0.079703 -1.310558 1.268577 0.803344 0.885996 0.113622 -0.762932 -0.525303 -0.168115 0.579392 -1.221618 -0.192302 0.442466 -0.886654 0.502783 -1.202614 -0.307304 -0.362709 0.019848 1.532380 1.053375 -0.300853 -0.938372 -0.178486 0.374245 1.044047 0.091424 0.209213 -0.714556 -0.392131 0.270442 -0.201148 0.538030 0.563037 0.597791 -0.376870 -0.581232 0.483954 0.157771 1.560913 0.249305 0.575340 0.057447 -0.217716 -0.280400 0.093681 0.113357 -0.194271 -0.011181 -0.100798 0.271818 0.715941 -0.142660 0.079839 0.654098 0.948514 -0.056560 0.115951 -1.153562 -0.416451 -0.958535 -0.679935 0.040923 -0.367328 -0.399232 -0.697360 -0.379600 -0.550836 -0.217537 -0.836197 0.422086 1.221624 0.276911 -0.695221 0.752775 -0.485193 -0.164344 -0.390398 0.188617 -0.827668 -0.000054 -0.903795 -0.017661 -0.980230 -0.525179 
吊坠 -0.092903 -0.146029 -0.967714 1.166559 1.427751 -1.178625 0.148752 -0.453338 -0.249567 -0.204378 -0.317048 0.453611 0.114356 1.628721 0.123639 -0.390330 -0.393293 -0.883985 0.079532 0.629748 0.311804 0.254232 -1.348685 -0.218109 -0.075934 -1.440149 -0.415670 -1.027187 -0.268198 0.072443 0.430486 -0.380441 -0.250692 1.214605 0.283746 0.652886 0.386489 0.451701 0.781281 1.043290 0.284671 0.517437 0.288258 -0.227346 -0.040968 -0.250795 -0.058367 0.296578 0.514651 0.044999 0.521117 -1.273592 0.385016 0.019137 -0.358168 -0.449401 0.129417 -0.020794 -0.158706 -0.348498 0.062226 -0.769667 -1.131717 -0.254880 -0.429483 -0.104519 -0.703965 0.691978 -0.574910 0.333426 -0.019887 1.547564 -0.220544 -0.277395 -0.643682 0.533567 -0.631843 0.356173 -0.648166 0.232221 0.016790 0.288510 0.022595 -0.424446 -0.972953 -0.357523 -0.381805 0.432238 0.742695 0.634371 0.112542 0.379194 0.154782 0.433592 -0.737450 0.358929 -0.083078 -0.144028 0.202274 0.232078 
头带 0.378637 -0.157213 -0.688378 0.096530 0.517907 -0.053702 0.178379 -0.205136 -0.232677 -0.199133 0.065029 0.172185 0.411765 0.751554 -0.026362 0.227837 0.065924 -0.816873 -0.191293 -0.253558 0.306244 -0.323369 0.087965 -0.124000 -0.212639 0.205590 0.073204 -1.017314 -0.163827 -0.476989 -0.222558 -0.236627 0.118469 0.255839 -0.027819 0.641505 0.600389 0.051469 -0.271844 0.571626 0.904753 -0.756103 0.523824 -0.131022 0.103638 -0.094005 -0.338090 0.572831 -0.140138 -1.109058 0.561108 -0.194066 0.149909 -0.347834 -0.372790 -0.706146 0.841028 -0.516840 1.213463 0.667897 0.087929 -0.499165 -0.540500 0.291041 -0.786630 -0.285133 -0.954245 0.573395 -0.374745 -0.134365 -0.227287 -0.089031 0.225385 0.247401 -0.432590 0.926714 -0.207670 0.401579 -0.810603 -0.262785 0.131338 0.481488 0.227608 -0.628886 -1.333196 0.670567 -0.594224 0.154322 -0.758882 0.010920 -0.521175 -0.021591 -0.160789 0.448203 -0.018574 0.684952 -0.323457 0.273285 -0.834542 0.793117 
摆件 -0.290899 -0.088601 -0.619402 0.877967 0.615745 -0.199068 0.071635 -0.198995 -0.365653 -0.298916 0.191449 0.051274 0.105102 0.276627 0.550080 -0.246374 -0.292433 -0.807776 -0.626775 0.028757 0.865261 0.114992 -0.169257 -0.314363 -0.442443 -0.203018 -0.118172 -0.416474 -0.505533 0.699359 -0.651875 -0.215688 -0.169124 0.131423 0.141264 -0.047121 0.530202 -0.154075 0.480173 0.307602 0.159759 -0.301528 0.495916 0.069037 0.166821 -0.027415 -0.648778 0.575352 -0.443201 -0.220728 0.858052 0.070928 0.671887 -0.614444 -0.688902 -0.078430 0.394946 -0.180794 -0.379061 0.705375 0.124415 -0.457697 -0.706603 0.117501 -0.398460 -0.544576 -0.653966 0.122810 -0.426453 -0.219833 -0.108202 0.334192 0.498226 0.489576 -0.318804 0.389248 0.159791 0.547201 -0.539746 -0.147544 0.177635 -0.178685 0.107723 -0.583617 -0.836055 0.597995 0.281373 -0.101676 -0.631357 -0.411521 -0.357965 0.374883 -0.470735 0.769382 -0.933439 0.624755 -0.137249 -0.465866 -0.269255 0.361998 
水晶 -0.031706 0.030476 -0.254829 0.520883 0.752909 -0.661028 0.125118 -0.219524 0.183428 -0.171914 -0.251887 -0.023127 -0.368287 0.934245 0.063974 -0.314501 -0.350834 -0.451412 0.153025 0.419168 0.125497 0.273064 -0.594868 -0.140390 -0.210581 -0.575629 -0.284885 -0.550586 0.040768 0.248949 0.145277 -0.183629 -0.236131 0.680759 0.082445 0.083146 0.174284 0.160466 0.644799 0.331499 0.008560 0.118824 0.238840 -0.198999 0.072558 -0.451694 -0.389466 0.076090 0.360038 0.121034 0.376159 -0.687265 0.232834 -0.026546 -0.521532 -0.437324 0.319757 -0.216971 0.048336 -0.143152 -0.099476 -0.375521 -0.789124 -0.282374 -0.347595 -0.230281 -0.557442 0.405389 -0.433636 0.406182 -0.138571 0.803765 -0.149036 -0.357598 -0.427067 0.467414 -0.286392 0.271222 -0.330095 0.234519 0.104967 0.203813 0.019472 -0.022315 -0.838213 -0.142172 -0.117843 0.180326 0.450018 0.282435 -0.125513 0.194716 0.088223 0.547249 -0.511475 0.354823 0.077691 -0.024810 -0.050868 0.046019 
戒指 0.059731 -0.074602 -0.706654 0.774328 1.050340 -1.060155 -0.075102 -0.296382 -0.286550 -0.111223 -0.179882 0.586989 0.229529 1.543483 0.158579 -0.328632 -0.457435 -0.678958 0.090875 0.624426 0.270833 0.052584 -1.247885 -0.099736 -0.060432 -1.410424 -0.393265 -1.017402 -0.268224 -0.035896 0.309383 -0.489184 -0.221305 1.060912 0.315635 0.881785 0.375241 0.187159 0.671773 1.073965 0.513718 0.435760 0.202990 -0.273184 -0.094390 0.050920 0.179660 0.365528 0.449180 -0.129575 0.465266 -1.162702 0.318692 0.138674 -0.077213 -0.317066 0.230886 0.001928 -0.088660 -0.261711 0.136783 -0.794569 -0.905341 -0.250811 -0.281636 0.028826 -0.452556 0.623536 -0.403486 0.299976 0.072858 1.371775 -0.113052 -0.174152 -0.695211 0.358143 -0.724073 0.338893 -0.743452 0.106376 -0.111961 0.291009 0.068491 -0.545716 -1.074653 -0.164194 -0.390486 0.334370 0.585845 0.712271 0.003518 0.385466 0.075888 0.335583 -0.793159 0.438387 -0.269091 -0.173387 0.039981 0.397235 
男童恤 -0.381166 0.254801 -0.239419 1.141654 0.419924 0.586209 0.708935 0.316039 -0.035878 -0.410892 -1.210807 0.145852 0.058414 -0.687172 -0.637427 0.282559 0.566209 -0.258708 0.150786 0.172635 0.273060 0.372333 0.565973 -0.467670 -0.206569 0.331008 -0.057402 0.146054 -0.259146 0.108474 0.213280 0.535771 -0.223652 -0.091766 -0.034686 -0.747287 0.060884 -0.152020 0.364479 -0.897905 -0.588219 -0.627628 0.216806 -0.086292 0.023304 -0.915561 -0.654548 0.160127 -0.180361 0.243064 0.086965 0.306880 0.551425 -0.215680 -0.140389 -0.455182 0.594160 -0.933791 0.897504 0.574101 0.093722 0.494555 -0.012491 0.163705 -0.909668 -0.156940 -0.049881 0.099363 -1.500762 0.389839 0.515686 0.117195 -0.041464 -0.300162 0.446362 1.104395 0.419455 0.521032 -0.723211 0.158140 0.922139 -0.075368 -0.321394 -0.211054 -1.300962 0.467612 1.379608 -0.675564 -1.183633 -0.973396 0.110278 -0.123388 -0.129996 0.960315 0.311926 0.184576 -0.194327 0.223170 -1.208336 -0.272004 
uxuzgry 0.440055 -0.168972 -0.767610 -0.007822 0.550395 0.199537 0.152822 -0.301153 -0.250500 0.042250 -0.389286 0.438626 0.624251 1.106825 -0.592355 0.471919 0.089318 -0.607966 0.283727 -0.011456 -0.056109 -0.419234 0.169215 0.004077 -0.109328 0.160695 -0.092927 -0.926896 -0.272171 -0.637676 -0.282958 -0.267721 0.015705 0.236490 0.073835 0.957293 0.393974 0.006368 -0.542418 0.348184 1.182467 -0.700951 0.625318 -0.151694 -0.065001 -0.145974 -0.076030 0.398428 0.116308 -1.085022 0.249818 -0.427197 0.003721 -0.179337 -0.030410 -0.867709 0.652668 -0.468848 1.654070 0.266365 0.108502 -0.272969 -0.579784 0.498620 -0.841725 -0.105355 -0.858076 0.629776 -0.117545 -0.122569 -0.057416 -0.199181 0.056908 0.022998 -0.476373 0.883031 -0.410690 0.264073 -0.781071 -0.315776 0.054004 0.693235 0.210121 -0.316522 -0.938326 0.520085 -0.971152 0.124849 -0.484787 0.217292 -0.279202 -0.363312 -0.043401 0.175347 0.377172 0.508301 -0.380214 0.427308 -0.676214 0.770329 
礼品 -0.264399 0.029423 -0.217854 0.507360 0.494478 -0.175005 -0.042667 -0.100925 -0.109790 -0.272447 -0.010854 0.016098 0.050958 0.267476 0.292476 -0.133481 -0.185791 -0.626340 -0.297596 0.152064 0.567870 -0.010240 -0.063302 -0.144289 -0.330304 -0.014848 -0.125723 -0.237994 -0.374047 0.535299 -0.502104 -0.254076 -0.220162 -0.058377 -0.039506 -0.087044 0.311381 -0.210260 0.367305 0.155208 0.137670 -0.281600 0.388749 -0.020094 0.072296 -0.124239 -0.590445 0.344337 -0.186793 -0.047107 0.676000 0.098028 0.496061 -0.423518 -0.593266 -0.118444 0.275217 -0.167800 -0.118960 0.529825 0.063355 -0.323530 -0.480096 0.132710 -0.280761 -0.441048 -0.488399 0.137069 -0.346961 -0.168525 0.088381 0.308239 0.309153 0.167792 -0.414281 0.373848 0.038037 0.630529 -0.644583 -0.105137 0.115383 -0.106470 0.126513 -0.266066 -0.977583 0.495105 0.214672 -0.201104 -0.588524 -0.260029 -0.380933 0.157717 -0.478278 0.695255 -0.778393 0.423444 -0.163405 -0.333263 -0.397012 0.230930 
工具 -0.309213 -0.354939 -1.200791 0.547041 0.582831 0.611942 0.393934 0.001658 -0.885834 0.438201 -0.864973 1.169530 1.029500 -0.202206 -0.276333 0.209301 -0.167980 -0.090741 0.233283 0.149751 0.317587 -0.767718 0.132021 -0.424059 0.279478 -0.616888 -0.175841 0.320988 -0.593891 0.178815 -0.827020 0.158411 0.231838 -0.245947 0.763003 0.591153 -0.036097 -0.379936 -0.111387 -0.285259 0.369770 -0.003243 0.220349 -0.085724 -0.292239 0.070294 0.193866 0.357761 -0.447498 -0.142452 -0.173856 0.114921 0.223717 -0.363785 1.031133 -0.117785 0.040671 0.171079 -0.018158 -0.048537 0.608394 -0.023263 0.108687 0.354190 -0.339216 0.250873 0.306020 -0.124762 -0.283265 -0.018857 0.759582 -0.047229 0.266166 -0.388774 0.333539 -0.188687 0.032709 -0.143707 -0.178506 -0.362263 -0.140667 -0.544838 -0.309443 -0.457535 -0.339936 0.369271 1.011657 -0.318218 -1.335271 -0.141503 -0.009240 0.114643 -0.488505 0.263327 -0.100601 0.016762 -0.371379 -0.199468 -0.992019 -0.270094 
勺 -0.477407 -0.037814 -0.397191 0.418850 0.304005 -0.057360 0.167087 0.022440 -0.246872 0.101591 -0.359765 0.266255 0.034745 0.293398 0.183503 0.006812 -0.525018 -0.363734 -0.182712 0.380045 0.573437 -0.129775 -0.156219 -0.176316 0.081180 -0.426788 -0.235634 0.135476 -0.361197 0.788550 -0.685386 -0.048938 -0.364644 -0.109905 0.494309 0.222513 0.132779 -0.017053 0.176861 0.128065 -0.318988 0.261842 0.369832 -0.155428 0.234241 -0.007142 -0.753337 -0.244716 -0.007821 0.453140 0.287141 0.271558 0.366077 -0.640720 -0.131061 0.183140 -0.011772 0.391389 -0.388810 0.256734 -0.178416 -0.006725 -0.439749 0.101659 -0.153889 -0.416749 -0.338141 0.070846 -0.005574 -0.155903 0.274169 0.238077 0.281852 0.007767 -0.327994 0.030608 0.127955 0.705223 -0.523484 -0.086199 -0.063734 -0.359273 -0.100712 0.024341 -0.015273 0.416289 0.526861 -0.227498 -0.708295 -0.011204 -0.461453 0.403976 -0.407286 0.500973 -0.503225 -0.119657 -0.245288 -0.283899 -0.386131 -0.135554 
儿童印花恤 -0.293195 0.354322 0.182905 0.597686 0.437510 0.482380 0.535960 0.222695 0.323379 -0.314290 -1.393852 0.037803 -0.269525 -0.199768 -0.958140 0.427413 0.256179 -0.341029 0.449617 0.578728 -0.011167 0.389269 0.720809 -0.195948 -0.390561 0.525302 -0.319417 0.201745 -0.286208 0.313220 -0.179536 0.311474 -0.440199 -0.060494 -0.224952 -0.670839 -0.145455 -0.264338 0.222036 -1.124546 -0.370177 -0.639234 0.329083 -0.045931 -0.139544 -1.032184 -0.774830 -0.175148 0.151067 0.218466 0.023047 0.116801 0.260696 -0.121023 -0.495073 -0.617831 0.409725 -0.772299 1.154048 0.234913 -0.080985 0.439111 -0.461072 0.287650 -0.693674 -0.234070 -0.289835 0.265772 -0.990558 0.265519 0.414152 -0.035348 -0.137393 -0.454206 0.157808 1.086567 0.354890 0.363952 -0.535806 0.285317 0.749260 0.048190 -0.213359 0.356357 -1.016593 0.142718 0.656986 -0.603826 -0.729189 -0.619328 0.128740 -0.279403 -0.149573 0.821191 0.331353 0.139771 0.066191 0.278159 -0.783865 -0.189373 
九分裤 -0.222595 0.505984 0.600226 -0.006319 0.546829 0.295392 0.474396 0.223114 0.617814 0.041681 -1.842479 0.234098 -0.695893 0.379409 -1.174466 0.537582 -0.301041 -0.112074 0.954832 1.201382 -0.176686 0.270094 0.680737 -0.032089 -0.340981 0.248454 -0.614988 0.463021 -0.383962 0.901136 -0.901391 0.215995 -0.834218 -0.008793 0.105437 -0.580201 -0.477806 -0.369123 0.401943 -1.350667 -0.379520 -0.375484 0.520747 -0.209390 -0.343337 -1.141033 -1.111350 -0.640233 0.739229 0.653525 -0.197071 -0.088983 0.146469 -0.080299 -0.682751 -0.618676 0.335386 -0.409347 1.146226 -0.320249 -0.343495 0.378210 -0.993638 0.326610 -0.548115 -0.329024 -0.279910 0.512031 -0.520223 0.325185 0.520609 -0.119787 -0.272653 -0.995446 -0.157367 0.751794 0.166721 0.309134 -0.409824 0.603129 0.477739 -0.102324 -0.320489 1.052536 -0.825536 -0.227399 0.406871 -0.396739 -0.376186 -0.028925 -0.084991 -0.164715 -0.169514 0.836148 0.009088 -0.141602 0.338854 0.228110 -0.495460 -0.511290 
剪刀 -0.379642 -0.253927 -1.165696 0.576330 0.576819 0.689633 0.417490 -0.095229 -0.813792 0.379518 -1.060303 1.106243 1.080253 -0.203021 -0.569986 0.418278 -0.319100 -0.185601 0.335440 0.394283 0.352798 -0.634951 0.256694 -0.418727 0.233806 -0.460393 -0.245414 0.316451 -0.776820 0.301728 -0.932572 0.087354 0.059540 -0.325920 0.680178 0.564944 -0.080072 -0.465689 -0.173234 -0.458756 0.396736 -0.052241 0.306500 -0.048907 -0.409636 0.084943 0.063133 0.251134 -0.431414 0.058024 -0.317039 0.042866 0.249411 -0.480664 0.985978 -0.179095 -0.141255 0.092762 0.103201 -0.092248 0.517884 0.024522 -0.054399 0.515558 -0.340808 0.215315 0.328974 -0.101739 -0.145193 -0.162949 0.912369 -0.249778 0.222048 -0.342507 0.223679 -0.178477 0.130184 -0.204896 -0.282361 -0.242096 -0.100652 -0.487545 -0.283711 -0.224530 -0.198066 0.327163 0.820675 -0.396722 -1.260762 -0.098837 0.144931 0.117475 -0.531622 0.232587 -0.014459 0.057811 -0.299197 -0.138896 -0.828536 -0.072518 
毛绒玩具 -0.311653 0.144772 0.119901 0.365341 0.012398 -0.641836 -0.233228 0.053555 -0.193421 -0.266375 0.404063 0.386470 -0.093294 0.410231 0.876294 -0.373733 -0.604133 -0.205859 -0.361899 0.399465 0.837201 0.014947 -0.695083 -0.073742 -0.279861 -0.651144 -0.190118 -0.217010 -0.388905 0.667906 -0.285513 -0.308871 -0.126421 0.169659 0.110319 0.101327 0.395407 -0.357885 0.650159 0.658651 0.151349 0.042651 0.008289 -0.008179 -0.000736 0.198587 -0.421160 0.635382 -0.098201 0.045490 0.675185 -0.107722 0.633916 -0.105700 -0.190902 0.306494 0.446833 -0.021911 -0.921159 0.527249 0.087890 -0.665433 -0.524946 -0.161804 -0.004421 -0.396713 0.010026 0.208631 -0.505402 0.116690 0.216482 0.601190 0.510882 0.056204 -0.645224 -0.042112 -0.163141 0.569223 -0.631276 -0.098989 0.122443 -0.325504 -0.041376 -0.851559 -1.172486 0.530026 0.727985 -0.104291 -0.349761 0.067640 -0.470799 0.566059 -0.417249 0.577426 -1.383396 0.647151 -0.305470 -0.454676 -0.399685 0.232576 
化妆包 -0.006782 -0.112809 -0.311973 -0.514486 -0.592771 0.487872 -0.162020 0.013065 -0.220490 0.763880 0.072456 1.086857 0.163781 1.288469 0.165852 0.033185 -1.146935 1.216763 0.764026 0.791532 0.127621 -0.599425 -0.279864 -0.116325 0.424172 -0.891909 -0.151314 0.285243 -0.772937 0.474792 -1.080074 -0.285669 -0.323788 -0.130535 1.300625 0.990940 -0.213195 -0.911500 -0.319670 0.220830 0.943611 -0.141648 0.181747 -0.509903 -0.288493 0.204733 -0.095199 0.365763 0.570315 0.501399 -0.338293 -0.507046 0.441234 0.002064 1.260466 0.114130 0.392326 -0.028794 -0.128403 -0.294681 0.080942 0.254958 -0.369364 -0.045033 -0.262443 0.073164 0.535724 -0.147698 0.191463 0.546821 0.971338 -0.128479 0.194182 -0.952592 -0.493697 -0.619684 -0.684386 0.096585 -0.399127 -0.170016 -0.552334 -0.293134 -0.352262 -0.171488 -0.574958 0.349756 0.935100 0.109329 -0.596248 0.596888 -0.202768 -0.301836 -0.465080 0.237762 -0.647378 0.078847 -0.858771 -0.039275 -0.865969 -0.280558 
灯具 -0.221198 -0.428316 -0.830602 0.620346 0.281006 0.152948 0.243545 -0.213956 -0.645734 0.134495 0.274710 0.286045 0.315820 0.181201 0.594819 -0.400996 -0.413828 0.085130 -0.256213 -0.095716 0.548695 -0.237548 -0.180132 -0.474501 0.070672 -0.374157 0.002085 0.131360 -0.419335 0.398866 -0.395944 -0.032239 0.242592 -0.102458 0.597989 -0.001204 0.233157 -0.133377 0.259749 0.273083 0.191628 -0.024593 0.137796 -0.021722 0.049324 -0.134591 -0.255216 0.573439 -0.342649 0.157720 0.240417 -0.106607 0.537123 -0.598101 0.281920 -0.080153 0.314803 -0.023679 -0.662653 0.192492 0.341846 -0.234477 -0.439209 0.067115 -0.250674 -0.265469 -0.198512 -0.168173 -0.363554 0.250843 0.353614 0.085148 0.374013 -0.273287 -0.023902 -0.203301 -0.082465 0.173855 0.051289 -0.363716 -0.089642 -0.477887 -0.408033 -0.526970 -0.374218 0.365014 0.949960 0.091454 -0.831865 -0.311271 -0.100521 0.095843 -0.350765 0.680180 -0.758357 0.265190 -0.232777 -0.368447 -0.459104 -0.346795 
箱 -0.002990 -0.102984 -0.257701 -0.153885 -0.304606 0.227631 -0.060124 -0.049252 -0.227333 0.449512 0.017396 0.570989 0.128427 0.705903 0.202570 0.055888 -0.716391 0.493766 0.338917 0.536361 0.242885 -0.408434 -0.181595 -0.088505 0.331605 -0.529585 -0.067969 0.145808 -0.567664 0.443753 -0.762111 -0.125945 -0.182260 -0.154255 0.802118 0.528018 0.022218 -0.356680 -0.166489 0.300744 0.518534 0.003215 0.308365 -0.281724 -0.137696 0.270099 -0.277694 0.216911 0.305187 0.324320 -0.071652 -0.274557 0.317796 -0.129904 0.673411 0.209009 0.280795 0.127616 -0.001626 -0.035953 0.059455 0.022564 -0.215651 0.044027 -0.134152 -0.029056 0.092550 0.035489 0.067728 0.179717 0.621929 -0.058891 0.137432 -0.520098 -0.370935 -0.330123 -0.320811 0.223362 -0.403078 -0.205911 -0.283379 -0.170889 -0.237961 -0.103849 -0.472479 0.351907 0.599633 0.093595 -0.636560 0.307104 -0.474328 -0.010013 -0.341798 0.256459 -0.514004 -0.134867 -0.487399 -0.129387 -0.659837 -0.185894 
女童套装 -0.387200 0.259815 -0.151267 0.928721 0.320419 0.650406 0.674369 0.332605 -0.076511 -0.362402 -1.123843 0.196068 0.080478 -0.700320 -0.578178 0.315547 0.511968 -0.143284 0.131350 0.181106 0.259607 0.253390 0.590267 -0.377111 -0.150406 0.304473 -0.070044 0.222562 -0.279606 0.165926 0.102760 0.494823 -0.184876 -0.188080 -0.003256 -0.675523 0.031251 -0.185616 0.242451 -0.932664 -0.478043 -0.640619 0.230737 -0.121932 0.046135 -0.847601 -0.646694 0.119413 -0.203438 0.252096 0.011292 0.306966 0.529424 -0.222552 -0.026698 -0.394358 0.556346 -0.859600 0.819252 0.599991 0.082689 0.480398 -0.011337 0.209801 -0.860900 -0.126079 -0.059321 0.098324 -1.388071 0.369913 0.608087 0.029087 -0.006730 -0.299371 0.433116 0.974440 0.413689 0.498202 -0.719851 0.084088 0.826611 -0.133549 -0.377289 -0.211705 -1.207683 0.485821 1.389431 -0.660932 -1.191536 -0.907717 0.042686 -0.138633 -0.159175 0.868842 0.338659 0.152688 -0.218897 0.258706 -1.180059 -0.271690 
球玩具 -0.302959 0.085662 -0.004000 0.602322 0.374709 -0.506959 0.040545 0.048902 -0.134063 -0.222964 0.128959 0.219638 -0.234486 0.278399 0.647753 -0.439461 -0.301116 -0.187147 -0.259239 0.316680 0.531437 0.159544 -0.534407 -0.283294 -0.246326 -0.561807 -0.326223 -0.006521 -0.199832 0.689418 -0.103547 -0.066166 -0.104358 0.268778 0.145116 -0.278774 0.312447 -0.148697 0.760143 0.239706 -0.208239 0.122203 0.005494 -0.057711 0.038786 -0.247395 -0.465395 0.413626 -0.049589 0.317451 0.456559 -0.203546 0.567682 -0.187905 -0.332650 0.018999 0.384244 -0.053538 -0.789307 0.336634 0.070904 -0.444283 -0.637314 -0.176412 -0.117533 -0.357736 -0.072053 0.167997 -0.770143 0.282068 0.173155 0.711989 0.329892 -0.173104 -0.358075 -0.017932 0.014732 0.429628 -0.277084 0.011104 0.164798 -0.415458 -0.188461 -0.448777 -0.891553 0.230726 0.863160 0.066230 -0.208454 -0.144641 -0.209967 0.401632 -0.245359 0.761211 -1.086963 0.445074 -0.043035 -0.415552 -0.234601 -0.245543 
女袜 -0.301433 0.482981 0.303341 -0.068245 0.515599 0.320598 0.513162 0.283537 0.527403 0.009853 -1.700939 0.273713 -0.684633 0.228449 -1.049744 0.575848 -0.559557 -0.137478 0.839523 1.028171 -0.071580 0.282676 0.544959 -0.016913 -0.260765 -0.036701 -0.798471 0.352115 -0.367609 1.083196 -1.123366 0.381011 -0.822446 0.140555 0.443116 -0.251606 -0.397260 -0.199974 0.395862 -1.375227 -0.511026 -0.103736 0.577170 -0.230271 -0.266709 -0.838830 -1.121201 -0.814237 0.509906 0.647499 -0.276644 0.021689 0.099793 -0.170927 -0.498442 -0.347023 0.344013 -0.228230 0.964440 -0.192947 -0.502327 0.483275 -0.953667 0.157019 -0.515504 -0.257538 -0.286110 0.415557 -0.296611 0.423523 0.547428 -0.183885 -0.215291 -0.958813 -0.162676 0.771145 0.314204 0.266759 -0.548265 0.483847 0.381922 -0.219498 -0.304857 0.752447 -0.616035 -0.095749 0.655925 -0.244015 -0.453064 -0.018236 -0.358589 0.088005 -0.230590 0.688106 0.000673 -0.113425 0.218890 0.381806 -0.617666 -0.472818 
塑料巧板 -0.308938 -0.034520 -0.239530 0.530562 0.476268 -0.570879 -0.008027 0.008050 -0.300574 -0.145382 0.085958 0.398492 -0.012408 0.392259 0.620880 -0.386848 -0.382722 -0.251394 -0.173315 0.326858 0.535628 0.034567 -0.698939 -0.222328 -0.154250 -0.787890 -0.349997 -0.186711 -0.218736 0.609635 -0.100905 -0.153400 -0.039256 0.305904 0.303463 0.055691 0.326752 -0.091647 0.780774 0.395556 -0.038881 0.282726 0.002840 -0.063920 0.006633 -0.037512 -0.261192 0.398925 -0.097703 0.180394 0.472520 -0.243178 0.445632 -0.115473 -0.082326 0.087322 0.310281 0.085820 -0.793541 0.227606 0.115210 -0.551902 -0.533250 -0.199256 -0.073398 -0.221822 -0.046120 0.209359 -0.621912 0.240070 0.249698 0.762031 0.315338 -0.187518 -0.381437 -0.039586 -0.110664 0.347605 -0.361543 -0.143628 0.047160 -0.410901 -0.175594 -0.605890 -0.828076 0.252894 0.769303 0.045503 -0.237118 0.038757 -0.256717 0.494964 -0.296451 0.566673 -1.081946 0.407700 -0.177991 -0.391634 -0.250065 -0.170949 
连衣裙 -0.421903 0.231257 -0.153268 1.027957 0.396613 0.466992 0.649878 0.318002 -0.122959 -0.350990 -1.001986 0.165031 0.012805 -0.641194 -0.438442 0.181940 0.387652 -0.191108 0.041928 0.196618 0.316138 0.321843 0.423657 -0.417918 -0.153218 0.170117 -0.085457 0.259222 -0.281164 0.254185 0.130769 0.463006 -0.178251 -0.103248 -0.002618 -0.709287 0.036944 -0.144970 0.377706 -0.791403 -0.561219 -0.479610 0.160172 -0.070956 0.016788 -0.828636 -0.643359 0.144271 -0.180182 0.328875 0.060128 0.261505 0.543108 -0.219517 -0.113126 -0.326815 0.465255 -0.748022 0.530742 0.543400 0.090351 0.328331 -0.106629 0.128699 -0.745187 -0.178945 -0.031090 0.067685 -1.360816 0.378450 0.557309 0.176581 0.035410 -0.329823 0.390899 0.893646 0.380434 0.488148 -0.608551 0.092219 0.754615 -0.223844 -0.420028 -0.216865 -1.138234 0.408500 1.433710 -0.590777 -1.050668 -0.871842 0.058456 -0.006472 -0.147264 0.885793 0.130719 0.206037 -0.141886 0.112305 -1.014831 -0.347784 
鱼钩 -0.210191 -0.078992 -0.410581 0.212630 0.180176 0.149460 0.126677 -0.045094 -0.354046 0.194189 -0.454630 0.394516 0.297947 0.253236 -0.098212 0.235404 -0.334703 -0.144439 0.136549 0.346913 0.380742 -0.249924 -0.031747 -0.098770 0.172556 -0.315080 -0.183368 0.108687 -0.327595 0.458855 -0.618330 0.059902 -0.087549 -0.142345 0.499535 0.370329 0.052599 -0.089019 -0.020096 -0.009828 0.108137 0.063681 0.337890 -0.160819 -0.041046 0.072434 -0.325814 -0.036075 0.044429 0.169106 0.044084 -0.062762 0.268092 -0.371248 0.263526 -0.010473 0.169168 0.277996 0.129813 -0.069908 0.048780 -0.060570 -0.374978 0.235956 -0.200822 -0.134356 -0.206365 0.195573 -0.068672 -0.002445 0.364720 -0.015742 0.120922 -0.287493 -0.257963 -0.060526 -0.065681 0.210736 -0.340895 -0.140438 -0.073909 -0.239225 -0.099765 -0.012998 -0.097315 0.321389 0.337874 -0.113020 -0.672502 0.138127 -0.398403 0.181958 -0.227779 0.268904 -0.241677 -0.192501 -0.234591 -0.036910 -0.436597 -0.111761 
手套 -0.479944 -0.098305 -0.601009 0.407258 0.290697 0.482701 0.312239 -0.023104 -0.281418 0.134658 -0.388058 0.480385 0.058332 0.138338 0.098157 -0.080927 -0.507697 0.050052 0.070591 0.205960 0.425062 -0.046716 0.314642 -0.326009 -0.177635 -0.150194 -0.331414 0.402157 -0.417862 0.853324 -0.869889 0.162618 -0.136159 -0.183385 0.572701 -0.205328 -0.018548 -0.334003 0.261753 -0.510190 -0.107154 -0.099650 0.237680 -0.051040 -0.046726 -0.315989 -0.536335 0.180466 -0.305969 0.414781 -0.000972 0.212541 0.468676 -0.499361 -0.005533 -0.060084 0.219940 -0.073106 -0.362609 0.168657 0.144803 0.123211 -0.547040 0.155988 -0.192067 -0.268728 -0.057391 -0.183348 -0.226639 0.240709 0.433006 -0.152723 0.344302 -0.396415 0.044923 -0.130260 0.239017 0.072477 -0.033203 -0.222352 -0.035710 -0.564616 -0.401370 -0.128788 -0.253125 0.327254 0.986786 -0.109033 -0.894324 -0.406031 -0.212498 0.009353 -0.408355 0.735775 -0.481189 0.167296 -0.120752 -0.150656 -0.501842 -0.478907 
蝴蝶结 0.548934 -0.194730 -0.421298 -0.196500 0.364336 0.253200 0.385138 -0.146258 -0.099113 -0.195724 0.118177 -0.239341 0.009718 0.404502 -0.029985 0.088021 0.142189 -0.393418 0.000133 -0.410438 0.063763 -0.311301 0.448617 -0.328104 -0.078665 0.372881 0.193534 -0.690590 0.146865 -0.343785 -0.085502 0.108409 0.297866 0.125587 0.264484 0.126250 0.430418 0.068997 -0.065096 0.175569 0.520400 -0.814560 0.391117 -0.206390 0.204224 -0.478058 -0.545830 0.318034 -0.116645 -0.815323 0.425136 -0.183894 0.106234 -0.415790 -0.394045 -0.830455 1.071755 -0.601672 1.166820 0.525141 0.042960 -0.242872 -0.434558 0.040039 -0.869404 -0.285180 -0.925655 0.370349 -0.589647 0.251292 -0.166373 -0.324585 0.065339 -0.191956 -0.237688 0.965218 -0.121976 0.249876 -0.306174 -0.260228 0.225465 0.343682 0.014262 -0.414850 -1.271759 0.675754 0.096199 0.115264 -1.027510 -0.186652 -0.566709 -0.082543 -0.097224 0.705900 0.057714 0.494110 -0.175677 0.306218 -1.042669 0.256924 
铅笔 -0.457401 0.053459 0.095848 0.460457 0.732079 0.436227 0.297233 -0.137440 -0.037220 0.286141 -0.991968 0.220580 -0.284174 0.035108 -0.450651 0.054177 -0.158718 -0.240144 0.296534 0.709837 0.243480 0.212148 0.618022 -0.213622 -0.377547 0.262930 -0.616159 0.594395 -0.525084 1.193055 -0.973787 0.181586 -0.400214 -0.447581 -0.061239 -0.652059 -0.197440 -0.293389 0.530617 -1.142977 -0.254689 -0.281282 0.522527 -0.048338 -0.014778 -0.939625 -1.032696 -0.059815 -0.082842 0.566468 0.211645 0.284199 0.521147 -0.697333 -0.625814 -0.366089 0.071704 -0.044241 -0.000041 -0.037274 0.130712 0.070106 -0.757976 0.436032 -0.438463 -0.393276 -0.598596 0.126767 -0.339914 -0.023755 0.410289 -0.124388 0.050309 -0.502883 -0.219652 0.188882 0.263484 0.542758 -0.196648 -0.314472 0.144216 -0.526669 -0.368717 0.486988 -0.444287 0.066460 0.523267 -0.301950 -0.763433 -0.267951 -0.100399 -0.162717 -0.605143 0.730110 -0.470711 -0.237247 0.154940 -0.162015 -0.309627 -0.617470 
休闲包 0.023650 -0.114550 -0.362959 -0.428807 -0.559003 0.517234 -0.091356 0.081243 -0.216695 0.802823 0.037863 1.167066 0.232773 1.227267 0.319707 0.077406 -1.168187 1.168986 0.742508 0.750950 0.102432 -0.649878 -0.386214 -0.140039 0.556409 -1.083075 -0.141105 0.384438 -0.812417 0.408537 -1.052567 -0.229161 -0.296619 -0.054419 1.404404 0.953198 -0.254837 -0.865931 -0.226190 0.272912 0.910706 -0.052022 0.195387 -0.604359 -0.343794 0.194471 -0.138310 0.407875 0.529080 0.517932 -0.369527 -0.553594 0.437615 0.057635 1.416486 0.126965 0.471612 -0.008016 -0.129946 -0.262476 0.093815 0.202982 -0.227645 -0.012120 -0.207973 0.214485 0.646254 -0.125265 0.040006 0.590517 0.982488 -0.065391 0.162703 -1.055442 -0.385867 -0.662033 -0.618473 0.090251 -0.374652 -0.274022 -0.588172 -0.362280 -0.466417 -0.215738 -0.733016 0.389985 1.084028 0.190772 -0.698887 0.631486 -0.280637 -0.219073 -0.403761 0.233877 -0.656412 0.046930 -0.830569 -0.060774 -0.992223 -0.399736 
马 -0.307231 0.021781 -0.132205 0.418536 0.286784 -0.322613 -0.050873 -0.037732 -0.171547 -0.083087 -0.062638 0.349278 0.041142 0.422035 0.384978 -0.130234 -0.292241 -0.268583 -0.130278 0.391442 0.511418 -0.015489 -0.437032 -0.056006 -0.163266 -0.427510 -0.264753 -0.085591 -0.341027 0.586039 -0.319907 -0.228177 -0.156163 0.093861 0.095074 0.066337 0.192477 -0.147712 0.403538 0.301314 0.109359 0.049247 0.156765 0.008465 -0.037189 -0.016417 -0.292607 0.309134 -0.013408 0.155666 0.424561 -0.069538 0.444633 -0.157321 -0.139173 0.052470 0.187921 -0.005204 -0.500079 0.248010 0.090558 -0.410901 -0.499350 0.042415 -0.095388 -0.301483 -0.148205 0.226390 -0.333697 -0.006101 0.232390 0.522983 0.318003 -0.000389 -0.364349 -0.017705 -0.082353 0.399662 -0.414153 -0.084859 0.074252 -0.219516 -0.072468 -0.343705 -0.618606 0.277226 0.390965 -0.082473 -0.227866 -0.046717 -0.287386 0.282701 -0.287703 0.432221 -0.794995 0.258277 -0.169839 -0.291505 -0.136844 0.006599 
球 0.108978 0.067195 -0.016516 0.210286 0.256295 -0.382701 0.179985 -0.020385 0.034437 -0.152636 -0.012984 0.026458 -0.299226 0.442914 0.291380 -0.241534 -0.245874 -0.059819 0.031395 0.228607 0.233084 0.138257 -0.349593 -0.264955 -0.020978 -0.421240 -0.072065 -0.218166 0.032346 0.283373 0.004585 0.080398 -0.092348 0.433553 0.438108 -0.069452 0.135864 0.026129 0.569838 0.195798 -0.138979 -0.000537 0.075778 -0.196874 0.080586 -0.278183 -0.359407 0.047158 0.156615 0.195803 0.206039 -0.447141 0.315050 -0.056845 -0.206231 -0.185980 0.509599 -0.172329 -0.068694 0.067261 -0.094649 -0.222237 -0.581462 -0.326839 -0.295019 -0.225179 -0.229790 0.229176 -0.552780 0.456662 0.084924 0.441425 -0.033881 -0.427954 -0.294337 0.259143 -0.169876 0.213730 -0.192104 0.144279 0.157095 -0.057887 -0.152749 -0.253824 -0.837303 0.090554 0.586577 0.172050 -0.160115 0.099373 -0.182235 0.263886 0.007210 0.607035 -0.534852 0.214341 -0.037761 -0.036714 -0.400286 -0.103707 
尺 -0.488962 -0.121113 -0.652472 0.516828 0.680118 0.551043 0.235189 -0.103017 -0.448161 0.427953 -1.293901 0.903912 0.615624 0.076703 -0.717821 0.358377 -0.228181 -0.201370 0.548584 0.629891 0.109708 -0.394461 0.299808 -0.225405 0.030834 -0.309036 -0.491941 0.424974 -0.721226 0.543009 -0.980893 0.067427 -0.242744 -0.320750 0.349156 0.238237 -0.283066 -0.391790 -0.065931 -0.743399 0.252134 -0.051778 0.386410 -0.043428 -0.352864 -0.291776 -0.129919 0.067539 -0.124923 0.235749 -0.206922 0.067193 0.226489 -0.308026 0.615937 -0.208523 -0.229147 0.154987 0.193358 -0.293200 0.369893 0.154871 -0.152883 0.540988 -0.322463 0.129849 0.110073 -0.014021 -0.105745 -0.158083 0.742736 -0.086206 0.003045 -0.467344 0.103783 -0.099927 0.079512 0.010587 -0.267576 -0.201721 -0.136812 -0.377508 -0.314466 0.212654 -0.080359 0.055584 0.472781 -0.388032 -0.742933 -0.058858 0.165023 -0.161308 -0.454872 0.208206 -0.023099 -0.246791 -0.133923 -0.134724 -0.433375 -0.414745 
树脂玩具 0.078215 -0.083813 -0.647614 0.570580 0.671832 -0.210016 0.092698 -0.189913 -0.348006 -0.169766 -0.022343 0.446467 0.474890 0.567251 0.050683 0.176411 0.002986 -0.758977 -0.231617 0.054401 0.499152 -0.271698 -0.262271 -0.134499 -0.143523 -0.332890 -0.062898 -0.791990 -0.391896 -0.012845 -0.352879 -0.250272 -0.013049 0.224532 0.048895 0.474221 0.508068 -0.001879 0.136024 0.576728 0.587552 -0.299875 0.474554 -0.068250 -0.004652 0.071184 -0.189803 0.594766 -0.076552 -0.613886 0.584880 -0.157677 0.365815 -0.229170 -0.207834 -0.329535 0.436954 -0.229608 0.390018 0.514511 0.185106 -0.470523 -0.410529 0.251102 -0.538758 -0.167562 -0.596451 0.436325 -0.410916 -0.189251 -0.023625 0.327045 0.232983 0.379018 -0.338092 0.468130 -0.151239 0.485935 -0.735173 -0.126997 0.084590 0.216573 0.190734 -0.543485 -1.006804 0.486580 -0.272535 0.025048 -0.486345 0.117990 -0.411435 0.155690 -0.254965 0.334466 -0.381205 0.461732 -0.233356 -0.090818 -0.396282 0.579187 
流行饰品 0.057867 -0.011483 -0.627421 0.674179 1.060846 -1.019003 -0.077426 -0.284913 -0.191028 -0.138670 -0.377698 0.569955 0.257878 1.626134 -0.103966 -0.092691 -0.365931 -0.815676 0.240003 0.672487 0.234565 0.010289 -1.107871 -0.013580 -0.130154 -1.166252 -0.414320 -1.062586 -0.342540 -0.073172 0.177047 -0.536565 -0.332586 1.000172 0.193626 0.903980 0.385970 0.171775 0.544890 0.961076 0.649056 0.266718 0.358520 -0.192699 -0.157362 -0.000179 0.031140 0.328591 0.508176 -0.320248 0.524778 -1.060386 0.241139 0.159998 -0.227103 -0.451050 0.214781 -0.018521 0.273598 -0.227468 0.054922 -0.769234 -0.950656 -0.072951 -0.340930 -0.038623 -0.623567 0.703763 -0.375894 0.158052 -0.002849 1.224048 -0.119248 -0.107689 -0.796241 0.512323 -0.646209 0.433423 -0.876002 0.090054 0.014388 0.417519 0.147940 -0.424812 -1.083155 -0.096339 -0.729315 0.303389 0.598252 0.725103 -0.059448 0.267796 0.089616 0.221756 -0.572766 0.399624 -0.223760 -0.054291 0.031179 0.505349 
瓶 -0.469359 -0.072832 -0.501036 0.698128 0.571754 0.069287 0.247244 -0.110093 -0.417696 -0.015752 -0.380570 0.265404 0.064657 0.116393 0.238026 -0.120802 -0.294840 -0.417547 -0.264555 0.223248 0.598673 0.033793 0.058961 -0.311788 -0.178779 -0.249628 -0.279390 0.128806 -0.382143 0.862796 -0.653429 0.065260 -0.195530 -0.089071 0.277307 -0.161393 0.158110 -0.123435 0.431238 -0.174605 -0.228169 -0.020698 0.341803 0.003122 0.112116 -0.259187 -0.690136 0.128668 -0.282532 0.301798 0.394025 0.209998 0.538098 -0.694206 -0.322120 -0.020240 0.098223 0.111581 -0.470747 0.290539 0.054143 -0.102196 -0.580440 0.180771 -0.235625 -0.452376 -0.412107 0.022334 -0.278468 -0.053434 0.210385 0.177859 0.332482 -0.037459 -0.176052 0.021242 0.237499 0.531542 -0.251794 -0.212164 0.117530 -0.469194 -0.153301 -0.163367 -0.233971 0.405727 0.672127 -0.201555 -0.692632 -0.379611 -0.227013 0.273193 -0.372437 0.713016 -0.579231 0.134546 -0.074742 -0.304307 -0.294042 -0.170961 
手电筒 -0.156973 -0.336866 -0.699047 0.472034 0.109975 0.233158 0.180921 -0.140705 -0.589908 0.261784 0.260881 0.465530 0.327752 0.212304 0.515822 -0.298211 -0.488776 0.315947 -0.095485 0.019634 0.468840 -0.293876 -0.243989 -0.442801 0.246368 -0.527005 -0.049348 0.237279 -0.552555 0.396252 -0.495036 0.039773 0.141755 -0.096709 0.698841 0.101484 0.190601 -0.201039 0.203413 0.294626 0.275656 0.011597 0.180678 -0.129522 -0.039191 -0.033551 -0.222322 0.546418 -0.188462 0.313467 0.056101 -0.207870 0.538137 -0.451007 0.562243 0.018351 0.343218 -0.026988 -0.541356 0.114763 0.282721 -0.140775 -0.417140 0.039494 -0.307054 -0.118818 0.016821 -0.112759 -0.385288 0.325142 0.642698 0.061418 0.279221 -0.498648 -0.033951 -0.292453 -0.173563 0.173651 -0.098772 -0.385931 -0.142991 -0.460998 -0.476725 -0.521302 -0.526537 0.373547 1.082269 0.120348 -0.888324 -0.166399 -0.174064 0.038731 -0.384479 0.644936 -0.733502 0.202180 -0.393587 -0.282469 -0.538597 -0.384085 
鞋 -0.594587 -0.140902 -0.531300 0.708321 0.352441 0.246813 0.223132 -0.072697 -0.265066 -0.022526 -0.239326 0.220192 -0.052039 0.206345 0.214956 -0.171446 -0.385177 -0.186339 -0.184560 0.239291 0.544968 0.090035 -0.009448 -0.280384 -0.198160 -0.180162 -0.352598 0.243536 -0.537311 0.857463 -0.560098 0.050085 -0.269586 -0.035641 0.317664 -0.194317 0.127847 -0.182023 0.251453 -0.239498 -0.176907 -0.004762 0.305008 0.036567 0.056212 -0.287652 -0.576991 0.188467 -0.239140 0.487336 0.279480 0.171808 0.542385 -0.633059 -0.237415 0.046957 0.103966 -0.048295 -0.511605 0.338018 0.057784 -0.018331 -0.610773 0.109115 -0.247496 -0.366188 -0.196944 -0.054524 -0.309081 0.050319 0.399896 0.136093 0.385710 -0.143840 -0.042872 0.069527 0.214815 0.306812 -0.263635 -0.203133 0.153604 -0.411333 -0.282470 -0.170222 -0.241265 0.361329 0.877110 -0.196017 -0.680671 -0.473349 -0.194591 0.110313 -0.386416 0.660122 -0.667981 0.304433 -0.109323 -0.250718 -0.205319 -0.275425 
熊熊 -0.055135 0.176454 0.109273 0.171882 -0.004395 -0.461622 -0.128455 0.053977 0.016529 -0.173050 0.283730 0.270841 -0.134444 0.510251 0.524865 -0.215580 -0.438425 -0.031879 -0.102517 0.367647 0.470976 -0.016662 -0.535237 -0.062062 -0.154241 -0.500379 -0.066943 -0.321635 -0.256004 0.271546 -0.105051 -0.255951 -0.110718 0.223840 0.138059 0.175486 0.267485 -0.285371 0.389713 0.577735 0.278765 -0.117573 0.002942 -0.115520 -0.067530 0.086480 -0.266717 0.450156 0.094799 -0.037135 0.440559 -0.250288 0.428945 0.071986 -0.048491 0.076444 0.453545 -0.201092 -0.321869 0.320953 0.019957 -0.432899 -0.357182 -0.189317 -0.162123 -0.220453 0.025753 0.270985 -0.441931 0.203008 0.191379 0.473148 0.230170 -0.115360 -0.522664 0.164984 -0.237866 0.417775 -0.579268 -0.007416 0.098971 -0.054425 -0.004516 -0.601406 -1.173485 0.353228 0.439386 -0.010768 -0.207500 0.200888 -0.372269 0.301813 -0.281838 0.411030 -0.886106 0.488305 -0.261468 -0.189287 -0.480786 0.259214 
织带 0.289610 -0.015887 0.081323 -0.255641 0.487790 0.104064 0.520065 -0.020713 0.016030 -0.038018 -0.411079 -0.163402 -0.468682 0.139588 0.039002 -0.067488 -0.079157 -0.159243 0.150594 0.028695 0.052743 -0.141365 0.503945 -0.431304 -0.023009 0.134860 -0.043688 -0.014817 0.243911 0.325781 -0.271638 0.357295 0.171120 -0.052972 0.364292 -0.515461 0.034637 0.001157 0.505783 -0.431594 -0.164111 -0.496097 0.228766 -0.259042 0.115464 -0.935027 -0.928316 -0.087092 0.023533 -0.062646 0.222544 -0.162777 0.203236 -0.408239 -0.495601 -0.684682 0.874209 -0.251605 0.654373 0.154283 -0.068552 -0.121733 -0.618248 -0.069537 -0.685965 -0.320515 -0.708134 0.328951 -0.772880 0.514336 0.053351 -0.198675 -0.172591 -0.721538 -0.153354 0.641678 0.074491 0.255667 0.067954 -0.116277 0.237078 -0.189616 -0.292501 0.060359 -1.116599 0.301595 0.783242 -0.004729 -0.903978 -0.160804 -0.401650 0.133261 -0.083240 0.952204 -0.188190 0.020626 0.034991 0.121907 -0.921775 -0.427159 
陀螺 -0.291053 -0.092503 -0.351723 0.600895 0.442579 -0.419959 0.005368 -0.133583 -0.259011 -0.080317 0.140191 0.294756 -0.047182 0.517277 0.579770 -0.452451 -0.424037 -0.201973 -0.130333 0.325148 0.430500 0.027946 -0.645711 -0.291271 -0.131332 -0.727876 -0.260101 -0.132939 -0.238441 0.533659 -0.106594 -0.170732 -0.071344 0.321938 0.314328 0.040942 0.251054 -0.075705 0.655703 0.419711 -0.006652 0.236370 0.024709 -0.072427 0.071391 -0.100736 -0.255895 0.393196 -0.061292 0.266392 0.437237 -0.336877 0.422995 -0.187684 -0.093815 0.022048 0.237419 0.001505 -0.792613 0.117287 0.148723 -0.444995 -0.565779 -0.203559 -0.081094 -0.250579 -0.120453 0.101007 -0.461883 0.290310 0.186573 0.698833 0.242940 -0.238243 -0.332123 -0.018988 -0.156439 0.262956 -0.204836 -0.112113 -0.013598 -0.328243 -0.167898 -0.479140 -0.686836 0.158194 0.694056 0.094319 -0.157741 -0.015445 -0.190679 0.332947 -0.259661 0.581126 -0.992990 0.319460 -0.133647 -0.359733 -0.206772 -0.192627 
笔记本 -0.286609 0.096570 -0.071845 0.199620 0.447682 0.198774 0.174332 -0.102222 0.011912 0.185637 -0.894885 0.237221 -0.136929 0.421158 -0.427434 0.122622 -0.306915 -0.211941 0.390920 0.667511 0.131195 -0.004579 0.234558 -0.123323 -0.157075 -0.054585 -0.466644 0.251549 -0.450529 0.804901 -0.748972 0.023253 -0.432842 -0.106336 0.242628 -0.118707 -0.187401 -0.222980 0.268172 -0.635263 0.021996 -0.185148 0.412466 -0.073028 -0.151401 -0.541191 -0.616026 -0.147259 0.142951 0.341132 0.045178 -0.056769 0.249407 -0.265311 -0.308536 -0.324556 0.098639 -0.041603 0.348989 -0.096880 -0.039946 0.017915 -0.658102 0.266924 -0.363004 -0.259241 -0.416850 0.222465 -0.203399 0.107105 0.409519 0.000386 -0.049817 -0.492887 -0.256239 0.303192 0.057245 0.310255 -0.263763 -0.065062 0.104212 -0.153053 -0.202981 0.401695 -0.402406 0.039415 0.281579 -0.184802 -0.419323 -0.045712 -0.137341 -0.110820 -0.320740 0.505664 -0.242473 -0.077617 -0.000361 -0.016048 -0.296645 -0.305257 
裙 -0.352106 0.189683 -0.180155 0.841016 0.452034 0.283993 0.521361 0.186221 -0.060453 -0.305794 -0.880809 0.103989 -0.043718 -0.302637 -0.351034 0.140279 0.221853 -0.278018 0.075577 0.257001 0.291468 0.271326 0.320946 -0.366095 -0.201635 0.100384 -0.140008 0.106512 -0.264158 0.318431 0.007855 0.311829 -0.192391 -0.026815 0.030990 -0.520203 0.060921 -0.132050 0.372251 -0.613045 -0.409827 -0.412245 0.205746 -0.050415 0.031825 -0.689690 -0.620504 0.110147 -0.121935 0.237400 0.137657 0.129756 0.450492 -0.223064 -0.218176 -0.329556 0.426013 -0.608719 0.480016 0.399771 0.057841 0.189564 -0.236052 0.096030 -0.642484 -0.210948 -0.164339 0.117497 -1.063567 0.299728 0.379306 0.197169 0.045936 -0.302883 0.206289 0.797558 0.274030 0.403651 -0.503582 0.095661 0.612766 -0.138221 -0.281399 -0.147589 -1.017936 0.320532 1.049851 -0.446822 -0.845290 -0.629010 -0.006747 0.036736 -0.169826 0.806816 -0.030343 0.207274 -0.073794 0.109533 -0.827542 -0.216407 
