2751 100
女裤 0.145612 0.015972 -0.001057 0.195772 0.060893 -0.033310 -0.206463 0.120263 -0.019918 0.324427 -0.042817 0.274567 -0.068285 -0.033524 -0.093118 -0.248511 -0.185780 0.560755 0.333294 0.005006 -0.016433 -0.205445 0.197160 -0.182509 0.183420 -0.199938 -0.043425 0.007453 -0.172551 -0.273701 -0.014520 -0.075596 0.020878 0.257354 -0.146742 -0.045745 -0.022053 -0.048090 -0.059456 -0.164742 -0.045774 0.062604 -0.254844 0.176290 0.228406 0.120732 0.235244 -0.113902 0.019704 0.019617 0.032734 0.007450 0.377642 -0.025921 -0.340060 0.004418 -0.242313 0.200475 0.082342 0.105921 -0.160870 0.607192 -0.318595 0.054499 0.156126 0.064489 0.037639 -0.014283 -0.324794 0.266163 0.092626 -0.196916 -0.154062 -0.021363 0.111827 -0.074262 0.205567 -0.227362 -0.523459 -0.187700 0.096690 -0.027845 -0.223349 0.060644 -0.164030 0.275279 -0.037421 -0.075410 -0.271064 -0.096368 0.130929 -0.244034 0.016517 -0.302672 -0.480452 0.050222 -0.342241 0.318457 0.358682 0.226672 
包 -0.835392 0.720257 0.156252 -1.249812 -0.065069 -1.240891 0.593565 -0.527208 0.339230 0.173846 -0.113867 -0.128325 -0.660233 -0.305240 -1.094732 0.675662 -0.357075 -1.176089 -0.955122 -1.205564 -0.432060 -1.342896 -0.802064 0.632334 0.434726 0.413784 1.190255 -1.519737 0.216371 -0.396741 -0.694177 0.181001 0.269367 -1.209212 -0.868053 1.329340 0.266696 0.813896 -0.637450 0.707856 -1.631480 -1.285725 0.483498 -0.421745 -0.635894 -1.132767 -0.474897 -0.072614 -0.430755 0.609944 -0.149179 0.333111 -1.133853 -0.317446 0.554741 0.419221 0.512908 -0.391007 -0.372939 -0.841691 -0.677291 -1.538452 1.383995 0.165570 -0.816316 -0.530510 0.778573 -0.002414 0.476666 -1.434338 -1.480140 1.213972 0.394973 0.099096 -0.873594 0.316853 0.253682 -0.117829 0.820933 0.229123 0.208920 0.027760 -0.588101 0.080625 -0.744504 -0.665255 1.644655 0.745170 0.585060 0.517442 0.085032 0.484330 0.660312 0.536650 0.331777 0.189022 0.450206 -0.651138 -0.063531 -1.037848 
袜 0.343663 -0.371695 -1.052223 -0.637946 0.322176 -0.853972 0.419508 0.164457 0.524335 -1.247687 0.196832 0.744071 0.329425 0.944126 0.140197 -0.484236 0.100307 -0.045293 -1.724248 1.017165 0.690796 1.060840 0.709234 -0.680074 -1.573664 1.151125 1.016940 1.147364 -0.037808 0.708781 -1.267806 0.087342 0.549699 -0.962050 1.397206 0.231927 0.165527 -0.820136 2.031833 0.751986 0.373264 0.953235 -0.630651 -0.247974 0.209558 0.933153 -1.191304 0.668149 1.248123 0.246518 0.170794 -0.713317 -0.536374 -0.290675 0.455778 0.334601 -0.745118 -0.621729 -0.145592 -1.164459 0.923612 -0.195787 0.153471 0.684979 0.510574 -0.527256 -0.173335 -0.165575 0.940817 -0.646943 -0.253438 0.256488 0.086241 -1.883008 0.199742 0.644764 0.915180 1.027559 2.149678 0.604293 0.100318 -0.886346 0.518493 -0.006651 0.924048 -0.693516 -0.678806 1.017608 0.779996 -0.698607 0.800424 0.264138 -0.256217 1.539697 0.859060 -1.222770 0.307608 0.474398 -0.480044 -1.047156 
链 0.041594 0.381801 0.407191 0.137715 1.477120 0.397326 -0.625742 0.931734 0.204652 0.121299 0.495884 -0.781862 0.678616 -0.177379 0.978451 0.390543 0.432829 -0.601687 0.072957 0.527539 0.233196 0.353862 0.108444 0.344742 -0.312821 0.270649 -1.562772 -0.079502 -0.329439 0.287199 0.946978 0.810473 -0.510947 -0.176908 0.000802 -0.255643 -0.974421 0.452066 -0.359325 -0.364935 0.394980 -0.496812 0.535674 -0.377608 0.187732 -0.271126 -1.227002 -0.445619 -1.413236 0.079265 -0.561970 0.555457 -0.378241 0.111057 1.652743 0.170966 0.476622 -0.844124 0.391645 -0.297780 -0.385448 -1.001540 0.832916 0.095525 0.390773 -0.380237 -0.320745 -0.011811 0.452119 0.430143 -0.497529 -0.297633 0.241263 1.518326 0.156832 -1.372581 -1.405330 1.387123 1.205337 0.954897 -1.520602 0.487335 1.396804 -0.378179 0.507427 -0.716237 0.649695 -0.038228 0.107403 0.377128 -1.610297 -0.318904 -0.654814 0.588054 0.867420 0.712919 -0.180830 -1.413276 -0.578456 -0.145457 
夹子 0.215292 -0.847891 -0.077539 0.079992 -0.869700 -0.281696 0.199726 -0.813722 0.070736 -0.975743 -0.999415 -0.420800 0.540365 0.151936 0.899772 1.479753 -0.044944 -0.798389 0.394817 -0.167111 0.473936 1.156433 -1.017684 0.373728 0.175419 0.598627 0.061739 -0.195322 0.583693 1.281835 1.049164 -0.950955 -1.092993 0.066793 -0.024751 0.846763 -0.130360 0.204097 -0.684249 -0.076263 0.283759 0.382586 0.059553 0.859264 -0.377057 -0.437484 0.595065 0.567014 0.428319 -1.616577 0.346584 0.418712 -0.306558 0.935807 -0.520130 0.593417 0.083621 0.412081 -0.074592 1.468869 0.835416 -0.810684 0.412667 -0.815026 -0.967524 0.538962 -0.006099 0.850496 -0.070078 0.149915 -0.470735 0.833708 0.676778 0.945188 0.508031 0.408307 -0.276270 0.657191 -0.423228 -0.343943 0.023853 0.236233 -0.271861 1.436029 0.705740 0.647390 -0.887462 -0.986367 0.958339 0.494352 0.080516 1.982781 1.153077 1.263898 1.934381 -0.040440 1.330091 -0.857240 -0.456051 -0.488055 
人造花 -0.174840 -0.456452 0.967329 0.105758 0.423475 0.240511 0.060624 -0.117045 -0.263467 -0.178995 -0.481633 -0.641496 -0.499993 1.029809 1.411777 -0.182717 0.471978 0.069265 0.581533 -0.074966 -0.491891 1.122706 0.355797 0.125407 -0.337295 -0.448069 -0.718667 -0.904295 1.229483 1.356867 1.074857 -0.374171 -0.122330 -0.736302 0.659731 0.244228 -0.079348 -0.440355 0.039487 1.232693 0.023391 -0.768479 -0.234964 0.177167 0.673835 0.373560 0.046562 -0.519178 0.954311 0.519675 0.134994 0.310506 -0.276937 -0.344951 0.863501 -1.484451 0.035740 0.394679 -0.317428 -0.160951 -0.770790 0.659874 -0.038222 1.291074 1.029155 0.021016 -0.854560 1.108909 0.323696 -0.140021 -0.308551 0.190701 0.046249 -0.699787 -0.665556 0.225129 -0.977495 0.767017 1.607896 -0.463610 -0.254736 0.024586 0.758825 0.063292 1.329752 -0.596858 -0.668244 -0.239777 0.956405 -1.024649 -0.586711 -0.554266 0.298377 0.359616 0.532717 -1.346910 2.316365 -0.945885 -1.184525 -0.511880 
打底裤 0.231384 -0.423654 -0.909923 -0.618418 0.403755 -0.555125 0.445268 0.337647 0.593793 -1.296767 -0.090249 0.693185 0.477515 0.621691 0.387832 -0.356072 0.464405 0.001354 -1.457244 0.929217 0.681313 1.298481 0.635037 -0.674586 -1.417898 0.835505 0.896476 1.074346 0.154423 0.612753 -0.866045 0.198116 0.485526 -0.551542 1.463212 0.082835 0.051666 -0.894664 1.691577 0.866841 0.425653 0.733843 -0.992741 -0.258946 -0.092118 0.859314 -1.124423 0.886929 1.268334 0.298422 -0.051698 -0.756060 -0.717204 -0.299465 0.045051 0.269911 -0.588481 -0.327005 -0.367213 -0.876323 0.767133 -0.316947 0.034967 0.660548 0.533216 -0.463180 0.080533 -0.316027 0.731407 -0.490301 -0.006767 -0.460808 0.128976 -1.512055 -0.190941 0.401694 0.917359 0.686055 1.860355 0.764488 0.213809 -0.571352 0.557894 -0.230729 0.976143 -0.529400 -0.783420 1.088399 0.754034 -0.670083 0.587455 -0.044702 -0.310860 1.029455 0.377659 -0.928363 0.144257 0.815476 -0.020836 -0.483712 
玩具 -0.523611 0.429279 0.506308 -0.498436 -0.400753 0.227426 0.221956 -0.347507 0.092440 -1.233925 0.413429 -0.655896 -0.378325 0.038000 -0.506214 0.401306 0.741214 -0.849681 -0.837260 -0.151538 -0.494285 0.649173 -0.424332 0.411659 -0.248346 -0.891946 0.367389 -0.626644 0.344610 -0.124325 -0.127639 -0.217799 0.451983 -0.512801 0.434190 0.175397 -0.503558 -0.066618 -0.500811 0.179144 -0.704093 -0.554007 -0.282342 -0.199811 0.079584 -0.411168 0.656921 -0.267734 -0.067432 0.766176 -0.093212 0.019909 -0.189210 -0.273997 0.270119 -0.831401 0.611640 -0.025088 -0.356449 -0.310390 -0.278582 -0.607593 0.046487 -0.026888 0.179185 -0.203662 0.316165 -0.189862 -0.290626 -0.117638 0.904826 0.314521 0.073550 0.491253 -1.090185 0.538909 -0.855214 -0.144500 1.010316 0.255582 -0.506103 0.065427 0.560499 -1.357383 0.085242 -1.403309 0.303316 0.920727 0.852770 -0.614620 0.078718 0.317035 -0.211299 -0.062388 1.412824 -0.592343 0.623655 -0.073127 -0.637404 -0.517951 
饰品 0.211114 0.379549 0.215319 0.242488 1.059241 0.053658 -0.352086 0.369623 0.087362 0.096641 0.376715 -0.489881 0.404374 0.002925 0.917093 0.260042 0.332168 -0.687989 0.140862 0.229781 -0.016177 0.409329 -0.144798 0.322894 -0.237936 0.207029 -1.299040 -0.208913 0.196687 0.930881 1.255571 0.313927 -0.351838 -0.181370 -0.238695 0.077686 -0.598413 0.718938 -0.347376 -0.112601 0.699549 -0.296995 0.532092 0.180046 0.284661 -0.235543 -0.733829 -0.408475 -1.157210 -0.538373 -0.199821 0.503711 -0.193300 0.413125 1.714239 0.397303 0.340291 -0.418211 0.372188 0.075580 -0.039833 -0.561117 0.748056 0.155462 0.585709 -0.033169 -0.643641 0.769222 0.068384 0.605785 -0.633077 0.240507 0.332160 1.055292 0.524628 -1.121075 -1.040612 1.281639 1.083367 0.041463 -1.022670 0.548478 0.763905 0.412889 0.718253 -0.330400 0.187629 -0.572931 0.011515 0.558657 -1.035078 -0.172676 -0.244144 0.640384 0.815007 0.195587 0.606981 -1.586005 -0.830226 -0.181161 
项链 0.210783 0.346590 0.115609 0.194472 1.529047 0.024891 -0.535659 0.894171 0.294344 0.208397 0.456214 -0.567450 0.736466 -0.121813 1.006736 0.414142 0.201261 -0.739974 -0.025061 0.407484 0.295491 0.185904 0.108641 0.257089 -0.247938 0.747173 -1.355901 0.006774 -0.115116 0.611935 0.891351 0.898047 -0.485500 -0.155780 -0.185235 -0.008677 -0.669729 0.854480 -0.116067 -0.204046 0.590178 -0.488010 0.720543 -0.165371 0.100874 -0.181528 -1.660648 -0.317593 -1.402369 -0.243530 -0.503165 0.485826 -0.484830 0.306882 1.961892 0.679096 0.321507 -0.940993 0.421144 -0.350880 -0.144194 -0.996034 1.093694 0.082085 0.277561 -0.444150 -0.531464 0.409881 0.635340 0.215131 -1.037378 -0.023857 0.342730 1.062243 0.515968 -1.498262 -1.009134 1.585360 1.264185 0.791917 -1.371255 0.636217 1.070447 0.183242 0.593354 -0.449688 0.635614 -0.338516 -0.114812 0.917716 -1.446570 -0.246738 -0.370996 0.940467 0.667698 0.831053 0.086901 -1.726169 -0.585372 -0.160384 
耳环 0.460407 0.494732 -0.028682 0.165360 1.200311 -0.035549 -0.562104 0.647462 0.331039 0.057065 0.487991 -0.221238 0.747750 0.126513 0.602460 0.408730 0.203999 -0.892675 -0.291223 0.211225 0.030300 0.268915 -0.070069 0.161658 -0.403651 0.546081 -1.238257 0.012108 0.076337 0.664553 0.674960 0.640483 -0.256188 -0.231039 -0.115511 -0.015027 -0.571474 0.819515 0.127300 -0.143866 0.657142 -0.417956 0.583219 -0.022579 0.219304 -0.276159 -1.466386 -0.317001 -1.094005 -0.289191 -0.194261 0.362250 -0.592894 0.193312 2.058988 0.734249 0.108104 -0.853123 0.380268 -0.360267 -0.147025 -0.760019 1.132592 0.237917 0.650088 -0.376008 -0.687508 0.474773 0.394791 0.280766 -0.849324 0.129883 0.310992 0.669794 0.552098 -1.125982 -0.761081 1.491388 1.435873 0.477461 -0.903329 0.528412 0.660085 0.088611 0.500732 -0.454501 0.450902 -0.251872 -0.347264 0.895785 -1.134709 -0.352004 -0.262101 0.928424 0.379928 0.477061 0.107266 -1.366913 -0.334307 -0.139558 
杯 -0.209992 -0.016303 0.138058 -0.318785 0.019172 0.799603 0.196052 -0.204527 -0.429136 -0.440294 0.576387 0.224027 0.284401 0.298981 0.221499 0.489959 0.913651 -1.293058 -0.407858 0.397169 0.159180 0.561815 -0.223666 0.214788 -0.292406 -0.636768 -0.656887 -0.167191 0.061345 -0.135011 0.524344 0.294414 -0.262515 -0.142566 0.355937 -0.628606 -0.100721 -0.397290 0.330940 -0.255802 0.333610 0.425031 -0.053676 -1.059441 -0.146704 -0.343370 0.659708 0.265920 0.070440 -0.189711 0.508471 -0.320001 -0.551803 -0.298853 -0.006947 -0.808505 0.718664 -0.377348 0.267020 -0.031186 0.026906 -1.268770 -0.033332 0.022526 0.164364 0.019747 0.324946 -0.953398 0.163654 -0.021174 0.519498 -0.311638 0.162363 0.675436 -0.372271 0.399630 -0.803285 0.103694 1.013772 0.354383 -0.270988 0.005876 1.128528 -0.404778 -0.128787 -0.678780 -0.324610 0.419025 0.749184 -0.459928 -0.503550 0.263207 -0.676801 -0.176433 1.076865 -0.037527 0.631155 0.518471 -0.449561 -0.134865 
刀具 0.096882 -0.874982 -0.083843 0.153619 -0.959285 1.212013 0.434172 -0.387384 -0.122375 -0.623945 -0.525024 -1.225655 0.234781 0.192613 0.267301 -0.053034 0.722353 -0.822896 -0.323123 0.084555 0.126684 0.595572 -0.450590 0.579336 -0.368278 0.273767 0.147305 1.110128 0.073642 0.405143 -0.363861 -0.473552 0.028883 0.055940 0.500878 -1.145349 0.455103 -1.124342 0.215572 -0.223549 0.555607 0.773091 1.005094 -0.164527 -0.644577 0.104860 0.247724 0.743702 0.300773 -0.588245 0.048945 -0.100048 -0.391895 0.312421 -0.312503 -0.414702 0.492387 -0.069010 0.045795 0.539763 1.125216 -0.974070 0.061615 -0.746590 -0.330922 0.889357 -0.387169 -0.267887 1.007596 -0.410507 0.975456 0.260575 -0.164709 -0.288966 0.220045 0.394813 -0.456439 -0.404671 0.348358 0.324813 0.524717 -0.209315 0.143096 -0.178038 0.387542 0.193601 -0.614770 0.129529 0.661549 0.186584 0.456555 0.822416 -0.502786 0.184675 1.273904 -0.323280 0.108268 -0.326920 -1.288526 -0.292053 
手链 0.132003 0.271544 0.193639 0.114545 1.303797 -0.042164 -0.536147 0.765416 0.223877 0.240464 0.421317 -0.532381 0.533495 -0.186130 0.925923 0.547630 0.119509 -0.710435 -0.051972 0.379919 0.227049 0.163863 -0.018513 0.278473 -0.206906 0.675369 -1.195519 -0.189082 -0.027240 0.566147 0.884879 0.826245 -0.604042 -0.300605 -0.234839 0.190236 -0.609946 0.893156 -0.143254 -0.099081 0.477818 -0.569237 0.615446 -0.303008 0.114784 -0.266614 -1.561180 -0.463128 -1.288203 -0.274240 -0.426270 0.399242 -0.441456 0.063531 1.878975 0.565758 0.363790 -0.927105 0.305539 -0.437675 -0.238035 -0.917630 0.975016 0.114952 0.174676 -0.454555 -0.400066 0.548035 0.606019 0.211834 -1.006978 0.143900 0.395150 1.053337 0.402581 -1.303621 -0.979776 1.465771 1.310083 0.825671 -1.220155 0.571698 0.986977 0.166703 0.619997 -0.470650 0.667107 -0.237552 -0.115418 0.776155 -1.379257 -0.210546 -0.277435 0.824632 0.486941 0.717132 0.110366 -1.693886 -0.390341 -0.226255 
车 -0.166583 0.300263 0.522519 -0.627288 -0.620438 0.448114 -0.002824 -0.348244 -0.027704 -0.955072 0.284325 -0.888253 -0.306303 0.031066 -0.204106 0.386905 0.711978 -0.929974 -0.598903 -0.182494 -0.469071 0.521200 -0.450403 0.558241 -0.186021 -0.773723 0.129875 -0.129092 0.080693 -0.151132 0.058461 -0.389657 0.334974 -0.486946 0.400667 -0.296731 -0.284494 -0.325170 -0.276734 -0.235407 -0.122907 -0.162538 0.376905 -0.393883 -0.288707 -0.235918 0.619599 0.111883 0.102226 0.218352 -0.134053 0.030215 -0.387991 -0.048476 0.183478 -0.671611 0.762126 -0.267897 -0.237157 -0.054754 0.109872 -0.706644 0.134523 -0.252052 0.095479 -0.027199 0.206354 -0.036059 -0.079796 -0.093102 0.887809 0.372947 0.125381 0.727370 -0.842994 0.437002 -0.901369 -0.298637 0.738760 0.262406 -0.162693 -0.091128 0.704263 -1.096464 -0.032162 -0.874425 0.322980 0.652379 0.750963 -0.325114 -0.125092 0.214554 -0.264656 -0.323315 1.435479 -0.645969 0.618828 -0.122677 -0.480093 -0.470921 
西装套装 -0.095021 -0.199335 -0.018467 0.004346 -0.944613 0.646633 0.732249 -0.169638 -0.412277 -0.804355 -0.557368 -0.345904 0.334142 -0.036894 0.134148 0.123376 0.495023 -0.412357 -0.501310 0.180220 0.149928 0.913282 0.221855 0.119132 -0.332372 -0.053774 0.127845 0.316542 0.279220 0.477420 -0.107459 0.020262 0.540033 -0.126068 1.151589 -0.431540 0.075270 -0.432750 0.091990 0.676283 0.063833 0.164407 -0.025543 0.158736 -0.427539 0.269414 0.049602 -0.013789 0.379468 0.904759 0.064529 -0.027968 -0.281248 0.111605 0.378894 -0.832766 0.258839 0.138286 -0.283132 -0.151811 0.259634 -0.971752 0.035921 -0.188213 -0.003116 -0.238629 -0.132641 -0.417248 0.630844 -0.468118 1.040921 -0.515775 0.113598 -0.199562 -0.325398 0.409632 -0.479987 -0.065713 0.495326 0.445563 0.253283 0.029787 0.558947 -1.002170 0.396114 -0.591656 -0.936770 0.121497 -0.313928 -0.459261 -0.348818 -0.089686 -0.428898 -0.112937 0.299329 -0.164922 0.723273 -0.175137 -1.044333 -0.047692 
女童外衣 -0.233679 -0.216601 -0.605463 -0.311525 -0.540213 -0.193029 0.739294 -0.129224 0.009247 -0.953605 -0.296911 0.169604 0.265410 0.034270 -0.084105 -0.148553 -0.013335 -0.131260 -0.864158 0.349168 0.381705 0.563240 0.420287 -0.267915 -0.663318 0.669228 0.913055 0.807106 0.113835 0.423190 -0.849987 0.419480 0.809040 -0.245489 1.237292 0.017911 0.332297 -0.333353 0.855525 0.961980 -0.084117 0.243118 -0.297276 -0.030592 -0.705598 0.454437 -0.763718 0.546236 0.754564 0.835024 -0.012928 -0.475752 -0.626714 -0.074460 0.223862 -0.127805 0.058089 0.042775 -0.425212 -0.370533 0.573749 -0.974749 0.237187 -0.019017 -0.412853 -0.516504 0.236677 -0.486721 0.948595 -0.995107 0.550441 -0.566503 0.248746 -1.193960 -0.280225 0.505438 0.523746 0.239140 0.596406 0.551546 0.309201 -0.206471 0.092154 -0.670427 0.470726 -0.445916 -0.796793 0.395818 -0.138501 -0.244700 0.137158 -0.002539 -0.202234 0.425664 -0.198567 -0.253450 0.266549 0.097926 -0.353900 0.006018 
手包 -0.700552 0.512834 -0.141977 -1.136931 -0.024829 -1.255131 0.688275 -0.379801 0.380352 0.057934 -0.108146 0.019204 -0.408966 -0.280748 -0.862557 0.554966 -0.371718 -0.999050 -0.898326 -0.889206 -0.181188 -1.137414 -0.646474 0.405846 0.252353 0.816452 1.189615 -1.024235 0.281518 -0.061023 -0.768381 0.296879 0.161536 -0.998247 -0.689280 1.217810 0.370640 0.749637 -0.292738 0.689289 -1.250791 -0.989466 0.419698 -0.365949 -0.785949 -0.896747 -0.824368 0.140682 -0.295888 0.344782 -0.084227 0.121642 -1.155563 -0.209473 0.590041 0.684014 0.375682 -0.486271 -0.338877 -0.806256 -0.303522 -1.482686 1.305098 0.022017 -0.969318 -0.539581 0.580986 -0.014111 0.607424 -1.500083 -1.495623 1.050880 0.537214 -0.222842 -0.491936 0.191306 0.507818 0.079400 0.705937 0.377355 0.180377 0.000549 -0.536855 0.272626 -0.491329 -0.427430 1.292496 0.601574 0.528968 0.754095 0.223540 0.647472 0.652218 0.851535 0.265291 0.356979 0.351058 -0.680668 -0.033507 -0.891732 
绳 0.263824 -0.686784 0.179532 0.219685 -0.103638 0.477175 -0.341998 -0.055305 -0.205794 -0.012294 0.080670 -0.631789 0.067661 0.286791 0.906117 0.752357 0.163596 -0.835430 -0.037027 0.345693 -0.059988 0.916308 -0.070892 0.445409 0.285471 -0.043393 -0.184289 -0.080498 0.007038 0.396885 0.815878 0.137711 -0.185844 0.576330 0.260269 -0.358008 -0.120212 0.287323 0.134012 -0.299819 1.105985 0.059826 0.601815 -0.629536 -0.005590 0.132494 -0.101113 0.102020 0.187458 -0.499321 -0.161584 -0.282766 -0.016956 0.304968 0.289192 -0.152632 0.134034 -0.584670 0.159878 0.083490 0.491118 -0.080788 0.340247 -0.300493 -0.122119 0.130414 -0.221229 0.570721 -0.031494 -0.027026 0.103645 0.228751 0.107553 0.238618 -0.185370 0.133358 -0.976214 0.267659 0.740116 0.138232 -0.189283 0.329440 0.702805 0.189184 0.638559 -0.136602 -0.146567 -0.405223 0.444395 0.084279 -0.007249 0.759586 -0.125666 -0.217981 0.648603 -0.125299 0.651447 -0.478832 -0.735918 0.178725 
办公用笔 -0.195906 -0.322654 0.233965 0.072752 -0.797178 0.771912 1.254615 -0.515116 -0.144458 -0.808091 -0.455555 -0.900075 0.285647 0.437431 0.047018 0.369710 0.502770 -1.020271 -0.376884 -0.462991 -0.206461 0.395340 -0.985377 0.517003 -0.228733 0.051709 -0.061118 -0.398865 0.408687 0.000560 0.232404 -0.387860 -0.415134 -0.252041 0.132613 -0.564861 0.027461 -0.537899 -0.554762 0.316983 0.064292 -0.189394 0.100208 -0.351170 -0.635041 -0.284756 0.460159 -0.136023 -0.276375 -0.183219 -0.279281 -0.239309 -0.792754 -0.000055 -0.616460 -0.555142 0.424124 -0.060451 -0.354255 0.354397 0.230623 -1.012615 0.679054 0.315892 -0.638194 -0.021684 -0.113753 -0.592144 -0.297701 -0.370636 0.226733 0.090635 -0.053257 0.489629 -0.913316 0.589336 -0.731454 0.035588 -0.139143 -0.083177 -0.244402 -0.032993 0.106086 -0.839432 -0.314772 -0.983535 -0.038437 0.225350 0.479584 -0.260172 -0.129560 0.709876 0.008681 0.355044 0.810153 0.283707 0.836669 0.236623 -0.879921 -0.085152 
线 0.084778 -0.589243 -0.012434 0.233568 -0.281810 0.620101 0.029574 -0.052131 -0.449371 -0.195673 0.060854 -0.691522 -0.103500 -0.204682 0.618007 0.583968 -0.038601 -0.867519 -0.167161 0.266364 -0.233257 0.646271 -0.203687 0.452167 0.219167 0.188164 -0.065906 0.253630 -0.019122 0.185973 0.353890 0.073157 -0.002076 0.437739 0.400027 -0.521419 0.150450 0.294003 0.060793 -0.404611 0.847558 0.211490 1.121750 -0.305161 -0.345738 -0.027140 0.051008 0.251824 0.193987 -0.049822 -0.132089 -0.275016 -0.145268 0.327552 0.366805 -0.349932 0.433913 -0.333300 0.159454 0.229081 0.536440 -0.526116 0.455763 -0.661524 -0.409977 0.249236 -0.245217 0.216237 0.358755 -0.135638 0.153469 0.374641 0.029813 0.021185 -0.237685 0.033936 -0.978473 -0.066773 0.520342 -0.050182 0.151089 0.036050 0.487434 -0.065321 0.434226 -0.142224 -0.149071 -0.327646 0.134671 0.280607 0.024041 0.826198 -0.384310 -0.224298 0.551168 0.031323 0.516234 -0.444159 -0.965893 0.017254 
帽 -0.570586 0.086883 0.256757 -0.083917 -0.382455 0.216339 0.489086 -0.446578 -0.175011 -0.575749 0.029348 -0.371903 -0.168409 0.048466 0.264062 0.387334 0.138908 -0.241604 -0.182029 0.052480 -0.244160 0.500661 0.073074 0.206522 -0.103735 -0.186046 -0.054622 -0.131288 0.574353 0.403274 0.339244 -0.329166 0.149214 -0.183748 0.353110 0.229673 0.081896 0.030508 -0.026739 0.491145 -0.007305 -0.253115 0.065677 0.047883 -0.185592 -0.010580 0.216477 -0.101160 0.257836 0.435719 -0.093115 0.296483 -0.178013 -0.003148 0.602234 -0.431828 0.416292 -0.003257 -0.160129 -0.060367 -0.099831 -0.465150 0.043611 -0.017165 -0.062782 -0.076128 -0.120379 0.247609 0.008419 0.041681 0.277313 0.169434 -0.052223 0.122152 -0.274874 0.234393 -0.687072 0.080712 0.317951 -0.368613 -0.034787 0.194340 0.288994 -0.395647 0.317454 -0.548032 -0.176111 -0.228155 0.224569 -0.311544 -0.219062 0.413326 0.132911 0.010720 0.327313 -0.198689 0.681979 -0.511096 -0.527615 -0.082260 
背包 -0.731108 0.505374 -0.203978 -1.206370 -0.053749 -1.085488 0.398697 -0.444612 0.394398 -0.048730 0.203363 -0.104943 -0.325355 -0.415782 -0.975222 0.427949 -0.510269 -1.273288 -0.894520 -0.799811 -0.138059 -1.060228 -0.630268 0.193330 0.158141 0.671503 1.233100 -1.039735 0.117108 -0.401503 -0.948992 0.374863 0.223207 -0.880706 -0.376495 1.081005 0.394111 0.834778 -0.257429 0.521041 -1.299769 -0.768481 0.493634 -0.536284 -0.739846 -0.885874 -0.759709 0.070665 -0.402165 0.415025 -0.098828 -0.004494 -1.113242 -0.495908 0.390417 0.514272 0.517875 -0.502480 -0.202873 -0.990476 -0.198304 -1.439863 1.211464 0.044091 -0.965499 -0.567819 0.759080 -0.124572 0.932160 -1.320686 -1.099688 1.045066 0.265516 -0.119973 -0.829042 0.321980 0.197607 -0.150143 0.670790 0.420029 0.142266 0.030268 -0.445783 0.060387 -0.587805 -0.672503 1.352826 0.745074 0.431786 0.556522 -0.085166 0.542461 0.495665 0.494813 0.128713 0.218611 0.337826 -0.361377 0.243436 -0.677004 
架及笼 -0.444800 -0.045435 0.629156 -0.481442 -0.397892 0.587250 0.200868 -0.401341 -0.251041 -0.590041 0.399878 -0.413276 0.254097 -0.088552 0.219528 0.794069 0.641477 -0.849558 -0.267597 0.132060 0.102362 0.614698 -0.515334 0.312841 -0.247351 -0.592256 -0.583830 -0.154025 0.148045 0.101754 0.441853 0.059082 -0.470649 -0.356818 0.347626 -0.383996 -0.166367 -0.121208 -0.058600 -0.133626 0.313093 0.254702 0.111979 -0.434597 -0.258652 -0.107838 0.586868 -0.022670 0.438063 -0.176459 0.113507 0.215141 -0.405032 0.106644 -0.182106 -0.535711 0.501440 -0.058834 -0.106455 0.118556 0.206122 -0.750346 -0.042272 -0.135528 0.174551 0.162706 0.033591 -0.350721 0.256975 0.132789 0.434750 -0.007740 0.139259 0.565330 -0.384401 0.372766 -0.585883 0.197291 0.733242 0.356269 -0.138562 -0.076530 0.832983 -0.211553 0.162621 -0.416100 -0.099245 0.089855 0.705711 -0.520503 -0.675812 0.090807 -0.153353 -0.171404 1.220300 -0.329240 0.575599 0.246799 -0.398629 -0.297522 
皮筋 -0.059550 -0.248240 0.099196 0.262658 0.230882 -0.341131 0.096074 -0.200330 0.024922 -0.303361 -0.138359 -0.447164 -0.175508 0.535032 0.948458 0.565485 0.164083 -0.286570 0.256683 0.004271 -0.177591 0.828270 -0.073148 0.214653 -0.009566 0.200471 -0.275458 -0.119680 0.746167 1.292713 0.915688 -0.354563 -0.391053 -0.080188 0.034417 0.776949 0.043799 0.307596 -0.118375 0.499086 0.442559 -0.211749 0.117823 0.193676 -0.074852 -0.077763 -0.194237 0.026577 0.102608 -0.606221 -0.176134 0.257946 -0.106025 0.380329 0.809928 0.257945 0.020005 0.005533 -0.154559 0.344810 0.456471 -0.091285 -0.011778 -0.043576 -0.142103 0.119943 -0.308917 1.203280 0.065557 0.202721 -0.543878 0.361353 0.369976 -0.033818 0.324292 -0.177737 -0.518750 0.716929 0.704128 -0.351773 -0.214073 0.264932 0.224355 0.849306 0.842500 -0.042196 -0.491888 -0.769002 0.471435 0.276778 -0.271973 0.452022 0.598298 0.566191 0.582639 -0.338814 1.110807 -1.177799 -0.523484 -0.116520 
板 -0.244720 -0.227933 0.095551 -0.299980 -0.302192 0.308626 0.273310 -0.319923 -0.119646 -0.406997 0.064290 -0.418924 0.162140 -0.198325 -0.091195 0.404381 0.355448 -0.737493 -0.373016 0.062932 0.009572 0.319905 -0.495956 0.497701 -0.279794 0.178250 0.024137 0.231758 0.009613 -0.071186 -0.130588 0.019024 -0.123779 -0.172386 0.200117 -0.276700 0.059122 -0.176689 0.054568 -0.152538 0.226752 0.244257 0.504763 -0.381659 -0.416260 -0.272835 0.227871 0.233179 0.045632 -0.264105 0.083772 -0.113240 -0.444073 -0.044216 -0.112612 -0.326252 0.274782 -0.102479 -0.248760 0.080144 0.198095 -0.593600 0.251165 -0.261567 -0.179378 0.080699 0.037838 -0.294353 0.236417 -0.136575 0.312758 0.224006 0.139900 0.295212 -0.205822 0.167617 -0.333078 -0.114808 0.224718 0.108201 -0.148471 0.083201 0.315657 -0.139091 0.117879 -0.173001 -0.029840 0.119343 0.343424 -0.026995 -0.175451 0.432720 -0.299515 0.078978 0.939144 0.039935 0.343161 0.117910 -0.402868 -0.322514 
发绳 0.008909 -0.272867 0.081788 0.358636 0.385839 -0.383281 0.068921 -0.153399 0.036963 -0.202763 -0.095800 -0.477244 -0.098128 0.494177 1.148911 0.558581 0.097616 -0.350284 0.336902 0.062194 -0.130394 0.858984 -0.057012 0.230620 -0.049267 0.365782 -0.448539 -0.058054 0.799574 1.493387 1.055990 -0.327206 -0.491275 -0.057115 -0.028538 0.765419 0.027406 0.409844 -0.116975 0.549609 0.639326 -0.209413 0.231793 0.244768 -0.056974 -0.090129 -0.348308 0.009546 -0.047766 -0.805158 -0.181352 0.322137 -0.120885 0.496117 1.062814 0.363574 -0.009779 -0.046635 -0.104014 0.387833 0.544099 -0.125703 0.131137 -0.093222 -0.176020 0.120808 -0.466834 1.344808 0.176088 0.158034 -0.692885 0.427166 0.427677 -0.060287 0.527916 -0.316892 -0.552564 0.906752 0.793895 -0.360347 -0.267923 0.305087 0.189931 1.076084 1.040349 0.032947 -0.517188 -0.967190 0.439714 0.444320 -0.393932 0.545299 0.611518 0.739955 0.660499 -0.289178 1.174799 -1.475047 -0.634775 -0.061737 
针钉 0.576252 -0.397863 -0.414269 0.113951 -0.015361 0.251611 0.105294 0.072967 0.117778 -0.915999 -0.198795 -0.196041 0.596658 0.321488 0.520348 0.247350 0.152246 -0.197986 -0.448797 0.523274 0.408367 1.022992 0.125195 -0.205570 -0.598937 0.601634 -0.004605 0.968176 -0.187871 0.556607 -0.013276 -0.113282 0.191076 0.014354 0.906388 -0.290003 -0.104761 -0.339793 0.671691 -0.134606 0.772915 0.690308 0.095111 0.296201 0.021846 0.477599 -0.565679 0.395695 0.620080 -0.015481 -0.153351 -0.179701 -0.124996 0.345527 0.350463 0.059253 -0.060569 -0.120397 0.070903 0.243536 0.826461 -0.464987 0.273108 -0.342534 0.157549 0.008329 -0.406092 0.101549 0.440702 0.172860 0.178042 0.032560 0.136530 -0.506921 0.270087 0.027998 -0.192269 0.582401 0.904074 0.125467 0.006672 -0.242295 0.312279 0.031930 0.622213 0.022809 -0.779272 -0.081251 0.109970 -0.034809 0.233098 0.444987 -0.353985 0.496327 0.784488 -0.166326 0.125267 -0.140857 -0.829901 -0.176812 
圣诞灯具 -0.280819 0.117346 0.460400 -0.420432 -0.188443 0.623182 0.204557 -0.337246 -0.076834 -0.730516 0.253148 -0.587188 -0.057642 0.054310 -0.082483 0.241817 0.656034 -0.777354 -0.508597 -0.022979 -0.158811 0.732393 -0.383242 0.406661 -0.364846 -0.682537 -0.209626 -0.396535 0.154783 -0.039892 0.150629 0.042158 0.269038 -0.450707 0.477216 -0.356265 -0.349901 -0.313989 -0.125603 0.100807 -0.141228 -0.115195 0.104984 -0.497197 -0.026756 -0.140393 0.454187 -0.203646 0.023552 0.489753 -0.023661 -0.094156 -0.320149 -0.194320 0.184039 -0.784132 0.517975 -0.079347 -0.263965 -0.143493 -0.189668 -0.652867 0.136662 0.209565 0.336186 -0.104658 0.042183 -0.278238 -0.012938 0.002567 0.650745 -0.020134 -0.017556 0.422372 -0.865200 0.415230 -0.751659 -0.010787 0.924066 0.190134 -0.186718 -0.036100 0.728878 -0.889997 0.126325 -1.054321 -0.085865 0.669169 0.673279 -0.749220 -0.243169 0.058395 -0.486000 -0.238047 0.980507 -0.546014 0.491914 0.237946 -0.648605 -0.402426 
珍珠 0.099035 0.018295 -0.043893 0.370037 0.810034 -0.261906 -0.178199 0.296263 0.203069 -0.104139 0.092064 -0.366181 0.294667 0.098390 0.953727 0.468354 -0.018123 -0.433916 0.084830 0.188228 0.124973 0.444357 0.006622 0.099692 -0.154409 0.616400 -0.727889 0.057618 0.329276 1.070238 0.839932 0.282824 -0.425545 -0.018601 -0.144294 0.423738 -0.246941 0.719146 -0.042324 0.314346 0.646115 -0.316928 0.393966 0.209150 0.065493 -0.075265 -0.974997 -0.078598 -0.545231 -0.597723 -0.176430 0.303902 -0.147679 0.292916 1.326298 0.621994 -0.106046 -0.300852 0.073786 0.027632 0.145685 -0.307970 0.478992 0.062142 0.025752 -0.065218 -0.511531 0.894716 0.342763 0.295422 -0.831139 0.285272 0.452808 0.370637 0.674405 -0.769844 -0.598437 1.224206 0.783796 0.031551 -0.652752 0.448063 0.394417 0.757168 0.711177 -0.020698 -0.035300 -0.665308 -0.138023 0.738022 -0.686360 0.091562 0.239520 0.953819 0.460558 0.216796 0.448964 -1.457085 -0.455037 -0.037351 
垫 -0.604942 0.041582 0.161624 -0.522046 -0.465853 0.226155 0.385741 -0.378535 -0.215653 -0.512616 0.346179 -0.255159 -0.053175 -0.117315 0.012905 0.603092 0.400895 -0.731423 -0.403786 0.216532 -0.077144 0.014101 -0.211109 0.148445 -0.208865 -0.135417 0.103446 -0.209735 0.287697 -0.086467 0.057596 0.169716 -0.154906 -0.521694 0.459372 -0.073021 0.107347 0.065037 0.152798 0.042014 0.019630 -0.022675 0.255910 -0.436166 -0.279228 -0.093030 0.102969 0.042615 0.404134 -0.006515 0.319985 0.076011 -0.329684 -0.113303 -0.131889 -0.376136 0.383433 -0.108344 -0.071944 -0.088495 -0.078019 -0.621041 0.056707 -0.042514 -0.213372 -0.223993 0.173033 -0.373620 0.438815 -0.179062 0.353616 -0.088201 0.169474 0.003358 -0.059500 0.597836 -0.067196 -0.141590 0.581501 0.316843 0.082169 -0.043830 0.389505 -0.269543 0.020739 -0.086843 -0.083226 0.180481 0.318913 -0.180353 -0.055385 0.260361 0.160204 0.086983 0.571621 -0.103137 0.411136 0.257963 -0.123416 -0.172879 
发夹 0.070544 -0.336771 -0.271099 0.256157 0.146132 -0.655484 0.111455 -0.217240 0.301256 -0.363754 -0.498089 -0.206942 0.252662 0.254052 0.953382 0.640543 -0.201633 -0.400416 0.194703 0.020571 0.200867 0.718587 -0.268289 0.066125 -0.125353 0.916946 -0.174460 0.113968 0.664174 1.522289 0.840132 -0.382632 -0.652536 -0.180815 -0.112027 1.048343 0.035021 0.471844 -0.182474 0.489794 0.447300 -0.045590 0.234248 0.645604 -0.245875 -0.168994 -0.535873 0.335479 -0.005479 -1.100644 -0.024326 0.320917 -0.345423 0.642987 0.778165 0.846318 -0.169684 0.089289 -0.087712 0.596732 0.579887 -0.431591 0.394733 -0.289855 -0.575789 0.115822 -0.405549 1.248549 0.407981 -0.053702 -1.008838 0.671720 0.649006 0.060961 0.722209 -0.289199 -0.143256 1.029810 0.437516 -0.225053 -0.191399 0.272516 -0.115030 1.412707 0.959976 0.439449 -0.488209 -1.061854 0.304299 0.809992 -0.204526 0.947027 0.870043 1.310620 0.813408 -0.075369 0.958079 -1.395315 -0.401878 -0.259806 
扣 -0.149591 0.025274 0.476998 0.091761 0.354684 0.360232 0.053278 -0.124764 -0.080020 -0.440496 0.217386 -0.584895 -0.008371 0.097994 0.424064 0.532206 0.322511 -0.422114 0.009985 0.069161 -0.001871 0.731292 -0.211848 0.393020 -0.206438 -0.381974 -0.622363 -0.109372 0.189226 0.582977 0.573493 0.022093 -0.139055 -0.138528 0.022782 0.053951 -0.215169 0.138836 -0.190908 0.002823 0.261966 -0.126452 0.229373 -0.039981 0.148850 0.102268 -0.049879 -0.066471 -0.036727 0.045937 -0.376393 0.406754 -0.094195 0.126011 0.566910 -0.167312 0.216855 -0.051922 0.024222 0.035321 -0.051832 -0.601936 0.248619 0.131730 0.426046 0.084243 -0.207717 0.431274 -0.116519 0.502348 -0.136502 0.154273 0.133249 0.395390 -0.295076 -0.158049 -0.866058 0.746276 0.874344 -0.042574 -0.325785 0.253823 0.498779 -0.038929 0.444598 -0.632887 -0.196237 0.026626 0.407144 -0.153837 -0.320207 -0.081823 -0.055555 0.247619 1.017229 -0.181594 0.384459 -0.612058 -0.868652 -0.332028 
金表链 0.157725 0.020684 0.169358 0.236479 0.220424 0.202367 -0.088912 0.192157 -0.000402 -0.196366 0.015874 -0.447441 0.223177 0.127353 0.385539 0.393676 0.292576 -0.509802 -0.006635 0.104545 0.023330 0.374186 -0.183115 0.261712 0.012161 0.144573 -0.452877 0.042206 0.152947 0.514678 0.459977 0.145968 -0.153340 -0.018724 -0.056744 -0.004428 -0.237378 0.395231 -0.173016 -0.114123 0.336874 -0.170133 0.372058 -0.014794 0.026732 -0.132824 -0.370932 -0.086560 -0.287773 -0.226967 -0.058429 0.272876 -0.122372 0.206090 0.626358 0.060464 0.198631 -0.175295 0.036990 0.092669 0.130646 -0.514079 0.401632 -0.117292 0.063020 -0.028975 -0.297120 0.314779 0.034525 0.163522 -0.322715 0.369729 0.300498 0.608580 0.155125 -0.392978 -0.695213 0.634790 0.584708 0.124597 -0.463078 0.307719 0.518762 0.066358 0.285263 -0.191044 -0.049699 -0.116760 -0.023029 0.327020 -0.283605 0.106805 -0.067216 0.455570 0.734057 0.132132 0.391475 -0.714700 -0.578892 -0.257160 
圈 0.120192 -0.009221 0.245774 0.207584 0.619212 -0.146195 -0.117512 0.188233 0.084413 -0.180545 0.219148 -0.414300 0.071000 0.363801 0.851629 0.348712 0.241507 -0.388103 0.187026 0.169803 -0.048509 0.675370 0.010358 0.205778 -0.197153 0.164184 -0.721163 -0.093107 0.487923 1.032653 0.845302 0.027345 -0.385397 -0.155511 0.016112 0.324525 -0.205755 0.287640 -0.033498 0.285288 0.567155 -0.241128 0.097071 0.056655 0.070123 -0.062700 -0.542726 -0.165856 -0.265291 -0.428438 -0.172564 0.288072 -0.113531 0.231172 1.126116 0.177437 0.072725 -0.263854 0.010508 0.054537 0.309053 -0.323552 0.191460 0.040004 0.205865 -0.036712 -0.431249 0.809851 0.117712 0.336715 -0.450286 0.145908 0.236706 0.167705 0.302723 -0.488516 -0.651075 0.818302 0.927110 0.005200 -0.558260 0.302270 0.471469 0.425303 0.792934 -0.354604 -0.161193 -0.480541 0.296115 0.235023 -0.663264 -0.003217 0.152244 0.495410 0.589901 -0.129837 0.772282 -1.132187 -0.497047 -0.003533 
耳钉 0.329897 0.399418 -0.076367 0.107770 1.111456 -0.170878 -0.360022 0.527903 0.313992 -0.006709 0.379734 -0.248076 0.675511 0.057351 0.573970 0.369470 0.076583 -0.761744 -0.266559 0.191134 0.058541 0.181190 -0.056128 0.101931 -0.342467 0.641248 -0.983168 0.063609 0.101885 0.715844 0.592727 0.570682 -0.221702 -0.199046 -0.146586 0.139792 -0.438242 0.802208 0.091180 0.044057 0.583260 -0.400363 0.512462 0.003808 0.087580 -0.236549 -1.420861 -0.243154 -0.970063 -0.299322 -0.226107 0.323057 -0.518058 0.214552 1.823779 0.733785 0.089398 -0.746451 0.237788 -0.332786 -0.031187 -0.713220 1.029332 0.192104 0.464101 -0.311489 -0.631365 0.540420 0.493872 0.170594 -0.930175 0.182052 0.371550 0.492263 0.599440 -1.054694 -0.649583 1.379472 1.252601 0.361511 -0.804520 0.485031 0.523886 0.267310 0.500163 -0.311639 0.328993 -0.321397 -0.365783 0.885058 -0.988646 -0.251284 -0.162298 0.921378 0.351660 0.415990 0.212128 -1.399299 -0.399892 -0.128322 
普通发圈 -0.169565 -0.166764 0.044983 0.206614 0.179328 -0.418321 0.160119 -0.291300 0.123502 -0.260114 -0.266558 -0.369565 -0.047243 0.280621 0.746003 0.534214 -0.056476 -0.340362 0.163682 -0.113994 -0.023868 0.598633 -0.204300 0.177279 -0.030171 0.444615 -0.185040 -0.163919 0.669053 1.195022 0.771575 -0.336579 -0.442405 -0.189662 -0.103821 0.826281 0.056265 0.365630 -0.212502 0.522164 0.224518 -0.239809 0.180218 0.363925 -0.149459 -0.113243 -0.258637 0.109983 -0.000083 -0.612589 -0.105041 0.360951 -0.251616 0.405834 0.738277 0.369655 -0.004466 0.123578 -0.167757 0.336397 0.215530 -0.289428 0.216418 -0.049146 -0.309312 0.114222 -0.352475 1.100963 0.216663 0.070681 -0.727180 0.530068 0.427704 0.066203 0.299355 -0.182818 -0.351128 0.729322 0.481389 -0.293369 -0.191713 0.263603 -0.020679 0.947253 0.728270 0.102128 -0.306046 -0.773302 0.360727 0.426081 -0.271700 0.592548 0.655737 0.771773 0.633975 -0.125282 0.966008 -1.208990 -0.490503 -0.216190 
各种钻 -0.084123 0.107191 0.113562 0.239455 0.583068 0.033003 -0.127195 0.211277 0.096155 -0.021405 0.017444 -0.351879 0.134575 0.051271 0.699498 0.286466 0.165603 -0.400089 0.068125 0.208533 -0.015808 0.402049 -0.056304 0.225523 -0.267064 0.241997 -0.672447 -0.048158 0.300284 0.755350 0.670291 0.136073 -0.303564 -0.178302 -0.068257 0.214044 -0.277583 0.328125 -0.067565 0.262324 0.485692 -0.252648 0.313862 0.195388 0.070627 -0.064441 -0.603128 -0.025431 -0.384951 -0.123627 -0.156475 0.281549 -0.290764 0.068768 1.001356 0.110840 0.166724 -0.140627 -0.025029 -0.094863 -0.106510 -0.279013 0.356013 0.214625 0.285211 -0.058345 -0.397234 0.619500 0.267546 0.234410 -0.407491 0.087624 0.189281 0.356565 0.194831 -0.572644 -0.590122 0.692526 0.687227 -0.003288 -0.532577 0.364933 0.417130 0.292845 0.604546 -0.147164 0.006116 -0.444520 0.052635 0.266086 -0.645500 -0.233095 -0.034227 0.514556 0.405987 0.047292 0.500130 -1.001490 -0.547687 -0.137286 
发箍 -0.029255 -0.183588 -0.158623 0.255018 0.340164 -0.543783 0.122080 -0.142535 0.235881 -0.225094 -0.294892 -0.236548 0.075729 0.213003 0.791270 0.497802 -0.133992 -0.321212 0.129495 -0.052333 0.085896 0.618921 -0.137753 0.090476 -0.118836 0.677193 -0.205283 -0.025207 0.623971 1.289533 0.797978 -0.232411 -0.444555 -0.185751 -0.079551 0.918535 0.039553 0.466156 -0.137030 0.577229 0.319076 -0.196517 0.157830 0.474852 -0.144309 -0.111468 -0.521169 0.135139 -0.079434 -0.751269 -0.108868 0.293653 -0.270634 0.457992 0.936563 0.580395 -0.113658 0.056757 -0.138152 0.303703 0.331234 -0.290177 0.300044 -0.106299 -0.343131 0.023319 -0.381862 1.132874 0.314779 0.020692 -0.879614 0.509630 0.522687 0.001639 0.522232 -0.308362 -0.209001 0.882497 0.588388 -0.227297 -0.224983 0.289816 -0.017705 1.118904 0.808045 0.188185 -0.335084 -0.866076 0.235885 0.593257 -0.257082 0.580359 0.639208 0.942885 0.562014 -0.086589 0.839182 -1.281279 -0.440375 -0.141254 
头饰 -0.010671 -0.240685 -0.212914 0.229553 0.355140 -0.630399 0.135680 -0.129026 0.221395 -0.246421 -0.290319 -0.210261 0.093938 0.323610 0.887966 0.442936 -0.120592 -0.291177 0.130726 0.027822 0.071242 0.621129 -0.064847 0.032852 -0.149088 0.715950 -0.169097 0.059349 0.672467 1.373405 0.730215 -0.246436 -0.431009 -0.164730 -0.050517 0.914854 0.067600 0.412139 -0.037565 0.611760 0.398823 -0.169858 0.133142 0.451710 -0.159057 -0.050144 -0.580514 0.177030 0.003425 -0.812595 -0.083150 0.261488 -0.266291 0.452754 0.906735 0.643679 -0.163487 0.016232 -0.141672 0.285627 0.440647 -0.211533 0.331389 -0.080837 -0.352135 0.044324 -0.394840 1.189318 0.390869 -0.073615 -0.914192 0.516965 0.519352 -0.184280 0.602052 -0.304492 -0.154447 0.937346 0.640816 -0.210583 -0.202806 0.227588 -0.045063 1.131644 0.873254 0.207240 -0.379773 -0.858633 0.260147 0.582329 -0.238447 0.581746 0.701696 1.011344 0.483796 -0.172956 0.906142 -1.325228 -0.392805 -0.156895 
钥匙扣 -0.074823 0.073681 0.485105 0.062402 0.298236 0.451650 0.049605 -0.046341 -0.092234 -0.346655 0.271630 -0.595606 0.058304 -0.082741 0.121135 0.381538 0.367830 -0.630385 -0.061036 -0.106243 0.027759 0.512810 -0.351581 0.486407 -0.268925 -0.265927 -0.600311 -0.139830 0.073770 0.386703 0.349734 0.131313 -0.065562 -0.188163 -0.067684 -0.102556 -0.187697 0.139286 -0.239876 -0.065116 0.135212 -0.228784 0.393278 -0.240803 0.054487 -0.084375 -0.225737 -0.052962 -0.297614 -0.087709 -0.234371 0.337870 -0.306573 0.058883 0.422786 -0.209396 0.318212 -0.135930 0.094804 0.038187 -0.079827 -0.768701 0.349685 0.093229 0.273555 0.070837 -0.067404 0.113856 0.093273 0.321550 -0.102295 0.024999 0.140287 0.564675 -0.287574 -0.186309 -0.764497 0.538084 0.673947 0.075055 -0.318407 0.263297 0.470913 -0.144060 0.282075 -0.596038 -0.051806 0.217007 0.405529 0.044115 -0.357057 -0.180460 -0.113828 0.287372 1.016491 -0.126832 0.190020 -0.486163 -0.735031 -0.434794 
布 -0.454863 -0.083984 0.182541 -0.210918 -0.244482 -0.174113 0.235289 -0.305806 -0.082705 -0.265673 -0.115492 -0.195072 -0.223808 0.246520 0.284236 0.476143 0.047620 -0.232380 -0.037710 -0.080832 -0.138179 0.345687 -0.040013 0.053205 0.061637 0.067120 0.102919 -0.382752 0.624808 0.536995 0.401904 -0.131195 -0.116053 -0.421371 0.072200 0.477654 0.138325 0.228771 0.049800 0.565630 0.016594 -0.334246 0.061113 -0.070389 -0.117330 -0.036282 0.056191 0.030373 0.473660 0.084902 -0.011402 0.200559 -0.350048 0.034405 0.408060 -0.143697 0.147170 -0.057756 -0.234174 -0.141857 -0.172786 -0.219175 0.153280 0.106118 -0.143377 -0.112053 -0.141732 0.419890 0.128476 -0.228132 -0.247512 0.299282 0.128181 -0.160165 -0.081165 0.313001 -0.073640 0.321201 0.523310 -0.118913 0.072486 -0.037147 0.209918 0.214955 0.315391 -0.158763 -0.135921 -0.212801 0.432442 -0.077579 -0.047575 0.394112 0.402067 0.356688 0.368900 -0.303955 0.870345 -0.393802 -0.353753 -0.230773 
纸 -0.456186 -0.054488 0.062764 -0.304243 -0.460415 0.117874 0.475910 -0.400042 -0.203097 -0.556155 0.041658 -0.279814 -0.076169 0.055460 -0.085344 0.400879 0.113079 -0.640301 -0.456931 -0.092496 0.063183 0.180373 -0.325127 0.236461 -0.160801 0.223717 0.299423 -0.127477 0.307400 0.339141 -0.098115 0.075825 -0.050554 -0.228863 0.169098 0.100928 0.186582 0.122460 0.034651 0.215549 -0.048503 -0.082535 0.130039 -0.141860 -0.313857 -0.167534 0.126241 0.175187 0.329252 0.042876 0.129468 0.031638 -0.224188 -0.100539 -0.103511 -0.339136 0.204173 0.005353 -0.152606 -0.063635 0.087331 -0.351784 0.061231 -0.089723 -0.370481 -0.033934 -0.028366 -0.149451 0.235575 -0.266987 0.030657 0.166972 -0.038869 -0.117534 -0.173286 0.327940 -0.108256 -0.027881 0.147861 0.037921 0.036434 -0.054271 0.102648 -0.056154 0.055877 -0.265780 0.043234 0.056998 0.367904 -0.029467 -0.004084 0.391122 0.223244 0.287658 0.653310 -0.118209 0.651555 -0.166648 -0.411929 -0.250997 
工艺品 -0.351334 0.093894 0.255590 -0.203725 -0.133877 0.245399 0.248148 -0.191304 -0.115444 -0.343376 0.031654 -0.335969 -0.147725 0.054723 0.032704 0.262641 0.342465 -0.689102 -0.275024 -0.102787 -0.025524 0.432302 -0.376469 0.246987 -0.262501 -0.234916 -0.176041 -0.311160 0.420689 0.376651 0.156501 0.064838 -0.084444 -0.264871 0.130363 0.042252 -0.107455 0.048959 -0.062335 0.349043 -0.125974 -0.243634 0.164768 -0.164354 -0.019864 -0.249128 0.089260 -0.048843 0.093897 0.097360 0.053717 0.006569 -0.365941 -0.070004 0.205648 -0.420382 0.409728 0.010003 -0.107561 -0.171474 0.082290 -0.690100 0.113243 0.127189 0.082137 0.064675 0.085624 -0.109368 0.051433 -0.271382 0.056999 0.108256 0.101899 0.246488 -0.499254 0.324642 -0.386405 0.080924 0.502392 0.095550 -0.210334 0.077230 0.345112 -0.169992 0.201038 -0.558717 -0.055184 0.188284 0.558455 -0.317056 -0.132113 0.137681 -0.011110 0.252881 0.619995 -0.146106 0.457528 -0.011300 -0.515141 -0.346535 
西服裙 -0.216638 -0.216225 -0.562942 -0.356616 -0.426836 -0.255251 0.670182 -0.096401 0.108108 -0.884028 -0.308967 0.168092 0.257289 0.076021 -0.003443 -0.181122 0.017258 -0.080869 -0.918506 0.335874 0.312235 0.500783 0.405846 -0.315183 -0.710014 0.664841 0.873590 0.751307 0.181715 0.454788 -0.752514 0.243593 0.748372 -0.365472 1.145114 0.059963 0.279964 -0.442450 0.890628 0.923097 -0.004488 0.226056 -0.331483 0.046886 -0.498027 0.469472 -0.682692 0.438030 0.805184 0.677280 0.063699 -0.446261 -0.596391 -0.114916 0.312705 -0.096558 -0.101152 -0.021162 -0.427973 -0.439434 0.452208 -0.634639 0.163007 0.121041 -0.257195 -0.493815 0.091111 -0.344723 0.868269 -0.902259 0.345133 -0.361438 0.158179 -1.159124 -0.221701 0.529092 0.534213 0.247961 0.705343 0.439472 0.334337 -0.237465 0.059529 -0.463189 0.495403 -0.448540 -0.676281 0.393789 -0.004156 -0.273138 0.273850 0.030356 -0.108230 0.485482 -0.073432 -0.406727 0.326446 0.113287 -0.257953 -0.086941 
塑料镜盒 -0.119427 -0.223198 0.178090 -0.154427 -0.429337 0.430087 0.400706 -0.454903 -0.202075 -0.655993 0.001795 -0.529252 0.142171 0.177776 0.277416 0.588342 0.445559 -0.786434 -0.258557 0.033442 0.027528 0.579213 -0.386398 0.298802 -0.187787 -0.068546 -0.141497 0.076972 0.157039 0.280128 0.367226 -0.074073 -0.173561 -0.174692 0.318369 -0.191771 -0.031461 -0.078430 -0.028133 -0.089325 0.292061 0.136397 0.165565 -0.160390 -0.141654 -0.033327 0.294006 0.088860 0.261311 -0.075441 0.109011 -0.008298 -0.197480 0.129791 -0.008028 -0.366745 0.370460 -0.003984 0.009007 0.259639 0.214713 -0.596625 0.073259 -0.166971 -0.101766 0.059437 -0.118087 -0.029172 0.036040 0.112626 0.295536 0.195976 0.068581 0.307025 -0.125518 0.316058 -0.434589 0.141296 0.410143 0.055053 -0.002985 -0.016765 0.402429 -0.143586 0.073040 -0.221600 -0.286036 -0.137475 0.408020 -0.221947 -0.065341 0.357239 -0.062457 0.110484 0.833257 -0.145115 0.544760 -0.140693 -0.553434 -0.136464 
钱包 -0.648594 0.335551 -0.095975 -0.876650 -0.140955 -0.967021 0.616563 -0.445586 0.180111 -0.006305 -0.090296 0.035361 -0.381963 -0.215308 -0.849603 0.492406 -0.277129 -0.867873 -0.790892 -0.668031 -0.112502 -1.006671 -0.518029 0.355228 0.203389 0.621985 1.011241 -0.846923 0.200523 -0.138359 -0.664531 0.214151 0.169650 -0.877442 -0.638919 1.064693 0.366805 0.573457 -0.215178 0.638305 -1.071627 -0.794031 0.381437 -0.287018 -0.647052 -0.780821 -0.625553 0.174961 -0.156380 0.411857 -0.075274 0.123369 -0.862368 -0.196190 0.422066 0.518631 0.299095 -0.444607 -0.401537 -0.596124 -0.285648 -1.314507 1.040015 -0.010110 -0.896326 -0.440535 0.546933 0.044895 0.499818 -1.353539 -1.256270 0.837266 0.499436 -0.243252 -0.377375 0.223835 0.527465 0.100478 0.654361 0.340386 0.175867 0.038950 -0.425120 0.183980 -0.415658 -0.446516 1.034736 0.427290 0.444492 0.563156 0.204308 0.622790 0.559813 0.770978 0.224587 0.242387 0.363335 -0.597913 -0.085789 -0.770778 
手镯 0.223158 0.289358 0.024331 0.107444 1.074189 -0.031494 -0.376053 0.599732 0.252171 0.075625 0.393911 -0.329126 0.608705 -0.107529 0.706397 0.448658 0.103197 -0.657899 -0.148714 0.302477 0.224172 0.185301 -0.041833 0.203341 -0.227983 0.551735 -1.004634 -0.054384 -0.005148 0.489136 0.692359 0.658102 -0.457256 -0.241752 -0.145029 0.097604 -0.489819 0.738174 -0.033924 -0.115664 0.494557 -0.319620 0.479516 -0.166300 0.073774 -0.205613 -1.264917 -0.311249 -1.054539 -0.262925 -0.305213 0.349613 -0.428785 0.126761 1.547937 0.630915 0.250895 -0.725956 0.304162 -0.346802 -0.125489 -0.839373 0.866624 0.116057 0.230564 -0.326982 -0.363116 0.454090 0.416513 0.236987 -0.794863 0.098619 0.327070 0.815313 0.401750 -1.083268 -0.689390 1.262162 1.068674 0.586310 -0.933240 0.516622 0.665957 0.224889 0.499112 -0.319903 0.426049 -0.231455 -0.184474 0.711761 -1.076120 -0.188256 -0.233473 0.743364 0.462421 0.585552 0.085342 -1.322377 -0.342354 -0.158766 
珠 -0.117052 0.200720 0.477731 -0.081275 0.570094 0.506062 -0.179796 0.201688 -0.102045 -0.227660 0.365977 -0.640463 0.229463 0.021012 0.562598 0.415471 0.582672 -0.652455 0.070145 0.172312 -0.092601 0.544117 -0.194390 0.397013 -0.155895 -0.337939 -0.942397 -0.350918 0.146440 0.304119 0.840092 0.352430 -0.238921 -0.219010 0.142284 -0.208095 -0.538143 0.223134 -0.285359 -0.075298 0.312047 -0.316823 0.316731 -0.323803 0.160621 -0.186524 -0.181126 -0.320800 -0.538050 0.089570 -0.270304 0.250541 -0.253954 -0.056048 0.924756 -0.299387 0.459556 -0.300529 0.077489 -0.120787 -0.318879 -0.633353 0.445808 0.195961 0.395618 -0.089851 -0.177835 0.137086 0.068678 0.355094 0.068001 -0.117602 0.143446 0.852213 -0.252912 -0.468840 -1.120501 0.680376 0.977612 0.323359 -0.737194 0.383802 0.942069 -0.301515 0.448672 -0.625146 0.179162 0.050198 0.331351 -0.037495 -0.915765 -0.207659 -0.388441 0.076754 0.790041 0.045769 0.473175 -0.709113 -0.697890 -0.223460 
书包 -0.615656 0.431537 -0.183259 -1.024571 -0.012857 -0.975385 0.376492 -0.399599 0.339661 -0.079801 0.189890 -0.076885 -0.254254 -0.322955 -0.807377 0.375176 -0.469515 -1.186484 -0.827767 -0.714576 -0.106870 -0.925084 -0.570383 0.166254 0.138544 0.676934 1.062624 -0.870636 0.141679 -0.231707 -0.797115 0.323004 0.132939 -0.836783 -0.368780 1.024872 0.347804 0.795690 -0.218783 0.488695 -1.107514 -0.678416 0.482752 -0.427928 -0.632269 -0.784554 -0.752370 0.088482 -0.376392 0.272374 -0.083804 0.027645 -1.021531 -0.440083 0.439543 0.485857 0.419027 -0.459357 -0.178574 -0.863114 -0.110565 -1.286899 1.091906 0.050607 -0.837269 -0.491947 0.620626 -0.020688 0.838924 -1.182311 -1.101581 0.972251 0.253669 -0.157965 -0.628288 0.222414 0.204781 -0.016308 0.645739 0.364097 0.125658 0.009778 -0.423943 0.126116 -0.504327 -0.575222 1.201395 0.596760 0.419997 0.557131 -0.121760 0.505596 0.494642 0.555876 0.129624 0.218693 0.343013 -0.429591 0.206819 -0.617695 
吊坠 0.156688 0.294467 0.110613 0.135814 1.123666 0.128127 -0.334805 0.607501 0.229229 -0.021541 0.451510 -0.441953 0.637622 -0.049451 0.799218 0.343534 0.296481 -0.624457 -0.127729 0.365336 0.213639 0.300270 0.024145 0.191845 -0.353419 0.519908 -1.068262 0.031267 -0.018777 0.549720 0.708755 0.683057 -0.336429 -0.248995 0.020890 -0.041483 -0.529950 0.620437 0.039126 -0.092524 0.586222 -0.335931 0.537330 -0.197468 0.097794 -0.100915 -1.268764 -0.308140 -1.011011 -0.191117 -0.358635 0.344220 -0.369006 0.152372 1.597144 0.464507 0.256246 -0.695298 0.283408 -0.330519 -0.075567 -0.741386 0.815694 0.157362 0.412740 -0.282296 -0.462046 0.335375 0.479795 0.311249 -0.656760 -0.040381 0.294251 0.787495 0.386854 -1.075673 -0.793382 1.297612 1.149593 0.544532 -1.007112 0.485426 0.850632 0.084745 0.573859 -0.386123 0.344398 -0.211329 -0.137909 0.582821 -1.137227 -0.305970 -0.372392 0.740401 0.499519 0.491395 0.131114 -1.275556 -0.536771 -0.135509 
头带 -0.099933 -0.148783 0.067665 0.292589 0.329727 -0.268088 0.042055 -0.135736 0.093639 -0.193635 -0.149414 -0.373242 0.013896 0.305105 0.862851 0.438246 0.080298 -0.299843 0.188257 0.023384 -0.039781 0.693392 -0.083950 0.136390 -0.132036 0.311661 -0.420988 -0.084554 0.639844 1.108917 0.864058 -0.235371 -0.371631 -0.130718 -0.027031 0.602368 -0.056158 0.290849 -0.112166 0.475674 0.374934 -0.235109 0.173933 0.297486 -0.015925 -0.103848 -0.295042 -0.027205 -0.113800 -0.560449 -0.108065 0.306190 -0.194289 0.337226 0.898892 0.213660 0.048401 -0.006051 -0.072347 0.262696 0.197762 -0.170182 0.180689 0.020866 -0.066510 0.074995 -0.423235 0.992460 0.153410 0.174231 -0.524011 0.355065 0.334452 0.113186 0.357927 -0.316080 -0.462311 0.766673 0.626002 -0.321335 -0.288569 0.261202 0.186410 0.762334 0.778957 0.008736 -0.354853 -0.746268 0.322570 0.284248 -0.343034 0.402732 0.455238 0.650057 0.541866 -0.174644 0.848565 -1.135899 -0.508885 -0.093548 
摆件 -0.222306 0.060946 0.377734 -0.216255 -0.237608 0.500432 0.240681 -0.267721 -0.214117 -0.480202 0.083712 -0.547445 -0.098973 0.174634 0.155110 0.293063 0.659346 -0.879594 -0.414741 -0.091343 -0.084812 0.672345 -0.397774 0.407452 -0.389146 -0.379053 -0.335906 -0.311392 0.407260 0.337771 0.279494 -0.000824 0.003662 -0.320259 0.369168 -0.219750 -0.186249 -0.187139 -0.142116 0.263484 -0.034409 -0.240240 0.226848 -0.303824 0.016774 -0.236488 0.249586 -0.163972 -0.021491 0.140710 0.063602 -0.017307 -0.363856 -0.106742 0.363038 -0.722987 0.577575 -0.032961 -0.073947 -0.067872 0.016590 -0.708086 0.104871 0.170751 0.238246 0.129084 -0.022990 -0.157728 -0.056643 -0.109168 0.429981 0.066527 0.001735 0.390225 -0.572505 0.326230 -0.654837 0.028423 0.683115 0.028670 -0.264013 0.069593 0.605412 -0.488260 0.201942 -0.786952 -0.178385 0.346159 0.687742 -0.545452 -0.205777 0.143471 -0.187363 0.086038 0.852533 -0.293154 0.590820 -0.031056 -0.722582 -0.321878 
水晶 -0.127120 0.199811 0.089754 -0.097691 0.539233 -0.058393 -0.126815 0.223069 0.111109 -0.086554 0.225751 -0.201051 0.110946 -0.003181 0.254405 0.163879 0.059864 -0.305356 -0.127894 0.168515 -0.000199 0.184634 -0.048092 0.110109 -0.233600 0.133787 -0.474381 -0.165564 0.138287 0.292637 0.256964 0.277426 -0.171715 -0.259944 0.025182 0.126263 -0.314763 0.298239 -0.042345 0.175573 0.160336 -0.304942 0.130377 -0.105606 0.120379 -0.174857 -0.597157 -0.151419 -0.366827 0.072464 -0.121092 0.125816 -0.292047 -0.104194 0.852295 0.023148 0.196382 -0.307416 -0.022977 -0.323214 -0.170074 -0.402220 0.347410 0.269175 0.304725 -0.229454 -0.124845 0.224660 0.201341 0.054674 -0.279795 0.037967 0.156639 0.297537 -0.074166 -0.352649 -0.472814 0.616938 0.874892 0.266398 -0.551298 0.179537 0.490633 -0.029269 0.347678 -0.427938 0.231830 0.052869 0.140140 0.156709 -0.518673 -0.148546 -0.139281 0.405314 0.406668 0.037765 0.301692 -0.641341 -0.370620 -0.258461 
戒指 0.139728 0.268156 0.035011 0.085004 0.892698 0.029025 -0.224068 0.483526 0.258282 0.004885 0.300297 -0.325733 0.488098 -0.099402 0.525089 0.342977 0.158247 -0.553211 -0.161515 0.176583 0.097614 0.098883 -0.060845 0.189043 -0.219562 0.471521 -0.784819 -0.026202 0.075933 0.457172 0.571235 0.577668 -0.274624 -0.219356 -0.129234 0.089923 -0.443166 0.677870 -0.050663 -0.036118 0.412272 -0.348940 0.522781 -0.113348 0.028609 -0.199214 -1.120858 -0.252903 -0.907911 -0.204930 -0.243886 0.288955 -0.407607 0.104217 1.392388 0.458799 0.279552 -0.590852 0.166085 -0.331659 -0.064401 -0.752672 0.796096 0.100061 0.210773 -0.218869 -0.371518 0.383609 0.409538 0.138924 -0.669798 0.097666 0.279899 0.639096 0.336473 -0.896762 -0.637122 1.060790 0.966525 0.454130 -0.768075 0.425872 0.512797 0.123658 0.380340 -0.272579 0.389124 -0.191820 -0.184408 0.697057 -0.913316 -0.162286 -0.223818 0.608882 0.349815 0.433915 0.149269 -1.233586 -0.461445 -0.123250 
男童恤 -0.146274 -0.178529 -0.534904 -0.291912 -0.303412 -0.244916 0.601071 -0.088023 0.123836 -0.751189 -0.276048 0.195081 0.229305 0.104486 -0.046885 -0.177173 -0.016507 -0.108603 -0.766671 0.251496 0.342938 0.487620 0.322960 -0.270608 -0.612673 0.681464 0.787462 0.679982 0.142295 0.444083 -0.716976 0.305441 0.610290 -0.310816 0.997618 0.096546 0.299684 -0.283520 0.825943 0.830968 -0.056371 0.189618 -0.246409 -0.010047 -0.533273 0.352392 -0.719232 0.468603 0.700359 0.595748 -0.027607 -0.414913 -0.583789 -0.096281 0.290662 -0.000289 -0.032100 -0.027131 -0.364690 -0.371076 0.490713 -0.748086 0.259237 0.118796 -0.287108 -0.429469 0.121404 -0.303852 0.852194 -0.836076 0.246098 -0.320677 0.204174 -1.105683 -0.202581 0.407501 0.502959 0.279543 0.640916 0.430797 0.271053 -0.200739 0.000259 -0.366299 0.487734 -0.339213 -0.609666 0.321852 -0.025324 -0.190117 0.173067 0.011794 -0.106596 0.442304 -0.127972 -0.269050 0.263240 0.067097 -0.270979 -0.067319 
礼品 -0.324419 0.031209 0.253309 -0.231502 -0.217027 0.363759 0.330478 -0.306415 -0.160396 -0.562315 0.115124 -0.325673 -0.138367 0.156487 0.043029 0.304497 0.477026 -0.854836 -0.391519 -0.094847 -0.067720 0.509399 -0.323627 0.235807 -0.346348 -0.191756 -0.101979 -0.302058 0.390161 0.305213 0.150122 0.086662 0.018726 -0.339315 0.308269 -0.138363 -0.038891 -0.096633 -0.070711 0.251597 -0.122085 -0.213114 0.163850 -0.291521 -0.073766 -0.179639 0.133235 -0.029894 0.134642 0.209840 0.090139 -0.068360 -0.388347 -0.167579 0.172139 -0.564959 0.448612 0.012006 -0.046516 -0.128543 0.086014 -0.716451 0.162344 0.170989 0.039614 0.007126 -0.019257 -0.242289 0.121728 -0.261667 0.248810 0.088783 0.029665 0.141244 -0.522750 0.371495 -0.436733 0.023857 0.554678 0.165418 -0.140588 0.017163 0.422883 -0.384470 0.149979 -0.641118 -0.124903 0.304838 0.584613 -0.342182 -0.089076 0.199116 -0.020203 0.147173 0.705117 -0.193417 0.575213 -0.057465 -0.549374 -0.323415 
工具 -0.042474 -0.479512 -0.165249 -0.056201 -0.778340 0.654479 0.311770 -0.331166 -0.136153 -0.539510 -0.296773 -0.859245 0.189175 0.037145 0.144665 0.060655 0.523397 -0.812545 -0.452387 0.077591 0.091758 0.502407 -0.344433 0.371264 -0.266802 0.338729 0.284337 0.734031 0.126654 0.441492 -0.239724 -0.196151 0.083675 -0.029522 0.483908 -0.671407 0.362476 -0.556391 0.238611 0.007642 0.420454 0.597238 0.810524 -0.166514 -0.625693 0.038298 0.068620 0.594875 0.186443 -0.266967 0.088326 -0.266026 -0.388078 0.332800 -0.003948 -0.119055 0.403058 -0.171498 -0.161499 0.342176 0.870004 -0.712793 0.045977 -0.626058 -0.516621 0.474830 -0.296989 -0.240732 0.707194 -0.489531 0.595037 0.305804 0.016432 -0.254451 0.078161 0.390733 -0.119583 -0.272866 0.267117 0.188394 0.348969 -0.246413 0.188304 -0.202808 0.232699 0.157128 -0.417913 -0.072765 0.439995 0.151359 0.196790 0.638274 -0.279927 0.167850 0.792232 -0.229263 0.278241 -0.239703 -0.764131 -0.118174 
勺 -0.246675 -0.082695 0.123227 -0.257955 -0.349371 0.511548 0.276195 -0.297700 -0.272232 -0.432915 0.253739 -0.209234 0.084744 -0.034088 -0.029327 0.394151 0.529658 -0.894801 -0.392056 0.062974 0.070518 0.299399 -0.362995 0.379271 -0.168650 -0.166028 -0.053735 0.002243 0.153976 0.033502 0.122097 0.104601 -0.129633 -0.165269 0.233158 -0.332260 0.140772 -0.146582 0.095062 -0.099271 0.107122 0.111035 0.309257 -0.545658 -0.286784 -0.287952 0.315168 0.313054 0.168172 -0.189209 0.257829 -0.115006 -0.423403 -0.063045 -0.024056 -0.458133 0.552315 -0.200502 0.046832 0.026932 0.187158 -0.908872 0.132738 -0.193050 -0.093072 0.036494 0.116444 -0.480112 0.205195 -0.141631 0.295930 0.056357 0.126454 0.336544 -0.181329 0.339868 -0.428421 -0.120333 0.458419 0.244264 0.004646 -0.014335 0.483772 -0.180200 -0.061880 -0.236842 -0.086956 0.244408 0.441658 -0.128974 -0.089861 0.378232 -0.151472 -0.014651 0.881379 -0.074675 0.446175 0.115230 -0.497152 -0.276343 
儿童印花恤 -0.031670 -0.239411 -0.529937 -0.245680 -0.030748 -0.386092 0.442456 0.015007 0.194562 -0.641199 -0.235616 0.264096 0.190014 0.255503 0.183096 -0.234509 -0.001183 0.011694 -0.678641 0.300114 0.330042 0.517064 0.394131 -0.313646 -0.650911 0.682619 0.627734 0.549430 0.208720 0.527008 -0.559324 0.191432 0.433787 -0.363329 0.842920 0.232603 0.235947 -0.318840 0.845999 0.784500 0.060340 0.173714 -0.320294 0.064554 -0.314396 0.432292 -0.795321 0.397999 0.692290 0.354230 -0.011713 -0.333015 -0.495115 -0.109797 0.333589 0.105656 -0.211899 -0.089710 -0.302238 -0.449488 0.409857 -0.374402 0.177433 0.282181 -0.101810 -0.351763 -0.046858 -0.050700 0.722950 -0.647189 -0.078288 -0.176513 0.152566 -1.136604 -0.053473 0.281849 0.521885 0.424817 0.809345 0.342850 0.189494 -0.207729 0.043011 -0.113605 0.584611 -0.251987 -0.536150 0.271795 0.132700 -0.180905 0.187586 -0.049803 0.010933 0.623210 -0.107613 -0.407296 0.352434 -0.008655 -0.204444 -0.165228 
九分裤 0.073121 -0.222971 -0.736743 -0.476744 0.149200 -0.515633 0.426314 0.144090 0.389516 -0.793760 -0.059833 0.395719 0.291804 0.330072 0.134265 -0.230652 0.076437 -0.126774 -1.052276 0.504021 0.444734 0.613702 0.347518 -0.404048 -0.895061 0.918365 0.765546 0.756352 0.123237 0.504651 -0.766747 0.224673 0.320242 -0.490915 0.876982 0.180884 0.185301 -0.423705 1.132391 0.681742 0.223187 0.393925 -0.376480 -0.169904 -0.249543 0.435012 -0.999863 0.641518 0.763190 0.177148 -0.032793 -0.517462 -0.650075 -0.146216 0.247255 0.364124 -0.307099 -0.349236 -0.286055 -0.639424 0.656109 -0.460574 0.281708 0.328300 0.027281 -0.346012 -0.004963 -0.166020 0.774808 -0.662699 -0.246773 -0.068290 0.176267 -1.206346 -0.008455 0.282418 0.690305 0.523196 1.234885 0.530990 0.186205 -0.402459 0.187551 -0.003697 0.601338 -0.307168 -0.391689 0.587953 0.391856 -0.161149 0.379625 0.126234 -0.084000 0.852834 0.205890 -0.482892 0.193449 0.226004 -0.128096 -0.391532 
剪刀 0.062970 -0.583568 -0.138790 -0.036802 -0.749229 0.674017 0.416644 -0.293861 -0.102717 -0.506033 -0.361420 -0.844753 0.185874 0.149692 0.205300 0.031894 0.537416 -0.721564 -0.405040 0.054077 0.076582 0.487655 -0.279109 0.392724 -0.326016 0.354728 0.301308 0.799317 0.159764 0.423492 -0.307296 -0.337436 0.049526 -0.045109 0.427072 -0.704630 0.383099 -0.693009 0.249872 -0.055302 0.395331 0.544028 0.737345 -0.164463 -0.542020 0.091209 0.020219 0.605528 0.271562 -0.374796 0.075754 -0.131952 -0.382758 0.265541 -0.054575 -0.131461 0.316974 -0.112395 -0.037336 0.307555 0.850338 -0.772749 0.104344 -0.533491 -0.375211 0.563091 -0.252047 -0.130132 0.777067 -0.484668 0.555186 0.250255 0.008252 -0.362462 0.166409 0.397936 -0.195075 -0.218880 0.350575 0.222192 0.419163 -0.174142 0.151874 -0.104734 0.309143 0.066091 -0.416152 0.020680 0.496965 0.174725 0.315567 0.628282 -0.253916 0.201364 0.879108 -0.278442 0.228623 -0.308246 -0.897530 -0.217070 
毛绒玩具 -0.497214 0.168239 0.260117 -0.490408 -0.387025 0.126535 0.369141 -0.373305 -0.126152 -0.646068 0.218676 -0.357033 -0.274851 -0.000645 -0.365899 0.235453 0.381600 -0.767232 -0.601682 -0.151182 -0.262618 0.174716 -0.318417 0.293426 -0.184192 -0.364117 0.345979 -0.330443 0.236276 -0.045203 -0.209916 -0.012610 0.294819 -0.477082 0.235664 0.032997 -0.057207 -0.043451 -0.153033 0.220170 -0.397116 -0.276407 0.125603 -0.335311 -0.253373 -0.298318 0.275145 -0.003778 0.101389 0.414226 0.005332 -0.080787 -0.412078 -0.225082 0.165621 -0.498382 0.489967 -0.113076 -0.205376 -0.257054 -0.039092 -0.742297 0.201666 -0.004550 -0.095012 -0.103823 0.265203 -0.254522 0.062695 -0.429437 0.344540 0.250359 0.006701 0.148158 -0.643752 0.454285 -0.373762 -0.167466 0.591757 0.187039 -0.152901 -0.073957 0.308770 -0.692893 -0.094100 -0.756981 0.211964 0.563275 0.568244 -0.269683 0.090068 0.239404 -0.061847 -0.019810 0.777661 -0.313637 0.477936 0.005023 -0.417909 -0.400936 
化妆包 -0.542176 0.355517 -0.120947 -0.842098 -0.120977 -0.860664 0.552399 -0.346048 0.252869 -0.016723 -0.048052 -0.029853 -0.275060 -0.214089 -0.692172 0.451649 -0.297633 -0.882746 -0.705985 -0.651562 -0.142119 -0.818339 -0.497968 0.308870 0.132384 0.585737 0.884299 -0.775322 0.210149 -0.108442 -0.578535 0.223181 0.140757 -0.795273 -0.470293 0.868450 0.296892 0.564129 -0.157085 0.571154 -0.910464 -0.678294 0.403068 -0.354886 -0.592120 -0.660115 -0.603536 0.159433 -0.198091 0.307165 -0.115039 0.023801 -0.892069 -0.128121 0.424251 0.463813 0.329686 -0.392204 -0.277776 -0.595272 -0.183305 -1.200163 0.983757 -0.001849 -0.761591 -0.386499 0.452878 -0.021295 0.578234 -1.142353 -1.034119 0.783729 0.333321 -0.164914 -0.457220 0.229411 0.303268 0.014494 0.565190 0.292559 0.157427 -0.020784 -0.364403 0.140782 -0.365728 -0.386501 0.956841 0.426411 0.387678 0.571644 0.114184 0.532359 0.484130 0.606513 0.191210 0.213053 0.336275 -0.482212 -0.029850 -0.663835 
灯具 -0.221209 0.081939 0.388214 -0.157559 -0.130665 0.569760 0.178152 -0.276392 -0.156069 -0.529196 0.255321 -0.605487 -0.007073 0.037032 0.128967 0.361373 0.617508 -0.758032 -0.258941 -0.041797 -0.173511 0.492035 -0.397160 0.402390 -0.250831 -0.411328 -0.392019 -0.154192 0.223100 0.166658 0.352619 0.022325 -0.029842 -0.218418 0.264412 -0.304405 -0.155975 -0.131400 -0.126741 -0.050193 0.093953 -0.073915 0.320143 -0.394544 -0.077332 -0.082299 0.244958 -0.070744 -0.125432 0.050220 -0.058462 0.048130 -0.276484 -0.002003 0.251054 -0.479206 0.533214 -0.107399 -0.028050 0.087145 0.011480 -0.620168 0.160416 0.020356 0.179012 0.007310 -0.075857 -0.076877 0.052126 0.119734 0.436438 0.064505 0.035057 0.416524 -0.444402 0.153173 -0.715620 0.161038 0.642635 0.118148 -0.231755 0.113151 0.578467 -0.529804 0.093358 -0.646619 -0.046974 0.212725 0.492469 -0.252874 -0.316509 0.078931 -0.278552 -0.096447 0.868980 -0.261954 0.434447 -0.123675 -0.616610 -0.185762 
箱 -0.288736 0.080245 0.050500 -0.453286 -0.235910 -0.141682 0.392488 -0.332952 0.038639 -0.294622 0.102067 -0.218982 -0.062619 -0.113458 -0.248225 0.410309 0.024033 -0.760885 -0.495270 -0.272247 0.013830 -0.136700 -0.416750 0.223080 -0.113875 0.219581 0.351461 -0.264271 0.180807 0.037512 -0.287853 0.073607 -0.018439 -0.410588 -0.010946 0.259838 0.149785 0.165766 -0.046553 0.200534 -0.308480 -0.172566 0.293083 -0.294923 -0.378572 -0.317755 -0.221507 0.181294 0.035119 0.023827 -0.003158 -0.047292 -0.579103 -0.088519 0.080107 0.001321 0.333893 -0.215160 -0.117090 -0.247415 0.158831 -0.845590 0.464564 -0.101857 -0.394521 -0.106133 0.175109 -0.131064 0.374757 -0.546937 -0.280923 0.371973 0.138974 -0.028489 -0.338141 0.266470 -0.073006 0.023526 0.403834 0.207126 0.026022 -0.033294 0.022987 -0.034953 -0.147426 -0.310207 0.287354 0.245685 0.329651 0.138975 -0.011155 0.418633 0.160763 0.315898 0.478120 0.040926 0.327692 -0.139106 -0.203281 -0.398861 
女童套装 -0.182598 -0.181915 -0.505546 -0.309901 -0.432355 -0.251797 0.596560 -0.159841 0.043569 -0.695874 -0.251024 0.142654 0.167031 0.053967 -0.067046 -0.097593 -0.009929 -0.196328 -0.747057 0.220053 0.250590 0.355074 0.255753 -0.210859 -0.508210 0.613407 0.790079 0.596579 0.144266 0.380044 -0.681263 0.196695 0.549196 -0.291022 0.858898 0.106839 0.321060 -0.249429 0.664729 0.719863 -0.054356 0.199343 -0.166417 -0.022576 -0.527885 0.311378 -0.617058 0.414610 0.615001 0.514942 0.027440 -0.359571 -0.529309 -0.027835 0.218516 0.029098 -0.007243 -0.091217 -0.320496 -0.332909 0.502103 -0.715969 0.201002 -0.014697 -0.340906 -0.357124 0.111706 -0.303995 0.783414 -0.791945 0.239745 -0.225170 0.173190 -0.944913 -0.126441 0.439547 0.476922 0.158087 0.489286 0.396758 0.293021 -0.204507 -0.025413 -0.359449 0.355271 -0.289169 -0.491532 0.281373 -0.024353 -0.085877 0.200948 0.102004 -0.054647 0.409541 -0.066815 -0.220454 0.250253 0.038326 -0.239405 -0.100383 
球玩具 -0.361617 0.144453 0.200481 -0.416524 -0.288530 0.147658 0.301334 -0.257595 -0.028585 -0.652243 0.239953 -0.324297 -0.173217 0.006413 -0.274639 0.262240 0.443999 -0.686118 -0.533905 -0.062527 -0.188981 0.381808 -0.290367 0.271283 -0.223106 -0.296009 0.242474 -0.288616 0.239517 0.031692 -0.147911 0.020532 0.232895 -0.353234 0.281433 -0.000702 -0.113252 -0.101697 -0.030981 0.257856 -0.228595 -0.204631 -0.014322 -0.375001 -0.198777 -0.198854 0.209812 0.042338 0.158902 0.354705 -0.035101 -0.144620 -0.372573 -0.181342 0.107264 -0.463448 0.436335 -0.123395 -0.270200 -0.281110 -0.001272 -0.671535 0.154474 0.019140 -0.040324 -0.127166 0.201330 -0.267464 0.051262 -0.297780 0.396708 0.123587 0.099613 0.080508 -0.633861 0.442974 -0.312012 -0.130366 0.670619 0.182358 -0.117316 -0.021164 0.361012 -0.635410 0.062544 -0.756519 0.053302 0.557665 0.524523 -0.335356 0.034186 0.178906 -0.165576 -0.010062 0.704515 -0.305051 0.457749 0.123129 -0.393069 -0.284640 
女袜 0.108561 -0.228469 -0.647491 -0.398772 0.072759 -0.508487 0.386410 0.041561 0.317692 -0.771857 0.068718 0.296864 0.223306 0.433908 0.057340 -0.200079 0.050211 -0.251800 -1.100225 0.512609 0.403673 0.582664 0.289977 -0.331824 -0.912159 0.864873 0.658480 0.725307 0.021866 0.501643 -0.796196 0.093031 0.314166 -0.601409 0.797439 0.211567 0.167823 -0.414239 1.146467 0.531580 0.202622 0.508808 -0.171216 -0.156752 -0.104308 0.426851 -0.863578 0.497573 0.649004 0.139089 0.047120 -0.431703 -0.512015 -0.097239 0.374663 0.285856 -0.296420 -0.386671 -0.125267 -0.640580 0.648275 -0.395138 0.279875 0.280428 0.039519 -0.328735 -0.062151 -0.100068 0.730956 -0.586432 -0.203161 0.185634 0.135831 -1.114887 0.100521 0.345058 0.566169 0.566179 1.253939 0.430400 0.081764 -0.456416 0.220116 0.004491 0.548731 -0.376385 -0.386965 0.506973 0.394690 -0.240255 0.417082 0.265805 -0.146987 0.963395 0.481696 -0.578445 0.238875 0.157185 -0.373434 -0.603112 
塑料巧板 -0.362050 0.111754 0.225222 -0.344532 -0.320919 0.205606 0.236396 -0.330214 -0.084779 -0.660702 0.242207 -0.397210 -0.152499 0.018854 -0.171481 0.309306 0.393470 -0.661571 -0.529014 -0.062452 -0.176458 0.349891 -0.309832 0.304731 -0.218989 -0.244827 0.209443 -0.175229 0.255362 0.136107 -0.072332 -0.055598 0.133537 -0.355440 0.293070 -0.010768 -0.016212 -0.073327 -0.040900 0.179726 -0.152011 -0.159451 0.135266 -0.294536 -0.199642 -0.170115 0.233376 0.073217 0.149920 0.240514 -0.034821 -0.057700 -0.331455 -0.112621 0.174660 -0.407776 0.405132 -0.133721 -0.206290 -0.162283 0.066909 -0.595683 0.136765 -0.060048 -0.058741 -0.065148 0.088748 -0.113414 0.125528 -0.269113 0.330099 0.225238 0.064030 0.098175 -0.527037 0.384987 -0.417423 -0.069523 0.600046 0.172999 -0.104185 -0.053838 0.340067 -0.518916 0.088970 -0.649749 0.104896 0.382376 0.525649 -0.252358 -0.003528 0.270993 -0.092587 0.078713 0.778690 -0.319067 0.476173 -0.097510 -0.447201 -0.317136 
连衣裙 -0.200765 -0.122392 -0.414389 -0.334934 -0.382257 -0.152684 0.536594 -0.103085 0.058184 -0.702143 -0.166935 0.091341 0.220692 0.009338 -0.103874 -0.087755 0.084340 -0.231914 -0.807268 0.227937 0.229804 0.362366 0.236157 -0.165054 -0.529475 0.472921 0.703378 0.559327 0.094617 0.266525 -0.631233 0.257631 0.613863 -0.323261 0.867570 0.001590 0.205265 -0.312048 0.642155 0.658056 -0.065901 0.149057 -0.160284 -0.080290 -0.454203 0.256987 -0.534066 0.345616 0.535542 0.570649 0.048548 -0.375171 -0.519826 -0.101737 0.227904 -0.083683 0.040240 -0.092649 -0.312125 -0.369997 0.356136 -0.691371 0.205690 0.033554 -0.263498 -0.396738 0.149826 -0.385268 0.704536 -0.736597 0.337099 -0.266970 0.160605 -0.804559 -0.225892 0.408171 0.361361 0.166734 0.590389 0.427854 0.198368 -0.173876 0.104736 -0.493561 0.311486 -0.437980 -0.431299 0.406566 -0.004344 -0.182668 0.174072 0.052943 -0.171378 0.330325 0.022352 -0.265352 0.195922 0.085582 -0.248262 -0.091937 
鱼钩 -0.144935 -0.184320 -0.033023 -0.199329 -0.334578 0.287922 0.291101 -0.238988 -0.075046 -0.478006 0.042738 -0.350656 0.136181 0.010092 0.150480 0.349939 0.293073 -0.608508 -0.318577 0.098923 0.096934 0.357109 -0.286068 0.205967 -0.237615 0.120139 0.055680 0.233791 0.159771 0.270151 -0.023646 -0.048964 -0.076670 -0.147120 0.226409 -0.183556 0.115816 -0.132582 0.149712 -0.046408 0.207682 0.194863 0.290207 -0.212431 -0.349575 -0.058417 0.002914 0.283819 0.227283 -0.211771 0.033897 -0.068853 -0.337272 0.110773 0.002658 -0.099355 0.296668 -0.114512 -0.066546 0.083422 0.383302 -0.624185 0.176381 -0.249036 -0.191499 0.152342 -0.060233 -0.138794 0.310274 -0.146060 0.161286 0.172532 0.153026 -0.015309 -0.022306 0.244481 -0.258583 0.080442 0.423246 0.149498 0.082062 -0.039975 0.274408 -0.040772 0.144161 -0.159833 -0.184037 0.063039 0.357833 -0.021941 0.031957 0.396582 -0.083016 0.169450 0.680140 -0.134514 0.251843 -0.048315 -0.343990 -0.206497 
手套 -0.240012 -0.094851 0.112404 -0.423189 -0.360440 0.338315 0.422121 -0.348922 -0.050276 -0.689941 -0.012797 -0.382060 0.003298 0.147759 0.000093 0.170441 0.518560 -0.663604 -0.540337 0.047300 -0.056892 0.539036 -0.254152 0.227849 -0.358063 -0.086741 0.158041 0.106732 0.187166 0.145816 -0.160795 -0.122335 0.213203 -0.362272 0.428896 -0.172227 0.074571 -0.439182 0.218359 0.159884 -0.035896 0.117374 0.198766 -0.380039 -0.088563 0.063749 0.127563 0.136282 0.280775 0.213246 0.025532 -0.219088 -0.403473 -0.162652 0.076061 -0.446787 0.337359 -0.111747 -0.237039 -0.085901 0.195637 -0.593053 0.105960 -0.047084 -0.011450 -0.079643 0.015793 -0.213991 0.265694 -0.270143 0.506792 0.142588 0.022463 -0.011774 -0.503998 0.519017 -0.268553 -0.057472 0.672853 0.053786 0.020541 -0.186248 0.453009 -0.473034 0.155414 -0.522384 -0.207551 0.474718 0.543491 -0.391974 0.035975 0.292303 -0.301497 0.009700 0.708379 -0.481428 0.379993 0.185946 -0.472638 -0.302322 
蝴蝶结 -0.195737 -0.102757 0.114799 0.083706 0.071043 -0.121673 0.084863 -0.156220 -0.009794 -0.205046 -0.051580 -0.301380 -0.084330 0.227761 0.580303 0.385361 0.039139 -0.365005 0.041856 -0.041685 -0.102759 0.490896 -0.124925 0.189012 -0.045324 0.142423 -0.172740 -0.209717 0.542740 0.769187 0.579749 -0.124712 -0.212793 -0.220130 0.080065 0.382674 0.001274 0.259855 -0.057808 0.400816 0.278837 -0.179339 0.239930 0.049507 -0.087183 -0.041980 -0.146223 0.067365 0.119503 -0.233826 -0.048617 0.202790 -0.285926 0.185997 0.538640 -0.012487 0.153846 -0.028985 -0.138168 0.123469 0.085540 -0.241153 0.179330 0.079147 -0.109072 -0.000389 -0.299766 0.695867 0.167013 -0.014973 -0.364219 0.342649 0.320735 -0.050486 0.042730 -0.005585 -0.361980 0.496017 0.536741 -0.144610 -0.136079 0.217106 0.118939 0.425082 0.559745 -0.078504 -0.190800 -0.475627 0.340898 0.130450 -0.265226 0.322173 0.336529 0.322894 0.502648 -0.180030 0.837780 -0.700866 -0.424155 -0.128447 
铅笔 -0.169359 -0.151564 0.159159 -0.135275 -0.466163 0.424032 0.710717 -0.359248 -0.145987 -0.635611 -0.177486 -0.455055 0.158420 0.273109 0.038352 0.253087 0.438719 -0.755864 -0.405807 -0.148547 -0.112373 0.385059 -0.581397 0.323753 -0.252250 -0.007087 -0.007711 -0.226225 0.264832 0.035926 0.062018 -0.203784 -0.151755 -0.330415 0.305280 -0.291257 0.009289 -0.421062 -0.135882 0.342368 0.015896 -0.007920 0.019975 -0.334876 -0.437306 -0.207689 0.214603 -0.026557 0.003997 0.042360 -0.167052 -0.159449 -0.632186 -0.079527 -0.175041 -0.418078 0.381872 -0.096686 -0.301770 0.073271 0.156617 -0.813378 0.412185 0.207532 -0.308464 -0.062835 -0.005379 -0.353253 0.088540 -0.283169 0.186621 -0.011294 -0.007281 0.244769 -0.564561 0.449078 -0.408174 0.063221 0.282105 0.091985 -0.111152 -0.085529 0.301766 -0.605388 -0.020498 -0.648442 -0.109438 0.233664 0.358158 -0.310010 -0.192402 0.367027 -0.087250 0.308990 0.636013 -0.018090 0.604274 0.095425 -0.592165 -0.168518 
休闲包 -0.532627 0.362783 -0.212563 -0.852305 -0.002684 -0.917720 0.433130 -0.318205 0.298716 -0.072180 0.071409 -0.044445 -0.231514 -0.236770 -0.648925 0.375716 -0.335099 -0.936244 -0.787516 -0.593190 -0.104129 -0.777901 -0.453365 0.193015 0.087221 0.678469 0.918013 -0.685953 0.172149 -0.084191 -0.666649 0.275114 0.125105 -0.761289 -0.320421 0.881250 0.295988 0.623794 -0.131402 0.498347 -0.882861 -0.648958 0.381210 -0.336575 -0.605359 -0.645168 -0.694744 0.134211 -0.261290 0.253943 -0.073772 0.028099 -0.908352 -0.251932 0.434890 0.493753 0.337652 -0.400796 -0.226111 -0.702607 -0.088646 -1.179314 0.980833 0.030511 -0.767990 -0.421869 0.473482 -0.017966 0.656011 -1.085411 -1.014795 0.827175 0.311343 -0.190439 -0.484133 0.194252 0.299090 0.052565 0.622996 0.330758 0.103819 -0.005309 -0.341925 0.156722 -0.355475 -0.424503 0.964779 0.491400 0.373966 0.520371 0.002170 0.452471 0.426447 0.606369 0.197791 0.197592 0.315267 -0.451890 0.017169 -0.601082 
马 -0.253907 0.133046 0.204937 -0.311457 -0.188110 0.143400 0.174146 -0.169112 -0.034750 -0.491032 0.227318 -0.304465 -0.104583 -0.006284 -0.144311 0.243541 0.331987 -0.590142 -0.413394 -0.062854 -0.115865 0.261290 -0.259423 0.211573 -0.205338 -0.133876 0.117292 -0.153562 0.177029 0.111568 -0.052564 0.025134 0.096016 -0.288392 0.198803 0.026841 -0.060778 -0.037956 -0.028340 0.123226 -0.112458 -0.199629 0.128422 -0.261570 -0.159921 -0.187655 0.064700 0.079956 0.079558 0.143425 -0.021783 -0.036953 -0.337051 -0.083221 0.182277 -0.343437 0.406302 -0.162858 -0.156128 -0.182719 0.052302 -0.612631 0.159417 -0.043421 -0.051376 -0.061063 0.130772 -0.157237 0.125336 -0.226147 0.221748 0.157363 0.107651 0.172543 -0.405420 0.246656 -0.339068 -0.031688 0.519469 0.180324 -0.128825 -0.035570 0.316777 -0.364955 0.069122 -0.519024 0.092080 0.332910 0.424933 -0.159427 -0.043902 0.175834 -0.087205 0.086406 0.674548 -0.183090 0.398222 -0.061868 -0.359169 -0.277967 
球 -0.103798 0.066946 0.073872 -0.199110 0.119550 0.010876 0.083544 0.017423 0.052237 -0.340704 0.189276 -0.168502 0.029380 0.079277 0.131150 0.199153 0.219581 -0.412700 -0.339613 0.114823 -0.016412 0.307165 -0.050440 0.111104 -0.254730 0.096342 -0.035128 -0.022547 0.114383 0.208315 0.042513 0.143154 0.051856 -0.242299 0.236234 0.034113 -0.099256 0.098685 0.144446 0.175734 0.052980 -0.137784 0.130529 -0.230616 -0.066906 -0.019873 -0.282643 0.031906 0.014986 0.184171 -0.087442 -0.016383 -0.311983 -0.057729 0.432467 -0.130023 0.235952 -0.247919 -0.121475 -0.290327 0.013288 -0.455203 0.276705 0.089503 0.090193 -0.166976 -0.011302 -0.013172 0.217276 -0.136065 -0.015655 0.069226 0.150087 -0.008667 -0.258303 0.024990 -0.224487 0.300374 0.717401 0.184980 -0.190749 0.035076 0.357957 -0.237365 0.270392 -0.412480 0.051480 0.208110 0.268320 -0.116957 -0.124571 -0.000870 -0.150476 0.169264 0.396751 -0.132763 0.316126 -0.166134 -0.325531 -0.214257 
尺 -0.000972 -0.362310 -0.118968 -0.055783 -0.541466 0.424574 0.401643 -0.269446 -0.031282 -0.498977 -0.238681 -0.590333 0.163142 0.081173 0.131637 0.124594 0.301754 -0.656333 -0.344582 -0.006322 0.078776 0.333457 -0.397833 0.266920 -0.199965 0.310831 0.193880 0.395537 0.153089 0.358047 -0.166562 -0.093181 -0.043719 -0.049652 0.367468 -0.435112 0.225747 -0.379503 0.188866 0.059504 0.289709 0.410003 0.526026 -0.153391 -0.472729 -0.072384 -0.002579 0.380040 0.168383 -0.205197 0.017053 -0.177588 -0.324122 0.201861 -0.070247 -0.065009 0.297248 -0.109896 -0.103316 0.256166 0.589627 -0.748226 0.223382 -0.350558 -0.392984 0.274833 -0.140021 -0.199137 0.514626 -0.384856 0.277548 0.205612 0.070988 -0.153357 -0.021847 0.281503 -0.150475 -0.007484 0.213709 0.170359 0.174226 -0.136356 0.099064 -0.098163 0.135256 -0.054128 -0.258300 0.007402 0.318242 0.093865 0.081606 0.556167 -0.145994 0.261968 0.629875 -0.054600 0.328104 -0.159415 -0.600739 -0.160794 
树脂玩具 -0.080112 -0.030801 0.020850 -0.055687 0.011704 0.073967 0.113234 -0.073627 0.005051 -0.272677 -0.048745 -0.268351 0.085730 0.108818 0.303867 0.279784 0.254766 -0.572911 -0.186569 0.034167 0.052375 0.475938 -0.202564 0.162669 -0.265480 0.185254 -0.236867 0.024245 0.318622 0.572454 0.260781 0.012479 -0.138370 -0.135096 0.124664 0.088505 -0.099611 0.072227 -0.003500 0.226781 0.180886 -0.080168 0.243332 0.002763 -0.076675 -0.147737 -0.195782 0.060804 -0.091601 -0.233031 -0.003253 0.029671 -0.265205 0.114943 0.490995 -0.016598 0.249371 -0.115936 -0.041283 0.020336 0.247927 -0.541490 0.197883 -0.058300 -0.034513 0.047691 -0.122169 0.193971 0.163764 -0.112084 -0.101006 0.176186 0.181706 0.201760 -0.010196 0.014047 -0.321391 0.330300 0.472437 0.055490 -0.218971 0.113796 0.268951 0.178291 0.332575 -0.279998 -0.153667 -0.077974 0.344439 0.041800 -0.191743 0.300179 0.050794 0.437804 0.569813 -0.055733 0.423608 -0.410445 -0.456812 -0.199952 
流行饰品 0.113489 0.191020 -0.031271 0.090722 0.864498 -0.165586 -0.248611 0.384751 0.236712 -0.019882 0.246465 -0.319193 0.466028 0.014156 0.693505 0.354157 0.077350 -0.635006 -0.091348 0.200099 0.155574 0.252623 -0.059731 0.153577 -0.245390 0.605261 -0.758198 -0.021550 0.133554 0.720253 0.627880 0.416863 -0.312511 -0.210584 -0.116644 0.220078 -0.348326 0.644847 -0.022746 0.073253 0.480525 -0.306133 0.473310 -0.005622 0.008649 -0.137383 -1.090139 -0.115451 -0.782457 -0.352874 -0.275593 0.313193 -0.419440 0.242798 1.377605 0.598673 0.154340 -0.553295 0.193576 -0.175014 0.056497 -0.686264 0.787999 0.065781 0.135225 -0.227646 -0.405984 0.540740 0.441911 0.093700 -0.820431 0.199679 0.325225 0.490401 0.455284 -0.838395 -0.547455 1.149917 0.980320 0.346754 -0.702243 0.413086 0.489702 0.391414 0.566811 -0.221033 0.245405 -0.347530 -0.032508 0.700074 -0.820398 -0.011761 -0.047082 0.832895 0.467900 0.348613 0.298678 -1.276635 -0.435571 -0.154013 
瓶 -0.161155 -0.082272 0.215282 -0.237297 -0.298575 0.503573 0.323963 -0.283331 -0.175546 -0.534025 0.080960 -0.433239 0.075029 0.108092 0.041705 0.301473 0.558673 -0.816962 -0.434572 0.036717 -0.022085 0.486534 -0.345141 0.370677 -0.316403 -0.243996 -0.108994 -0.063953 0.178579 0.105194 0.134269 -0.022541 0.009628 -0.261762 0.339517 -0.372087 -0.033735 -0.271603 0.024829 -0.023750 0.050988 0.051640 0.239334 -0.418399 -0.215705 -0.172924 0.245323 0.120648 0.068372 -0.005150 0.090623 -0.073181 -0.417093 -0.033541 0.073969 -0.493203 0.461272 -0.134224 -0.040938 -0.000991 0.123330 -0.791702 0.182152 -0.031570 -0.008039 0.078967 0.073404 -0.335551 0.146225 -0.128213 0.408817 0.042573 0.052610 0.320358 -0.410542 0.341265 -0.543532 -0.000271 0.607857 0.193858 -0.031585 -0.046202 0.530616 -0.467373 0.050460 -0.561132 -0.128327 0.343050 0.551383 -0.347203 -0.109711 0.296820 -0.292424 0.034399 0.890268 -0.247157 0.474608 0.074033 -0.583959 -0.263639 
手电筒 -0.210993 0.003111 0.224007 -0.249446 -0.269206 0.412448 0.331664 -0.312827 -0.119512 -0.575818 0.140453 -0.578614 0.003869 -0.022180 -0.015966 0.294234 0.463012 -0.774899 -0.375204 -0.087927 -0.110061 0.398490 -0.421613 0.360767 -0.268838 -0.161770 -0.072869 -0.075182 0.200533 0.151274 0.103397 -0.017912 0.067078 -0.286303 0.309976 -0.191114 -0.069432 -0.134645 -0.056834 0.028413 0.049972 -0.018107 0.357867 -0.337334 -0.258932 -0.086128 0.137514 0.052319 -0.015142 0.091885 -0.056936 -0.033804 -0.395636 0.018949 0.154374 -0.363254 0.474332 -0.133691 -0.097812 0.031724 0.151464 -0.742904 0.263697 -0.047646 -0.073093 -0.013700 -0.025195 -0.122659 0.180453 -0.111342 0.341217 0.145467 0.061778 0.243709 -0.407883 0.245542 -0.530483 0.097997 0.562338 0.157512 -0.105681 0.016653 0.392492 -0.453406 0.066305 -0.599799 -0.014620 0.236520 0.460492 -0.148133 -0.183492 0.271408 -0.215366 0.031447 0.823583 -0.271965 0.423934 -0.117784 -0.613443 -0.237332 
鞋 -0.235281 0.067646 0.155918 -0.344139 -0.228405 0.309919 0.342727 -0.206949 -0.081556 -0.617083 0.173326 -0.331890 -0.044438 0.135150 -0.030267 0.196334 0.499788 -0.649951 -0.506748 0.042989 -0.127610 0.401865 -0.190234 0.234840 -0.349076 -0.215965 0.069917 -0.093447 0.176780 0.003085 -0.039811 0.016337 0.147349 -0.441974 0.414427 -0.136557 -0.008245 -0.273791 0.073096 0.161393 -0.104051 -0.036644 0.120418 -0.399149 -0.123085 -0.039934 0.128507 0.061068 0.175655 0.283221 0.022966 -0.099598 -0.394486 -0.144512 0.138062 -0.488266 0.390372 -0.153530 -0.114513 -0.161466 0.032400 -0.648195 0.165914 0.096165 0.099029 -0.090683 0.041642 -0.279773 0.186970 -0.200018 0.350744 0.073037 0.011503 0.039695 -0.477029 0.331125 -0.375537 0.054798 0.718926 0.201371 -0.100313 -0.091716 0.455816 -0.572172 0.022104 -0.653431 -0.030606 0.434056 0.497942 -0.370849 -0.056520 0.120359 -0.221305 0.050952 0.705591 -0.289239 0.437920 0.099960 -0.536876 -0.343969 
熊熊 -0.381349 0.130718 0.122407 -0.384630 -0.146729 -0.146456 0.246154 -0.196948 -0.017222 -0.325890 0.116042 -0.212345 -0.226202 -0.045489 -0.248535 0.145647 0.094280 -0.526629 -0.419154 -0.162172 -0.167109 -0.014907 -0.229209 0.183383 -0.076955 -0.009643 0.343748 -0.321038 0.186861 0.074831 -0.229277 0.065019 0.162821 -0.376368 0.056358 0.230406 0.012003 0.143527 -0.111853 0.284303 -0.363172 -0.317383 0.154970 -0.183183 -0.232764 -0.263374 -0.089455 0.017953 0.044437 0.320952 -0.053259 -0.026372 -0.430240 -0.169811 0.281593 -0.177185 0.333894 -0.131989 -0.206850 -0.313479 -0.067736 -0.584278 0.324806 0.044612 -0.223164 -0.154865 0.168038 -0.062547 0.244583 -0.482778 -0.094887 0.287008 0.093823 -0.058874 -0.437554 0.249497 -0.133496 -0.008578 0.500017 0.173100 -0.112483 -0.014483 0.125381 -0.319181 0.014093 -0.477642 0.287384 0.326015 0.373411 0.001126 0.025787 0.193770 0.095014 0.188065 0.462163 -0.137586 0.409163 -0.202859 -0.260100 -0.337841 
织带 -0.246387 -0.034522 0.104056 -0.103534 -0.151923 0.261362 0.164696 -0.131644 -0.095775 -0.291660 0.176852 -0.377136 0.027652 0.038307 0.256064 0.411777 0.240667 -0.755571 -0.278682 0.026956 -0.144742 0.359407 -0.237778 0.323941 -0.053607 -0.002549 -0.090933 -0.180294 0.291572 0.284103 0.297253 0.113798 -0.034796 -0.165547 0.219660 -0.111051 -0.020720 0.161686 -0.016405 0.107582 0.270264 -0.087896 0.430452 -0.334986 -0.236383 -0.115202 -0.085488 0.067820 0.015989 -0.018692 -0.066708 0.024063 -0.376622 0.041262 0.388585 -0.237841 0.389077 -0.259743 -0.102426 -0.044115 0.090486 -0.589592 0.280485 -0.071270 -0.144588 -0.045473 -0.135951 0.115258 0.231287 -0.171628 0.003224 0.176927 0.232231 0.152636 -0.204353 0.113244 -0.488549 0.207722 0.557908 0.138649 -0.163741 0.185312 0.345372 -0.155611 0.269996 -0.306853 0.023717 -0.102065 0.302243 0.055883 -0.302767 0.291416 -0.057465 0.001453 0.525532 -0.045829 0.573577 -0.349033 -0.465246 -0.161892 
陀螺 -0.334125 0.176128 0.318654 -0.309572 -0.174299 0.237073 0.169717 -0.233693 -0.080951 -0.432530 0.265441 -0.446408 -0.160706 -0.014328 -0.169772 0.305167 0.350197 -0.702353 -0.358145 -0.158046 -0.231514 0.177596 -0.345258 0.358143 -0.120069 -0.281296 -0.008563 -0.310879 0.195703 0.039377 0.018123 0.057253 0.085607 -0.335525 0.103956 -0.031054 -0.085992 0.057140 -0.193079 0.068525 -0.198501 -0.294954 0.258727 -0.356569 -0.161275 -0.272267 0.141483 -0.037001 -0.069241 0.214394 -0.053313 0.019292 -0.343632 -0.140624 0.241168 -0.398348 0.453899 -0.163360 -0.133389 -0.163305 -0.075344 -0.613008 0.234550 0.018406 -0.012960 -0.092618 0.088482 -0.107619 0.095128 -0.194332 0.203239 0.200387 0.097165 0.306742 -0.514580 0.214007 -0.502696 -0.027715 0.545367 0.191818 -0.197966 0.042866 0.353847 -0.510205 -0.015985 -0.617914 0.273794 0.362359 0.438863 -0.126352 -0.174057 0.105756 -0.112627 -0.026966 0.696889 -0.177315 0.426340 -0.164394 -0.374164 -0.289140 
笔记本 -0.149152 -0.029783 0.081742 -0.190529 -0.169303 0.147115 0.263907 -0.210598 0.009121 -0.466490 0.004392 -0.378098 0.046728 0.081186 0.108929 0.277443 0.249282 -0.670235 -0.361761 -0.060923 -0.003591 0.270973 -0.321898 0.260066 -0.208721 0.127635 0.011795 -0.060140 0.226536 0.287178 0.029692 -0.006741 -0.081595 -0.272592 0.169405 -0.029043 0.057774 -0.031185 -0.009263 0.148897 0.037473 -0.083434 0.277096 -0.183592 -0.231245 -0.164258 -0.097222 0.085345 -0.016202 -0.064083 -0.032708 -0.011967 -0.426233 0.039495 0.243421 -0.140793 0.330282 -0.157024 -0.087031 0.006008 0.194446 -0.676413 0.330119 -0.060462 -0.160700 -0.011453 -0.054889 -0.019409 0.260800 -0.237417 0.012928 0.218222 0.127391 0.098239 -0.199077 0.121797 -0.320770 0.139207 0.432970 0.126096 -0.089316 0.011582 0.244086 -0.151729 0.168456 -0.356809 -0.006700 0.068994 0.338793 0.039633 -0.096320 0.347881 0.018107 0.297050 0.611528 -0.069473 0.416849 -0.269355 -0.420077 -0.266415 
裙 -0.198582 -0.053517 -0.228837 -0.271272 -0.219557 -0.045313 0.414296 -0.078167 0.053818 -0.604248 -0.068773 -0.085181 0.153469 0.039880 -0.009739 -0.002108 0.168804 -0.323020 -0.637509 0.172593 0.174743 0.359508 0.120072 -0.054723 -0.495047 0.328642 0.412890 0.356808 0.135423 0.294681 -0.383561 0.208815 0.415436 -0.317215 0.674802 -0.010932 0.085993 -0.237185 0.463473 0.488008 -0.016079 0.048302 -0.040815 -0.113886 -0.336546 0.160943 -0.447831 0.258201 0.383662 0.443182 -0.007726 -0.230068 -0.476730 -0.078321 0.300902 -0.148889 0.117679 -0.102003 -0.233567 -0.312477 0.251882 -0.657215 0.226336 0.070883 -0.150556 -0.272266 0.044046 -0.245223 0.564708 -0.533034 0.228190 -0.154057 0.134802 -0.520342 -0.244557 0.284125 0.078836 0.225536 0.669654 0.345959 0.041987 -0.111602 0.209003 -0.425677 0.321934 -0.446284 -0.286358 0.307943 0.160495 -0.171525 0.020633 0.045566 -0.170608 0.302390 0.234901 -0.235247 0.274766 -0.045218 -0.354879 -0.165288 
挂件 -0.223325 0.038845 0.231088 -0.169358 -0.003534 0.102263 0.129947 -0.104197 -0.022225 -0.367895 0.156725 -0.285543 -0.081093 -0.010611 0.055002 0.275612 0.222253 -0.537179 -0.259923 -0.010804 -0.095894 0.333267 -0.201051 0.234880 -0.176164 -0.131363 -0.108845 -0.215802 0.201724 0.261084 0.074581 0.094541 0.002881 -0.289041 0.139763 0.063870 -0.096033 0.104452 -0.060455 0.176022 -0.000149 -0.217927 0.225860 -0.205595 -0.064653 -0.120098 -0.110100 -0.005430 0.049689 0.140675 -0.057715 0.035846 -0.322694 -0.061347 0.314223 -0.196606 0.262974 -0.135441 -0.103081 -0.162097 0.025287 -0.542007 0.242767 0.080604 0.059350 -0.063864 0.022908 0.075097 0.172947 -0.147727 -0.042850 0.133790 0.117430 0.163580 -0.335825 0.091351 -0.405605 0.225443 0.607998 0.143212 -0.217733 0.054192 0.376840 -0.187272 0.203798 -0.497680 0.044369 0.203303 0.367574 -0.072562 -0.162892 0.080444 -0.040187 0.195163 0.611656 -0.189646 0.401636 -0.251101 -0.433155 -0.313360 
储钱罐 -0.243413 -0.098913 0.097761 -0.225648 -0.323249 0.320294 0.336938 -0.273422 -0.182926 -0.433797 0.087981 -0.295061 0.074749 0.047563 0.037787 0.292456 0.341228 -0.737859 -0.373158 -0.017493 0.027647 0.259200 -0.349024 0.255220 -0.208812 0.022813 0.023828 -0.023043 0.208792 0.206613 0.048214 0.076551 -0.058620 -0.229197 0.181502 -0.187867 0.082350 -0.102024 0.057812 0.080249 0.056584 0.028677 0.304359 -0.313356 -0.339476 -0.208500 0.083777 0.174704 0.102791 -0.062410 0.084549 -0.139887 -0.438205 0.015116 0.058650 -0.271196 0.404442 -0.169729 -0.093466 0.036676 0.217426 -0.780638 0.204376 -0.138986 -0.246207 0.035335 0.034898 -0.264893 0.261507 -0.292448 0.130575 0.111341 0.111449 0.152668 -0.264256 0.330715 -0.267890 0.008640 0.425944 0.152483 -0.012163 -0.027753 0.333892 -0.212078 0.000134 -0.323004 -0.052438 0.140394 0.430974 -0.092220 -0.053285 0.367108 -0.120833 0.129526 0.637187 -0.106575 0.419302 -0.012835 -0.418744 -0.197429 
牛仔长裤 -0.142325 -0.103546 -0.352990 -0.327319 -0.132560 -0.242461 0.406250 -0.078237 0.154593 -0.616850 -0.119690 0.051742 0.143462 0.112567 -0.017525 -0.015887 0.116156 -0.269974 -0.650505 0.147683 0.212089 0.380740 0.124150 -0.157153 -0.486807 0.442953 0.529872 0.297346 0.150686 0.314968 -0.410572 0.153376 0.328677 -0.329577 0.602920 0.139271 0.148381 -0.211570 0.471256 0.535518 -0.060606 0.078059 -0.138686 -0.133043 -0.339865 0.161270 -0.483476 0.330382 0.433484 0.279930 -0.007094 -0.275680 -0.516977 -0.094892 0.215699 0.009079 0.024583 -0.109208 -0.278224 -0.293144 0.313271 -0.592469 0.251345 0.121583 -0.173561 -0.283465 0.072370 -0.144049 0.575532 -0.544334 0.050113 -0.074230 0.192102 -0.606928 -0.227169 0.268273 0.285706 0.238264 0.700895 0.368966 0.105787 -0.166523 0.078297 -0.228827 0.325133 -0.349578 -0.266253 0.357582 0.251913 -0.148985 0.140486 0.143050 -0.070983 0.428484 0.164447 -0.254845 0.278030 0.001665 -0.228457 -0.214702 
蜡染娃娃 -0.302669 0.055259 0.094507 -0.339620 -0.265259 0.034952 0.272328 -0.247748 -0.030141 -0.515228 0.102616 -0.270142 -0.148990 -0.011644 -0.164460 0.243825 0.230301 -0.654505 -0.468907 -0.085290 -0.110441 0.250375 -0.276753 0.220285 -0.207992 -0.021358 0.264068 -0.154578 0.229255 0.180415 -0.122636 0.006815 0.130303 -0.321845 0.220268 0.089508 -0.016031 0.009532 -0.037919 0.249204 -0.176088 -0.176485 0.178649 -0.197894 -0.234999 -0.203968 0.006750 0.098294 0.108031 0.173076 -0.030526 -0.083304 -0.375732 -0.065294 0.218936 -0.219631 0.355782 -0.121536 -0.195623 -0.160815 0.099937 -0.641343 0.248046 -0.062856 -0.172046 -0.090282 0.152521 -0.085321 0.183548 -0.398818 0.100525 0.241619 0.116809 0.028154 -0.420781 0.323881 -0.251102 -0.012434 0.478624 0.151097 -0.079690 -0.026348 0.223437 -0.319673 0.070065 -0.504894 0.088225 0.267830 0.411201 -0.105586 0.043070 0.288544 0.024706 0.165430 0.586549 -0.187801 0.428505 -0.153333 -0.368645 -0.282385 
球网 -0.025691 -0.153998 -0.135752 -0.153971 -0.009614 -0.064941 0.171746 -0.023074 0.091855 -0.327055 0.018311 -0.171821 0.127481 0.141453 0.232206 0.164464 0.114616 -0.359320 -0.333574 0.146481 0.103280 0.301555 -0.024577 0.041655 -0.304405 0.405452 0.122152 0.230139 0.149765 0.380679 -0.084890 0.074698 -0.000402 -0.210485 0.258482 0.060863 0.066189 -0.045472 0.300273 0.208873 0.191328 0.079080 0.172215 -0.132645 -0.187993 0.051945 -0.398418 0.174091 0.148899 -0.086378 -0.030363 -0.081389 -0.359860 0.061659 0.379176 0.100093 0.058955 -0.244159 -0.088787 -0.156966 0.286563 -0.418541 0.265542 -0.007845 -0.065860 -0.060266 -0.137816 0.081904 0.415485 -0.275963 -0.138981 0.159763 0.139610 -0.238341 0.036323 0.025819 0.003325 0.324307 0.610119 0.188451 -0.025022 -0.046116 0.196380 0.063168 0.327591 -0.157755 -0.082213 0.055138 0.279991 0.069778 -0.035789 0.212294 -0.031581 0.430433 0.389818 -0.115936 0.318615 -0.288249 -0.305428 -0.211729 
合金项链 0.079510 0.213855 0.037497 0.098686 0.977480 -0.037938 -0.269725 0.492921 0.226660 0.043157 0.310124 -0.409628 0.497140 -0.041445 0.674479 0.342326 0.143052 -0.627522 -0.116086 0.244798 0.196002 0.201254 -0.016131 0.191449 -0.230366 0.564972 -0.846598 0.019210 0.038004 0.573117 0.601681 0.561700 -0.321049 -0.193867 -0.101730 0.074109 -0.393802 0.602457 -0.030153 -0.036847 0.427940 -0.329408 0.521238 -0.122964 0.006409 -0.152743 -1.159618 -0.155826 -0.878445 -0.229861 -0.314603 0.318570 -0.435212 0.217324 1.393764 0.526386 0.228697 -0.648301 0.221346 -0.253660 -0.015149 -0.773511 0.787942 0.055164 0.152673 -0.276051 -0.380408 0.366722 0.500533 0.072922 -0.764725 0.094245 0.305918 0.620365 0.362502 -0.918983 -0.653085 1.152421 1.001658 0.489061 -0.879883 0.418255 0.673579 0.199350 0.470131 -0.320552 0.359515 -0.250644 -0.009283 0.642973 -0.950118 -0.083556 -0.174761 0.757906 0.515490 0.480011 0.185155 -1.231856 -0.448592 -0.170084 
鱼 -0.258793 0.068839 0.202603 -0.323588 -0.192049 0.229948 0.182241 -0.164462 -0.050493 -0.462042 0.183839 -0.388268 -0.113546 0.010961 -0.107372 0.186451 0.347420 -0.608877 -0.430458 -0.019242 -0.151929 0.282877 -0.218401 0.260082 -0.215239 -0.199845 0.076247 -0.138616 0.151682 0.080765 -0.103345 0.037576 0.139714 -0.352112 0.248320 -0.111811 -0.073296 -0.121280 -0.003448 0.135773 -0.108236 -0.169088 0.198165 -0.361995 -0.149878 -0.136418 0.052878 0.049939 0.095637 0.261248 -0.056886 -0.060550 -0.358380 -0.133556 0.221916 -0.407417 0.405733 -0.151424 -0.157108 -0.222677 0.052968 -0.616371 0.191833 -0.010296 0.025689 -0.075767 0.067351 -0.189600 0.210699 -0.289799 0.272385 0.163612 0.048367 0.091225 -0.478088 0.270247 -0.391144 -0.052475 0.650674 0.244534 -0.123729 -0.050135 0.395038 -0.474531 0.083594 -0.579191 0.106460 0.421996 0.450616 -0.193292 -0.052615 0.116222 -0.194019 0.003772 0.645202 -0.261240 0.341411 -0.083231 -0.439112 -0.278424 
时装包 -0.453591 0.279550 -0.147134 -0.738776 -0.022288 -0.717187 0.453931 -0.254787 0.238198 -0.108223 -0.009957 -0.086523 -0.179065 -0.162295 -0.454355 0.387004 -0.164611 -0.801363 -0.692412 -0.464262 -0.086353 -0.515745 -0.401395 0.255683 0.015839 0.580403 0.729213 -0.504597 0.196136 0.072606 -0.488988 0.209476 0.118013 -0.678285 -0.249658 0.693573 0.215825 0.450520 -0.083129 0.451845 -0.675454 -0.559722 0.329689 -0.287391 -0.538017 -0.516497 -0.603777 0.151168 -0.156077 0.194828 -0.056362 0.025530 -0.826832 -0.133375 0.465682 0.393207 0.321419 -0.370721 -0.206539 -0.556570 -0.063666 -1.082349 0.856995 0.023548 -0.597085 -0.346265 0.321808 -0.018030 0.532116 -0.934318 -0.842993 0.664379 0.354677 -0.160976 -0.354391 0.156549 0.225372 0.123718 0.636711 0.318206 0.069137 -0.011048 -0.194657 0.087526 -0.186321 -0.376317 0.731256 0.420778 0.410631 0.447242 0.072104 0.431606 0.340082 0.592769 0.344834 0.136794 0.344218 -0.469245 -0.142018 -0.567497 
圆珠笔 -0.173293 -0.104194 0.173848 -0.069865 -0.320658 0.433942 0.540698 -0.264005 -0.083856 -0.518350 -0.081116 -0.557700 0.140058 0.187656 0.144485 0.254922 0.426708 -0.752672 -0.314077 -0.116236 -0.086911 0.400785 -0.440005 0.333673 -0.216369 0.034198 -0.120704 -0.110494 0.264579 0.183460 0.173790 -0.107434 -0.144454 -0.254849 0.238843 -0.288221 0.004598 -0.237435 -0.154423 0.197822 0.100382 -0.089142 0.222348 -0.274897 -0.350528 -0.159136 0.091336 -0.006428 -0.091730 -0.073937 -0.101808 -0.072002 -0.504836 0.017890 0.047820 -0.342148 0.374962 -0.126836 -0.143200 0.095648 0.183798 -0.773120 0.403666 0.082003 -0.243776 -0.018281 -0.105017 -0.195615 0.108180 -0.208319 0.167473 0.133121 0.070460 0.248804 -0.386669 0.267229 -0.544959 0.155612 0.376026 0.059080 -0.189512 0.014860 0.307908 -0.407240 0.041780 -0.569177 -0.087901 0.121335 0.399532 -0.127456 -0.210959 0.342439 -0.084014 0.232151 0.681737 -0.007245 0.582230 -0.132640 -0.613116 -0.160501 
棉服 -0.163489 -0.168803 -0.343529 -0.294634 -0.362209 -0.086432 0.467768 -0.134918 0.056814 -0.646881 -0.132724 -0.001605 0.122703 0.067622 -0.051777 0.009745 0.124462 -0.307816 -0.655059 0.166278 0.170488 0.406687 0.084939 -0.079446 -0.444268 0.403860 0.560935 0.394614 0.122664 0.275637 -0.478509 0.135543 0.366792 -0.287112 0.674173 0.011552 0.209338 -0.246460 0.490992 0.520677 -0.019660 0.178448 -0.076637 -0.126424 -0.415224 0.189065 -0.392599 0.362257 0.433576 0.346884 0.010119 -0.266244 -0.453411 -0.029604 0.138399 -0.064260 0.082001 -0.088363 -0.257672 -0.249836 0.419795 -0.662269 0.177201 -0.037383 -0.243132 -0.232431 0.103108 -0.247740 0.569389 -0.601553 0.235068 -0.103548 0.151029 -0.651656 -0.184094 0.377394 0.240904 0.134388 0.515762 0.337842 0.198981 -0.172253 0.101381 -0.313154 0.277605 -0.334158 -0.377202 0.312172 0.154653 -0.126646 0.165609 0.181924 -0.083561 0.331956 0.186588 -0.237066 0.288290 0.072911 -0.276006 -0.163473 
女士拉绒保暖裤 0.006514 -0.161455 -0.534193 -0.407252 0.077351 -0.402879 0.370523 0.056307 0.298102 -0.698894 -0.047540 0.269021 0.198951 0.298398 0.074815 -0.134622 0.131383 -0.228504 -0.903437 0.383521 0.331728 0.502045 0.214796 -0.271430 -0.752034 0.672150 0.627028 0.539463 0.123631 0.391005 -0.629601 0.145371 0.308745 -0.466852 0.712685 0.152641 0.145212 -0.353742 0.910090 0.559330 0.109741 0.304997 -0.271218 -0.169695 -0.211504 0.358472 -0.775502 0.479027 0.602651 0.199312 -0.002078 -0.390388 -0.533870 -0.145030 0.194910 0.229875 -0.219211 -0.288542 -0.220600 -0.568438 0.457251 -0.403680 0.222840 0.278905 0.053168 -0.283575 0.020753 -0.159360 0.574055 -0.525509 -0.134559 -0.023424 0.106020 -0.902716 -0.084936 0.290860 0.533535 0.366501 1.000546 0.401073 0.160759 -0.314510 0.185197 -0.082608 0.447762 -0.317986 -0.292558 0.531694 0.372797 -0.187129 0.319906 0.120061 -0.081479 0.668736 0.218762 -0.450802 0.156514 0.219136 -0.120026 -0.353659 
长款钱包 -0.481753 0.277862 -0.121920 -0.701068 -0.086049 -0.785172 0.452822 -0.320451 0.184167 -0.039384 -0.034146 0.022659 -0.257045 -0.182510 -0.638645 0.382965 -0.230514 -0.736337 -0.663192 -0.528015 -0.075718 -0.754471 -0.400652 0.261829 0.091652 0.585559 0.796907 -0.611951 0.172035 -0.074123 -0.519706 0.206486 0.109726 -0.684263 -0.465296 0.832567 0.295146 0.483193 -0.122750 0.493944 -0.779150 -0.593638 0.343365 -0.244756 -0.536536 -0.596590 -0.592805 0.174363 -0.159076 0.273342 -0.072118 0.058645 -0.738095 -0.162622 0.395571 0.484138 0.254003 -0.389741 -0.289963 -0.525307 -0.148824 -1.079724 0.872086 -0.024724 -0.721092 -0.352062 0.386895 0.035475 0.471748 -1.068235 -1.012048 0.674886 0.400406 -0.182271 -0.276418 0.153398 0.406737 0.123649 0.543811 0.293577 0.099168 0.027836 -0.322464 0.163805 -0.320555 -0.338504 0.817275 0.322572 0.345951 0.502229 0.129812 0.499033 0.432994 0.638691 0.188804 0.210499 0.289241 -0.506721 -0.039829 -0.593694 
职业网花 0.026803 -0.129571 0.068198 0.168936 0.405954 -0.172949 -0.013647 0.044916 0.065952 -0.121528 -0.037815 -0.289503 0.073778 0.279702 0.741274 0.277367 0.079569 -0.253376 0.117843 0.114443 -0.016143 0.514215 0.029201 0.111592 -0.156942 0.314464 -0.405061 -0.043208 0.453203 0.895303 0.619427 -0.011411 -0.262143 -0.167173 0.055801 0.375387 -0.064035 0.274109 0.018812 0.361983 0.378371 -0.214646 0.177316 0.110226 0.050087 0.005937 -0.459326 -0.051657 -0.086654 -0.337721 -0.112567 0.198949 -0.190145 0.211389 0.850955 0.164739 0.010025 -0.137704 -0.041010 0.058957 0.150871 -0.165339 0.257190 0.102825 0.062427 -0.025555 -0.375001 0.751706 0.271756 0.052510 -0.498421 0.226660 0.267514 -0.017078 0.274847 -0.312255 -0.405430 0.738194 0.719466 -0.061928 -0.296534 0.213803 0.276797 0.520232 0.685145 -0.066594 -0.212316 -0.479239 0.211463 0.244211 -0.389993 0.133824 0.230225 0.541805 0.377548 -0.143729 0.704235 -0.952577 -0.434574 -0.102892 
皇冠 0.019503 0.048634 -0.010037 0.146691 0.442287 -0.152064 -0.049218 0.149098 0.153834 -0.102936 0.031786 -0.313132 0.230410 0.048400 0.570542 0.320601 0.028373 -0.378985 0.015007 0.085551 0.068335 0.315865 -0.073617 0.130628 -0.130871 0.407104 -0.423234 0.034416 0.215455 0.678460 0.538102 0.111887 -0.307447 -0.142032 -0.063821 0.318913 -0.172954 0.394423 -0.092091 0.149980 0.316252 -0.215541 0.289140 0.108861 -0.068296 -0.105801 -0.625054 -0.003353 -0.373596 -0.321008 -0.154826 0.225910 -0.249781 0.223769 0.888195 0.361579 0.077256 -0.223802 0.028947 0.003361 0.116456 -0.426849 0.398935 -0.023277 -0.051448 -0.076804 -0.289232 0.529759 0.291763 0.083778 -0.537802 0.212705 0.286374 0.295979 0.317625 -0.449307 -0.409548 0.747681 0.581822 0.131201 -0.441088 0.263337 0.264842 0.407448 0.467441 -0.093698 0.042283 -0.402704 0.039393 0.453690 -0.486244 0.157759 0.148621 0.612007 0.424055 0.141792 0.378703 -0.974961 -0.348282 -0.104381 
零钱包 -0.450047 0.300980 0.012182 -0.668167 -0.091743 -0.640991 0.427627 -0.308487 0.165219 -0.056252 -0.031318 -0.119316 -0.276573 -0.149269 -0.536833 0.393253 -0.183359 -0.769104 -0.582316 -0.542524 -0.160311 -0.662611 -0.441340 0.325105 0.116324 0.421133 0.657008 -0.712286 0.205640 -0.055117 -0.374681 0.143209 0.080792 -0.685922 -0.433115 0.754251 0.176805 0.474878 -0.233608 0.460988 -0.745960 -0.645690 0.350485 -0.268421 -0.449360 -0.582961 -0.453265 0.080827 -0.202148 0.274853 -0.124281 0.103187 -0.713913 -0.138166 0.413837 0.320658 0.305466 -0.341172 -0.239690 -0.458452 -0.216060 -1.021455 0.839725 0.032352 -0.570359 -0.326469 0.355789 0.052627 0.386638 -0.907640 -0.868818 0.660940 0.316665 -0.015333 -0.378949 0.121577 0.168967 0.104629 0.541142 0.228486 0.049707 0.046182 -0.217940 0.094702 -0.280632 -0.396678 0.814167 0.324240 0.363006 0.456828 0.020632 0.421371 0.393274 0.534718 0.278006 0.161661 0.378756 -0.506188 -0.118805 -0.575696 
