2757 100
女裤 0.068830 0.005172 0.279982 -0.224676 -0.259953 -0.039314 -0.164667 0.066449 0.097318 -0.089288 0.315243 -0.296061 -0.071375 -0.347725 0.059538 -0.075907 0.193221 0.098935 -0.179303 -0.280627 -0.175604 0.089764 0.085034 0.152654 -0.016613 0.371148 0.175422 0.040842 0.262358 -0.304807 0.405535 0.036194 0.148681 -0.054561 -0.327263 -0.241253 -0.049289 0.152944 -0.179640 0.047648 -0.221802 0.045000 -0.257548 0.149667 0.119200 0.200874 0.324798 -0.156740 -0.017984 -0.055639 -0.079615 0.232730 -0.245978 0.146834 -0.113630 0.179949 -0.227368 0.085042 -0.153748 -0.033138 -0.066345 0.108896 0.417597 -0.063099 0.343587 0.100313 0.163517 -0.171711 0.273083 -0.184566 -0.291289 -0.203073 -0.081053 0.347257 0.198638 -0.163353 0.125602 -0.207454 0.297865 0.093468 0.001115 0.123823 0.170612 0.102419 0.539313 -0.192089 -0.361398 0.043763 0.408854 -0.093421 0.133317 -0.062709 0.218823 -0.403698 0.296804 -0.053007 0.194700 0.095631 0.424042 0.043485 
uxuzg 0.095214 0.071220 0.671924 -0.809522 -0.820343 -0.091402 -0.434780 0.094639 0.236927 -0.012161 0.264090 -0.167534 -0.304988 0.115253 -0.145065 -0.131942 -0.615102 -0.191544 0.441929 0.787342 0.669805 -0.414741 0.052138 -0.449266 -0.098833 -1.424248 -0.949734 -0.394933 -0.534158 0.761869 -0.893334 -0.203228 -0.219349 0.240609 0.816253 0.694233 0.128152 -0.356698 -0.128735 -0.003490 0.428575 -0.135044 0.513942 -0.240512 0.020977 0.152858 -0.265538 0.065300 -0.278769 -0.069265 -0.038267 -0.295681 -0.028863 -0.257971 -0.555747 -0.097671 -0.156010 0.099997 0.205538 0.121936 -0.015401 -0.025863 -0.019533 0.189676 -0.118298 -0.181830 -0.175045 0.337869 0.097422 0.209421 0.132463 -0.280919 0.413901 -0.479304 -0.437114 0.284603 0.050723 -0.180622 0.064433 0.011501 -0.109637 0.192834 -0.104342 0.104402 0.242683 0.182454 -0.115753 0.061790 0.033474 -0.273646 -0.083544 -0.161650 -0.112825 -0.119709 0.016759 0.392747 0.329220 0.192925 0.897108 0.212711 
包 -0.288806 -0.221559 -1.445064 -0.310849 -0.015592 0.937264 0.511012 -0.361518 0.240144 1.603955 -0.704674 1.836963 -0.139034 1.088541 0.132741 -0.411951 -2.126527 1.495361 1.951367 1.239085 0.461800 -0.666372 -0.529991 -0.650509 0.564511 -1.190070 -0.357276 0.395620 -0.101644 -0.706837 0.295853 -0.609488 -0.150852 -0.035547 0.802408 0.421801 -0.727185 -0.856452 -0.820651 0.721445 1.557700 -0.493145 0.028616 -1.018372 -0.499582 -0.013026 0.557234 0.252951 0.478923 0.356464 -0.327119 -0.462346 0.080600 0.097548 1.475542 0.300948 -0.576712 0.098482 -0.372933 -0.430789 -0.325057 -0.098615 0.182611 -0.332956 -0.041779 0.524842 0.541563 -0.113953 0.529969 0.871442 0.951295 0.171560 0.558959 -1.955939 -0.563438 -0.587782 -0.949426 -0.001578 0.951437 -0.560963 -1.184826 -0.537966 -0.435760 -0.155538 -0.610197 0.151138 1.607471 -0.382078 -0.391743 0.965497 0.287799 -0.376801 -1.384901 0.887552 -1.567604 0.542850 -0.967123 -0.512074 -0.855450 -0.599852 
袜 -0.138833 0.303687 0.231135 0.596625 1.244067 -0.122868 1.064163 0.083502 -0.409507 -0.038200 -3.164862 1.578142 -0.414349 2.162236 -1.420096 1.493805 -1.557461 -1.360262 1.190716 2.342094 1.563270 0.188000 0.079505 -0.989113 -0.352018 -0.832994 -0.944407 -0.036480 -0.043368 0.861777 -1.145361 0.476366 -0.503064 0.286655 0.288855 -0.111066 0.211857 -0.087327 0.825730 -1.571436 -0.749877 0.296877 0.586063 0.083346 -0.094757 -0.556903 -1.279688 -0.720241 0.008933 0.668341 -0.433601 0.292194 0.149687 -0.465181 -0.613349 -0.430092 0.582642 -0.213895 0.872616 0.335612 -0.656340 0.662799 -0.652249 0.236918 -0.295081 -0.318453 -0.076385 0.027792 0.065215 -0.011390 -0.155898 -0.563603 -0.191041 -0.048455 0.262120 0.800135 0.444152 -0.038605 -0.845499 0.907606 0.730719 -0.227759 -0.431176 0.396044 0.130747 -0.545117 0.409256 0.097937 -0.229993 -0.505174 -0.532381 0.831901 0.256645 -0.121555 0.525199 -0.125818 0.953717 0.584668 0.769837 0.318472 
链 0.608404 0.050857 1.380170 -0.672817 -0.346590 -0.650731 -1.350752 -0.005001 0.089960 -0.339578 -0.183871 0.063141 -0.495251 0.405520 -0.153867 -0.794415 0.506951 -0.541908 -0.712874 -0.027656 -0.329206 -0.129230 -1.245452 -0.237490 0.057719 -0.920709 -0.148863 -0.830473 0.612410 0.522791 0.531918 0.399042 -0.304648 1.669488 0.854156 0.565294 0.128658 0.491602 1.219767 1.031700 -0.220742 0.455081 0.706243 -0.728622 0.363398 -1.388984 -0.659650 0.499849 0.904610 0.826586 0.958817 -1.199950 1.040770 0.065264 -0.846366 -0.403695 -0.449355 0.071085 -0.447294 -0.582595 0.607317 -0.227896 -1.231520 -0.673020 -0.653453 0.006002 -1.025666 0.871332 -1.001868 0.236665 -0.063980 1.937360 0.197395 -0.729399 -0.114315 0.785024 -0.938636 0.727349 -0.652012 0.369067 -0.308613 0.390675 -0.581086 -0.214444 -2.414806 -0.146743 1.074873 0.418426 -0.140731 0.791430 -0.283502 -0.095991 0.066438 1.260283 -0.652834 0.512151 -0.174580 -0.465679 -0.637838 -0.808542 
夹子 0.152437 0.237491 -0.438618 -0.916921 -0.513213 -0.766039 0.344660 -0.097078 -0.942920 0.092163 0.181437 -0.999838 1.318387 0.445668 -0.477998 0.975047 0.291159 -0.985600 0.360488 -0.094416 0.053907 -0.307974 0.619235 1.046538 -0.196930 -0.323545 0.216600 -0.297356 0.152830 -0.174666 -0.260422 -0.535238 -0.149494 -0.538768 0.607687 2.107399 0.753818 -0.325930 0.254696 -0.505551 1.353848 0.135765 0.824436 0.455820 -0.532693 1.025027 -0.895465 -0.211652 0.018920 -1.387415 -0.118452 -0.217251 0.034943 -0.250880 0.757684 -0.286600 -0.142728 0.676247 2.261105 -0.256264 -0.085196 -0.239860 -0.837168 1.372798 -0.459730 0.336760 -0.994600 0.942263 0.497671 0.075787 0.170374 -0.735560 0.302527 -0.608024 -2.000607 0.276868 -0.560772 1.102054 -1.296327 -1.531293 -0.106000 0.223491 -0.056429 -0.496519 -0.439124 1.904330 -0.926080 -0.586282 -0.469447 1.343683 -0.828695 -0.011125 -0.517532 1.635142 -0.466330 -0.359187 -1.225416 0.631777 -1.286166 0.608605 
uxuzf -0.943412 0.179638 -1.009667 2.066278 1.347014 0.152364 1.040195 0.441343 -0.656465 -0.119693 -1.781657 0.918480 1.078070 1.534482 -0.339978 0.872191 0.060910 -0.583167 0.763949 0.603008 -0.126337 0.858717 -0.118139 0.199810 -0.352567 1.622702 0.623087 0.525685 -0.575219 0.211843 -0.141006 0.278137 -0.118416 -0.667363 -1.204856 -0.898296 0.463747 -0.403913 0.058479 -0.667056 -0.468457 -0.257667 -0.693369 1.065531 -0.273303 -0.468702 -0.542266 0.484648 0.107441 0.117616 0.099715 -0.484014 0.734593 0.195945 0.654616 -0.565223 1.393674 -1.225684 0.659413 0.498647 -0.022806 0.003422 -1.609589 0.430617 -1.186537 -0.316878 0.168800 -0.206568 -0.854304 -0.278075 0.380191 0.331823 -0.261042 0.922957 0.294735 0.148668 0.087829 0.955629 -1.987209 0.092192 1.148144 -0.290696 -0.254388 -0.666505 -1.235435 0.655330 0.847697 -0.427184 -0.974232 -0.287410 0.244328 0.267521 -0.545349 0.978009 -0.226591 -0.065201 -1.026362 -0.080720 -1.584543 0.435924 
人造花 -0.116555 0.126598 0.036931 0.004990 -0.652586 0.092184 -1.359710 -0.062977 0.523858 -0.369965 -0.268163 -0.913417 -1.375742 2.039153 -0.901779 -0.126277 -0.595790 -0.414479 0.553722 -0.132851 -0.298136 1.582866 0.682202 -0.327568 -1.637453 0.625061 -0.451195 -0.410833 -0.394668 0.834404 -0.813758 -1.157473 -0.696691 0.655414 0.472768 0.328950 -0.175208 -1.176903 -0.358716 -0.680467 0.047752 0.318942 -0.602415 0.333080 0.099658 0.068268 -0.439516 -0.460603 -0.800408 0.120407 1.032167 -0.922139 0.372546 -0.555366 -1.311820 -0.222481 -0.036745 -0.915430 -0.388141 0.057914 -0.207247 0.467243 -2.026028 -0.434749 0.039445 -0.688805 -0.258141 -0.968674 0.428409 0.083806 0.000530 -0.180941 0.098814 0.052498 -0.483515 0.375234 -0.555667 -0.206531 -1.095449 -0.083174 -0.027880 -0.066602 -0.326477 0.128050 -0.723739 0.937617 0.555806 -0.532866 -0.820893 -1.044037 -0.094269 -0.387785 -1.103029 1.275347 -1.078886 0.765920 -0.268739 -0.593113 -0.662476 0.608462 
打底裤 -0.244715 0.227871 0.632640 0.743125 0.564318 0.068731 0.737350 0.254088 -0.148203 -0.025934 -2.875452 1.298803 -0.287598 2.023257 -1.316869 1.181381 -1.091034 -1.030149 1.297281 2.277465 1.241763 0.537113 0.100372 -0.765865 -0.406736 0.000852 -0.468796 0.250812 0.020904 0.643335 -0.704330 0.476637 -0.626530 0.154244 -0.282517 -0.674654 0.222564 -0.278401 0.418392 -1.319777 -0.978143 0.151751 0.059413 0.226721 -0.057670 -0.680659 -1.150953 -0.414144 0.394612 0.869320 -0.291167 0.265005 0.248424 -0.330645 -0.366896 -0.528880 0.688412 -0.594824 0.627712 0.503217 -0.541745 0.840926 -0.707415 0.320189 -0.375849 -0.315165 0.243359 -0.243724 -0.071956 -0.194074 -0.252139 -0.556728 0.082133 0.376030 0.389376 0.241079 0.157819 0.284148 -1.079751 1.220939 0.931834 -0.163793 -0.361646 0.690175 -0.005526 -0.372081 0.698463 -0.166304 -0.284714 -0.618073 -0.324830 0.775047 0.191206 0.209820 0.585739 -0.149664 0.998535 0.200889 0.130131 0.125389 
玩具 -0.233729 0.232014 0.041780 -0.528506 -0.433822 0.712230 -0.402415 0.092706 0.302522 0.490097 0.678195 0.573498 -0.330462 0.451171 0.794426 -0.475546 -0.628353 1.339136 -0.027024 -0.558166 -0.381161 0.411044 0.057427 0.341548 0.000791 0.247637 -0.674786 0.436472 -0.577911 1.527813 -1.653280 -0.015745 -0.216060 -0.344122 1.063905 0.052741 0.022093 -0.588641 -0.104985 -0.142304 0.616201 0.136361 0.268306 -0.365535 -0.520172 -0.373397 -0.797595 0.287302 -0.081487 0.370363 0.260696 -0.516419 0.862808 -0.434103 0.298083 -0.358682 1.072123 -0.560577 -0.688792 0.819128 -0.173293 -0.274914 -1.609215 0.014629 -1.257612 -0.692661 0.115862 0.285328 -0.526752 0.499442 0.661336 -0.256172 0.521430 -0.882752 -0.628212 -0.505320 -0.086298 0.200727 0.237254 -0.446762 -0.131653 -0.760960 -0.352115 -0.368281 -0.359844 0.662627 1.278758 0.016056 -0.649983 -0.660148 -0.355416 0.179803 -0.518606 -0.230845 -0.872275 0.733330 -0.165355 -0.424864 -0.050545 -0.540047 
饰品 0.568132 0.019654 0.692820 -0.689394 -0.427505 -0.452149 -0.999795 -0.029921 -0.172173 -0.367221 -0.446830 0.178742 -0.045361 1.093705 -0.209585 -0.418946 0.408913 -0.482508 -0.213377 -0.075966 -0.592894 -0.101699 -1.140089 -0.196221 -0.165451 -0.440498 -0.043844 -0.830588 0.139804 0.163470 0.590850 -0.112062 -0.455910 1.318913 0.658030 0.749959 0.192481 0.066384 0.783084 1.041370 0.329974 0.297253 0.558968 -0.440623 0.212562 -0.525682 0.381641 0.164727 0.614652 0.119234 0.855596 -1.043510 0.477011 0.267510 -0.923856 -0.134307 -0.343947 0.198460 -0.027163 -0.490736 0.185962 -0.357322 -1.237654 -0.154536 -0.164047 0.103798 -0.816710 0.745833 -0.256129 0.360309 0.002047 1.510951 0.131456 -0.503128 -0.500846 0.449635 -1.240631 0.657572 -0.980032 -0.000820 -0.032914 0.502549 -0.352159 -0.335245 -2.066197 0.374167 0.516091 0.115158 -0.257529 1.072548 -0.277552 -0.420013 -0.064279 1.589686 -0.892106 0.919793 -0.910301 -0.352593 -0.712761 -0.394254 
项链 0.759139 -0.086362 1.040883 -0.464619 -0.212810 -0.777499 -1.097757 -0.209149 0.014269 -0.362512 -0.288347 0.087217 -0.377781 0.538259 -0.387366 -0.666981 0.246735 -0.841091 -0.254954 0.480968 0.082960 -0.573602 -1.365008 -0.672022 0.000543 -1.764791 -0.520682 -1.201167 0.313837 0.495983 0.477827 0.184920 -0.352751 1.852064 1.090605 0.965603 0.128618 0.416726 1.396066 0.997077 0.048102 0.368822 0.983079 -0.826899 0.382916 -1.098431 -0.273784 0.411946 0.675856 0.479038 0.928859 -1.153290 0.672315 0.162523 -1.130588 -0.353074 -0.659685 0.451534 -0.218507 -0.707757 0.677734 -0.332773 -0.643550 -0.555397 -0.355013 0.046169 -1.123006 1.049798 -0.801146 0.326424 0.049391 2.010336 -0.012280 -0.889926 -0.335264 1.008501 -0.923496 0.467116 -0.644401 0.227508 -0.246345 0.646026 -0.550032 -0.176209 -2.310961 -0.180509 0.544786 0.400455 -0.073506 0.954964 -0.290446 -0.194986 0.260847 1.281359 -0.495575 0.465519 -0.137499 -0.332503 -0.230287 -0.580041 
耳环 0.778231 -0.080165 0.547443 -0.226874 0.210614 -0.546986 -0.661191 -0.261531 -0.056461 -0.463687 -0.210711 0.197939 -0.232164 0.869313 -0.404862 -0.568080 0.390035 -0.650072 -0.098820 0.357232 -0.019657 -0.557164 -1.057345 -0.581255 -0.068944 -1.911169 -0.602111 -1.162123 -0.118570 0.556079 0.261314 -0.092902 -0.495509 1.652313 1.328394 1.049176 0.166505 0.224250 1.449090 1.137045 0.100414 0.230219 1.017672 -0.978792 0.385966 -0.577634 0.315984 0.367537 0.438645 0.050306 0.874586 -0.753090 0.179465 0.234171 -1.155652 -0.243832 -0.343814 0.509822 -0.239693 -0.571347 0.426607 -0.322184 -0.339376 -0.336717 -0.093238 0.128980 -0.933694 0.734545 -0.659879 0.557831 0.085133 1.787984 -0.031870 -0.566167 -0.304181 0.751397 -0.876111 0.371113 -0.458278 0.154589 -0.184374 0.538332 -0.499305 -0.191864 -1.784823 -0.065472 0.231644 0.252986 -0.179790 0.746287 -0.292482 -0.463184 0.248822 1.219879 -0.406278 0.523504 -0.413903 -0.435508 -0.319055 -0.484993 
杯 -0.071162 0.114921 0.135329 0.031332 0.162779 0.086250 0.077390 0.157314 0.099298 -0.021330 0.038511 0.273842 -0.273810 0.096578 0.470952 0.033051 0.017602 0.124925 -1.153213 -0.498856 0.312936 -0.009011 0.709823 0.130566 0.532848 -0.536976 -0.049528 0.286093 -0.377808 1.037074 -1.433588 0.085247 -0.608354 -0.375119 0.757647 -0.037315 0.221892 -0.031123 0.468806 0.227340 -0.535126 -0.087271 0.808460 -0.756671 0.132083 -0.923430 -1.722335 0.206004 0.326737 0.651120 0.184782 0.442115 0.731532 -0.981200 -0.233977 -0.282327 0.801201 -0.014440 -0.178596 0.475384 -0.446949 0.247098 -0.709227 0.209878 -0.694467 -0.467517 -0.248126 -0.294337 -0.445370 0.162216 0.024797 -0.089360 0.442023 0.083932 0.210768 -0.247415 0.285396 1.032668 -0.173501 0.144229 -0.244193 -0.563550 -0.182413 0.232992 -0.403584 0.294666 1.130233 -0.055154 -0.950489 -0.329362 -0.509065 0.043939 -0.200003 0.678691 -0.288799 -0.048670 -0.031559 -0.302778 -0.825025 -0.516407 
刀具 0.057876 -0.006097 -0.710427 0.662306 0.899522 -0.352574 0.806059 -0.156547 -0.168252 -0.564410 0.141192 -0.549694 0.641810 -1.182349 -0.242896 0.478546 0.765745 -0.366609 -0.855384 -0.025391 0.193348 -0.096810 0.449909 0.056202 0.357086 -0.956191 0.059003 -0.158153 -0.812753 0.667961 -1.283074 -0.030584 -0.023512 -0.352991 0.846800 0.871161 0.234838 -0.361657 0.242770 -0.583364 0.399357 -0.095856 0.856879 -0.065866 -0.543635 0.188431 -1.073735 0.475365 -0.571076 -0.074578 -0.270364 -0.334016 0.470708 -0.809127 0.661752 -0.603403 0.894055 -0.103801 0.801243 0.073047 0.503251 -0.351690 -0.899285 0.605799 -0.971050 -0.658516 -0.351051 0.791572 -0.853526 0.322752 1.052109 0.131955 0.170185 -0.739288 -0.708440 0.653651 0.579431 0.023238 -0.795564 0.160930 0.383389 -0.382559 -0.000221 -0.064315 -0.345090 0.269234 -0.251379 0.117523 -0.878838 -0.109211 0.101329 0.903480 0.070293 -0.262478 0.327125 -0.196294 0.290636 0.056226 -0.613292 0.568759 
手链 0.720919 -0.126834 1.109564 -0.504402 -0.323008 -0.818636 -1.052691 -0.298157 0.205218 -0.186985 -0.398262 0.088046 -0.439348 0.645467 -0.381411 -0.691175 0.039575 -0.846944 -0.136315 0.542258 0.128805 -0.430507 -1.194583 -0.698358 -0.083892 -1.750086 -0.575182 -1.107583 0.171619 0.519745 0.151410 0.088460 -0.336387 1.713074 1.127403 0.982289 0.265557 0.313167 1.259308 0.917381 0.146351 0.483286 0.732352 -0.823084 0.337299 -1.007378 -0.333443 0.322269 0.589339 0.262867 0.872824 -1.060512 0.619399 0.110926 -0.957057 -0.380598 -0.548995 0.258923 -0.175207 -0.590851 0.582561 -0.276638 -0.702116 -0.413425 -0.238154 -0.002770 -1.063654 0.834648 -0.636692 0.371863 -0.015458 1.736246 0.101976 -0.809307 -0.195753 0.901357 -0.807669 0.428668 -0.581101 0.185739 -0.301706 0.579705 -0.561807 -0.122657 -2.111920 -0.009096 0.545954 0.222243 -0.033783 0.647484 -0.293348 -0.123470 0.196956 1.373927 -0.489742 0.470332 -0.142646 -0.354531 -0.266705 -0.463816 
车 0.040916 0.025408 -0.501621 -0.042085 -0.102674 0.665874 -0.070315 -0.211175 -0.102707 0.275927 0.187104 0.759543 -0.108962 0.070611 0.473468 -0.470982 0.086757 1.051802 -0.411972 -0.598477 -0.424939 0.211197 -0.110184 0.560944 0.203908 -0.000340 -0.214563 0.451403 -0.593158 1.250873 -1.396971 -0.106307 -0.358668 -0.187795 1.157507 0.378168 -0.100525 -0.245334 0.078032 0.170894 0.732915 0.214250 0.396642 -0.472841 -0.449986 -0.299476 -0.643134 0.446761 -0.131235 0.139673 0.255516 -0.555446 0.729784 -0.406322 0.327390 -0.503039 0.885196 -0.452567 -0.618580 0.564036 0.028369 -0.500587 -1.623706 0.104018 -0.729703 -0.569562 -0.140916 0.384655 -0.499081 0.488952 0.511126 -0.048237 0.464424 -0.706918 -0.427507 -0.189109 -0.204963 0.119876 0.315026 -0.358727 -0.077588 -0.695508 -0.159653 -0.334534 -0.065572 0.516239 0.848934 0.064002 -0.658611 -0.391383 -0.227477 0.231807 -0.268798 0.153599 -0.785455 0.234329 -0.385771 -0.315941 -0.589715 -0.590416 
西装套装 -0.445759 0.192337 -0.915955 1.629171 0.941272 0.102851 0.536784 0.007514 -0.250356 -0.591363 0.380051 -0.065614 0.453440 0.335620 0.285027 -0.225545 0.605340 0.042943 -0.224962 -0.395955 -0.404516 0.790043 0.314261 0.238359 -0.149278 0.438955 0.116311 -0.089217 -0.491749 0.916764 -0.472864 0.060912 -0.399124 -0.165481 0.288166 0.016538 0.470367 -0.369449 0.315828 0.037812 0.077681 -0.206617 -0.065542 0.414502 0.118627 -0.097474 -0.584783 0.497958 -0.294781 0.076170 0.434187 -0.910256 1.000761 -0.116067 -0.301611 -0.539473 0.771622 -0.665243 -0.342797 0.446627 0.258833 -0.272576 -1.572742 0.096189 -1.231233 -0.564401 -0.265718 0.071885 -0.653738 0.035142 0.666815 0.424564 -0.100158 0.387574 -0.210993 0.306793 0.067267 0.527959 -1.092589 -0.321293 0.420775 -0.123984 -0.188809 -0.653083 -0.727563 0.784305 0.257245 0.002397 -0.444309 -0.438336 0.417994 0.001854 -0.323777 0.438418 -0.263620 0.178870 -0.651617 -0.394856 -0.270596 0.284357 
女童外衣 -0.753446 0.221183 -0.737200 1.795437 1.133979 0.137841 0.728160 0.395183 -0.508492 -0.287801 -1.368813 0.671607 0.852482 1.256162 -0.178483 0.668798 0.349268 -0.450233 0.247352 0.176999 -0.277529 0.889242 -0.006218 0.305127 -0.316992 1.497908 0.545018 0.439402 -0.554192 0.565855 -0.494688 0.347483 -0.232355 -0.550792 -0.790805 -0.776908 0.458400 -0.303676 0.210649 -0.581706 -0.505993 -0.120671 -0.445017 0.858650 -0.260219 -0.566467 -0.791739 0.499554 0.103571 0.229792 0.218416 -0.506819 0.919651 -0.002571 0.434717 -0.646302 1.447878 -1.154568 0.407483 0.563593 0.026352 0.001607 -1.833877 0.383559 -1.253671 -0.508320 0.061999 -0.164952 -0.940755 -0.213793 0.315074 0.366991 -0.179475 0.863051 0.230646 0.124242 0.109239 0.927916 -1.804975 0.163271 1.046998 -0.372240 -0.207288 -0.570838 -1.155822 0.624492 0.830612 -0.245222 -0.956119 -0.406517 0.127501 0.307537 -0.394613 0.839710 -0.206501 -0.020385 -0.794553 -0.145592 -1.409354 0.261826 
手包 -0.154149 -0.230809 -1.003108 -0.178620 0.186135 0.513357 0.674897 -0.325085 0.055792 1.356778 -0.984716 1.615536 -0.053971 0.971737 -0.225080 -0.067762 -2.040583 0.651132 1.935484 1.765418 0.938668 -0.971064 -0.528382 -0.919781 0.490901 -1.810269 -0.655618 0.141894 -0.224928 -0.487855 0.107220 -0.363385 -0.135724 0.120111 0.731472 0.560752 -0.487000 -0.623318 -0.423072 0.346823 1.215015 -0.469643 0.229909 -0.863663 -0.373891 -0.082721 0.314544 0.068686 0.375658 0.242682 -0.300880 -0.244508 -0.218451 0.109863 1.047522 0.281352 -0.675872 0.273527 0.037234 -0.358172 -0.139768 0.023356 0.654303 -0.265124 -0.009533 0.524397 0.215208 0.093924 0.322009 0.703807 0.853220 0.158668 0.447411 -1.767317 -0.515799 -0.097220 -0.688331 0.003476 0.587660 -0.392443 -0.766037 -0.262669 -0.429280 -0.063530 -0.640460 -0.013346 1.075138 -0.358707 -0.335582 0.872538 0.041620 -0.216132 -0.949832 0.763002 -0.966691 0.185865 -0.474051 -0.251699 -0.484311 -0.312463 
绳 0.418219 0.080407 0.755502 -0.402401 -0.505922 -0.415065 -0.474024 -0.549438 -0.207773 -0.166594 -0.140147 -0.476666 0.156346 0.058390 0.041708 0.267384 0.208219 -0.713695 -1.099530 -0.750124 0.385483 -0.031228 -0.053492 -0.102342 -0.286000 0.003253 -0.057016 -0.127197 -0.193374 0.560485 -0.769430 -0.203458 -0.185501 0.356804 0.510508 0.775861 0.347408 0.170379 0.956833 -0.448895 0.493264 0.443610 0.435091 -0.079502 -0.432623 -0.453757 -0.490206 -0.163260 -0.019632 -0.561158 0.283890 -0.415821 0.615178 -0.534266 -0.007992 -0.648938 0.840642 0.336297 0.662844 -0.059565 0.227264 -0.502674 -1.171816 -0.084921 -0.694290 -0.263349 -0.653391 0.619611 -0.508667 -0.206669 0.281788 0.538338 -0.145887 -0.184852 -0.190159 0.453730 -0.030612 0.136214 -0.609530 -0.340841 -0.093894 -0.174316 -0.077229 -0.314223 -1.313701 0.390566 -0.033563 0.096489 -0.385706 0.026642 -0.349388 0.835767 0.595780 0.697833 -0.116844 -0.209441 -0.145681 -0.345082 -0.333296 0.207048 
办公用笔 -0.170738 -0.191789 -1.726369 1.337840 0.920867 0.269059 0.332808 -0.763859 -0.268630 0.683210 1.282606 0.062775 0.020014 -0.202434 0.538992 -0.310029 -0.168520 0.527828 -0.063314 -0.252961 0.286139 0.221107 0.189860 -0.060142 0.080443 -1.208907 -0.800604 -0.503569 -0.877171 1.344692 -1.668296 -0.240958 0.061059 -0.035271 1.056997 0.694890 -0.285659 0.020346 0.710678 -0.217450 0.683183 -0.013990 1.284617 -0.584409 -0.162423 -0.333100 -0.984761 0.550099 -0.618218 0.074634 0.664279 -0.395837 0.822721 -0.785931 0.006963 0.006481 0.224954 0.092043 -0.372107 0.033588 0.882063 -0.271766 -0.421016 -0.013920 -0.601451 -0.205336 -0.825651 0.358213 -0.372477 0.440661 0.487627 -0.223738 -0.267991 -0.845807 -0.962189 -0.190589 0.001923 0.166566 0.352988 -1.141900 -0.567608 -0.480837 -0.074757 -0.318160 -0.378426 0.235208 -0.334458 0.346040 -0.348033 0.248108 -0.333966 -0.380475 -0.178240 -0.435222 -0.269658 -0.653058 0.321337 -0.253439 0.082840 -0.198937 
线 0.161282 -0.228663 -0.358626 0.437097 -0.003929 -0.451059 0.133577 -0.622748 -0.010818 -0.338032 0.445983 -0.535411 0.148346 -0.303239 0.342579 0.120253 0.305721 -0.536496 -0.903676 -0.566769 0.429570 -0.301827 0.096764 -0.382413 -0.087463 -0.917971 -0.244403 -0.510932 -0.619455 0.861299 -1.214022 -0.233858 -0.366640 0.318180 1.269410 0.921496 0.369574 -0.048851 1.088116 -0.200390 0.641826 -0.060869 0.658485 -0.239409 -0.325334 -0.268961 -0.466440 0.154629 -0.319611 -0.401683 0.434250 -0.446685 0.836069 -0.470967 -0.274317 -0.710438 0.440385 0.425388 0.530304 0.104663 0.369330 -0.397893 -0.563076 0.026781 -0.615509 -0.442816 -0.657054 0.671718 -0.697902 0.062867 0.581079 0.499024 -0.247900 -0.448893 -0.343784 0.555765 0.010774 -0.135549 -0.239641 -0.301875 -0.115672 0.109688 -0.009010 -0.279047 -0.848333 0.466267 -0.442700 0.100746 -0.377688 0.030744 -0.034221 0.498701 0.569255 0.058881 -0.099138 -0.246513 0.119868 -0.297947 0.138620 0.281825 
帽 -0.523823 0.079745 0.148235 -0.284474 -0.312771 -0.101746 -0.479176 0.172824 0.001323 -0.108397 0.404110 -0.401844 0.117980 0.568585 0.481893 -0.025790 -0.184548 -0.138729 0.135044 -0.500553 -0.343700 0.499174 0.248075 0.275286 -0.467817 0.944990 -0.018853 -0.001247 -0.429786 0.578397 -0.404753 -0.213941 -0.140155 -0.265786 -0.064208 0.117151 0.246483 -0.330330 -0.171521 -0.186775 0.356954 -0.122681 -0.142748 0.214008 -0.184676 -0.183676 -0.387018 0.247939 -0.211628 -0.269996 0.199584 -0.550658 0.567369 -0.151283 -0.070828 -0.219241 0.680953 -0.486583 0.368307 0.186119 0.029307 -0.203521 -1.324954 0.237176 -0.722423 -0.173335 -0.383663 0.062013 -0.363879 0.073168 0.365813 0.152569 0.067106 0.091853 -0.352660 0.118953 -0.298583 0.503164 -0.943594 -0.320420 -0.100069 -0.423643 -0.126761 -0.549548 -0.949514 0.947292 0.592895 -0.068537 -0.739274 -0.062088 -0.179444 -0.141145 -0.663968 0.659993 -0.588942 0.203911 -1.087055 -0.063626 -0.714878 0.124596 
背包 -0.325741 -0.233791 -1.491774 0.364372 0.491597 0.657597 0.968746 -0.464558 0.091811 1.298022 -1.032755 1.778711 -0.091964 0.709995 0.110809 0.010118 -1.849571 0.529987 1.601776 1.619303 1.074311 -1.086055 -0.605166 -0.978818 0.522783 -1.708649 -0.606272 0.237412 -0.368568 -0.276078 -0.229684 -0.296362 -0.114979 0.068007 0.559547 0.275708 -0.492421 -0.401010 -0.176198 0.269963 1.101986 -0.364786 0.342869 -0.932674 -0.386610 -0.089241 0.072169 0.412302 0.115890 0.255860 -0.389223 -0.012630 -0.180420 0.145499 1.050741 0.228870 -0.375998 0.236846 -0.026318 -0.225778 -0.076276 -0.162005 1.051512 -0.198158 0.139799 0.569148 0.416208 0.065761 0.025083 0.639156 0.578397 0.127929 0.180433 -1.596127 -0.102749 -0.346214 -0.334681 -0.128332 0.839466 -0.524822 -0.814596 -0.240573 -0.443709 0.116815 -0.593842 -0.140494 1.117463 -0.258876 -0.436926 0.599099 -0.206301 -0.053120 -0.695062 0.405268 -0.876200 -0.083757 -0.299013 -0.201234 -0.474742 -0.471914 
架及笼 -0.261374 0.013924 -0.306489 0.061776 -0.065714 0.296721 0.150579 0.045003 -0.088859 -0.216580 0.044424 0.094098 -0.249002 0.041267 0.277046 0.134429 0.592198 0.361474 -0.429227 -0.248395 -0.159011 0.087763 0.613304 0.422789 0.286509 0.017595 -0.138982 0.244118 -0.087247 0.680365 -0.858406 -0.018972 -0.274890 -0.439956 0.463958 0.265749 0.283913 -0.038021 0.011213 0.080326 -0.081326 0.023665 0.304698 -0.318382 0.056834 -0.356251 -1.061569 0.319869 0.254372 0.074074 0.045494 -0.093140 0.307386 -0.591738 0.090412 -0.401911 0.733361 -0.142963 -0.016181 0.185788 -0.118557 -0.223122 -0.827589 0.290150 -0.498145 -0.209985 -0.284032 -0.067816 -0.424135 0.312660 0.171397 -0.005629 0.400500 -0.133008 -0.103590 -0.083141 -0.180726 0.434078 -0.085954 -0.172645 -0.141314 -0.285322 -0.186770 0.092689 -0.190946 0.491522 0.968336 -0.129524 -1.028836 -0.211566 -0.870588 -0.040291 -0.659009 1.121216 -0.693779 -0.097819 -0.391071 -0.193620 -1.174140 -0.546360 
皮筋 0.059001 0.037851 0.747939 -0.624705 -0.872842 -0.559100 -0.683948 -0.025896 -0.107315 -0.011984 -0.609001 -0.236148 0.115281 1.380745 -0.232976 0.212403 -0.439371 -0.972829 0.504100 0.223289 0.123762 0.175167 -0.090656 -0.196370 -0.879309 0.109781 -0.480579 -0.423283 -0.203210 0.147236 -0.385145 -0.512001 -0.157174 0.307870 -0.027751 0.829101 0.392412 -0.228028 -0.169295 -0.114368 0.503342 0.360780 0.008981 0.515627 0.030233 0.206770 0.119412 -0.285332 -0.193613 -0.691479 0.128217 -0.578878 -0.034467 -0.026198 -0.625334 -0.226240 0.108158 0.061366 0.751380 0.281096 -0.085063 -0.195632 -1.206652 0.625137 -0.247042 -0.251381 -0.674732 0.544671 0.224181 -0.043079 -0.099598 -0.052039 0.453006 -0.209972 -0.901835 0.383703 -0.613177 0.489050 -1.433170 -0.429045 0.129402 0.240300 -0.201883 -0.506874 -1.009060 1.089942 -0.295019 -0.043877 -0.348615 0.152900 -0.393825 0.016447 -0.504897 1.027106 -0.676770 0.677493 -0.536538 0.118113 -0.382027 0.642701 
板 -0.259405 0.079107 -0.872681 0.642796 0.531747 0.093394 0.482483 -0.118535 -0.231997 -0.011074 -0.051637 0.132685 0.037100 -0.104899 0.106354 0.059923 0.172541 0.030784 -0.107494 0.169236 0.084291 -0.217150 -0.037859 0.045701 0.202107 -0.517905 -0.271774 0.247662 -0.194235 0.289339 -0.831998 0.017485 -0.257034 -0.043802 0.257163 0.273156 0.035266 -0.045363 -0.061803 -0.142853 0.344458 0.018388 0.307847 -0.226599 -0.287890 -0.143687 -0.633681 0.186529 0.084152 -0.162795 0.013610 -0.028898 0.341724 -0.460279 0.501455 -0.325839 0.348445 0.029941 0.267165 0.054521 0.161476 -0.273970 -0.268458 0.058550 -0.277463 -0.346963 -0.210691 0.165986 -0.344502 0.201089 0.173975 0.194954 0.115811 -0.541024 -0.282591 0.127937 -0.059780 0.157657 0.046967 -0.099425 -0.261598 -0.310002 -0.209497 -0.023909 -0.277715 0.111758 0.220116 0.155669 -0.393450 0.220292 -0.336022 0.120682 -0.117429 0.191050 -0.209417 -0.220981 -0.073212 -0.165168 -0.632605 -0.304649 
发绳 0.142380 0.087294 0.945153 -0.790370 -0.874397 -0.683329 -0.814361 0.045324 -0.127464 -0.060946 -0.826287 -0.208175 0.072903 1.563467 -0.412657 0.216482 -0.421106 -1.189649 0.517686 0.455921 0.204952 0.063037 -0.326969 -0.318263 -0.948806 0.003292 -0.526423 -0.561447 -0.187564 0.093182 -0.249994 -0.460165 -0.244559 0.598815 -0.019913 0.993754 0.433053 -0.241737 -0.001889 -0.065507 0.470567 0.311126 0.088171 0.395645 0.059263 0.100594 0.167632 -0.272986 -0.080452 -0.658505 0.215802 -0.717378 -0.021638 0.029686 -0.788327 -0.190147 -0.004653 0.117214 0.937789 0.114114 -0.045413 -0.209101 -1.232653 0.610519 -0.169909 -0.108335 -0.792800 0.680301 0.159443 -0.029353 -0.149691 0.176736 0.400803 -0.199222 -0.893084 0.507627 -0.690138 0.536208 -1.582997 -0.362054 0.121751 0.393555 -0.246920 -0.457533 -1.333634 0.996292 -0.273613 -0.066025 -0.339432 0.348894 -0.399437 -0.084569 -0.429218 1.163713 -0.683202 0.742535 -0.639167 0.102936 -0.423097 0.677162 
针钉 0.197999 0.003394 -0.017575 0.583366 0.756809 -0.714199 0.534263 0.009887 -0.362435 -0.764567 -0.834034 -0.224979 0.455331 0.608267 -0.534113 0.821582 0.338562 -0.991720 -0.202316 0.269549 0.364403 0.248630 0.152769 0.016546 -0.274978 -0.251411 -0.143790 -0.339283 -0.170749 0.527971 -0.671160 0.307100 -0.346020 0.190922 0.641461 0.495610 0.372477 0.094715 1.133089 -0.691868 -0.255737 0.190744 0.792552 0.180850 -0.289545 -0.021337 -0.709080 -0.251828 0.078445 0.039052 -0.030167 0.017814 0.526543 -0.289601 -0.213013 -0.585624 0.505167 0.208037 0.961757 0.087974 -0.109574 0.200530 -0.850780 0.505516 -0.717280 -0.439883 -0.583228 0.536276 -0.342729 -0.080892 0.043141 0.128486 -0.416711 -0.028898 -0.174191 0.736375 0.055296 0.260207 -1.011605 0.401053 0.625874 0.069426 -0.221363 -0.273877 -0.369354 0.213892 -0.393779 0.076613 -0.313138 0.022727 -0.235987 0.891811 0.497545 0.175012 0.311124 -0.378223 0.281637 0.312999 0.188444 0.287809 
圣诞灯具 -0.204638 0.066074 -0.257934 0.458546 0.363649 0.424057 -0.119416 0.027986 0.009684 -0.061503 -0.106688 0.441703 -0.243433 0.528579 0.322812 -0.198159 0.054541 0.642329 -0.472505 -0.671805 -0.520687 0.511777 0.180112 0.354061 -0.009789 0.469841 -0.034156 0.274424 -0.437974 1.011779 -1.216397 0.005194 -0.475132 -0.044329 0.662522 -0.216742 0.074522 -0.253102 0.173115 -0.045742 0.127343 0.180392 0.284806 -0.362744 -0.310596 -0.523399 -0.906676 0.347159 0.198523 0.470105 0.249550 -0.422107 0.861691 -0.465421 0.139444 -0.377587 0.958603 -0.568633 -0.470129 0.344457 -0.081617 0.002260 -1.652473 -0.164208 -0.931598 -0.604898 -0.030661 -0.173549 -0.547515 0.241034 0.411749 0.256834 0.174581 -0.162271 -0.002993 -0.159698 -0.071494 0.335662 -0.252376 0.110704 -0.049664 -0.670169 -0.188914 -0.109165 -0.514978 0.220030 1.004598 0.215328 -0.625898 -0.398411 -0.134872 0.201697 -0.302992 0.303562 -0.507289 0.314801 -0.190507 -0.507829 -0.499721 -0.514005 
珍珠 0.255494 0.031841 0.876679 -0.566208 -0.377701 -0.683903 -0.658116 0.076902 -0.185442 -0.300146 -0.859830 -0.053355 -0.061870 1.080771 -0.515580 0.028440 0.002448 -1.179075 0.327520 0.619007 0.138677 -0.128347 -0.793805 -0.521286 -0.521475 -0.649071 -0.346049 -0.882825 0.028524 0.096927 0.312600 -0.158193 -0.282899 1.066206 0.228573 0.836861 0.331611 0.125481 0.688473 0.341703 0.145881 0.223312 0.326306 -0.123159 0.307879 -0.222329 0.188056 0.000932 0.248373 -0.203831 0.434788 -0.677843 0.186160 0.269556 -0.827272 -0.226515 -0.393496 0.148400 0.600146 -0.376314 0.091307 -0.131266 -0.717206 0.293538 -0.117440 0.185952 -0.804475 0.626070 -0.115567 0.079574 -0.155413 0.801884 0.055735 -0.298805 -0.442307 0.780990 -0.817927 0.507145 -1.113851 0.019878 -0.009252 0.581960 -0.246134 -0.221510 -1.447173 0.403763 -0.121310 0.121869 -0.162159 0.765461 -0.323420 -0.231829 -0.043548 1.166200 -0.450964 0.553455 -0.495148 0.153943 -0.268079 0.073363 
垫 -0.417926 -0.024353 -0.019377 0.010008 0.252040 0.531636 0.420055 0.126166 -0.243931 0.069687 -0.033922 0.202201 -0.302556 0.141218 0.244431 0.323675 -0.230361 0.158805 0.037297 0.375894 0.514914 -0.279125 0.190035 -0.047283 0.097742 -0.236137 -0.393405 0.417539 -0.494629 0.731605 -0.919558 0.020228 -0.138141 -0.360443 0.131856 -0.022798 -0.067928 -0.183273 -0.249122 -0.294259 -0.085975 -0.186528 0.224524 -0.239934 0.069585 -0.245735 -0.736192 0.254639 0.021922 0.204136 0.007242 0.175721 0.122588 -0.445934 0.149870 -0.254898 0.717805 -0.240534 0.216866 0.275999 -0.066188 -0.116591 -0.130790 -0.189372 -0.370147 -0.005163 0.196674 -0.057250 -0.682301 0.270914 0.476323 -0.099216 -0.027470 -0.261257 0.068584 0.318206 0.403312 0.047435 0.214539 -0.169186 0.017381 -0.313800 -0.259967 0.173994 -0.178486 0.240017 1.032777 -0.288570 -1.032496 -0.539075 -0.520777 -0.092294 -0.182804 0.546617 -0.538934 -0.139189 -0.082107 -0.132415 -0.836453 -0.208747 
发夹 0.122569 0.140537 0.323137 -0.733893 -0.408316 -0.751980 -0.100901 0.096639 -0.513345 0.036227 -1.050052 -0.036770 0.530019 1.386008 -0.755503 0.628879 -0.483243 -1.331109 1.030006 1.013428 0.382521 -0.273259 -0.368865 -0.092106 -0.583582 -0.305253 -0.294445 -0.618334 0.065002 -0.410578 0.261242 -0.350831 -0.190074 0.456166 0.015865 1.281179 0.457589 -0.199148 0.107044 -0.198378 0.770955 0.062740 0.197875 0.374666 -0.061437 0.442081 0.153370 -0.257060 0.169243 -0.730240 0.046375 -0.450665 -0.214096 0.267821 -0.253010 -0.093938 -0.448645 0.307162 1.546791 -0.297695 -0.110441 -0.100806 -0.655036 0.827548 -0.074496 0.417478 -0.621090 0.778425 0.360202 -0.007543 -0.088824 0.044117 0.278653 -0.453740 -1.125243 0.572727 -0.795256 0.699286 -1.507827 -0.528590 0.081185 0.485859 -0.236283 -0.350811 -1.184283 0.980246 -0.450837 -0.361047 -0.269219 1.065198 -0.463409 -0.148440 -0.367161 1.402948 -0.557879 0.355199 -0.870161 0.506467 -0.667889 0.596669 
扣 -0.024401 0.064952 0.188053 -0.046663 -0.335547 -0.199875 -0.593966 -0.185581 0.138640 -0.275713 -0.521339 -0.019213 0.062931 0.718929 0.011296 0.015737 0.184458 -0.054104 0.027288 -0.405821 -0.416764 0.479463 -0.231505 0.029557 -0.372003 0.657699 -0.021992 -0.375692 -0.092607 0.523791 -0.366045 -0.086129 -0.307849 0.269114 0.743982 0.321376 0.180393 0.025974 0.461489 0.150977 0.133340 0.364368 0.139668 -0.092906 -0.041020 -0.282090 -0.265885 0.244913 0.338224 0.033359 0.189841 -0.815039 0.888764 -0.182635 -0.158883 -0.502154 0.405226 -0.280120 0.022949 -0.108933 0.049747 0.032694 -1.622805 0.327811 -0.418101 -0.450319 -0.551272 0.159933 0.005275 -0.004451 -0.078007 0.321723 0.126391 -0.131932 -0.573377 0.081709 -0.565403 0.531936 -0.811412 0.088431 0.061789 -0.017965 0.075700 -0.308095 -0.823264 0.525177 0.334559 0.205283 -0.168955 0.432788 -0.208904 0.067255 -0.474318 0.839291 -0.571867 0.364607 -0.564742 -0.146561 -0.795530 -0.188922 
金表链 0.287492 0.020501 0.017906 -0.090750 -0.062918 -0.189939 -0.215569 -0.206764 -0.118743 -0.038257 -0.161190 0.014095 0.005901 0.357626 -0.135516 -0.165352 0.136666 -0.234951 0.110069 -0.109422 -0.143987 0.043819 -0.459341 -0.160337 -0.165211 -0.520075 -0.237700 -0.480260 -0.049083 0.365148 -0.236341 -0.138318 -0.161064 0.480681 0.767626 0.705932 0.071932 0.046469 0.605238 0.322993 0.253834 0.239537 0.431998 -0.246471 0.154587 -0.062555 -0.035179 0.073319 0.222299 -0.076297 0.330635 -0.561400 0.582025 -0.077883 -0.213534 -0.265656 -0.181019 0.107045 -0.073859 -0.175409 0.081557 -0.167086 -0.769088 0.163453 -0.318386 -0.107731 -0.521930 0.414984 0.020081 0.154795 0.051754 0.462318 0.089907 -0.512390 -0.521343 0.471821 -0.614551 0.404696 -0.240341 -0.231675 -0.094613 0.192208 -0.085936 -0.322535 -0.681339 0.471598 -0.047269 0.041673 -0.022324 0.440107 -0.204199 -0.087541 -0.160048 0.750571 -0.435698 0.258334 -0.372770 -0.061156 -0.407089 -0.140786 
圈 0.298214 0.126487 0.964952 -0.425166 -0.573064 -0.447069 -0.912683 -0.053506 0.017932 -0.176750 -0.635152 -0.002707 -0.192887 1.243692 -0.357235 -0.070915 -0.094600 -0.836616 0.254173 0.357205 0.034511 0.161217 -0.415610 -0.385872 -0.679349 -0.117666 -0.569589 -0.484237 -0.056050 0.432518 -0.277241 -0.168047 -0.254836 0.669882 0.227849 0.540869 0.241459 -0.024843 0.266697 0.112871 -0.020024 0.426027 0.243150 0.087657 0.199732 -0.293032 -0.029430 -0.124137 0.042411 -0.181679 0.339937 -0.691566 0.189564 -0.000598 -0.952686 -0.256898 0.096484 -0.002626 0.229791 0.207831 0.072184 -0.070616 -1.183899 0.269010 -0.123210 -0.258424 -0.729287 0.496317 -0.091202 0.100594 -0.306558 0.499982 0.317904 -0.156119 -0.596989 0.312005 -0.550846 0.521367 -1.090345 -0.004605 0.119162 0.265156 -0.277564 -0.288428 -1.165108 0.571342 0.133176 0.125314 -0.233650 0.064525 -0.403896 -0.079636 -0.259593 0.954824 -0.503839 0.667038 -0.164003 -0.157170 -0.354666 0.245363 
耳钉 0.631030 -0.050798 0.623566 -0.207770 0.068543 -0.593212 -0.659770 -0.141180 -0.110362 -0.380529 -0.444053 0.187665 -0.225370 0.952762 -0.472288 -0.414406 0.175829 -0.858840 0.130916 0.622058 0.086271 -0.458734 -1.005392 -0.646607 -0.165184 -1.671664 -0.604194 -1.077359 -0.092307 0.420182 0.318266 -0.069768 -0.399127 1.494217 1.010602 0.958476 0.218448 0.167134 1.274992 0.864403 0.091339 0.266607 0.847007 -0.759462 0.397359 -0.521915 0.219254 0.274498 0.396743 0.046963 0.796673 -0.822431 0.253049 0.215686 -1.109109 -0.290021 -0.322456 0.391871 -0.034535 -0.540881 0.376231 -0.265032 -0.499160 -0.243968 -0.143810 0.094338 -0.922597 0.772118 -0.514030 0.414849 0.044825 1.552154 -0.009557 -0.516182 -0.332161 0.825428 -0.895046 0.407161 -0.638817 0.176000 -0.100446 0.593267 -0.424029 -0.257900 -1.717319 0.026425 0.126775 0.261639 -0.173255 0.709369 -0.265905 -0.369568 0.192260 1.173916 -0.386772 0.557840 -0.375874 -0.280036 -0.243874 -0.283148 
普通发圈 -0.063645 0.083345 0.380246 -0.662211 -0.684582 -0.483511 -0.420011 0.137901 -0.238120 -0.004848 -0.609028 -0.140625 0.263287 1.280485 -0.338284 0.315567 -0.468472 -0.804077 0.822308 0.458517 0.097721 0.077578 -0.195833 -0.020673 -0.701139 0.157389 -0.290725 -0.390894 -0.089961 -0.074586 -0.007996 -0.490933 -0.263689 0.284541 -0.033112 0.878910 0.307568 -0.314198 -0.141413 -0.083809 0.653015 0.064935 -0.104567 0.373438 -0.063243 0.290675 0.105532 -0.144044 0.013026 -0.581057 0.128874 -0.610362 -0.041724 0.112069 -0.296531 -0.118578 -0.074777 -0.028260 0.931348 -0.030957 -0.084165 -0.127530 -0.953946 0.552829 -0.141345 0.061963 -0.494341 0.438156 0.337787 0.001778 -0.052287 -0.017713 0.331844 -0.310626 -0.911781 0.319910 -0.715183 0.569012 -1.327871 -0.398459 0.028529 0.240223 -0.207583 -0.406929 -1.067603 0.958022 -0.134727 -0.215214 -0.354752 0.615389 -0.328058 -0.132992 -0.604492 1.152271 -0.727510 0.508849 -0.842218 0.265882 -0.598569 0.424655 
各种钻 0.057983 0.107817 0.303776 -0.190073 -0.223281 -0.288185 -0.544068 -0.002508 -0.023802 -0.212611 -0.443920 -0.024904 -0.120679 0.807543 -0.232034 -0.210027 0.227525 -0.440763 0.173359 0.183504 -0.271253 0.121529 -0.589910 -0.187555 -0.363915 -0.014007 -0.026297 -0.533894 0.119974 0.068390 0.282925 -0.151492 -0.316464 0.757433 0.171609 0.392376 0.108388 -0.101903 0.350831 0.358821 0.184420 0.183062 0.176433 -0.109665 0.173089 -0.305650 0.198808 0.125991 0.254097 0.062282 0.476596 -0.792045 0.374746 0.061691 -0.548351 -0.280461 -0.076202 -0.141501 0.002998 -0.348611 0.212085 -0.139440 -0.959305 -0.044480 -0.199471 -0.031563 -0.476303 0.292109 -0.085798 0.138976 -0.069400 0.848603 0.169634 -0.353123 -0.378703 0.401759 -0.836560 0.508164 -0.828539 0.164996 -0.127882 0.313380 -0.226007 -0.213982 -1.345565 0.324557 0.350624 0.044874 -0.292093 0.596862 -0.158372 -0.203785 -0.193030 1.085673 -0.700309 0.564320 -0.587480 -0.169842 -0.703104 -0.142312 
发箍 0.037778 0.144434 0.512210 -0.696264 -0.555253 -0.541855 -0.321319 0.239326 -0.341821 0.024175 -1.082804 0.179020 0.291080 1.514982 -0.507704 0.412679 -0.530068 -0.991645 0.949992 0.826191 0.213243 -0.040049 -0.452064 -0.130082 -0.660180 0.124591 -0.232271 -0.426770 0.077504 -0.348194 0.289530 -0.325815 -0.274622 0.491775 -0.223542 0.768329 0.314200 -0.190472 -0.037988 -0.017927 0.520158 0.062284 -0.091895 0.315202 0.001099 0.197920 0.275456 -0.249600 0.233035 -0.472274 0.064319 -0.468079 -0.101355 0.272086 -0.291212 -0.059087 -0.240015 0.054873 1.068707 -0.144979 -0.181594 -0.064730 -0.830356 0.552247 -0.096520 0.267024 -0.406622 0.527355 0.327235 -0.042511 -0.129178 0.179909 0.263948 -0.322085 -0.779549 0.378886 -0.844195 0.657458 -1.415848 -0.298715 0.088710 0.311800 -0.253741 -0.351244 -1.194465 0.754515 -0.072499 -0.226032 -0.302633 0.828765 -0.351041 -0.144316 -0.424870 1.306346 -0.672065 0.516403 -0.833844 0.297614 -0.649434 0.360536 
头饰 0.054721 0.120160 0.573251 -0.621173 -0.468308 -0.635825 -0.308645 0.101636 -0.316140 0.052548 -1.200300 0.129392 0.158353 1.610947 -0.702252 0.423879 -0.716545 -1.229294 1.014676 1.051597 0.472282 -0.094295 -0.382656 -0.383489 -0.761766 -0.262986 -0.438406 -0.547573 -0.046170 -0.236834 0.125378 -0.388555 -0.219062 0.579404 -0.092459 0.961344 0.383712 -0.234345 0.037800 -0.211044 0.511240 0.151565 0.068682 0.306447 0.037141 0.195704 0.192775 -0.321741 0.076425 -0.510932 0.086726 -0.448209 -0.176011 0.198028 -0.529701 -0.097988 -0.320102 0.116530 1.119251 -0.134366 -0.151560 -0.026593 -0.713246 0.550773 -0.026155 0.229660 -0.484807 0.574694 0.309902 0.000192 -0.098920 0.139450 0.263379 -0.348915 -0.767319 0.561748 -0.743256 0.514447 -1.387124 -0.303107 0.126519 0.398133 -0.273272 -0.267303 -1.177959 0.730350 -0.233801 -0.224175 -0.280163 0.628776 -0.375341 -0.125269 -0.384088 1.201334 -0.558499 0.485905 -0.615976 0.306597 -0.464022 0.573203 
钥匙扣 0.074509 0.002816 -0.211180 0.198848 0.021405 -0.102631 -0.385902 -0.338782 0.073913 -0.145927 -0.208005 0.095338 0.138637 0.286076 -0.017198 -0.250064 0.259824 0.011363 -0.086655 -0.404208 -0.383574 0.171637 -0.251755 -0.187710 -0.014755 -0.172946 -0.048329 -0.479815 -0.312844 0.625119 -0.535567 -0.122614 -0.339341 0.394383 1.001840 0.492033 0.143261 0.057634 0.543302 0.447115 0.244749 0.309877 0.491740 -0.379446 -0.008795 -0.358768 -0.505046 0.407928 0.255217 0.250007 0.386052 -0.733602 0.872856 -0.180146 -0.059143 -0.379219 0.161433 -0.219391 -0.181448 -0.233456 0.232913 -0.050738 -1.248283 0.241800 -0.331146 -0.364957 -0.563570 0.203086 -0.156794 0.098905 0.141761 0.463977 0.135284 -0.292441 -0.542633 0.192759 -0.343132 0.427313 -0.341579 -0.022939 -0.079665 0.032257 0.119528 -0.170939 -0.686881 0.289056 0.151946 0.217806 0.011368 0.381522 -0.094942 -0.141154 -0.327677 0.624670 -0.294234 0.257128 -0.328150 -0.222259 -0.572801 -0.335723 
布 -0.427072 0.032860 -0.057607 -0.275628 -0.193390 0.227240 0.108415 0.024052 -0.180924 0.174263 -0.610327 0.248054 -0.137933 1.047551 -0.144976 0.341086 -0.756479 -0.188140 0.850241 0.592320 0.454545 0.067154 0.161617 -0.276127 -0.377595 0.235063 -0.290689 0.137492 -0.316986 0.178050 -0.202287 -0.357506 -0.105283 -0.073010 -0.176012 0.183082 -0.065348 -0.401268 -0.467090 -0.356643 0.315744 -0.262177 -0.208498 0.091606 -0.027139 0.152729 -0.018035 -0.178308 -0.177108 -0.159929 -0.059064 -0.123607 -0.053739 -0.032525 0.016412 -0.001170 0.031135 -0.172943 0.274492 -0.020950 -0.168921 -0.014744 -0.334080 0.035310 0.023244 0.196476 0.121696 -0.194642 0.048815 0.124323 0.277033 -0.200839 0.136422 -0.151094 -0.202443 0.192490 -0.230865 0.137829 -0.455637 -0.299958 -0.193107 -0.246167 -0.283900 -0.088258 -0.462635 0.510155 0.589967 -0.341186 -0.540154 -0.007515 -0.243064 -0.238049 -0.526334 0.892517 -0.583620 0.051760 -0.617572 0.038358 -0.770100 0.146914 
纸 -0.307697 0.037167 -0.428365 0.305587 0.178415 0.150709 0.239491 -0.091663 -0.238487 0.079775 0.109094 -0.074919 0.049624 0.036283 0.043563 0.159907 -0.294626 -0.130049 0.337473 0.360066 0.421839 -0.204761 0.293895 -0.213161 0.030393 -0.441526 -0.414863 0.125328 -0.493132 0.569585 -0.947856 -0.199163 -0.049306 -0.405772 0.376153 0.243068 0.012928 -0.170885 0.141509 -0.313132 0.218115 -0.178602 0.320246 -0.045284 -0.109842 -0.016959 -0.746319 0.089514 -0.429450 -0.081954 0.061672 -0.101655 0.219354 -0.340598 0.055690 -0.157008 0.200948 -0.054914 0.304776 0.135768 0.020873 -0.073560 -0.120880 0.174479 -0.369022 -0.188013 -0.042535 0.000837 -0.177612 0.135682 0.392082 -0.239577 0.061171 -0.299531 -0.283869 0.310342 0.182473 0.066360 0.015403 -0.406297 -0.126686 -0.266966 -0.122870 -0.002771 -0.123811 0.307995 0.221485 -0.174722 -0.642505 -0.324795 -0.358350 -0.050514 -0.396802 0.213148 -0.247632 -0.273173 -0.033135 -0.039813 -0.408005 -0.004125 
工艺品 -0.222645 0.092944 -0.551986 0.298343 0.203287 0.363936 0.062915 -0.127026 0.143039 0.301987 -0.330427 0.349678 -0.190914 0.393448 0.094904 0.071679 -0.189975 0.102087 0.031730 -0.126556 0.110945 0.035465 0.234956 -0.208933 -0.061232 -0.490526 -0.344531 -0.062092 -0.464667 0.975353 -1.272817 -0.234278 -0.313996 -0.159380 0.720382 0.270765 -0.004352 -0.394701 0.235855 -0.126503 0.293594 -0.161894 0.493288 -0.272471 -0.164969 -0.091331 -0.592209 0.173754 -0.110174 0.129550 0.191155 -0.216402 0.433202 -0.248033 -0.033911 -0.105011 0.218535 -0.091904 -0.032082 0.193055 0.006678 0.177751 -0.354094 0.097866 -0.500546 -0.250243 -0.158778 -0.152023 -0.203303 0.304830 0.360213 -0.047553 0.189910 -0.329738 -0.265766 0.015177 0.043188 0.051083 0.018459 -0.038946 -0.150101 -0.058895 0.086092 0.189824 -0.020273 0.310780 0.246771 -0.100057 -0.212635 -0.279206 -0.190830 -0.216900 -0.330768 0.173842 -0.263544 0.079072 -0.146578 -0.243034 -0.192803 -0.047777 
西服裙 -0.632888 0.218583 -0.375453 1.458583 0.983932 0.095994 0.717445 0.326493 -0.437651 -0.213085 -1.544963 0.667746 0.458934 1.283564 -0.489065 0.760743 -0.210772 -0.626600 0.623761 0.754111 0.210490 0.683410 0.127168 -0.100278 -0.376975 0.911762 0.149265 0.364199 -0.410384 0.479979 -0.336094 0.271931 -0.251911 -0.332004 -0.705608 -0.639440 0.326923 -0.323874 0.150836 -0.824547 -0.536344 -0.114315 -0.382904 0.719920 -0.181433 -0.374696 -0.701431 0.168469 -0.009288 0.264932 0.059028 -0.293580 0.533625 0.003684 0.075412 -0.444139 0.942508 -0.936799 0.467065 0.442061 -0.085775 0.117893 -1.202299 0.278260 -0.778356 -0.412945 0.152929 -0.189998 -0.589546 -0.236177 0.241390 0.032919 -0.185793 0.673638 0.303941 0.310330 0.246118 0.506576 -1.371466 0.276979 0.869810 -0.273845 -0.286091 -0.252245 -0.589389 0.334316 0.583077 -0.201047 -0.619221 -0.528612 0.102125 0.311549 -0.192751 0.430413 0.086610 -0.036599 -0.309563 -0.008273 -0.638633 0.320920 
塑料镜盒 -0.051786 0.093358 -0.340058 0.071432 0.181341 0.079143 0.118433 -0.053041 -0.251192 -0.093268 -0.082740 0.064762 0.290358 0.231341 0.111782 0.192719 0.251720 -0.017931 -0.249714 -0.401532 -0.052123 0.181174 0.345512 0.373825 0.042007 0.067403 -0.012136 0.125519 -0.338583 0.586576 -0.766938 -0.098934 -0.255179 -0.353530 0.617045 0.395789 0.205334 -0.175481 0.265198 -0.176484 0.271928 0.017303 0.478577 -0.057558 -0.226542 -0.070199 -0.652645 -0.016863 -0.089194 -0.143539 0.070414 -0.142919 0.389031 -0.432389 0.161315 -0.291539 0.601034 -0.041665 0.319202 0.271767 -0.073254 -0.164163 -0.765668 0.202142 -0.526756 -0.211785 -0.265096 0.064656 -0.216997 0.071162 0.220175 -0.093459 0.106787 -0.176970 -0.381684 0.091305 -0.066227 0.369102 -0.372140 -0.389597 -0.090495 -0.217919 -0.080920 -0.243230 -0.239597 0.591173 0.264541 -0.101581 -0.615905 0.038101 -0.328557 0.156745 -0.317246 0.660397 -0.487598 -0.085106 -0.268274 -0.107617 -0.681426 -0.044716 
钱包 -0.223423 -0.241015 -1.078524 -0.076853 0.279154 0.417235 0.727283 -0.338244 0.039343 1.243519 -0.722216 1.371240 -0.012006 0.709622 -0.254816 -0.101955 -1.670956 0.697604 1.684476 1.515422 0.760653 -0.722665 -0.354792 -0.683309 0.417119 -1.436921 -0.461566 0.182676 -0.267705 -0.439021 -0.085912 -0.331326 -0.126617 -0.028543 0.690623 0.501962 -0.390208 -0.595572 -0.434584 0.200496 1.102891 -0.378661 0.211305 -0.732409 -0.358057 -0.055317 0.285641 0.141276 0.304729 0.192602 -0.273630 -0.184653 -0.097114 0.100293 1.045123 0.195633 -0.451105 0.232748 0.015809 -0.262750 -0.108632 -0.045690 0.403885 -0.199615 -0.005580 0.398380 0.236504 0.033733 0.222320 0.658645 0.803923 0.011099 0.323680 -1.498900 -0.419955 -0.129149 -0.549956 -0.010866 0.490960 -0.318652 -0.593337 -0.265585 -0.289993 -0.069595 -0.372086 -0.091027 0.886986 -0.282533 -0.361130 0.645208 0.133036 -0.217227 -0.878500 0.628653 -0.913961 0.139080 -0.576127 -0.185185 -0.439855 -0.218960 
手镯 0.613847 -0.068425 0.712428 -0.289732 0.042640 -0.639255 -0.636639 -0.245007 0.005203 -0.259195 -0.453070 0.207533 -0.230800 0.702437 -0.362727 -0.416766 0.122946 -0.728660 0.003422 0.550030 0.054343 -0.393709 -1.010064 -0.527379 -0.015004 -1.457321 -0.446850 -0.952029 0.148421 0.377326 0.342777 0.082765 -0.314616 1.450013 0.873373 0.807799 0.194717 0.293572 1.174865 0.824896 0.056827 0.311215 0.743995 -0.708878 0.340612 -0.752027 -0.076825 0.272709 0.600911 0.191866 0.705592 -0.809787 0.435900 0.155562 -0.835840 -0.337568 -0.350711 0.310748 -0.077636 -0.529056 0.433773 -0.256163 -0.537097 -0.315217 -0.218172 0.037869 -0.869739 0.719973 -0.551253 0.369174 0.019182 1.568060 -0.010209 -0.635230 -0.196471 0.790934 -0.787653 0.419127 -0.552133 0.211631 -0.160015 0.517772 -0.435170 -0.144345 -1.733387 -0.085451 0.385516 0.217275 -0.042228 0.737167 -0.285923 -0.169745 0.228726 1.189146 -0.382058 0.365756 -0.223625 -0.251661 -0.262850 -0.413853 
珠 0.209089 0.012948 0.577241 -0.265904 -0.376839 -0.214939 -0.931195 -0.063598 0.090033 -0.275354 0.203023 -0.191440 -0.288147 0.463096 0.197641 -0.527651 0.467488 -0.056256 -0.645500 -0.591237 -0.523310 0.251819 -0.428747 0.049145 -0.189474 -0.112169 -0.145537 -0.427044 -0.119949 0.754755 -0.358313 -0.028596 -0.319422 0.786222 0.684165 0.307036 0.143029 -0.018974 0.520272 0.580865 0.053222 0.348519 0.402385 -0.393599 0.063613 -0.753404 -0.470659 0.412605 0.271841 0.295662 0.702767 -0.884370 0.887541 -0.225810 -0.534042 -0.436852 0.327476 -0.218705 -0.416045 -0.068822 0.293818 -0.243132 -1.445526 -0.186827 -0.630692 -0.362303 -0.652452 0.330188 -0.626154 0.179904 0.050922 1.083505 0.192999 -0.252430 -0.298488 0.269685 -0.582927 0.559034 -0.616054 0.000029 -0.177493 0.025818 -0.276166 -0.301261 -1.410764 0.381524 0.678064 0.255315 -0.464064 0.238728 -0.208884 -0.151683 -0.156200 0.999342 -0.700457 0.625772 -0.440198 -0.517300 -0.712059 -0.454526 
书包 -0.260741 -0.230076 -1.336347 0.320550 0.475356 0.468882 0.930140 -0.407184 0.028223 1.147985 -1.156965 1.614168 -0.039139 0.832577 -0.088038 0.130554 -1.801140 0.216268 1.666502 1.772855 1.158276 -1.026376 -0.544169 -1.031460 0.382830 -1.717266 -0.659190 0.084559 -0.371685 -0.287874 -0.230728 -0.282064 -0.119917 0.165923 0.558076 0.404342 -0.394934 -0.372608 -0.097951 0.117823 1.014462 -0.354121 0.374803 -0.792095 -0.295145 -0.034086 0.086211 0.254806 0.080793 0.140785 -0.338467 0.001833 -0.253095 0.146511 0.824398 0.207224 -0.457887 0.281124 0.184018 -0.248170 -0.076648 -0.124086 1.001610 -0.089765 0.170058 0.524588 0.242732 0.126365 0.088968 0.606743 0.541451 0.064310 0.164767 -1.467740 -0.232273 -0.181164 -0.353459 -0.091194 0.604085 -0.481635 -0.651874 -0.122698 -0.429658 0.105727 -0.608321 -0.095038 0.875364 -0.220168 -0.417991 0.611023 -0.235753 -0.081867 -0.649558 0.468419 -0.774561 -0.050095 -0.252407 -0.035010 -0.374032 -0.313300 
吊坠 0.501417 -0.037416 0.762157 -0.107973 0.084256 -0.540253 -0.740543 -0.145441 -0.017759 -0.419180 -0.514298 0.179913 -0.243816 0.767610 -0.341571 -0.419710 0.316504 -0.725216 -0.168604 0.374823 -0.134416 -0.175239 -1.034817 -0.447773 -0.097348 -1.036260 -0.311140 -0.882682 0.114788 0.509174 0.312061 0.180542 -0.373711 1.429709 0.774572 0.569678 0.181432 0.294126 1.169113 0.779091 -0.129527 0.358638 0.668938 -0.657177 0.352611 -0.894854 -0.142375 0.347592 0.611627 0.384696 0.789394 -0.929576 0.596251 0.132033 -0.925896 -0.385810 -0.217773 0.111651 -0.221909 -0.503906 0.430580 -0.205146 -0.854623 -0.351149 -0.381807 -0.086058 -0.851659 0.692598 -0.671533 0.269797 0.021123 1.647103 -0.043492 -0.428288 -0.143060 0.764120 -0.811660 0.491068 -0.709531 0.380376 -0.023376 0.457205 -0.382615 -0.162121 -1.841929 -0.109498 0.538716 0.307784 -0.165574 0.660213 -0.248352 -0.159904 0.179219 1.204669 -0.443889 0.467891 -0.292252 -0.332224 -0.406310 -0.472501 
头带 0.003750 0.136521 0.599271 -0.612956 -0.580452 -0.526539 -0.610791 0.163173 -0.110563 -0.067242 -0.715434 -0.104853 0.043803 1.311640 -0.295975 0.195117 -0.296695 -0.894445 0.431019 0.276792 -0.010833 0.191090 -0.265442 -0.116602 -0.709044 0.273110 -0.222555 -0.436556 -0.037740 0.013877 -0.008941 -0.381794 -0.303356 0.499696 -0.054388 0.705421 0.302182 -0.236626 0.026896 -0.000137 0.394584 0.139600 -0.002247 0.232444 0.017373 0.061976 0.048911 -0.143771 0.063000 -0.358392 0.271860 -0.568695 0.052976 0.093940 -0.561357 -0.143973 -0.072274 -0.063384 0.731178 -0.062358 -0.067759 -0.125814 -1.087965 0.397824 -0.174855 0.022286 -0.530810 0.383526 0.148361 -0.017466 -0.066152 0.255294 0.246192 -0.146364 -0.603554 0.391749 -0.698720 0.548329 -1.349979 -0.186839 0.023348 0.245940 -0.225063 -0.296225 -1.240991 0.708100 0.010234 -0.127001 -0.362894 0.420282 -0.280642 -0.137360 -0.415970 1.086614 -0.604292 0.566064 -0.695877 0.105730 -0.569103 0.361981 
摆件 -0.133164 0.115991 -0.550293 0.480937 0.372977 0.334405 -0.046050 -0.112825 0.045056 0.156095 -0.189763 0.263436 -0.156292 0.521813 0.202441 -0.053589 0.062216 0.234796 -0.347058 -0.577052 -0.269144 0.377089 0.225299 0.041592 -0.106429 -0.049123 -0.112226 -0.020427 -0.500749 1.073013 -1.277376 -0.167968 -0.394692 -0.024505 0.762622 0.173219 -0.017164 -0.366314 0.325095 -0.119387 0.229183 -0.000470 0.529974 -0.260035 -0.194902 -0.289316 -0.754770 0.230372 -0.076546 0.250050 0.396516 -0.405957 0.670138 -0.339308 -0.084521 -0.204646 0.500738 -0.317582 -0.162468 0.211581 0.027679 0.084699 -1.064715 0.029668 -0.737835 -0.403986 -0.255216 -0.077751 -0.330324 0.251899 0.355788 0.135841 0.135649 -0.202608 -0.206876 0.052246 -0.047635 0.223026 -0.241219 -0.050374 -0.099644 -0.281953 0.001667 -0.000654 -0.378567 0.382923 0.465563 -0.018653 -0.433989 -0.266329 -0.114807 -0.116556 -0.338717 0.321057 -0.388437 0.207270 -0.285364 -0.440421 -0.428564 -0.143310 
水晶 0.109545 0.007349 0.450843 -0.197075 -0.202065 -0.112337 -0.494717 -0.089016 0.147616 -0.001950 -0.430809 0.221966 -0.393654 0.683416 -0.144429 -0.251373 -0.295423 -0.243705 0.169747 0.369021 0.172089 -0.111790 -0.441488 -0.350012 -0.168500 -0.616734 -0.455267 -0.411160 -0.056507 0.605625 -0.330786 -0.021606 -0.279759 0.634366 0.521432 0.247777 0.071343 -0.023672 0.453622 0.260709 0.061124 0.165684 0.441060 -0.410999 0.138750 -0.492698 -0.258096 0.132126 0.184714 0.278415 0.426630 -0.478085 0.336622 -0.063878 -0.567359 -0.252543 -0.018821 -0.067527 -0.158949 -0.116286 0.091165 0.001257 -0.483953 -0.235590 -0.245102 -0.167582 -0.373508 0.212761 -0.236773 0.190131 -0.036236 0.596632 0.101191 -0.350763 -0.115683 0.286257 -0.343800 0.225657 -0.261408 0.144593 -0.109178 0.217477 -0.207102 0.048725 -0.789834 0.083567 0.413955 0.080796 -0.072896 0.086978 -0.295204 -0.136790 0.010342 0.550875 -0.321868 0.396585 -0.050834 -0.202761 -0.055059 -0.251107 
戒指 0.444607 -0.037509 0.552270 -0.147836 0.092142 -0.369016 -0.503771 -0.143162 -0.039968 -0.178262 -0.564427 0.294945 -0.235329 0.703831 -0.331053 -0.410221 -0.021786 -0.552149 0.089107 0.601807 0.084394 -0.337587 -0.883003 -0.584810 -0.042894 -1.196634 -0.429884 -0.771838 0.083200 0.322680 0.274411 0.069362 -0.262964 1.231407 0.695919 0.598719 0.114557 0.132555 0.962805 0.656593 0.061867 0.204444 0.590647 -0.679324 0.297951 -0.623566 0.098085 0.249794 0.433613 0.274931 0.535374 -0.707194 0.326848 0.165710 -0.715346 -0.228510 -0.285087 0.150463 -0.092342 -0.440764 0.337252 -0.176532 -0.405468 -0.381587 -0.215036 0.063744 -0.646247 0.637788 -0.440275 0.344863 0.149029 1.345348 0.012017 -0.599649 -0.181442 0.697584 -0.759718 0.326485 -0.447777 0.222173 -0.146777 0.445857 -0.357344 -0.101255 -1.532907 -0.124914 0.402466 0.173086 -0.120787 0.576608 -0.198603 -0.173085 0.114691 1.063352 -0.449128 0.434982 -0.267230 -0.255207 -0.313184 -0.307084 
男童恤 -0.624883 0.164647 -0.616194 1.497566 0.979014 0.148870 0.582536 0.331437 -0.401992 -0.210947 -1.256383 0.585237 0.615496 1.169551 -0.229617 0.592768 0.172980 -0.381167 0.344787 0.254165 -0.196484 0.797130 0.002913 0.180299 -0.302540 1.295263 0.417263 0.392730 -0.435125 0.416218 -0.348865 0.260557 -0.245892 -0.396831 -0.661424 -0.631250 0.341708 -0.315455 0.161909 -0.551943 -0.444684 -0.075211 -0.405885 0.687959 -0.213993 -0.458803 -0.619413 0.351425 0.087668 0.248161 0.192209 -0.386807 0.695885 -0.014371 0.326676 -0.496429 1.160005 -0.981340 0.363387 0.418204 -0.013297 0.018382 -1.539592 0.287526 -0.991683 -0.407167 0.088687 -0.169376 -0.740985 -0.170483 0.280588 0.292079 -0.152583 0.656999 0.192380 0.131971 0.047618 0.752536 -1.519354 0.158777 0.856645 -0.329006 -0.201667 -0.428239 -1.018571 0.516242 0.781312 -0.241939 -0.866021 -0.337866 0.081304 0.277367 -0.371069 0.760487 -0.238022 -0.005749 -0.661403 -0.162558 -1.224372 0.195196 
礼品 -0.244953 0.044419 -0.651556 0.434496 0.372602 0.342402 0.150603 -0.145740 0.029410 0.192640 -0.161202 0.302177 -0.054752 0.366243 0.213348 -0.037645 -0.240752 0.144479 0.031447 -0.241934 0.138837 0.099421 0.270800 -0.140943 -0.025981 -0.223372 -0.264606 0.108274 -0.542212 0.880593 -1.171505 -0.201031 -0.317424 -0.269215 0.669538 0.165413 0.000756 -0.348867 0.206139 -0.190285 0.282050 -0.131771 0.440578 -0.269706 -0.192503 -0.219437 -0.703955 0.180458 -0.228448 0.206270 0.214603 -0.187270 0.479999 -0.394477 -0.023629 -0.175201 0.358816 -0.244669 -0.039159 0.295480 -0.008286 0.122670 -0.558784 0.039774 -0.527731 -0.339492 -0.078993 -0.161299 -0.227211 0.206707 0.433543 -0.065171 0.146141 -0.321740 -0.264408 0.067886 0.067060 0.194886 -0.144505 -0.156994 -0.129478 -0.225005 -0.028245 0.040333 -0.269629 0.361790 0.428550 -0.101469 -0.438110 -0.385593 -0.128056 -0.171215 -0.382176 0.252802 -0.349626 0.093974 -0.148129 -0.315753 -0.345759 -0.055921 
工具 -0.071624 -0.067772 -0.797380 0.672680 0.793125 -0.044710 0.594066 -0.028800 -0.259457 -0.279033 0.279348 -0.293074 0.533437 -0.741546 0.038711 0.175325 0.540300 -0.275354 -0.584344 -0.077819 0.159628 -0.335120 0.289728 0.078609 0.188134 -0.738491 -0.013239 0.120532 -0.797877 0.518733 -1.057763 0.015575 -0.002800 -0.287974 0.585964 0.633034 0.159502 -0.308785 0.125776 -0.428992 0.479643 -0.236274 0.591133 0.026649 -0.409795 0.110863 -0.628435 0.398438 -0.448640 -0.330244 -0.132283 -0.230746 0.254266 -0.421687 0.531190 -0.446649 0.717968 -0.074733 0.650993 0.088727 0.403657 -0.427247 -0.617942 0.312361 -0.756048 -0.406912 -0.292135 0.558681 -0.825374 0.276461 0.827912 0.224037 0.106684 -0.587210 -0.352157 0.519866 0.344009 0.089465 -0.568177 -0.175463 0.302881 -0.353477 -0.069856 -0.172963 -0.524565 0.340218 0.017383 -0.022355 -0.919209 -0.120552 -0.008763 0.479603 -0.167483 0.047673 -0.038808 -0.197732 -0.088169 -0.046900 -0.786467 0.350817 
勺 -0.193321 -0.032345 -0.463311 0.298632 0.399891 0.255130 0.427222 0.051811 -0.101082 0.037132 -0.090632 0.255319 0.160875 -0.019941 0.302649 0.067586 0.078426 0.225442 -0.336966 -0.292709 -0.010451 -0.040512 0.327102 0.050016 0.305956 -0.047697 0.131352 0.324255 -0.326254 0.428343 -0.799061 -0.049661 -0.269604 -0.444883 0.471855 0.125689 0.076262 -0.139750 0.127387 0.004113 0.014036 -0.111421 0.299641 -0.298025 -0.078272 -0.412155 -0.871944 0.159922 0.082692 0.221207 -0.045181 0.079307 0.452566 -0.484162 0.434396 -0.303453 0.581018 -0.148013 0.011355 0.283231 -0.157332 -0.035794 -0.650336 0.122502 -0.606698 -0.286471 -0.025498 -0.110346 -0.431942 0.141884 0.475166 0.087605 0.222714 -0.194141 -0.078020 0.037615 0.056318 0.562322 -0.187329 -0.102306 -0.111025 -0.465684 -0.102530 -0.001181 -0.350919 0.336127 0.850862 -0.189403 -0.834744 -0.017008 -0.206605 0.142502 -0.492658 0.656140 -0.445814 -0.091509 -0.354058 -0.280579 -1.027969 -0.263666 
儿童印花恤 -0.479410 0.137402 -0.244875 1.044371 0.611169 0.021027 0.549342 0.253670 -0.283933 -0.047861 -1.625614 0.703680 0.223618 1.443446 -0.667931 0.764448 -0.548678 -0.731278 0.972970 1.143155 0.463504 0.567064 -0.008646 -0.309399 -0.466177 0.665902 -0.052553 0.193824 -0.272209 0.228693 -0.195277 0.153973 -0.217536 -0.141393 -0.629336 -0.493162 0.220249 -0.345321 0.037822 -0.796919 -0.437339 -0.071985 -0.368236 0.588852 -0.101430 -0.298387 -0.430893 -0.043829 0.004548 0.217323 0.010413 -0.160744 0.220418 0.018164 -0.014764 -0.314192 0.587269 -0.688862 0.526098 0.338209 -0.172834 0.304913 -0.799807 0.253246 -0.391542 -0.185426 0.141611 -0.244966 -0.245460 -0.187084 0.024028 -0.102905 -0.114437 0.520910 0.204081 0.239502 0.085704 0.352762 -1.163069 0.316108 0.765440 -0.113076 -0.236741 -0.083237 -0.450992 0.182003 0.445021 -0.283933 -0.446723 -0.400590 0.043168 0.235903 -0.251630 0.481590 0.089344 -0.008426 -0.133168 0.102463 -0.460218 0.395736 
九分裤 -0.173420 0.070763 -0.011822 0.620125 0.625748 -0.095648 0.804317 -0.007033 -0.205009 0.241894 -2.094258 1.109784 -0.134308 1.409328 -1.046911 0.896018 -1.246691 -1.018133 1.436359 2.230137 1.399309 -0.219867 -0.180770 -1.016960 -0.243233 -0.944528 -0.665655 -0.104304 -0.222702 0.283124 -0.456867 0.184695 -0.311796 0.260595 0.002536 -0.056881 0.083961 -0.230346 0.376067 -0.845161 -0.284342 -0.084993 0.265259 0.013633 -0.037985 -0.309785 -0.517070 -0.288578 0.107607 0.357717 -0.260738 0.158771 -0.116868 -0.094246 -0.248203 -0.220029 0.077004 -0.127920 0.760805 0.066779 -0.212833 0.406500 0.168796 0.207569 -0.094874 -0.010761 0.050961 0.098465 -0.040019 0.020159 0.041441 -0.222680 -0.030185 -0.224700 0.089148 0.508824 0.065753 0.006045 -0.601903 0.588745 0.512283 0.097047 -0.341476 0.402629 -0.216744 -0.317452 0.243572 -0.159732 -0.211154 -0.164947 -0.238412 0.358796 0.063059 0.220060 0.317470 -0.154348 0.603423 0.287748 0.278951 0.291533 
剪刀 0.044215 -0.037917 -0.758807 0.688777 0.874294 -0.193165 0.718474 -0.104208 -0.293930 -0.395254 0.106468 -0.307487 0.610245 -0.668724 -0.169629 0.353379 0.579416 -0.397010 -0.575925 -0.027578 0.139316 -0.173353 0.299349 0.054534 0.195198 -0.723363 0.095552 -0.072293 -0.663734 0.439839 -0.840219 -0.031551 -0.009061 -0.247227 0.606765 0.703598 0.203482 -0.301273 0.267862 -0.421279 0.367710 -0.144922 0.604612 0.046603 -0.432110 0.111808 -0.723388 0.330764 -0.444601 -0.189067 -0.185336 -0.330304 0.304325 -0.511466 0.526891 -0.495678 0.652027 -0.125700 0.688716 0.065767 0.380420 -0.413124 -0.739457 0.400540 -0.788015 -0.436339 -0.313213 0.619808 -0.790541 0.260456 0.850883 0.157321 0.010692 -0.513703 -0.480367 0.510101 0.332261 0.076787 -0.729697 -0.054314 0.354060 -0.330978 -0.043743 -0.143632 -0.555931 0.355099 -0.077734 0.020854 -0.824451 -0.011315 0.082333 0.631077 -0.096451 0.043099 0.108094 -0.146405 -0.004676 0.029150 -0.643881 0.472173 
毛绒玩具 -0.318178 0.043372 -0.619475 0.253019 0.182940 0.456690 0.121525 -0.100580 0.063487 0.354345 0.150105 0.523253 -0.077123 0.220757 0.477296 -0.241643 -0.395107 0.667940 -0.004544 -0.308174 -0.085640 0.059989 0.127448 0.076059 0.105921 -0.198503 -0.335903 0.276330 -0.595337 0.951844 -1.206016 -0.073728 -0.152309 -0.329152 0.646121 0.102444 -0.036845 -0.379633 -0.055006 0.034259 0.463560 -0.058477 0.217551 -0.280940 -0.345813 -0.273272 -0.625266 0.410652 -0.152627 0.149517 0.188206 -0.334961 0.576484 -0.374386 0.257951 -0.205503 0.679895 -0.368059 -0.381565 0.432032 -0.036585 -0.243856 -0.857538 0.004317 -0.779066 -0.446129 0.023314 0.074449 -0.341419 0.303473 0.554907 -0.152418 0.302625 -0.498956 -0.305812 -0.161083 -0.025583 0.138238 0.168110 -0.295440 -0.115959 -0.476724 -0.131355 -0.232171 -0.226277 0.401032 0.754009 -0.083597 -0.559908 -0.422511 -0.138802 0.009569 -0.383645 -0.031636 -0.552156 0.297446 -0.204389 -0.319431 -0.308658 -0.238839 
化妆包 -0.184138 -0.196207 -1.083374 0.080348 0.339280 0.445496 0.692329 -0.342035 -0.004342 1.044056 -0.734380 1.303605 -0.032321 0.668408 -0.180775 -0.033975 -1.551643 0.516626 1.471301 1.419173 0.835288 -0.794279 -0.377039 -0.773215 0.379544 -1.454040 -0.477899 0.075944 -0.272836 -0.269579 -0.117140 -0.301421 -0.081751 0.040396 0.582141 0.453815 -0.377919 -0.464606 -0.255941 0.197560 0.967023 -0.374419 0.301876 -0.660990 -0.299726 -0.040567 0.154284 0.174249 0.203246 0.208155 -0.239663 -0.156059 -0.105724 0.003911 0.845822 0.179468 -0.384920 0.182472 0.078721 -0.284135 -0.045469 -0.036639 0.529879 -0.202062 0.005546 0.393939 0.189517 0.070010 0.175716 0.577180 0.688705 0.088433 0.229228 -1.329458 -0.349165 -0.133496 -0.437850 -0.059543 0.509462 -0.278926 -0.627454 -0.230209 -0.304040 0.009468 -0.446583 -0.068849 0.836862 -0.273689 -0.323441 0.596676 0.022431 -0.158142 -0.726484 0.501688 -0.771348 0.040219 -0.358668 -0.144399 -0.373408 -0.217585 
灯具 -0.100888 0.007706 -0.259642 0.301632 0.168761 0.164323 -0.163907 -0.076635 -0.009240 -0.141995 0.211939 0.052005 -0.053053 0.143825 0.311117 -0.195248 0.310180 0.359651 -0.559500 -0.697184 -0.356142 0.289059 0.091209 0.246185 -0.049108 0.182106 -0.054810 -0.004625 -0.484804 0.854980 -0.969407 -0.067497 -0.312238 -0.030927 0.659434 0.119614 0.095600 -0.062650 0.263906 0.130603 0.185155 0.130320 0.359535 -0.217898 -0.159263 -0.430714 -0.707655 0.379230 0.029047 0.183938 0.367873 -0.422796 0.652459 -0.373553 -0.023773 -0.305751 0.722866 -0.350058 -0.280885 0.236679 0.193031 -0.217428 -1.268187 0.033276 -0.612205 -0.471435 -0.313457 0.103631 -0.533863 0.244201 0.333454 0.284110 0.171773 -0.152649 -0.183938 -0.028475 -0.144459 0.388939 -0.368198 -0.078167 0.003583 -0.354819 -0.174666 -0.231209 -0.706418 0.407686 0.594355 0.138202 -0.624008 -0.149012 -0.251984 0.011357 -0.260828 0.452119 -0.492769 0.219993 -0.267770 -0.370550 -0.698982 -0.327958 
箱 -0.130510 -0.135268 -0.808006 0.288766 0.365781 0.280660 0.563874 -0.297547 -0.042355 0.485896 -0.346835 0.606731 0.002356 0.143876 -0.008599 0.071983 -0.687702 0.175420 0.625595 0.709012 0.525729 -0.493227 0.026933 -0.451029 0.283758 -0.960778 -0.392793 0.010687 -0.408580 0.246070 -0.556889 -0.106287 -0.107605 -0.163308 0.557688 0.330352 -0.081034 -0.183008 0.069879 -0.029008 0.561141 -0.185730 0.501343 -0.419666 -0.202395 -0.049981 -0.366036 0.193875 -0.008581 0.090138 -0.125617 -0.094894 0.051401 -0.181951 0.503850 0.005633 -0.007826 0.123541 0.229435 -0.022185 0.010752 -0.082221 0.245884 0.009954 -0.172316 0.091619 -0.052604 0.093501 -0.108067 0.342165 0.512610 -0.014695 0.116087 -0.801392 -0.239777 0.031664 -0.033697 -0.018198 0.316871 -0.269377 -0.284946 -0.148179 -0.147036 0.072424 -0.192971 0.035969 0.455219 -0.108663 -0.401879 0.131688 -0.235030 -0.035718 -0.338511 0.166375 -0.295821 -0.216332 -0.064148 -0.091098 -0.278796 -0.168637 
女童套装 -0.625900 0.166004 -0.657126 1.450055 1.033965 0.146924 0.677610 0.290723 -0.430285 -0.227837 -1.127448 0.548848 0.644042 1.001073 -0.167107 0.548335 0.179744 -0.368746 0.279416 0.234509 -0.164578 0.694994 0.046307 0.206471 -0.274381 1.136425 0.385315 0.368871 -0.444379 0.423697 -0.351551 0.216379 -0.164396 -0.442926 -0.641124 -0.568667 0.369554 -0.282649 0.125217 -0.538597 -0.368811 -0.122705 -0.376002 0.683624 -0.163244 -0.407309 -0.616997 0.339841 0.013835 0.161918 0.147665 -0.400968 0.660759 -0.022960 0.324899 -0.470145 1.105758 -0.908799 0.345133 0.433767 -0.008195 -0.030803 -1.430447 0.290199 -0.960879 -0.365315 0.011202 -0.105703 -0.707777 -0.158156 0.340263 0.241257 -0.146303 0.655703 0.166154 0.149743 0.088855 0.693520 -1.458474 0.088103 0.816750 -0.314893 -0.222685 -0.443278 -0.933064 0.517403 0.669713 -0.235578 -0.807548 -0.330375 0.083922 0.255656 -0.359543 0.692992 -0.195612 -0.017031 -0.646593 -0.105957 -1.145390 0.256976 
球玩具 -0.274149 0.117883 -0.224334 0.196552 0.106100 0.426975 0.037186 0.057225 0.078191 0.226685 -0.051238 0.491007 -0.105273 0.415557 0.316004 -0.029894 -0.281759 0.526701 0.038571 -0.164617 -0.150797 0.270197 0.132332 0.080050 -0.014281 0.335296 -0.257345 0.376648 -0.403352 0.786916 -1.022463 0.048437 -0.227934 -0.295862 0.369347 -0.166199 0.020334 -0.343545 -0.074174 -0.216621 0.195851 -0.024648 0.085519 -0.154153 -0.299631 -0.402975 -0.642685 0.242662 0.016695 0.298208 0.077576 -0.270715 0.581434 -0.323799 0.304435 -0.299916 0.818963 -0.486938 -0.222058 0.482891 -0.082984 -0.066653 -0.996456 0.039792 -0.717454 -0.403477 0.091824 -0.062231 -0.429948 0.227107 0.366865 -0.054404 0.240976 -0.277866 -0.181453 -0.219219 -0.012038 0.282737 -0.186832 -0.089208 0.053001 -0.538420 -0.171376 -0.119062 -0.369536 0.365458 0.888196 -0.004433 -0.600285 -0.358314 -0.211612 0.151790 -0.401208 0.201580 -0.493215 0.208242 -0.164087 -0.295334 -0.573819 -0.278910 
女袜 -0.114363 0.081628 -0.142622 0.474801 0.842212 -0.153935 0.849475 -0.047097 -0.279840 0.187337 -2.122598 1.127422 -0.084178 1.436673 -0.987772 0.932711 -1.199904 -1.010951 1.136738 1.932486 1.278316 -0.254164 -0.160111 -0.874350 -0.183442 -1.064291 -0.748234 -0.170263 -0.167603 0.322304 -0.586093 0.228633 -0.296312 0.286283 0.190017 0.193617 0.113957 -0.144063 0.550999 -0.901225 -0.146235 0.017698 0.507155 -0.053736 -0.138898 -0.274522 -0.636285 -0.359825 0.033790 0.272298 -0.288339 0.086192 -0.043983 -0.160642 -0.224313 -0.257452 0.145313 0.031822 0.821027 0.037003 -0.297968 0.331785 -0.006744 0.226678 -0.160885 -0.013923 -0.110860 0.200834 0.053739 0.093945 0.042127 -0.194351 -0.105259 -0.369676 -0.028568 0.646855 0.146972 -0.008918 -0.613223 0.436235 0.391958 0.023712 -0.308023 0.223618 -0.184086 -0.313028 0.162104 -0.014936 -0.170528 -0.010073 -0.334766 0.438931 0.079710 0.100639 0.258894 -0.146910 0.501044 0.411327 0.437906 0.288423 
塑料巧板 -0.220574 0.040402 -0.297163 0.031513 0.065537 0.325284 0.005835 -0.025493 0.031124 0.213862 0.074229 0.322870 -0.069169 0.214599 0.310323 -0.075732 -0.295375 0.434245 0.029348 -0.107741 0.006810 0.075577 0.128146 0.042182 0.033931 -0.099221 -0.382623 0.196263 -0.522279 0.833572 -1.112908 -0.074685 -0.195019 -0.272937 0.620391 0.156089 0.068959 -0.312512 0.018507 -0.155938 0.414457 -0.029340 0.262568 -0.213099 -0.284234 -0.253678 -0.615540 0.241832 -0.129380 0.092692 0.082697 -0.273099 0.459492 -0.362170 0.234564 -0.282810 0.666192 -0.282177 -0.107858 0.387328 -0.056871 -0.191312 -0.854246 0.093454 -0.684209 -0.403735 -0.052634 0.135663 -0.375674 0.247661 0.463084 -0.096407 0.276885 -0.459311 -0.309436 -0.053165 0.005305 0.172740 -0.099234 -0.274064 -0.040474 -0.463713 -0.172937 -0.163234 -0.278311 0.408765 0.643230 -0.024023 -0.593316 -0.315100 -0.228524 0.136885 -0.422540 0.106673 -0.485615 0.193676 -0.184076 -0.216753 -0.368887 -0.197059 
连衣裙 -0.535518 0.149646 -0.532363 1.360122 0.958739 0.167541 0.577571 0.271894 -0.382917 -0.193222 -1.050263 0.575151 0.510062 0.913161 -0.180896 0.474760 0.166643 -0.269108 0.184491 0.192162 -0.178560 0.656122 0.005781 0.156962 -0.182792 0.984607 0.327888 0.380926 -0.420295 0.460344 -0.361905 0.269158 -0.213164 -0.325413 -0.479929 -0.556302 0.293757 -0.246366 0.203691 -0.463628 -0.383912 -0.066240 -0.287129 0.510072 -0.198810 -0.525235 -0.673235 0.354754 0.112791 0.278554 0.159950 -0.382125 0.682384 -0.040136 0.298379 -0.475398 1.048412 -0.858177 0.214085 0.400377 0.019818 -0.057996 -1.383502 0.199622 -0.920978 -0.389357 0.039561 -0.124130 -0.761881 -0.112536 0.342702 0.332493 -0.125482 0.521782 0.224052 0.147134 0.064546 0.649177 -1.237118 0.153994 0.710568 -0.342292 -0.267236 -0.352286 -0.889745 0.385606 0.790028 -0.164981 -0.774434 -0.339644 0.052924 0.295529 -0.292259 0.596648 -0.173185 0.026955 -0.506748 -0.190110 -1.042879 0.083907 
鱼钩 -0.115927 -0.029517 -0.340948 0.331038 0.301810 0.076492 0.344393 -0.042808 -0.203945 -0.056218 -0.310136 0.153800 0.223278 -0.011219 -0.021627 0.317010 0.080586 -0.133551 -0.093454 0.140675 0.267219 -0.104578 0.205280 -0.013960 0.153793 -0.282087 -0.079874 0.110732 -0.287924 0.388291 -0.653269 0.045270 -0.120739 -0.253106 0.387872 0.306944 0.092022 -0.138205 0.177295 -0.259588 0.131977 -0.077072 0.385474 -0.161602 -0.155900 -0.161155 -0.605277 0.150946 -0.048431 -0.005590 -0.084170 -0.064048 0.338744 -0.401582 0.366590 -0.294995 0.506408 -0.017004 0.390491 0.074206 0.007420 -0.124373 -0.427017 0.237559 -0.428864 -0.193302 -0.193585 0.166062 -0.326965 0.171518 0.335375 -0.006814 0.090305 -0.318365 -0.223588 0.163505 0.066826 0.166555 -0.233766 -0.083397 0.064200 -0.282360 -0.031059 -0.013957 -0.190254 0.267636 0.292742 -0.125301 -0.622330 -0.028441 -0.292001 0.229864 -0.176128 0.310404 -0.159183 -0.221600 -0.107082 0.031144 -0.579496 -0.022496 
手套 -0.240574 0.061077 -0.561315 0.412839 0.421318 0.323259 0.304629 0.043059 -0.019854 0.055530 -0.169430 0.384506 0.025881 0.386390 0.158497 0.147522 -0.160661 0.299341 -0.125142 -0.156670 -0.039619 0.298509 0.317294 0.183904 0.006221 0.222299 0.019389 0.299816 -0.390320 0.596534 -0.898716 0.007987 -0.273003 -0.276489 0.363756 -0.095654 -0.031945 -0.268171 0.007347 -0.291931 0.215451 -0.063213 0.189170 -0.099037 -0.315645 -0.247986 -0.664984 0.230902 -0.068634 0.274494 -0.022779 -0.137629 0.509792 -0.344224 0.337332 -0.253894 0.745320 -0.450974 -0.025970 0.304012 -0.045427 -0.118313 -1.001485 0.090529 -0.553281 -0.346637 -0.003188 -0.082267 -0.382817 0.294764 0.458893 -0.012072 0.144708 -0.274876 -0.095707 -0.139271 0.052238 0.233608 -0.360189 -0.090848 0.026009 -0.595990 -0.219477 -0.144012 -0.508404 0.299818 0.724411 0.010444 -0.764896 -0.193476 -0.196507 0.219341 -0.376921 0.357344 -0.408419 0.011947 -0.211499 -0.208817 -0.821694 -0.179766 
蝴蝶结 -0.124467 0.048202 0.201447 -0.381344 -0.392652 -0.199574 -0.368730 -0.008454 -0.094981 -0.001380 -0.472450 -0.175552 -0.041643 1.001920 -0.152655 0.166047 -0.345128 -0.495563 0.412982 0.146398 0.079681 0.088841 -0.047841 -0.105224 -0.579404 0.184937 -0.249454 -0.268217 -0.196608 0.154147 -0.165207 -0.362648 -0.207613 0.231416 0.133753 0.477719 0.239091 -0.278550 -0.005696 -0.086305 0.437294 0.050757 -0.046068 0.191127 -0.083234 0.022709 -0.078318 -0.092903 -0.043107 -0.337160 0.251510 -0.478793 0.102499 -0.054326 -0.277996 -0.205808 0.144589 -0.073025 0.506349 -0.048822 0.007696 -0.145672 -0.800428 0.200513 -0.128212 -0.022642 -0.342998 0.125725 0.102833 -0.015493 0.017836 0.030214 0.166242 -0.099005 -0.452335 0.227884 -0.490193 0.306251 -0.842192 -0.268338 -0.006742 0.138195 -0.149102 -0.276874 -0.803037 0.721032 0.139166 -0.175821 -0.383746 0.213638 -0.298707 -0.095712 -0.401716 0.844578 -0.586335 0.373155 -0.585852 0.021436 -0.529718 0.230784 
铅笔 -0.121978 -0.045112 -0.968674 0.886684 0.627553 0.140099 0.184265 -0.387823 -0.143638 0.271581 0.877712 -0.023365 0.073337 -0.008067 0.329600 -0.209813 0.128659 0.311105 -0.271338 -0.241919 0.004658 0.233145 0.188417 0.098862 0.071969 -0.600266 -0.426169 -0.217095 -0.667586 1.045796 -1.172945 -0.051280 -0.090229 -0.156995 0.658008 0.382540 -0.000261 -0.070504 0.435370 -0.085095 0.359394 0.052477 0.669887 -0.308170 -0.090534 -0.343453 -0.862011 0.471673 -0.295848 0.070476 0.437970 -0.372378 0.725274 -0.574891 0.055350 -0.200715 0.517445 -0.127206 -0.167261 0.175021 0.514600 -0.241961 -0.689212 0.116788 -0.773053 -0.343339 -0.552887 0.257395 -0.476890 0.289532 0.379412 0.080094 -0.053895 -0.361355 -0.568053 -0.050818 -0.001373 0.321323 -0.116178 -0.631897 -0.186419 -0.430700 -0.140482 -0.314354 -0.537024 0.345597 0.099792 0.175400 -0.520288 0.086734 -0.145113 -0.045850 -0.196370 -0.091136 -0.292589 -0.266430 -0.011366 -0.247650 -0.253583 -0.131294 
休闲包 -0.203638 -0.165500 -1.006487 0.191363 0.431377 0.382002 0.818828 -0.290419 -0.003701 1.036310 -1.134334 1.441285 -0.040588 0.894855 -0.233386 0.148872 -1.686966 0.150106 1.586496 1.720024 1.079137 -0.879932 -0.493141 -0.913216 0.332941 -1.676117 -0.636962 0.055390 -0.311726 -0.250456 -0.157154 -0.238131 -0.114189 0.162558 0.522302 0.399680 -0.346009 -0.390631 -0.083513 0.075493 0.859896 -0.357186 0.337871 -0.654625 -0.265792 -0.063931 0.099085 0.117408 0.142132 0.165819 -0.295123 -0.058822 -0.216869 0.079690 0.685295 0.147016 -0.450771 0.251386 0.220470 -0.246091 -0.095702 -0.018070 0.797890 -0.103187 0.083993 0.452057 0.178400 0.151304 0.121484 0.520005 0.552333 0.081755 0.212308 -1.330980 -0.283819 -0.006590 -0.342115 -0.036316 0.427977 -0.306259 -0.537441 -0.111678 -0.386105 0.085579 -0.536808 -0.093050 0.741381 -0.216022 -0.336703 0.579194 -0.106841 -0.093637 -0.593226 0.499505 -0.656959 0.028680 -0.207576 -0.061614 -0.280730 -0.198695 
马 -0.139692 0.029393 -0.293010 0.133832 0.123957 0.259395 0.117857 -0.042468 0.028461 0.197906 -0.178529 0.410789 -0.053571 0.315603 0.189923 -0.024512 -0.224359 0.248731 0.115890 0.020886 0.072163 0.000303 0.046566 -0.016939 0.055496 -0.146618 -0.253287 0.151492 -0.349297 0.664410 -0.798419 -0.054131 -0.191816 -0.153584 0.471399 0.118060 0.008444 -0.212060 0.071698 -0.046244 0.263739 -0.061548 0.230945 -0.188705 -0.195518 -0.254095 -0.484478 0.184596 -0.022639 0.141823 0.105253 -0.197343 0.390114 -0.223715 0.134515 -0.216570 0.430343 -0.251680 -0.100467 0.285357 -0.059371 -0.120476 -0.615711 0.081283 -0.465768 -0.272097 -0.038761 0.104686 -0.254502 0.180132 0.324152 -0.000620 0.227992 -0.318396 -0.182961 -0.031694 -0.040904 0.151348 -0.032402 -0.146161 0.000091 -0.248912 -0.130264 -0.062917 -0.225178 0.277566 0.525631 -0.078942 -0.389823 -0.233540 -0.203901 0.025909 -0.284683 0.208094 -0.353136 0.125783 -0.163094 -0.152212 -0.313018 -0.162970 
球 -0.047563 0.056456 0.069143 0.135379 0.116056 0.122080 0.006019 -0.042119 0.043020 0.049266 -0.549409 0.441820 -0.160039 0.650790 -0.094212 0.090576 -0.239753 -0.019544 0.216654 0.324001 0.134347 0.089529 -0.153338 -0.209827 -0.073574 -0.002265 -0.200923 0.037902 -0.121632 0.395002 -0.391157 0.086177 -0.253738 0.196097 0.278324 -0.066453 0.027837 -0.148688 0.251867 -0.101109 0.012468 0.025031 0.154238 -0.168454 -0.074468 -0.395174 -0.269810 0.057480 0.140491 0.287256 0.111360 -0.270629 0.332544 -0.102942 -0.032158 -0.257028 0.348162 -0.244693 -0.063467 0.091879 -0.072333 0.009040 -0.602896 -0.110412 -0.344976 -0.186922 -0.030971 0.028903 -0.260662 0.103373 0.163345 0.260965 0.074476 -0.223578 -0.018883 0.061370 -0.188244 0.166885 -0.242546 0.155565 0.066323 -0.105706 -0.185524 -0.021734 -0.521148 0.061323 0.625262 0.002476 -0.329595 -0.055922 -0.147044 0.068889 -0.144348 0.396739 -0.319122 0.167764 -0.077571 -0.159379 -0.294927 -0.158014 
尺 -0.025225 -0.080883 -0.756263 0.615508 0.668600 -0.086277 0.414854 -0.199593 -0.235855 -0.108954 0.238570 -0.162582 0.389754 -0.368480 -0.022026 0.161217 0.234458 -0.256836 -0.212294 0.086467 0.212641 -0.222806 0.180264 -0.036357 0.146735 -0.793569 -0.183092 -0.127623 -0.627104 0.521666 -0.921472 -0.022737 -0.061782 -0.184327 0.554743 0.572379 0.088023 -0.181472 0.175452 -0.297987 0.439871 -0.175269 0.641218 -0.079801 -0.284922 0.020999 -0.619023 0.339903 -0.367900 -0.233098 -0.005304 -0.238846 0.294724 -0.384495 0.428245 -0.262534 0.421273 0.042510 0.476069 0.070143 0.390619 -0.274429 -0.328861 0.283546 -0.644560 -0.285602 -0.346579 0.460259 -0.556344 0.215373 0.585885 0.096937 -0.028980 -0.513158 -0.469847 0.336983 0.209194 0.083377 -0.397834 -0.263095 0.049076 -0.215531 -0.113020 -0.138138 -0.412085 0.299368 -0.090351 0.041786 -0.559565 0.033611 -0.062890 0.251617 -0.109660 -0.007031 -0.041170 -0.266173 0.017015 -0.037830 -0.416966 0.172295 
树脂玩具 0.000812 0.085070 -0.245112 0.252428 0.312391 -0.113006 0.135423 -0.117735 -0.099809 0.045069 -0.465612 0.219346 0.032253 0.571273 -0.198965 0.199699 -0.083768 -0.481798 0.126046 0.259555 0.220692 -0.153579 -0.080543 -0.258429 -0.169702 -0.607482 -0.292937 -0.378242 -0.291971 0.512626 -0.588661 -0.129326 -0.210453 0.237361 0.482190 0.534939 0.137462 -0.178871 0.430211 -0.039428 0.253667 -0.021487 0.498702 -0.116776 -0.029081 -0.054759 -0.264231 0.096183 -0.022145 -0.103771 0.225737 -0.271373 0.216068 -0.049113 -0.304691 -0.138530 -0.030260 0.056257 0.356104 -0.028995 0.095329 0.020883 -0.405303 0.252045 -0.320392 -0.047117 -0.417696 0.300752 -0.136231 0.170279 0.158267 0.167576 0.084162 -0.221952 -0.327294 0.323536 -0.166363 0.235250 -0.444005 -0.061007 0.001013 0.201789 -0.053058 -0.004763 -0.499518 0.298051 -0.070925 -0.049848 -0.201534 0.219349 -0.211313 -0.163825 -0.112479 0.426399 -0.185542 0.114941 -0.207295 0.002225 -0.159063 0.143518 
流行饰品 0.423026 -0.025452 0.563892 -0.268371 -0.038237 -0.545736 -0.522819 -0.117600 -0.097893 -0.204311 -0.608782 0.170234 -0.105765 0.839870 -0.492116 -0.194915 -0.075472 -0.827306 0.281653 0.717197 0.209625 -0.414900 -0.878550 -0.589734 -0.140729 -1.270686 -0.464242 -0.840302 0.016430 0.241905 0.247737 -0.016665 -0.293265 1.202183 0.695349 0.811521 0.188125 0.113014 0.928380 0.546237 0.174688 0.218665 0.657871 -0.477304 0.225011 -0.471623 0.042167 0.153475 0.374101 0.040023 0.545358 -0.713194 0.236318 0.131264 -0.778934 -0.256518 -0.387816 0.309689 0.207034 -0.466133 0.307142 -0.197393 -0.441053 -0.144858 -0.114971 0.094836 -0.750628 0.703561 -0.350919 0.267138 0.033116 1.172498 0.021065 -0.560730 -0.362172 0.719228 -0.698950 0.363353 -0.663882 0.103268 -0.061667 0.523375 -0.348491 -0.155262 -1.509098 0.046297 0.130347 0.171113 -0.092663 0.670536 -0.263946 -0.189459 0.136087 1.020100 -0.364631 0.386927 -0.267797 -0.123253 -0.184693 -0.152788 
瓶 -0.109435 0.037122 -0.427574 0.411609 0.423003 0.277293 0.184170 -0.040231 -0.106601 0.014603 -0.036519 0.302295 0.056680 0.186330 0.282685 0.004404 0.173321 0.319340 -0.420041 -0.411281 -0.185376 0.236125 0.280934 0.166404 0.141215 -0.000356 0.024617 0.166184 -0.414819 0.770215 -1.008110 0.004167 -0.319885 -0.215941 0.575696 0.094752 0.038588 -0.199457 0.229868 -0.072675 0.114851 -0.015185 0.390579 -0.261145 -0.193104 -0.407830 -0.847915 0.282541 0.027853 0.271272 0.176083 -0.195511 0.636299 -0.471182 0.239515 -0.281515 0.713211 -0.290073 -0.118639 0.263009 0.001551 -0.062488 -1.020778 0.087830 -0.664262 -0.382746 -0.159314 0.017107 -0.438062 0.226699 0.410269 0.113678 0.156137 -0.216128 -0.184377 -0.102575 0.028794 0.445005 -0.276205 -0.118973 0.004982 -0.491163 -0.099086 -0.099483 -0.433395 0.349591 0.688332 -0.027577 -0.667766 -0.149288 -0.158693 0.135362 -0.279419 0.389939 -0.356922 0.041257 -0.213566 -0.293880 -0.695576 -0.207464 
手电筒 -0.161492 -0.005974 -0.573338 0.464473 0.404926 0.180905 0.225949 -0.176759 -0.101030 0.052057 0.031879 0.304844 0.082655 0.129636 0.199268 -0.023268 -0.033156 0.272042 -0.165735 -0.235594 -0.013058 0.066232 0.094668 0.050909 0.052604 -0.174057 -0.207514 0.014503 -0.572786 0.719364 -1.018440 -0.038243 -0.237774 -0.135641 0.602842 0.201348 0.090012 -0.093635 0.238163 0.026030 0.337716 0.039761 0.399974 -0.177095 -0.235229 -0.249160 -0.666550 0.355397 -0.093108 0.103567 0.167375 -0.335773 0.509607 -0.351563 0.197168 -0.257102 0.632722 -0.264531 -0.076329 0.218812 0.158043 -0.223631 -0.925130 0.095735 -0.592007 -0.357919 -0.224580 0.124137 -0.425055 0.264588 0.446676 0.075651 0.117819 -0.312819 -0.224447 -0.023990 -0.040998 0.273375 -0.201728 -0.187188 0.000831 -0.339087 -0.171037 -0.251690 -0.471687 0.312973 0.446689 0.117619 -0.577384 -0.135051 -0.210079 0.096483 -0.269590 0.284410 -0.353289 0.086820 -0.163251 -0.212423 -0.402109 -0.177682 
鞋 -0.210371 -0.010547 -0.532793 0.529211 0.510296 0.326936 0.241027 -0.002882 -0.056840 0.043550 -0.254523 0.447949 -0.046928 0.419717 0.168340 0.038215 0.019813 0.363945 -0.199128 -0.258801 -0.202073 0.334971 0.161716 0.150330 0.097248 0.223664 -0.003442 0.270038 -0.308223 0.658590 -0.762917 0.078988 -0.293605 -0.177275 0.395525 -0.154524 -0.018744 -0.185805 0.129354 -0.153238 -0.001251 0.038267 0.179324 -0.174802 -0.227415 -0.481766 -0.777086 0.250941 0.068975 0.418646 0.187725 -0.220164 0.606660 -0.414065 0.226419 -0.256538 0.742272 -0.432845 -0.235885 0.322239 -0.014190 -0.075880 -1.074477 -0.019483 -0.645433 -0.382362 -0.031685 -0.075123 -0.495670 0.233912 0.406766 0.137991 0.097512 -0.171671 -0.020413 -0.084419 -0.020009 0.311801 -0.304094 -0.023821 0.117803 -0.520552 -0.192618 -0.120023 -0.495663 0.242404 0.883269 -0.017756 -0.715761 -0.191535 -0.170568 0.184361 -0.340997 0.358477 -0.442882 0.090070 -0.220926 -0.304369 -0.670948 -0.297667 
熊熊 -0.276680 0.047593 -0.530398 0.243065 0.166693 0.321271 0.217305 -0.088894 0.045484 0.392565 -0.218188 0.548052 -0.046655 0.417843 0.169336 -0.092409 -0.606672 0.348511 0.459668 0.246879 0.188635 -0.059228 -0.056631 -0.194226 0.005977 -0.289591 -0.308977 0.138952 -0.375824 0.467967 -0.622945 -0.086017 -0.078513 -0.169726 0.333423 0.057297 -0.068831 -0.352396 -0.070286 -0.003577 0.402996 -0.157189 0.057364 -0.178163 -0.264222 -0.175743 -0.289882 0.235321 -0.087344 0.128574 0.076397 -0.251091 0.321394 -0.139533 0.248818 -0.130366 0.282176 -0.267662 -0.136996 0.181618 -0.042636 -0.104699 -0.392807 -0.016194 -0.473057 -0.172901 0.102671 0.045270 -0.153247 0.218951 0.414369 -0.058841 0.175765 -0.477528 -0.224240 -0.022828 -0.095769 0.107544 0.029476 -0.203384 -0.094002 -0.238833 -0.165439 -0.148229 -0.310252 0.233219 0.607804 -0.130221 -0.373057 -0.164848 -0.072325 -0.047027 -0.428633 0.145832 -0.443560 0.203195 -0.193629 -0.168620 -0.298506 -0.084773 
织带 -0.097930 -0.039240 -0.206896 0.079556 0.083578 0.043149 -0.128529 -0.219257 -0.046360 -0.018577 0.188506 -0.072549 -0.041116 0.166067 0.260503 -0.095993 0.001996 -0.044769 -0.285545 -0.237498 0.100403 -0.133582 -0.057773 -0.107538 -0.075797 -0.329596 -0.249166 -0.168252 -0.441460 0.614746 -0.624802 -0.124016 -0.129804 0.102356 0.530645 0.310801 0.152859 -0.117857 0.348300 0.072713 0.371200 -0.030189 0.306537 -0.202405 -0.147720 -0.370987 -0.443820 0.293520 -0.058930 -0.091218 0.357998 -0.439026 0.449358 -0.291863 0.002102 -0.334239 0.466473 0.002917 0.101836 0.036281 0.262804 -0.305672 -0.639702 -0.048555 -0.532249 -0.200936 -0.364646 0.240740 -0.512171 0.169282 0.420264 0.343207 0.037157 -0.278612 -0.232553 0.200076 -0.153242 0.219450 -0.279481 -0.267318 -0.123941 -0.140361 -0.162231 -0.224388 -0.869725 0.439250 0.449334 0.003117 -0.526467 -0.003543 -0.243576 0.068141 -0.110865 0.466352 -0.402537 0.064233 -0.356996 -0.262417 -0.501487 -0.065358 
陀螺 -0.164306 0.000967 -0.340685 0.185225 0.111149 0.341101 -0.055571 -0.096728 0.060588 0.176363 0.070076 0.348586 -0.105300 0.211116 0.330576 -0.211846 -0.146989 0.442634 -0.056783 -0.221034 -0.142812 0.080624 0.000560 0.020356 0.030087 -0.042536 -0.219478 0.154118 -0.419040 0.692882 -0.855864 -0.087691 -0.208639 -0.118505 0.530802 0.056340 -0.003548 -0.209430 0.053020 0.074903 0.304987 0.003387 0.180825 -0.263498 -0.185007 -0.325209 -0.471678 0.316947 -0.034909 0.183438 0.199800 -0.343598 0.478402 -0.272565 0.179805 -0.253931 0.535124 -0.336285 -0.314357 0.250675 0.057885 -0.190189 -0.834526 -0.038611 -0.545105 -0.373316 -0.053540 0.055736 -0.384421 0.262926 0.384085 0.151251 0.222915 -0.416509 -0.180502 -0.042906 -0.113583 0.175139 -0.039329 -0.190903 -0.094609 -0.367480 -0.162510 -0.168573 -0.452351 0.301949 0.720692 0.009239 -0.518793 -0.237629 -0.189671 0.022277 -0.384961 0.280856 -0.551770 0.181856 -0.232368 -0.305225 -0.560794 -0.283158 
笔记本 -0.023599 -0.028133 -0.500946 0.250717 0.202855 0.043569 0.105557 -0.221385 -0.069527 0.175118 0.117498 0.110941 0.051855 0.095182 0.073617 -0.074024 -0.141379 0.010165 0.048066 0.154890 0.213369 -0.173077 -0.019273 -0.132410 0.075024 -0.668232 -0.324143 -0.135121 -0.474664 0.595914 -0.735247 -0.130763 -0.183374 0.019764 0.645195 0.464619 0.005066 -0.204617 0.265933 -0.052972 0.456909 -0.067442 0.496756 -0.262362 -0.196414 -0.169505 -0.447499 0.256789 -0.145196 -0.009119 0.154393 -0.318984 0.324314 -0.250069 0.090285 -0.189197 0.208512 0.021826 0.164727 0.079160 0.186809 -0.200975 -0.366474 0.089793 -0.407546 -0.175310 -0.324658 0.260371 -0.301298 0.298854 0.427599 0.128006 0.067201 -0.539718 -0.407368 0.207947 -0.092159 0.138702 -0.133129 -0.308833 -0.127124 -0.129249 -0.132432 -0.104499 -0.515807 0.270054 0.246429 -0.002966 -0.414899 0.112571 -0.166147 -0.006787 -0.233949 0.244720 -0.318051 0.004969 -0.137413 -0.160931 -0.320094 -0.021253 
裙 -0.420641 0.123027 -0.394924 1.053091 0.745109 0.126639 0.395001 0.203003 -0.278836 -0.171200 -0.901496 0.465468 0.357770 0.826276 -0.145357 0.383180 0.109723 -0.242765 0.143757 0.165604 -0.105251 0.534517 -0.000117 0.061565 -0.164488 0.700205 0.205060 0.260034 -0.368654 0.497645 -0.398411 0.209400 -0.225364 -0.223487 -0.268628 -0.387458 0.234301 -0.224274 0.224443 -0.376698 -0.299609 -0.045911 -0.142499 0.354021 -0.142706 -0.463978 -0.620367 0.295928 0.090270 0.289366 0.178768 -0.348796 0.603698 -0.085741 0.196567 -0.410457 0.865746 -0.711214 0.174165 0.311314 0.023926 -0.035096 -1.195061 0.142046 -0.807387 -0.348390 -0.000249 -0.091289 -0.652233 -0.037408 0.304025 0.328087 -0.054378 0.319817 0.146916 0.175394 0.016889 0.523730 -1.023837 0.153617 0.568273 -0.290403 -0.229155 -0.262698 -0.843030 0.320468 0.744267 -0.135990 -0.716154 -0.267927 0.002071 0.253137 -0.273568 0.570100 -0.230215 0.055612 -0.397706 -0.159072 -0.909521 0.049463 
挂件 -0.085438 0.028422 -0.218123 0.191400 0.045367 0.132106 -0.073783 -0.136107 0.073706 0.094323 -0.243254 0.249977 -0.109679 0.380938 0.043706 -0.082296 -0.180007 0.022075 0.075191 0.011432 0.043827 0.054334 -0.043052 -0.165716 -0.098731 -0.307858 -0.281667 -0.126253 -0.311377 0.617645 -0.710615 -0.099822 -0.236070 0.075824 0.580493 0.212521 0.057497 -0.124248 0.251827 -0.005288 0.215504 0.049448 0.299032 -0.232655 -0.075444 -0.238111 -0.435270 0.221047 0.019892 0.138873 0.196467 -0.385223 0.443480 -0.195468 -0.062777 -0.285929 0.284626 -0.161954 -0.082163 0.081018 0.045413 -0.027465 -0.652069 0.021607 -0.415393 -0.281889 -0.186572 0.090669 -0.237508 0.207328 0.253497 0.220050 0.132910 -0.321632 -0.253958 0.140439 -0.156241 0.136551 -0.178845 -0.052925 -0.009816 -0.066921 -0.063210 -0.030754 -0.402896 0.219291 0.372056 0.030075 -0.266719 -0.109890 -0.197720 -0.006308 -0.220801 0.363410 -0.325449 0.179916 -0.132815 -0.187728 -0.325978 -0.137629 
储钱罐 -0.173193 -0.070288 -0.636853 0.465461 0.491955 0.229831 0.372806 -0.105915 -0.105377 0.161247 -0.017377 0.285566 0.071357 -0.004671 0.217430 0.074804 -0.063281 0.098792 -0.194106 -0.012098 0.209575 -0.154585 0.208377 -0.050385 0.201502 -0.553397 -0.193191 0.085342 -0.494595 0.631924 -0.965768 -0.031989 -0.192790 -0.238577 0.548264 0.256114 0.042224 -0.207835 0.205192 -0.083024 0.245535 -0.197721 0.515916 -0.311170 -0.153224 -0.212034 -0.708318 0.276119 -0.124508 0.062588 0.046474 -0.036761 0.361164 -0.373279 0.252178 -0.183906 0.399188 -0.069287 0.042423 0.152820 0.079095 -0.114104 -0.276672 0.142001 -0.489080 -0.224618 -0.128978 0.070997 -0.350919 0.219643 0.416283 0.034427 0.138214 -0.310952 -0.160265 0.076721 0.142772 0.250474 -0.069990 -0.218719 -0.096046 -0.280555 -0.088392 -0.019908 -0.275241 0.262977 0.422381 -0.072775 -0.590904 -0.103521 -0.193010 0.070021 -0.243684 0.227919 -0.252662 -0.097688 -0.092547 -0.170031 -0.523744 -0.076450 
牛仔长裤 -0.478960 0.112309 -0.491081 1.104016 0.773479 0.164905 0.567004 0.170265 -0.309842 -0.033113 -1.156816 0.651631 0.397351 1.038535 -0.257104 0.476750 -0.105566 -0.278435 0.419345 0.468858 0.052661 0.492787 -0.032849 -0.008339 -0.202360 0.761613 0.221237 0.301824 -0.294009 0.340029 -0.294864 0.149960 -0.205372 -0.234991 -0.421774 -0.467558 0.213709 -0.312344 0.140162 -0.432667 -0.274993 -0.060763 -0.214330 0.417699 -0.184276 -0.371088 -0.541365 0.219352 0.121914 0.234195 0.077853 -0.268778 0.494698 -0.043677 0.288389 -0.371395 0.825563 -0.691138 0.278878 0.329030 -0.058371 0.057029 -1.070436 0.199092 -0.720802 -0.260331 0.067125 -0.121906 -0.500914 -0.074546 0.255556 0.172595 -0.068864 0.330147 0.116359 0.086436 -0.022565 0.530104 -1.053628 0.173002 0.604728 -0.286977 -0.217110 -0.225539 -0.715181 0.317707 0.682532 -0.214616 -0.629218 -0.210335 0.036671 0.232394 -0.324006 0.588210 -0.210172 0.035134 -0.375160 -0.125310 -0.890219 0.109926 
蜡染娃娃 -0.150769 0.016545 -0.482933 0.169156 0.143243 0.226132 0.164796 -0.139771 0.026503 0.269200 -0.002718 0.348973 -0.003461 0.211490 0.219407 -0.072356 -0.374311 0.245764 0.142316 0.089358 0.195506 -0.162735 0.048913 -0.157093 0.044818 -0.545260 -0.391580 -0.000112 -0.535575 0.723449 -0.986415 -0.103493 -0.148604 -0.152685 0.644630 0.312134 0.029660 -0.295420 0.101044 -0.055766 0.477947 -0.118258 0.366889 -0.260010 -0.265761 -0.112315 -0.460107 0.255223 -0.147829 0.011190 0.106048 -0.252878 0.321574 -0.243796 0.196482 -0.179224 0.346437 -0.117918 -0.008340 0.251587 0.047940 -0.157512 -0.419975 0.097547 -0.528294 -0.265686 -0.105779 0.187108 -0.247796 0.278075 0.451990 -0.077420 0.186021 -0.507473 -0.334926 0.029396 -0.018259 0.079084 -0.001828 -0.267017 -0.092246 -0.224410 -0.128241 -0.100960 -0.238884 0.294976 0.347491 -0.054245 -0.401702 -0.161707 -0.156919 -0.016799 -0.271477 0.073354 -0.322496 0.084629 -0.132217 -0.171948 -0.142392 -0.075744 
球网 -0.034223 0.023907 -0.133056 0.237934 0.340621 -0.078117 0.223830 -0.086235 -0.099158 0.061062 -0.765863 0.373556 0.038515 0.569613 -0.379799 0.304886 -0.311664 -0.442368 0.393220 0.700773 0.395691 -0.099643 -0.151507 -0.313470 -0.074860 -0.423640 -0.225150 -0.090206 -0.169203 0.148733 -0.203688 0.022370 -0.165943 0.203161 0.134776 0.243761 0.061330 -0.115982 0.231364 -0.244794 0.084692 0.001130 0.232501 -0.092754 -0.102599 -0.208227 -0.252476 -0.003863 0.042159 0.058103 -0.033109 -0.179460 0.101226 -0.107211 0.007928 -0.163771 0.167200 -0.016386 0.360732 -0.045526 0.024166 -0.006332 -0.287155 0.036185 -0.203672 -0.032846 -0.128737 0.185619 -0.180972 0.121196 0.198369 0.199899 0.026743 -0.337457 -0.097283 0.296853 -0.146093 0.130263 -0.405325 0.128377 0.091315 -0.043914 -0.204821 -0.011751 -0.533587 0.004822 0.272267 -0.058042 -0.337367 0.095119 -0.165078 0.169613 -0.096272 0.406474 -0.145625 -0.033622 -0.019316 0.005282 -0.280484 0.076551 
合金项链 0.434055 -0.063143 0.571906 -0.249777 -0.011868 -0.520516 -0.583881 -0.159898 -0.047152 -0.160328 -0.529285 0.256489 -0.209138 0.675365 -0.385113 -0.323092 -0.036721 -0.714258 0.122546 0.625694 0.204559 -0.439146 -0.956818 -0.594584 -0.056139 -1.308570 -0.451145 -0.839607 0.102496 0.331993 0.263482 0.074512 -0.274183 1.271506 0.764464 0.715432 0.108146 0.202750 0.960309 0.619084 0.101981 0.209817 0.684601 -0.587407 0.243608 -0.686558 -0.130028 0.267124 0.462877 0.249809 0.599133 -0.792417 0.390982 0.114919 -0.744568 -0.252822 -0.429087 0.286956 0.005793 -0.485444 0.398716 -0.229984 -0.458723 -0.280735 -0.231497 0.060307 -0.778120 0.727684 -0.502777 0.275125 0.070176 1.342431 0.029880 -0.667195 -0.279110 0.723076 -0.724277 0.367639 -0.573717 0.147629 -0.149443 0.452955 -0.405507 -0.133248 -1.682142 -0.059763 0.391836 0.220064 -0.154024 0.708111 -0.253287 -0.155552 0.093915 1.034011 -0.417383 0.368040 -0.199509 -0.199631 -0.290883 -0.345705 
鱼 -0.164608 0.037020 -0.404954 0.282532 0.237142 0.325852 0.055840 -0.062028 0.087143 0.118838 -0.060653 0.361011 -0.083033 0.197636 0.217927 -0.108431 -0.128249 0.402483 -0.076382 -0.168153 -0.086825 0.123701 0.049331 0.014014 0.073724 -0.021922 -0.164514 0.231004 -0.353477 0.641311 -0.795830 -0.003399 -0.192635 -0.140682 0.494939 0.018123 -0.018714 -0.256305 0.019071 -0.016247 0.234151 -0.016579 0.157676 -0.246338 -0.231729 -0.322895 -0.519952 0.287375 -0.014385 0.230708 0.112903 -0.293100 0.510060 -0.288063 0.247060 -0.282833 0.587954 -0.361651 -0.212620 0.270650 -0.006805 -0.144125 -0.816214 -0.034389 -0.610675 -0.357630 -0.009213 0.024153 -0.417831 0.256218 0.435457 0.157183 0.192251 -0.388396 -0.150816 -0.034846 -0.045839 0.176009 -0.097750 -0.065808 -0.003736 -0.385546 -0.139228 -0.070919 -0.411712 0.247441 0.723613 -0.032805 -0.556291 -0.260474 -0.139982 0.151490 -0.338724 0.259594 -0.452447 0.144212 -0.197461 -0.288425 -0.597921 -0.254632 
时装包 -0.151296 -0.133609 -0.795962 0.073134 0.318438 0.328600 0.641038 -0.259282 -0.011439 0.916562 -1.001289 1.271079 -0.051988 0.854426 -0.255764 0.109759 -1.511165 0.198132 1.422074 1.514754 0.917374 -0.720241 -0.393844 -0.802962 0.307753 -1.463217 -0.603507 0.043564 -0.269361 -0.184081 -0.144446 -0.211848 -0.142057 0.123699 0.566500 0.419808 -0.283572 -0.417249 -0.135539 0.088096 0.777050 -0.329503 0.301832 -0.608142 -0.249016 -0.085498 0.051814 0.044531 0.191281 0.177712 -0.233267 -0.117053 -0.144620 0.016797 0.596317 0.082599 -0.389429 0.189932 0.192867 -0.192548 -0.096878 -0.004598 0.502842 -0.098639 -0.042184 0.313457 0.126994 0.120839 0.144066 0.499600 0.568876 0.061974 0.271477 -1.210704 -0.312938 0.060153 -0.374672 -0.012586 0.311051 -0.234477 -0.434301 -0.153619 -0.345934 0.005599 -0.494709 -0.031845 0.721075 -0.213702 -0.312021 0.505374 -0.051136 -0.092294 -0.558143 0.507700 -0.598301 0.082421 -0.194903 -0.082636 -0.277548 -0.162678 
圆珠笔 -0.058340 -0.117608 -0.870051 0.694999 0.469254 0.060301 0.116677 -0.362016 -0.119231 0.131266 0.729628 -0.093083 0.098622 -0.207675 0.307508 -0.225179 0.094411 0.161094 -0.292010 -0.254008 0.083030 0.002320 0.083669 -0.003879 0.073425 -0.862014 -0.445719 -0.321441 -0.656965 0.908139 -1.100661 -0.137861 -0.070890 0.057170 0.832354 0.581716 -0.015527 -0.096123 0.469294 -0.045055 0.479322 -0.034744 0.809639 -0.367146 -0.150050 -0.264687 -0.686509 0.452498 -0.373714 -0.023331 0.446532 -0.414141 0.592170 -0.509767 -0.011380 -0.186190 0.324524 -0.002145 -0.076596 0.073938 0.515939 -0.293386 -0.536622 0.057160 -0.570462 -0.278236 -0.572456 0.356600 -0.504229 0.331854 0.477020 0.129965 -0.049868 -0.555763 -0.605742 0.133811 -0.026028 0.163004 -0.081872 -0.566950 -0.221838 -0.286693 -0.119131 -0.254679 -0.568090 0.311068 -0.016990 0.174343 -0.457679 0.106310 -0.186652 -0.107149 -0.127430 0.003580 -0.249709 -0.190680 0.018989 -0.233073 -0.174224 -0.077528 
棉服 -0.528238 0.134764 -0.592812 1.156551 0.826693 0.176499 0.564623 0.218076 -0.352433 -0.132088 -0.882252 0.524225 0.529278 0.813607 -0.073740 0.463543 0.149222 -0.183473 0.171888 0.107417 -0.167456 0.576412 0.095692 0.223356 -0.173150 0.938614 0.318595 0.364530 -0.390277 0.437732 -0.440653 0.177196 -0.159631 -0.451050 -0.446211 -0.467797 0.290737 -0.259136 0.098794 -0.451024 -0.225587 -0.096448 -0.225668 0.521211 -0.243511 -0.381615 -0.630551 0.312048 0.041621 0.159814 0.101109 -0.323968 0.603328 -0.101659 0.376336 -0.411740 1.036426 -0.756614 0.280255 0.412968 -0.027665 -0.041370 -1.260368 0.251794 -0.886858 -0.343400 0.035010 -0.094743 -0.624508 -0.076246 0.347248 0.165594 -0.080472 0.426095 0.072085 0.067922 0.055943 0.617426 -1.149239 0.030145 0.646011 -0.368903 -0.197877 -0.364566 -0.771297 0.464662 0.688703 -0.198035 -0.741987 -0.252613 0.021726 0.273361 -0.359884 0.601743 -0.240571 -0.007248 -0.569355 -0.115985 -1.045987 0.144264 
女士拉绒保暖裤 -0.202510 0.037564 -0.077485 0.516183 0.563272 0.031796 0.651051 -0.001942 -0.156550 0.233834 -1.768027 0.997115 -0.106986 1.203141 -0.784725 0.688649 -1.017377 -0.656789 1.135607 1.683337 1.008543 -0.068550 -0.119407 -0.738509 -0.157610 -0.588211 -0.485014 0.007517 -0.163585 0.245942 -0.376449 0.162249 -0.270579 0.139598 -0.020792 -0.112187 0.040136 -0.208870 0.245940 -0.678703 -0.204223 -0.057949 0.173371 0.003263 -0.064690 -0.260079 -0.452376 -0.203027 0.092419 0.364036 -0.224817 0.095704 -0.022277 -0.106883 -0.099661 -0.205753 0.160713 -0.189726 0.506708 0.123766 -0.242862 0.337989 0.006198 0.134263 -0.115993 -0.025729 0.094588 -0.010169 -0.007277 0.045341 0.061182 -0.223102 0.000749 -0.136626 0.117230 0.303496 0.070573 0.038944 -0.480948 0.457099 0.364953 -0.014662 -0.282221 0.277629 -0.174989 -0.248529 0.336934 -0.120741 -0.236244 -0.145350 -0.170620 0.330680 -0.026156 0.186491 0.176170 -0.091802 0.400906 0.194832 0.115585 0.169172 
长款钱包 -0.165649 -0.186830 -0.881969 0.058785 0.340374 0.308320 0.689048 -0.298826 -0.027906 0.966605 -0.835916 1.213729 -0.008080 0.670375 -0.312848 0.041345 -1.431302 0.339517 1.446347 1.478433 0.812850 -0.708929 -0.349537 -0.702308 0.310614 -1.378865 -0.496212 0.081297 -0.268573 -0.293787 -0.145755 -0.217098 -0.095087 0.056044 0.560843 0.441422 -0.289422 -0.426111 -0.230480 0.097929 0.846348 -0.314631 0.281214 -0.593029 -0.260954 -0.070880 0.162916 0.105428 0.202360 0.146758 -0.236451 -0.120781 -0.138162 0.067725 0.764684 0.136878 -0.363420 0.205161 0.133455 -0.226136 -0.071862 -0.030418 0.467117 -0.120034 0.011189 0.339203 0.141968 0.109057 0.158008 0.510402 0.627832 0.036326 0.236651 -1.227328 -0.327439 -0.006404 -0.388990 -0.034751 0.356852 -0.220757 -0.418392 -0.159848 -0.279828 -0.001201 -0.355949 -0.125578 0.665710 -0.215278 -0.292164 0.532731 0.012280 -0.122171 -0.611964 0.479334 -0.643146 0.043164 -0.317674 -0.081678 -0.275330 -0.114798 
职业网花 0.123082 0.061918 0.525632 -0.382731 -0.378592 -0.423041 -0.487712 0.005430 -0.056161 -0.049447 -0.762892 0.009771 -0.112015 1.190557 -0.501962 0.124916 -0.395009 -0.834014 0.536208 0.594932 0.219885 0.060229 -0.337904 -0.376005 -0.599664 -0.258218 -0.383948 -0.481520 -0.079634 0.092456 -0.027945 -0.294311 -0.258316 0.637191 0.126330 0.598093 0.227237 -0.184627 0.196721 -0.010289 0.236814 0.179062 0.083775 0.089221 0.075658 -0.065112 0.059522 -0.152737 0.043214 -0.212283 0.273021 -0.523520 0.038842 0.058989 -0.604934 -0.133020 -0.161229 0.012901 0.498722 -0.112781 -0.024916 -0.036875 -0.722866 0.175067 -0.076080 0.007693 -0.469828 0.324727 0.081151 0.038613 -0.063376 0.337628 0.156981 -0.248423 -0.455893 0.456091 -0.555551 0.311060 -0.983620 -0.087111 0.055564 0.298901 -0.238636 -0.191549 -1.024267 0.471266 0.025756 -0.094359 -0.238301 0.287437 -0.234391 -0.109673 -0.271385 0.931100 -0.474184 0.445991 -0.366296 0.032012 -0.303197 0.312153 
