2803 100
女裤 0.112551 0.024722 0.335764 -0.249199 -0.306853 -0.024440 -0.116264 0.067068 0.181169 -0.044813 0.283874 -0.300697 -0.129354 -0.350468 0.031647 -0.009650 0.239572 0.153201 -0.191279 -0.321327 -0.179811 0.130353 0.133741 0.173919 -0.012385 0.350069 0.172770 0.061550 0.268637 -0.259413 0.338737 0.021210 0.132340 -0.111363 -0.336791 -0.193972 -0.043815 0.135277 -0.122236 -0.030140 -0.173060 0.050209 -0.219545 0.139319 0.104377 0.140575 0.293655 -0.135302 -0.083887 -0.051393 -0.087629 0.155381 -0.272562 0.198335 -0.069884 0.183612 -0.270477 0.070142 -0.152303 -0.060406 -0.120700 0.120699 0.412248 -0.044211 0.287229 0.094811 0.211064 -0.199261 0.318369 -0.133200 -0.276077 -0.177799 -0.091483 0.327606 0.227551 -0.180337 0.112525 -0.207315 0.349365 0.022938 -0.032631 0.076710 0.144230 0.131549 0.568470 -0.211868 -0.341777 0.043664 0.430078 -0.038889 0.161121 -0.031375 0.196336 -0.405664 0.249340 -0.098257 0.187017 0.023108 0.445617 0.067699 
包 -0.240602 0.101260 -1.357616 0.040674 -0.361314 0.480339 -0.292374 -0.297098 0.166871 0.634333 0.719738 0.702506 -0.121496 1.562819 1.060194 -0.665198 -2.049248 1.272514 1.270539 0.606225 -0.292778 0.338922 -0.730817 -0.169537 0.423508 -0.652234 -0.513561 0.303285 -0.519567 0.355491 -1.194129 -0.360646 -0.297756 -0.227082 1.288440 0.570501 -0.375727 -0.996531 -0.801846 0.916182 1.071071 0.144930 -0.438042 -0.466506 -0.237174 0.483115 0.182566 0.409940 0.449448 0.371909 -0.356532 -0.225578 0.863662 0.093001 1.398829 0.332620 0.525039 -0.053851 -0.647442 -0.008289 0.018361 0.392167 -0.916086 0.036566 -0.088576 -0.246031 0.508904 -0.241933 0.338380 0.922604 1.103363 -0.077888 0.422590 -1.154714 -0.830524 -1.291066 -1.476562 0.213539 0.016740 -0.172864 -0.420014 -0.457702 -0.384941 -0.191954 -0.923602 0.748004 1.201172 -0.084669 -0.755722 0.576474 0.025758 -0.834191 -1.069381 0.916118 -1.330421 0.563634 -1.862969 -0.546156 -1.010754 -0.508057 
袜 -0.500722 0.417333 -0.840828 0.585990 1.788808 0.337563 1.000400 0.064532 -0.003766 -0.273899 -2.908797 1.426201 -0.936072 1.514753 -1.651343 0.959386 -1.001821 -0.261261 0.538824 1.250837 0.773310 0.736961 0.084006 0.177268 -0.365786 -0.390943 -1.147333 0.111439 -0.075835 0.944598 -0.767065 0.568764 -0.646791 0.415136 0.454349 -0.540976 0.020946 -0.281839 0.985021 -1.656631 -0.747404 0.187682 1.048594 -0.336905 -0.141540 -0.774169 -1.517880 -0.984569 0.911835 0.946504 -0.290449 0.021184 -0.042812 -0.241139 -0.725353 -0.323145 -0.035360 -0.100247 0.385961 -0.228510 -1.618755 1.122867 -1.000203 -0.166576 -1.040038 0.000369 -0.201936 0.375839 -0.050316 0.560789 0.421556 -0.323522 -0.023877 -0.654654 -0.069171 1.142835 0.742816 0.168846 -0.712337 0.942947 0.059669 -0.241351 -0.750968 0.621811 0.199824 -0.234127 0.526711 0.092758 0.647166 -0.455069 -0.653947 0.981790 0.119129 0.163515 -0.112463 0.233153 0.844608 0.574695 0.453065 -0.503146 
链 0.342737 -0.068599 -0.130254 1.137660 1.601630 -1.040904 -0.039085 -0.406670 -0.538333 -0.099624 0.431704 -0.181712 -0.166922 1.279622 0.192886 -0.342972 0.142931 -1.432341 -0.412933 0.912711 0.523776 -0.143113 -1.339661 -0.401270 -0.043586 -1.482523 0.045881 -0.469570 -0.031317 0.427736 0.317054 -0.201479 0.226701 1.345270 -0.380658 0.099709 0.296264 1.051398 1.003796 0.965720 -0.609641 0.737414 0.143759 -0.524739 0.319626 -0.825973 -0.281232 0.521753 0.371074 0.605015 0.886719 -0.803404 0.718259 -0.192128 -0.682485 -0.295083 -0.502040 0.071326 -0.678556 -0.602785 1.083287 -0.746593 -0.813509 -0.705676 -0.495251 -0.031304 -1.171982 0.634026 -1.105727 -0.403136 -0.365018 1.318594 0.025422 -0.300058 0.125994 0.640397 -0.591557 0.720143 -0.312320 0.294335 -0.553335 0.519528 0.124738 -0.726104 -1.451713 0.040049 0.295871 0.471342 0.504606 0.695460 0.030006 0.251318 0.269891 1.282200 -0.862170 0.442959 -0.160990 -0.306413 -0.369971 -0.651255 
夹子 0.324149 0.161010 0.512401 -1.179913 -1.237632 -0.553599 -0.366536 -0.180881 -0.685401 0.251448 0.120587 -0.934359 0.741061 -1.402225 -0.279299 0.346298 -0.263356 -1.175291 0.638836 0.752908 0.636821 -0.772992 0.428791 0.366205 -0.067737 -1.088951 -0.397655 -0.296801 0.293343 0.887278 -0.952285 0.101264 0.008887 -0.353238 1.030145 1.433785 0.295604 0.157497 -0.056700 -0.323945 0.823270 -0.053644 1.317628 0.217484 -0.824627 0.781707 -1.179991 -0.443370 0.429762 -0.549684 0.144419 -0.488647 0.560026 -0.852208 -0.274922 -0.804797 0.302746 0.464251 1.823503 -0.051986 0.053199 -0.031368 -1.607795 0.948885 -0.651560 -0.422021 -1.409959 1.220216 -0.134808 -0.469870 0.236301 -0.354930 -0.029848 -0.341142 -2.338693 0.564815 0.163340 0.693129 -1.250822 -0.474895 0.409930 0.514771 -0.225361 0.065533 0.203366 1.141450 -0.673490 -0.339130 -0.593904 0.506499 -0.576727 0.338808 -0.496918 0.480062 0.471766 -0.672334 -0.274005 0.362983 -1.490488 -0.187352 
人造花 -0.366827 0.029963 -0.819645 0.817321 0.731839 0.059335 -0.438274 -0.429358 0.001102 -1.022327 -0.275272 -0.800016 -0.511389 1.054592 -0.862259 -0.145077 -0.761483 -1.821809 0.240744 0.640743 0.776562 0.456241 0.373372 -0.293334 -1.271971 1.036544 -0.051511 -0.832858 -0.564593 -0.609215 0.175343 -0.598536 -0.002393 0.513118 -1.017332 0.088327 -0.059832 -0.573945 0.034189 -0.389224 0.144876 -0.259102 -0.501486 0.649259 0.294828 0.300043 -0.086116 0.267531 -1.141675 -0.648794 0.754588 -0.456607 -0.262708 -0.326212 -1.990282 -0.012843 0.516016 -0.689282 0.307817 0.613811 -0.598949 0.543977 -0.882370 -0.127204 -0.096917 -0.484542 -0.749716 -0.393334 0.286997 -0.061524 0.222601 -0.105146 0.044722 0.390750 -0.253021 1.543632 0.628863 -0.393705 -0.838619 -0.036499 0.524261 0.389932 -0.250958 -0.466747 -1.867365 1.187221 0.964507 -0.887183 -1.484424 -1.050029 -0.036724 0.186147 -0.815801 1.437968 -0.531405 1.265558 0.128474 -0.005493 -0.683977 0.824356 
打底裤 -0.277678 0.373244 0.272156 0.486684 0.981888 0.270235 0.654836 0.119578 0.175018 -0.337471 -2.673116 0.981227 -0.728488 1.026777 -1.752472 0.756145 -0.172870 -0.308983 0.429978 1.180928 0.804603 0.819833 0.359010 0.071991 -0.504435 0.215739 -0.591451 0.248125 -0.164754 0.746263 -0.231108 0.494052 -0.763496 0.424374 0.105470 -0.793903 0.210432 -0.470311 0.904517 -1.557334 -0.812425 -0.175566 0.714485 -0.178522 0.002179 -1.026407 -1.631984 -0.625587 1.100078 0.932320 0.038118 0.131124 0.256128 -0.363468 -0.947507 -0.727886 -0.001370 -0.418486 0.504188 0.147385 -1.248867 1.111165 -0.690334 0.075193 -1.142824 -0.163310 -0.007199 0.272829 -0.553360 0.199892 0.396612 -0.197899 0.272954 -0.181885 0.013108 1.077489 0.587450 0.478333 -0.784238 1.115433 0.510329 -0.118863 -0.541054 0.898398 0.013009 -0.152674 0.757897 -0.227925 0.404216 -0.799078 -0.436990 0.704131 0.300396 0.479724 0.254824 0.248845 1.282126 0.201511 -0.091074 -0.471984 
玩具 -0.034082 -0.021508 -0.336179 0.549151 0.589178 -0.139381 0.124410 -0.011369 -0.495339 -0.086074 0.906884 0.301834 0.072197 0.522553 1.291087 -0.528067 -0.187880 -0.071796 -0.324532 -0.237630 0.870297 -0.117100 -0.488303 -0.480411 -0.133399 -0.432208 -0.200701 0.112510 -0.966663 1.036456 -0.556655 -0.083356 0.251484 0.081032 0.322170 -0.040686 0.524079 -0.046436 0.609283 0.728527 -0.321045 -0.310711 -0.257869 -0.028726 0.494994 -0.188247 -0.230272 0.760283 -0.607356 0.006036 0.557174 0.239865 0.710714 -0.290109 -0.713113 -0.287287 0.839122 -0.293417 -0.907192 0.949136 0.657200 -0.945976 -0.560879 -0.153317 -0.282843 -0.759832 -0.361042 0.422487 -1.225329 0.118713 0.345049 0.350565 0.562050 -0.010314 -0.103922 0.101327 -0.393890 0.587516 0.062183 -0.553661 0.145673 -0.436817 -0.201864 -0.900967 -1.501185 0.717691 1.447013 0.114615 -1.150572 -0.921372 -0.578344 -0.092922 -0.522424 1.231585 -1.244408 0.999794 -0.206986 -0.314961 -0.115518 -0.190442 
uxuzgxbr -0.046519 0.581809 -0.135761 1.016086 0.826922 -0.514634 -0.461980 0.242799 -0.175152 -0.197676 0.293217 -0.110411 -0.288864 1.397493 0.949440 -0.536655 -0.201238 -0.670232 0.298476 0.834272 0.072701 -0.753253 -0.869984 -0.393294 -0.321913 -1.206025 -0.104633 -0.606731 -0.134690 0.336789 0.476177 -0.195219 -0.117335 0.724689 0.048951 0.180389 -0.172257 0.044877 0.353056 1.236125 -0.072186 0.294102 -0.029605 -0.609732 0.077964 0.101902 -0.471541 0.779625 -0.011259 0.203613 0.147823 -0.682886 0.649795 -0.001347 -0.189662 0.275321 0.167355 -0.034076 -0.854025 -0.265627 0.460354 -0.359673 -0.276241 -0.219734 -0.056907 -0.214832 -0.953416 0.012420 -0.566479 0.118528 0.133877 0.686937 -0.429328 -0.218585 -0.531612 0.029132 -0.895208 0.449825 -0.370167 0.007620 -0.179801 0.612249 0.322961 -0.750588 -1.127816 0.582587 0.219579 0.305865 0.053271 0.632690 -0.220548 -0.345932 0.148214 0.760550 -0.656144 0.288218 -1.162725 -0.787497 -0.673391 -0.209220 
uxuzgxbx -0.061432 -0.102567 -0.836382 1.272671 1.607266 -0.286387 0.115291 -0.078353 -0.384991 -0.342898 -0.170776 0.148265 0.010925 1.461023 0.284952 -0.161253 -0.026968 -0.915659 -0.033292 0.652816 0.148870 -0.072569 -0.631686 -0.622759 -0.028261 -1.345478 -0.258778 -0.701122 0.181211 0.416764 0.405136 -0.570238 0.031527 0.708112 -0.170900 0.074583 0.147456 0.454661 0.714056 0.837063 -0.567761 0.330754 -0.086671 -0.557958 0.619673 -0.548805 0.295686 0.440403 0.123288 -0.086496 1.097954 -0.211889 0.503318 0.419621 -0.406297 0.234384 0.128576 0.152686 -0.745717 0.200227 0.177477 -0.397257 -0.453504 -0.511736 -0.322209 -0.421627 -0.408812 0.422726 -0.724389 0.162527 -0.063637 1.323690 0.330658 0.045648 0.645294 0.469134 -0.427816 0.332260 -0.192243 0.199413 -0.773073 0.164660 0.361259 -0.454693 -0.876517 0.009800 0.213684 -0.023119 0.372804 0.188343 -0.203495 0.185805 -0.305797 1.021295 -0.454537 0.540151 -0.424218 -0.117146 -0.380679 -0.356934 
饰品 0.389302 0.088785 -0.198627 0.755341 0.940909 -0.911878 -0.410712 -0.075930 -0.722157 -0.492794 0.202629 -0.424617 0.092411 0.919716 0.298504 -0.287781 0.155742 -1.746265 -0.116931 0.748877 0.156511 -0.428999 -1.064438 -0.336026 -0.249305 -1.212913 -0.132027 -0.844819 -0.094604 0.147491 0.500330 -0.400509 -0.051441 1.238756 -0.157244 0.632950 0.271617 0.617337 0.598353 1.059554 -0.006184 0.462399 0.380689 -0.199066 0.043175 -0.148948 0.226372 0.382101 0.034893 -0.090736 0.896765 -0.908521 0.462789 -0.187896 -1.210176 -0.209539 0.087232 0.060611 0.028362 -0.179402 0.480442 -0.677252 -1.358825 -0.067859 -0.240745 -0.118606 -1.349382 0.842031 -0.661711 -0.103086 -0.106928 1.163041 -0.151320 -0.001817 -0.512555 0.662019 -0.662825 0.434149 -0.835286 0.131847 -0.120630 0.769175 0.191914 -0.653250 -1.306890 0.437413 -0.303727 0.251587 0.159700 0.675804 -0.039057 0.054102 0.206533 1.267337 -0.658629 0.807480 -0.707610 -0.243643 -0.477710 -0.178524 
uxuzgzcx -0.982795 0.229927 -0.418923 0.166597 0.900221 0.530248 0.417738 -0.136567 0.287561 -0.068672 -1.956200 0.779559 -0.735772 0.695339 -1.127659 0.576226 -0.378766 0.153073 0.207303 0.973818 0.343993 0.209625 0.227578 -0.033677 -0.184951 -0.041966 -0.903181 0.197394 -0.137575 0.903600 -0.770854 0.444526 -1.020260 -0.065833 0.745867 -0.020684 0.185655 -0.370293 0.628994 -1.628055 -0.150770 -0.204449 0.863929 -0.142034 -0.277224 -0.784174 -1.316584 -0.723377 0.899077 0.580692 -0.224439 -0.103569 -0.045111 -0.550320 -0.687207 -0.682993 0.198268 0.355816 0.982879 0.024519 -0.775020 0.850159 -0.848393 0.214699 -0.596819 0.045082 -0.306527 0.406006 -0.151085 0.240144 0.568325 -0.007936 -0.098416 -0.420075 -0.617115 0.391341 0.614687 0.471252 -0.540211 0.342511 0.276770 0.022733 -0.333371 0.693655 0.036058 -0.086535 0.117217 -0.300232 0.131402 -0.258288 -0.510120 0.148534 0.286635 0.181856 0.085093 -0.290301 0.889512 -0.036200 0.126829 -0.169985 
项链 0.357237 0.138835 -0.253831 1.222792 1.660324 -0.894936 -0.293960 -0.178771 -0.284516 -0.131576 -0.002112 0.021809 -0.376640 1.739825 0.068384 -0.354422 0.009170 -1.210660 0.091163 1.194285 -0.063428 -0.101415 -1.559355 -0.340208 -0.106613 -1.721732 -0.309196 -0.622761 0.316570 0.292984 0.756768 -0.256764 -0.133158 1.674814 -0.036062 0.268291 0.099146 0.778252 1.004451 1.048229 -0.410296 0.896078 0.225051 -0.785963 0.205270 -0.842918 -0.065759 0.489222 0.773027 0.761180 0.841460 -1.115410 0.726611 0.158075 -0.426084 -0.216341 -0.243478 0.039250 -0.601425 -0.790477 0.833149 -0.525680 -1.108760 -0.794008 -0.494176 0.135403 -1.086548 0.628855 -0.974432 0.029853 -0.067538 1.716461 -0.243200 -0.621438 -0.126034 0.513063 -0.978725 0.615690 -0.615047 0.441216 -0.575533 0.680163 0.084416 -0.544438 -1.480133 -0.024651 0.101989 0.473143 0.854035 1.024529 0.010236 0.102185 0.368637 1.302486 -0.849025 0.439475 -0.677274 -0.330852 -0.445995 -0.804151 
耳环 0.433827 0.245571 -0.285498 0.976081 1.552612 -0.774954 -0.272651 -0.003650 -0.387607 -0.311574 -0.242856 0.223211 -0.260466 1.628002 0.027401 -0.350896 0.068117 -1.084529 0.240308 1.035769 0.003971 -0.178625 -1.147313 -0.251159 -0.195280 -1.766951 -0.412336 -0.669108 0.197617 0.365493 0.766420 -0.378348 -0.264979 1.537650 0.301477 0.341480 0.081085 0.442594 0.994321 1.101901 -0.460244 0.652160 0.271258 -0.840743 0.234033 -0.468605 0.087190 0.445754 0.562018 0.429945 0.754257 -0.905201 0.450450 0.143269 -0.522776 -0.232920 0.071695 0.122860 -0.559247 -0.562896 0.373762 -0.364569 -1.029216 -0.543769 -0.285227 0.171826 -0.971056 0.459579 -0.809667 0.372583 0.042058 1.523851 -0.198565 -0.331188 -0.235650 0.327027 -0.975962 0.471150 -0.499032 0.347761 -0.551461 0.498729 -0.081051 -0.392598 -1.093697 0.049328 0.024109 0.357337 0.642024 0.705509 -0.092051 -0.032097 0.267975 1.178323 -0.680390 0.471959 -0.759830 -0.426411 -0.414427 -0.701867 
uxuzgzcz -0.330277 -0.053096 0.032525 0.020209 0.533365 0.189944 0.686410 -0.144511 -0.013643 0.088707 -1.945611 0.638451 -0.250494 0.437690 -1.202407 0.833031 -0.184960 -0.346806 0.091790 0.803728 0.420409 0.219487 0.506884 0.259628 -0.211261 -0.174944 -0.650880 0.094229 -0.351096 0.909097 -0.941740 0.103038 -0.633527 0.133218 0.256074 -0.268849 -0.388975 -0.468841 0.206949 -1.128748 -0.123145 -0.733967 0.817057 -0.382617 -0.192654 -0.589082 -0.850129 -0.587214 0.278866 0.731582 0.056334 -0.275159 0.444231 -0.747452 -0.461843 -0.915345 0.357720 -0.102541 0.786998 -0.215522 -1.035542 0.141902 -1.286767 0.128398 -0.953748 -0.216278 -0.644379 0.604712 0.030555 -0.451625 0.046267 -0.444709 -0.389727 -1.000972 -0.714197 0.766873 0.824534 -0.084709 -0.610682 0.523817 -0.163197 -0.191208 -0.454550 0.775670 0.310133 -0.315362 -0.093553 -0.101810 0.088447 -0.294991 -0.732711 0.369278 0.075051 -0.247560 0.501491 -0.260494 0.817573 0.211156 -0.313236 -0.500502 
杯 -0.286145 -0.152903 -0.540190 0.600751 0.787560 -0.041015 0.814824 0.011812 -0.592850 -0.040957 -0.464345 0.605150 0.365192 0.675623 0.355896 0.164311 -0.360783 -0.856495 -0.462773 0.409103 1.337244 -0.712551 0.666126 -0.531636 0.170266 -0.815470 0.146283 -0.015235 -0.886582 1.298473 -1.297386 0.100019 -0.051270 -0.450563 -0.037827 -0.242471 0.344184 0.086168 0.470250 0.100901 -0.761599 -0.203828 0.522235 -0.197149 0.322165 -0.603150 -1.440654 0.047558 -0.140518 -0.128549 0.492783 0.784014 0.447161 -0.788268 -0.809453 -0.024687 0.200733 0.261653 -0.287700 0.683821 -0.345690 -0.085311 0.049019 0.202514 -0.411604 -0.580072 -0.742954 0.166036 -0.557551 -0.249236 -0.211824 -0.208387 0.331486 0.517858 0.255200 0.388308 0.620106 0.939073 -0.084314 -0.275363 -0.256570 -0.456018 0.104788 -0.079766 -0.383638 0.548994 0.635729 -0.075877 -1.007612 -0.644584 -0.479922 0.206404 -0.025181 0.485782 -0.060580 0.187616 0.238747 -0.423075 -0.481843 -0.019619 
刀具 -0.357931 -0.491474 -0.989610 0.179083 0.442784 -0.122974 0.863109 -0.345315 -0.624871 0.093957 -0.569337 0.648068 1.421867 -1.250333 -0.404224 0.315733 -0.048675 0.138567 -0.059011 0.123816 0.382328 -0.607798 0.364397 -0.472533 0.608377 -0.174571 0.306632 0.164956 -0.852851 0.034028 -1.075693 0.003160 0.211311 -0.493169 0.795434 0.646252 0.002928 -0.345591 -0.195014 -0.314491 0.685067 -0.372574 0.450142 -0.031975 -0.679748 0.222552 -0.365884 0.204035 -0.688453 -0.157865 -0.416281 -0.075532 0.197301 -0.958838 0.958228 -0.555004 0.408000 0.050917 0.665660 0.067223 0.694202 -0.779654 -0.311279 0.676377 -0.490368 -0.339615 0.125606 0.452394 -0.398447 -0.081801 0.869700 -0.090414 0.390453 -0.723610 -0.402859 0.237322 0.559102 -0.234293 -0.449180 -0.068814 0.433596 -0.676711 -0.341550 -0.361952 -0.690638 0.147885 0.642129 -0.248559 -1.772108 -0.037413 0.153055 0.786789 -0.473693 -0.007945 -0.041041 -0.048849 0.453284 0.229284 -0.994967 0.446123 
手链 0.350521 -0.015139 -0.188370 1.058763 1.402989 -0.877325 -0.294407 -0.301127 -0.169393 -0.015490 -0.029750 -0.024579 -0.252641 1.653837 0.077749 -0.398371 -0.045587 -1.354661 0.083305 1.018886 -0.029344 -0.098193 -1.403720 -0.387576 -0.147920 -1.593914 -0.253838 -0.733761 0.331377 0.106350 0.530876 -0.317759 -0.073267 1.514347 -0.051712 0.402445 0.264821 0.695044 0.872153 1.016588 -0.136157 0.924708 0.157490 -0.757762 0.146210 -0.761513 -0.076659 0.491561 0.718149 0.352883 0.906629 -1.056080 0.643876 0.101984 -0.358668 -0.264798 -0.076060 -0.064032 -0.375076 -0.633560 0.791887 -0.511783 -1.145555 -0.575367 -0.443055 0.084639 -1.096478 0.634950 -0.841799 0.072679 -0.041687 1.554517 -0.134702 -0.543470 -0.092779 0.571523 -0.821482 0.537166 -0.685878 0.351923 -0.610689 0.703401 0.037179 -0.526531 -1.525651 0.158625 -0.004057 0.265100 0.730571 0.858490 -0.035190 0.125578 0.253498 1.398016 -0.728503 0.442766 -0.658505 -0.293642 -0.550082 -0.562232 
车 0.223236 -0.254056 -0.367896 0.128878 -0.031384 0.080917 0.199573 -0.268513 -0.504629 0.097706 0.850330 0.281868 0.376031 0.035159 0.628050 -0.428759 -0.063984 0.277767 -0.341933 -0.423653 0.645685 -0.239076 -0.440801 -0.227282 0.299878 -0.413904 0.061027 0.319392 -1.039002 0.811638 -1.036246 -0.084337 0.141436 -0.070475 0.744036 0.225233 0.236751 -0.075283 0.350440 0.523560 0.203238 -0.075608 0.008387 -0.095793 0.122534 -0.064203 -0.123543 0.517088 -0.612681 -0.129444 0.251392 0.253376 0.476027 -0.500117 -0.204162 -0.413130 0.608281 -0.218900 -0.700286 0.788717 0.577464 -0.827159 -0.658701 0.160957 -0.060284 -0.556364 -0.279701 0.400300 -0.712688 0.189698 0.417106 -0.087025 0.578416 -0.299261 -0.068404 0.108092 -0.350870 0.314749 0.152714 -0.445623 0.197795 -0.735850 -0.441126 -0.711638 -1.141994 0.670525 1.450570 0.006150 -1.616445 -0.692375 -0.415959 0.197137 -0.585238 1.011815 -0.992061 0.409372 -0.213110 -0.115693 -0.612169 -0.345935 
uxuzgzcp -0.355404 0.102810 -0.493155 0.333178 0.918046 0.389645 0.415349 -0.200223 -0.064424 0.337116 -1.507850 0.962521 -0.203836 0.623288 -1.325517 0.738900 -0.627579 0.016028 0.944832 0.932004 0.394364 0.380051 0.418357 0.194104 -0.327879 0.193202 -0.649621 0.092491 -0.184737 0.582236 -0.726875 0.374427 -0.447553 -0.020189 0.131366 -0.790367 -0.469800 -0.420710 0.219312 -1.454202 0.118450 0.037914 0.820292 -0.141568 -0.328089 -0.538353 -1.248574 -0.821944 0.848235 0.586266 -0.268935 0.222753 0.222728 -0.315612 -0.249726 -0.186608 -0.059842 -0.008259 0.732791 -0.136318 -0.899536 0.813545 -0.244773 0.367662 -0.709244 -0.111087 -0.088040 -0.081343 -0.129090 0.537239 0.623696 -0.347167 0.179888 -0.649801 -0.490555 0.684265 0.320228 0.566467 -0.449497 0.561960 0.276832 -0.570163 -0.776657 0.856699 -0.048129 -0.019597 0.509289 -0.117773 -0.222904 -0.057815 -0.372506 0.223810 -0.371209 0.110569 0.026459 -0.420097 0.588561 0.322053 -0.629256 -0.497482 
西装套装 -0.191510 0.055183 0.033605 1.224943 0.252486 0.167623 0.563924 0.149963 -0.822912 -0.614326 -1.028451 0.798792 0.675295 -0.309675 -0.343317 -0.169616 0.474249 -0.159365 -0.103295 0.159002 0.859840 0.226566 0.531364 -0.733848 0.029718 0.399175 0.395747 0.055769 -0.659728 0.215424 0.279243 0.300039 -0.741042 -0.208462 0.662307 -0.043468 0.585387 -0.579911 0.673264 -0.313361 0.122448 -0.930859 0.176745 0.135271 0.359450 -0.069375 -0.604187 0.396242 -0.623483 0.197681 0.053673 -0.246603 0.577653 -0.069234 -0.233225 -0.619517 0.245136 -0.525097 -0.004009 0.793354 0.351590 -0.394043 -0.030631 0.115644 -0.685230 -0.262882 0.376763 -0.243078 -0.836906 0.027367 0.675112 0.384589 0.263955 0.221131 0.434266 0.792467 0.231774 0.479255 -0.690208 -0.273994 0.935598 -0.337425 -0.344267 -0.641077 -0.935312 0.329656 1.049484 -0.334305 -1.057885 -0.838021 0.538627 0.209473 -0.269913 0.383819 0.009582 0.048752 0.066766 0.151429 -0.194951 0.664007 
女童外衣 -0.334858 0.379315 0.378692 0.944525 -0.003445 0.493110 0.549739 0.479543 -0.141210 -0.319059 -2.163377 1.046006 0.214416 0.249461 -1.141611 0.336402 0.313506 0.213910 0.460538 0.636284 0.594177 0.446844 0.331151 -0.382185 -0.231985 0.496942 0.072189 0.242172 -0.541855 0.188352 0.317159 0.520591 -0.962481 -0.098577 0.643701 -0.514385 0.379574 -0.829235 0.623044 -0.947387 -0.000102 -0.890679 0.444859 0.008784 -0.102423 -0.612562 -1.182819 0.242769 0.375417 0.478532 -0.079434 -0.062115 0.537951 0.190705 0.352707 -0.652667 0.330615 -0.917667 0.649095 0.524220 -0.175384 0.432186 0.185859 0.079547 -0.980076 0.026551 0.794674 -0.327151 -1.111382 0.317595 0.526003 0.303493 0.131164 -0.017730 0.481374 0.748993 0.290353 0.723179 -1.021860 0.220222 1.230453 -0.190196 -0.408947 -0.071853 -0.648781 -0.045664 0.999933 -0.379485 -0.382065 -0.763155 0.284401 -0.033502 0.069868 0.192747 0.427437 -0.236336 0.068143 0.403426 -0.386368 0.458200 
手包 -0.245248 0.063420 -1.224492 0.020414 -0.126377 0.439744 -0.149322 -0.153999 0.130381 0.797308 0.011019 0.948897 0.123806 1.339183 0.484255 -0.369911 -1.628500 1.176270 1.285663 0.705053 -0.693899 0.079047 -0.692667 -0.051358 0.503114 -0.917091 -0.587032 0.302280 -0.317007 0.217443 -0.952549 -0.214275 -0.427591 -0.049384 1.471722 0.747169 -0.395089 -0.961400 -0.752828 0.648096 1.238919 0.182809 -0.048120 -0.671202 -0.564730 0.217303 -0.022496 0.228748 0.800700 0.451545 -0.356232 -0.499980 0.680332 0.062063 1.815376 0.188836 0.423714 -0.063421 -0.137880 -0.324102 0.192200 0.336764 -0.840539 -0.057757 -0.264434 0.076876 0.412044 -0.022868 0.197442 0.860579 1.155621 0.087863 0.317481 -1.471632 -0.865011 -1.050824 -1.314991 0.144425 -0.282501 -0.034106 -0.271288 -0.341092 -0.362283 -0.037677 -0.784507 0.419372 0.728256 -0.125284 -0.534972 0.879342 -0.012879 -0.608467 -0.816338 0.553196 -0.893797 0.160790 -1.636033 -0.338061 -1.128770 -0.479392 
绳 0.016411 -0.343675 0.111646 0.005426 0.154972 -0.117137 0.370101 -0.720767 -0.062434 0.133754 -0.575880 -0.007237 0.073227 -0.122013 -0.225959 0.334708 -0.164535 -0.782974 -1.112726 -0.308430 0.739667 -0.296726 0.098284 -0.456410 -0.064428 -0.204604 -0.156698 -0.068072 -0.097689 0.316033 -0.385899 -0.056460 -0.074472 0.499134 0.221878 0.439101 0.511312 0.555500 0.851594 -0.524578 0.104149 0.106328 0.633480 -0.047017 -0.448409 -0.727117 -0.313881 -0.298188 0.033912 -0.351379 0.342162 -0.187384 0.215968 -0.799140 -0.387579 -0.820121 0.705152 0.582399 0.826369 -0.153103 0.339118 -0.544726 -1.162186 -0.276570 -0.767650 -0.125586 -0.951377 0.784359 -0.538557 -0.605221 0.260334 0.445267 -0.447916 -0.255505 -0.065294 0.915559 0.520663 -0.108384 -0.548126 -0.295947 -0.246041 0.028312 0.106904 -0.442232 -1.031084 0.096311 -0.193102 0.035417 -0.231302 -0.230404 -0.233992 0.938434 0.740914 0.468976 0.242543 -0.085872 0.667277 -0.342651 -0.211977 0.146741 
办公用笔 -0.574413 -0.361205 -0.603495 0.471490 0.736795 0.588291 0.451871 -0.680011 -0.420072 0.528847 -0.669377 0.856605 0.035963 -0.178609 -0.558872 0.455232 -0.283349 0.340511 0.238544 0.334512 1.092692 0.535231 0.629515 -0.150577 -0.378539 0.484078 -0.566182 0.113717 -0.806733 1.077569 -1.133137 0.266162 -0.278127 -0.530407 0.122234 -0.682953 -0.308164 -0.307764 0.608825 -1.630995 0.056376 -0.820915 0.788636 0.134674 -0.047594 -0.485315 -1.061372 -0.293427 -0.223718 0.381097 0.102263 0.241540 0.490259 -0.999536 -0.684704 -0.491593 0.537596 0.012486 0.412185 0.286461 0.093317 -0.037415 -0.233850 0.202537 -0.519289 -0.310325 -0.679786 0.014915 -0.314891 0.121891 0.330268 -0.696446 -0.016369 -0.515131 -0.842870 0.290855 0.550554 0.478240 -0.432658 -0.463433 0.170165 -0.885691 -0.533716 0.265857 -0.385159 0.011887 0.673179 0.144606 -1.063559 -0.503315 -0.690578 -0.039126 -0.601438 0.048591 -0.033844 -0.704883 1.101707 0.071477 -0.712022 -0.198874 
uxuzgrzx 0.015422 0.161187 0.028261 -0.062512 -0.301754 0.004300 -0.465932 -0.028766 -0.328509 -0.201073 -0.115547 -0.672178 0.371958 -0.267905 -0.042451 0.153783 -0.007637 -1.573338 0.335107 0.288940 0.134720 -0.641168 0.262344 -0.068229 -0.561469 -0.298816 -0.056769 -0.851993 0.038739 -0.038527 -0.291441 -0.169917 -0.067671 0.030292 -0.189125 1.040279 0.143854 -0.143990 -0.367170 0.141400 0.629234 -0.186945 0.794028 0.415001 -0.426237 0.234315 -0.441198 0.123698 -0.011216 -0.851189 0.609648 -0.452186 0.269865 -0.301086 -0.917789 -0.208534 0.406870 -0.192820 1.388745 0.423507 0.113801 -0.052771 -0.897056 0.610542 -0.724897 -0.151814 -1.125062 0.883634 -0.406566 -0.185453 0.221211 0.260353 0.191729 0.085369 -1.113544 1.069632 0.081283 0.370399 -1.444124 -0.002278 0.349932 0.643512 0.109072 -0.319685 -0.948890 0.903995 -0.650713 -0.245229 -0.807410 0.259081 -0.323580 -0.099678 -0.410409 0.622160 0.181758 0.295710 -0.424520 0.018503 -1.155510 0.619412 
uxuzgzfr -0.216382 0.126504 -0.389289 0.027355 0.603727 0.137213 0.355269 -0.112474 0.144521 -0.236340 -1.548694 0.550458 -0.656702 0.496657 -0.722765 0.740403 -0.356101 -0.335795 0.261200 0.396644 0.660291 0.210534 0.532870 0.127978 -0.208727 -0.074517 -0.474449 0.239108 -0.087056 0.303072 -0.349948 0.353063 -0.312230 0.031080 0.166583 -0.246456 0.153523 -0.076603 0.814539 -1.147472 -0.472272 -0.189595 0.559627 -0.078484 -0.248768 -0.606302 -1.269161 -0.255802 0.420504 0.377790 -0.136986 -0.100028 0.174812 -0.258239 -0.363549 -0.484621 0.722826 0.072117 0.723093 0.052946 -0.560898 0.554280 -0.287483 -0.018830 -0.509480 -0.093782 -0.163821 0.037106 -0.434861 0.177565 0.370576 -0.222637 -0.181613 -0.240015 -0.351579 0.758988 0.569414 0.054417 -0.434120 0.404220 -0.203916 0.012303 -0.432812 0.178263 -0.248368 0.055666 0.403721 0.107259 0.012594 -0.415087 -0.599351 0.415428 0.381671 0.410706 0.442802 -0.003917 0.706043 0.286297 -0.336245 -0.110254 
线 -0.094801 -0.535420 -0.308312 0.244739 0.285665 -0.193077 0.653105 -0.546011 -0.030304 -0.016120 -0.756353 0.261594 0.329641 -0.116845 -0.180920 0.352894 0.001753 -0.385450 -0.864948 -0.270239 0.370168 -0.297235 0.211623 -0.539191 0.167573 0.012953 0.107638 -0.045495 -0.193795 0.120180 -0.561517 0.047061 -0.352365 0.267664 0.759077 0.466361 0.432118 0.181119 0.718575 -0.487526 0.335165 -0.173447 0.409728 -0.071813 -0.523465 -0.567170 -0.174763 -0.152900 -0.143406 -0.043965 0.058685 -0.183862 0.373742 -0.565649 0.069963 -0.874007 0.494491 0.459402 0.788058 -0.040250 0.326452 -0.402008 -0.867099 -0.027622 -0.497634 -0.044031 -0.369289 0.551966 -0.490595 -0.282863 0.537595 0.299957 -0.422276 -0.591764 -0.034824 0.495883 0.184853 -0.278578 -0.429665 -0.119663 -0.035535 -0.125215 -0.082002 -0.343213 -0.852849 0.122842 -0.145392 -0.003267 -0.563117 0.013065 0.084738 0.757193 0.591661 0.065929 0.084988 -0.256155 0.625638 -0.162967 -0.136230 0.318416 
帽 -0.525465 -0.052829 -0.123452 0.374888 0.086132 -0.222863 0.084285 -0.036146 -0.151636 -0.374403 0.104043 -0.282987 0.073850 0.172590 0.470006 -0.012963 -0.131893 -0.721130 -0.022226 -0.073602 0.611368 -0.134426 0.293839 -0.239806 -0.447564 0.303098 -0.060709 -0.350247 -0.590872 0.331997 -0.010656 -0.050579 -0.136692 0.002045 0.072177 0.157381 0.354280 -0.096185 0.225070 -0.013647 0.135743 -0.562124 0.113058 0.123482 0.067207 -0.069244 -0.465530 0.410521 -0.498454 -0.413791 0.129673 -0.101052 0.364172 -0.289612 -0.677648 -0.251517 0.703127 -0.226886 0.452206 0.562454 0.152298 -0.227674 -0.357090 0.195548 -0.296431 -0.188689 -0.598998 0.101111 -0.691345 -0.077414 0.211319 0.159075 0.089140 0.305382 -0.120917 0.578103 0.148519 0.345957 -0.569952 -0.125911 0.185430 -0.083316 -0.015823 -0.593799 -0.919439 0.610300 0.515423 -0.065209 -0.767807 -0.392880 -0.138994 -0.129057 -0.278344 0.554798 -0.034887 0.203530 -0.430589 0.188827 -0.289375 0.338209 
背包 -0.355425 -0.025648 -1.338485 0.154931 -0.035933 0.623615 0.060398 -0.229582 0.179499 0.809228 0.113610 1.091325 0.083137 1.241111 0.866997 -0.280841 -1.438424 1.203886 1.022918 0.583837 -0.491587 -0.055968 -0.863994 -0.149016 0.594100 -0.904596 -0.453150 0.461634 -0.467045 0.392224 -1.174508 -0.208994 -0.444801 0.021987 1.395166 0.451918 -0.365810 -0.859304 -0.536020 0.587856 1.088811 0.305969 -0.025252 -0.650789 -0.480684 0.182215 -0.098957 0.623189 0.470653 0.498394 -0.451750 -0.217866 0.679926 0.117048 1.878635 0.208355 0.630260 -0.077527 -0.243950 -0.225384 0.294669 0.033743 -0.422701 0.017353 -0.092608 0.241146 0.622241 -0.084285 -0.106357 0.859948 0.755717 0.071555 0.159857 -1.403255 -0.468527 -1.375902 -1.091257 0.136224 -0.014396 -0.365483 -0.384549 -0.455065 -0.448367 0.034500 -0.880774 0.387944 0.992385 -0.081342 -0.718386 0.674043 -0.362485 -0.549219 -0.683429 0.453836 -0.956773 -0.150644 -1.465499 -0.310162 -0.874251 -0.560540 
架及笼 -0.273316 -0.257629 -0.266122 0.260998 0.155593 -0.028868 0.531785 -0.145555 -0.599754 -0.256642 -0.178826 0.324159 0.306144 0.362595 0.204664 0.177235 0.015534 -0.545561 -0.019563 0.541494 0.965343 -0.660177 0.457466 -0.323782 0.187437 -0.533162 -0.102518 -0.071810 -0.754278 1.119075 -1.338252 0.069219 0.297675 -0.415100 0.075921 0.160225 0.368446 0.074540 0.142218 0.110501 -0.275787 -0.194345 0.284006 0.124695 0.237044 -0.103034 -0.880914 0.367577 -0.132986 -0.352161 0.223610 0.281038 0.229383 -0.707236 -0.554343 -0.371011 0.572465 0.072835 -0.019637 0.572727 -0.031412 -0.296694 -0.234773 0.371109 -0.040834 -0.426504 -0.729754 0.225471 -0.492884 -0.136226 -0.152598 -0.169229 0.233968 0.303292 0.015677 0.327475 0.363641 0.357005 0.113881 -0.323415 0.003358 -0.092569 0.106352 -0.048066 -0.075948 0.550061 0.675965 -0.092902 -1.178460 -0.638045 -0.729136 0.116005 -0.421708 0.664188 -0.219893 -0.031913 0.191240 -0.180663 -0.622363 -0.190480 
uxuzgrzz -0.340691 0.219649 -0.118030 -0.082217 0.081842 -0.120449 -0.291225 0.121174 -0.205924 -0.073437 -0.011166 -0.586537 0.224034 -0.257922 0.012633 0.170035 0.119932 -1.365717 0.267728 0.301820 0.087451 -0.579871 0.124425 0.009400 -0.480559 -0.125275 -0.130844 -0.768357 0.097402 -0.173871 -0.266068 -0.155518 -0.232210 0.123307 -0.042206 0.828632 0.187391 -0.001201 -0.143232 -0.065867 0.954112 -0.410159 0.592749 0.273830 -0.432802 0.181556 -0.541553 0.263755 0.047593 -0.766663 0.391454 -0.442690 0.202739 -0.286525 -0.809470 -0.233139 0.410716 -0.313469 1.429877 0.470462 -0.058416 -0.114863 -1.063643 0.813207 -0.653128 -0.273038 -1.024714 0.797578 -0.267376 -0.175419 0.143294 0.183096 0.264710 -0.159369 -1.122664 1.002735 0.167221 0.540329 -1.384210 -0.067316 0.112401 0.381710 0.131667 -0.251313 -1.166923 0.634921 -0.620097 -0.294026 -0.639074 0.329294 -0.387082 -0.082183 -0.489646 0.550854 -0.015395 0.048643 -0.490865 0.369465 -0.742288 0.542268 
uxuzgzfz -0.218053 0.218396 -0.236368 0.083801 0.701102 0.566148 0.764304 0.153183 0.039885 0.022514 -1.462103 0.793133 -0.578116 1.087075 -0.705464 0.500051 -0.553829 0.020067 0.435192 0.602799 0.294246 0.089647 0.132568 0.035249 -0.058805 -0.117241 -0.359728 0.067817 -0.100237 0.597634 -0.465968 0.370180 -0.153597 0.086726 0.308727 -0.403936 0.171507 -0.297733 0.419048 -0.670015 -0.390750 -0.081271 0.376035 -0.378535 0.145412 -0.630063 -1.032435 -0.283329 0.705189 0.246925 0.022858 0.162314 -0.068959 -0.316638 -0.240231 -0.270024 0.148891 -0.295995 0.195083 -0.045255 -0.736846 0.578790 -0.256587 -0.299571 -0.691732 0.070063 -0.176977 0.063348 -0.156447 0.338709 0.196488 -0.291744 -0.073993 -0.476956 0.091213 0.604151 0.283485 0.191780 0.000810 0.434235 0.087402 -0.220615 -0.421113 0.396119 -0.224734 0.079122 0.504390 0.080534 0.055603 -0.157380 -0.353127 0.438083 0.083568 0.340600 -0.026152 -0.054761 0.262055 0.200460 -0.127123 -0.284696 
uxuzgxbz 0.284431 0.050659 -0.055713 0.504534 0.921025 -0.502816 -0.255259 -0.120148 -0.319085 -0.080689 0.415054 0.101211 -0.036893 0.858189 0.357633 -0.330485 0.161052 -0.794543 0.094265 0.392494 0.116066 -0.107960 -0.842841 -0.278557 0.089381 -1.135438 -0.123423 -0.270261 0.115698 0.423175 0.115667 -0.144847 0.106584 0.864591 0.082032 0.226343 0.163476 0.342824 0.647913 1.011438 -0.276254 0.457424 0.048633 -0.358571 0.343392 -0.458317 -0.103742 0.556739 0.389195 0.161393 0.767690 -0.475630 0.532645 0.073266 -0.374713 -0.218720 0.091253 -0.220029 -0.576592 -0.180771 0.634223 -0.479542 -0.669463 -0.399329 -0.272797 0.073985 -0.777483 0.414805 -0.756541 0.250637 0.027583 1.103733 0.105440 -0.083156 -0.078499 0.232221 -0.671409 0.546293 -0.375647 0.102532 -0.446850 0.177564 -0.031814 -0.380146 -1.175328 0.283992 0.437533 0.197166 0.047458 0.387029 -0.179484 -0.084485 -0.032059 1.174076 -0.815555 0.323599 -0.635829 -0.272035 -0.323879 -0.412660 
皮筋 -0.183547 0.019411 -0.010844 0.185770 -0.049467 -0.216490 -0.319370 -0.169062 -0.195932 -0.189005 -0.462469 -0.486477 0.108395 0.130715 -0.173234 0.156572 -0.082353 -1.475957 0.160810 0.207793 0.167806 -0.268073 0.094851 -0.042189 -0.726119 0.103062 -0.322067 -0.694648 -0.004616 -0.357093 0.032015 -0.287569 -0.086099 0.290225 -0.382262 0.722328 0.207783 0.140041 -0.234885 -0.067771 0.613686 -0.107541 0.506897 0.508319 -0.276988 0.124412 -0.095852 -0.078441 -0.116248 -0.825417 0.358021 -0.510224 -0.065883 -0.273364 -1.014384 -0.323293 0.502419 -0.128966 1.308886 0.524363 -0.161886 -0.088555 -1.126602 0.560421 -0.609146 -0.323234 -1.069901 0.861652 -0.271214 -0.183673 0.192981 0.295304 0.151173 -0.201336 -0.996394 1.214664 0.202819 0.252161 -1.510324 0.010749 0.344008 0.539831 -0.081188 -0.472069 -1.100306 0.703753 -0.525226 -0.174184 -0.469104 0.089573 -0.270872 0.156342 -0.335018 0.763416 -0.025986 0.459760 -0.197135 0.250652 -0.797262 0.603891 
uxuzgzbx -0.476395 -0.011476 -0.754323 -0.129196 0.322466 0.739991 0.588350 -0.067939 -0.018136 0.435664 -1.213707 0.919205 -0.095817 0.459526 -0.569441 0.410633 -0.828772 0.578608 0.658317 0.609811 0.340426 0.106158 0.317445 0.122987 0.091691 -0.230462 -0.647223 0.352822 -0.261857 0.653758 -0.984662 0.267969 -0.450165 -0.406560 0.760186 0.013935 -0.225758 -0.603698 -0.050632 -0.919159 0.285749 -0.208039 0.644520 -0.191686 -0.282620 -0.232167 -0.968975 -0.489714 0.478611 0.395398 -0.344940 0.211968 0.181711 -0.435489 0.432839 -0.098926 0.277904 0.093288 0.565443 -0.006773 -0.592212 0.567816 -0.227497 0.158887 -0.385890 -0.036729 0.047979 0.072121 0.123918 0.388762 0.575846 -0.484361 0.087838 -0.718808 -0.647247 0.056938 0.237566 0.278264 -0.439683 0.018079 0.035133 -0.550374 -0.501039 0.589571 0.159849 0.211856 0.511630 -0.192816 -0.505684 -0.118596 -0.526951 0.008333 -0.419026 -0.109136 0.086679 -0.461954 0.148938 0.214117 -0.561887 -0.159725 
板 -0.229829 -0.118371 -0.448658 0.085187 0.346956 0.046654 0.432537 -0.196037 -0.407256 0.046209 -0.293862 0.434705 0.248700 -0.049137 -0.146315 0.153274 -0.036350 0.001586 0.099452 0.385716 0.415509 -0.292430 -0.110083 -0.198822 0.179833 -0.358553 -0.316123 0.319833 -0.457074 0.522009 -0.967195 0.125995 -0.018000 -0.093902 0.140199 -0.051551 0.035678 0.042103 -0.005592 -0.281910 0.053788 -0.149730 0.232182 -0.085529 -0.067430 -0.291348 -0.485714 -0.093745 0.021004 -0.059469 0.044215 0.173793 0.229959 -0.589721 0.011994 -0.450134 0.290804 0.091438 0.184170 0.044253 0.207001 -0.463394 -0.208237 0.054493 -0.188142 -0.414596 -0.263633 0.215055 -0.413149 0.054268 0.041007 0.030792 0.137727 -0.403849 -0.167816 0.302546 0.141458 0.111426 0.111030 -0.056761 -0.172819 -0.375886 -0.283862 0.071358 -0.323872 0.014079 0.441308 0.178907 -0.670178 -0.105585 -0.424565 0.128562 -0.145953 0.192611 -0.171885 -0.087805 0.418534 -0.151558 -0.479588 -0.373947 
uxuzgzcr -0.401962 0.152056 -0.262369 0.066897 0.597688 0.388612 0.436077 -0.017875 -0.124873 0.084570 -1.683053 0.829484 -0.246068 0.598676 -1.070805 0.564421 -0.440497 -0.040855 0.636699 0.999816 0.395264 0.379614 0.238972 0.010656 -0.176998 0.098208 -0.787629 0.125328 -0.037999 0.505186 -0.464156 0.381701 -0.517311 -0.158812 0.251900 -0.228063 -0.129335 -0.411828 0.395165 -1.277288 0.055567 -0.169620 0.735145 -0.000258 -0.292677 -0.474347 -0.896171 -0.621210 0.722187 0.534526 -0.161852 -0.133764 0.145264 -0.353737 -0.082272 -0.356565 0.321622 -0.262792 0.708736 0.025930 -0.735077 0.412431 -0.479177 0.134689 -0.696838 -0.043033 -0.193839 0.286442 -0.109193 0.453131 0.341267 -0.280203 0.080767 -0.621774 -0.518146 0.662870 0.315593 0.176763 -0.769810 0.172238 0.150555 -0.096796 -0.528460 0.592696 0.072494 -0.020509 0.392786 -0.040781 -0.220355 -0.019785 -0.554345 0.324523 -0.124894 0.052966 0.086350 -0.265948 0.584361 0.474026 -0.419513 -0.235384 
发绳 -0.164309 0.088801 -0.020668 0.184477 0.123753 -0.282677 -0.378929 -0.096457 -0.226840 -0.213112 -0.650527 -0.530370 0.128631 0.205835 -0.336268 0.214687 -0.020459 -1.753945 0.158128 0.433691 0.123323 -0.401392 -0.003468 -0.053311 -0.802661 0.011111 -0.355992 -0.845867 0.068607 -0.423581 0.125780 -0.282034 -0.202333 0.532945 -0.356241 0.963175 0.212615 0.142818 -0.173607 -0.074137 0.693080 -0.127488 0.699343 0.385507 -0.402357 0.035285 -0.203560 -0.082767 -0.003243 -0.833290 0.459097 -0.721909 -0.015122 -0.322522 -1.080891 -0.334105 0.506516 -0.119417 1.639150 0.369952 -0.119028 -0.108902 -1.343773 0.618959 -0.705282 -0.182886 -1.278150 1.037374 -0.373171 -0.201909 0.189307 0.457825 0.049444 -0.217208 -1.115423 1.395701 0.237857 0.265899 -1.727844 0.082187 0.308553 0.710444 -0.019629 -0.429125 -1.233855 0.668435 -0.762276 -0.205316 -0.361331 0.290739 -0.242487 0.141969 -0.215644 0.730871 0.096671 0.427485 -0.319772 0.267627 -0.902021 0.672071 
uxuzgrzp -0.183015 0.073480 0.034546 -0.001369 -0.142010 -0.267761 -0.383912 -0.045364 -0.170646 -0.212155 -0.200395 -0.665934 0.180823 -0.047430 -0.213527 0.137178 -0.133093 -1.471512 0.258614 0.280069 0.147179 -0.405423 0.030489 0.033174 -0.686676 0.010133 -0.353446 -0.753018 0.043950 -0.309661 -0.060997 -0.347993 -0.099036 0.356000 -0.268170 0.833779 0.268822 0.177258 -0.169687 -0.007687 0.703580 -0.167720 0.517480 0.395473 -0.452349 0.306477 -0.169021 0.044039 -0.125415 -0.877842 0.353067 -0.615817 -0.023367 -0.298504 -0.786953 -0.335157 0.556289 -0.112030 1.502342 0.273868 -0.079972 -0.086691 -1.121847 0.497155 -0.541932 -0.217457 -1.088680 0.800096 -0.215210 -0.169943 0.195992 0.311371 -0.052121 -0.240186 -1.065364 1.174262 0.137774 0.212933 -1.517769 0.001903 0.290777 0.616829 0.005941 -0.347912 -1.101131 0.727315 -0.602573 -0.225085 -0.526966 0.282319 -0.329035 0.079563 -0.306008 0.692513 0.020476 0.348222 -0.383714 0.347049 -0.822874 0.475336 
针钉 0.042607 -0.268695 -0.220851 0.319413 0.410005 -0.581507 0.485113 -0.027395 -0.295978 -0.205662 -1.097491 0.243547 0.441392 -0.308026 -0.561393 0.364395 -0.064416 -0.482358 -0.042250 0.335040 0.593614 -0.045375 0.199582 -0.137536 -0.118761 -0.401655 -0.300662 -0.054835 -0.266725 0.311008 -0.500065 0.162430 -0.260644 0.207853 0.869280 0.426215 0.204648 0.049088 0.724313 -0.486398 -0.058873 -0.072118 0.785605 -0.169354 -0.466136 0.009808 -0.497245 -0.329131 0.160115 0.290081 -0.170455 -0.090598 0.378459 -0.478199 -0.012717 -0.679820 0.087485 0.320747 0.737213 -0.157578 -0.215483 0.057151 -0.855243 0.308142 -0.639473 -0.169248 -0.314722 0.533516 -0.198085 -0.136804 0.297293 0.068939 -0.230426 -0.444047 -0.245943 0.652894 0.171618 0.045527 -0.546637 0.332523 0.233089 0.015150 -0.483428 -0.173819 -0.035053 0.098899 -0.075749 -0.110597 -0.252645 -0.133150 0.008883 0.966105 0.108399 0.101701 0.056120 -0.243112 0.526888 0.407672 0.121551 -0.120985 
圣诞灯具 -0.163249 -0.265325 -0.468877 0.741316 0.568468 -0.107202 0.367153 -0.232039 -0.548118 -0.237610 0.261543 0.305800 0.251893 0.260016 0.506404 -0.260636 -0.356560 -0.381563 -0.337987 -0.163294 0.997174 -0.323258 0.090500 -0.505103 -0.074204 -0.044753 0.064057 -0.019266 -1.145838 0.617145 -0.937494 -0.103320 0.100814 -0.087753 0.020629 -0.172159 0.518475 -0.022137 0.421899 0.236735 -0.159052 -0.312213 -0.057748 0.133483 0.172976 -0.101488 -0.514773 0.639278 -0.696463 -0.284108 0.251984 0.321834 0.454493 -0.545575 -0.640374 -0.321089 0.644612 -0.156887 -0.282285 0.661528 0.384390 -0.470162 -0.388146 0.067034 -0.285479 -0.657118 -0.262847 0.071420 -0.742360 -0.056965 0.320761 0.037944 0.368656 0.236407 0.216390 0.386401 0.093266 0.338388 -0.091122 -0.328645 0.108302 -0.494284 -0.086368 -0.626597 -1.165160 0.493834 1.098458 0.124736 -1.330042 -0.839285 -0.298913 0.063888 -0.396354 0.947743 -0.643374 0.719308 0.172423 -0.290395 -0.147019 0.087981 
uxuzgxux -0.213233 -0.164308 -1.119390 0.007976 -0.087888 0.310873 0.092359 -0.145558 -0.133021 0.617820 -0.289808 0.842026 0.623556 0.302817 0.217031 -0.158014 -0.943738 0.692818 0.677282 0.373749 -0.503187 -0.296562 -0.324218 -0.105422 0.461217 -0.693668 -0.284939 0.191372 -0.307425 -0.014165 -0.869809 -0.152767 -0.272251 -0.128414 1.356032 0.994832 -0.352052 -0.732736 -0.616641 0.250446 1.161224 -0.093131 0.230136 -0.315033 -0.724108 0.305804 0.203801 0.259215 0.269197 0.151757 -0.473319 -0.383695 0.449013 -0.126541 1.729380 -0.063292 0.402436 0.009038 0.442719 -0.304409 0.466262 -0.159952 -0.675483 0.194352 -0.206072 0.234096 0.407252 0.117483 0.072595 0.468267 0.818828 0.104009 0.113965 -1.261173 -0.764359 -0.711887 -0.750939 -0.034455 -0.374186 -0.159633 -0.021886 -0.343890 -0.349843 -0.087620 -0.650862 0.192066 0.439470 -0.222967 -0.867660 0.701856 0.144133 -0.189460 -0.620355 0.116935 -0.471116 -0.100211 -1.030684 0.091355 -1.002448 -0.090391 
珍珠 0.090027 0.195634 0.078167 0.384088 0.659055 -0.559350 -0.449123 0.061299 -0.263018 -0.252122 -0.282055 -0.483138 -0.167417 0.597367 -0.198632 -0.044053 0.141437 -1.553179 0.198986 0.767766 -0.105936 -0.297319 -0.709773 -0.139590 -0.464244 -0.893987 -0.310855 -0.910576 0.362104 -0.165025 0.609272 -0.283983 -0.182195 1.067141 -0.197400 0.725495 0.138498 0.441251 0.382041 0.452913 0.240202 0.329174 0.564251 -0.257166 -0.086711 -0.211451 -0.069654 0.226482 0.377822 -0.175633 0.589042 -0.933934 0.348713 0.012281 -0.746273 -0.279699 0.098064 -0.110785 0.696936 -0.282191 0.119468 -0.149227 -1.142832 0.143936 -0.577328 0.092649 -1.212909 0.785382 -0.482512 -0.030452 -0.018582 0.885483 -0.159016 -0.286667 -0.676770 0.988243 -0.395851 0.354542 -1.070893 0.340952 -0.267158 0.806610 0.107589 -0.322091 -1.067468 0.293054 -0.655176 0.227135 0.347441 0.840753 -0.181219 0.069837 0.090886 0.831220 -0.263449 0.361420 -0.504044 0.156684 -0.525272 -0.143977 
垫 -0.523283 -0.133000 -0.338250 -0.034723 0.311845 0.512952 0.499713 0.083221 -0.269030 0.090261 -0.463036 0.555423 -0.227964 0.364833 -0.001071 0.371929 -0.430317 0.127219 0.069762 0.310201 0.514366 -0.395549 0.166330 0.021926 0.062832 -0.222283 -0.411407 0.184739 -0.580733 0.824327 -0.901425 0.167398 -0.016769 -0.230994 0.134804 -0.123563 -0.077668 -0.361221 -0.168094 -0.291073 -0.125416 -0.205269 0.249769 -0.176034 0.233232 -0.222529 -0.749048 0.126123 0.183144 0.131875 0.079118 0.248042 0.138123 -0.468867 -0.090560 -0.236901 0.681800 -0.042428 0.191170 0.357299 -0.305817 0.107726 -0.055622 -0.130848 -0.213487 -0.102632 -0.137953 0.116280 -0.517273 0.242312 0.251076 -0.283470 0.021657 -0.256136 -0.092294 0.413776 0.494106 0.201842 0.251741 -0.291768 0.018300 -0.283887 -0.286364 0.184480 -0.332673 0.429484 0.992660 -0.275363 -1.041672 -0.652289 -0.726065 -0.079758 -0.100144 0.272219 -0.258586 -0.007891 0.124348 -0.021331 -0.459539 -0.250269 
发夹 -0.015720 0.272580 -0.046040 -0.213360 -0.128704 -0.384881 -0.474644 0.035170 -0.301075 -0.040459 -0.337280 -0.625179 0.242272 -0.139830 -0.353904 0.196886 -0.122850 -1.472161 0.647984 0.778779 -0.178164 -0.515312 -0.251824 0.195992 -0.471322 -0.556257 -0.463975 -0.844803 0.396340 -0.288676 0.041326 -0.201605 -0.248517 0.525162 0.240106 1.303851 0.084365 0.058289 -0.272222 0.074974 1.048128 -0.005799 0.858139 0.126001 -0.648194 0.343369 -0.310160 -0.055241 0.433589 -0.580806 0.332661 -0.893881 0.211319 -0.212531 -0.469731 -0.361107 0.276108 -0.083645 1.774758 -0.132819 0.000544 0.013275 -1.488160 0.719432 -0.701301 0.045244 -1.120617 1.094860 -0.212661 -0.123214 0.229935 0.388018 0.019673 -0.507795 -1.637887 0.936445 -0.177888 0.365623 -1.657313 0.100171 0.208399 0.790885 -0.062518 -0.169531 -0.878567 0.693805 -1.007051 -0.241918 -0.138214 0.905777 -0.266085 0.005638 -0.265088 0.590454 0.105876 0.042558 -0.731900 0.414373 -1.082626 0.290695 
uxuzgzgp -0.317500 0.113980 -0.443560 0.285811 0.591708 0.344285 0.659304 0.084957 -0.021086 -0.158342 -1.426051 0.838185 -0.348133 0.736701 -0.729117 0.620990 -0.486598 -0.169967 0.190360 0.727312 0.538501 0.056709 0.309108 0.052155 -0.141501 -0.168847 -0.537744 -0.050812 -0.210530 0.561061 -0.469074 0.334118 -0.203951 0.057889 0.114230 -0.281288 0.104084 -0.175306 0.286382 -0.780174 -0.381840 0.028362 0.559049 -0.089237 -0.034639 -0.476977 -0.970837 -0.439956 0.484949 0.248610 -0.057949 0.253036 0.000701 -0.212355 -0.285844 -0.117079 0.139160 -0.061399 0.301351 0.076470 -0.883622 0.546135 -0.462482 -0.023600 -0.446884 -0.050854 -0.110471 0.218902 -0.216506 0.269596 0.282102 -0.308825 0.054608 -0.233700 0.069388 0.628376 0.520301 0.181258 -0.511612 0.275074 0.192863 -0.193711 -0.442074 0.309423 -0.037241 0.097622 0.514580 -0.211000 -0.141434 -0.345535 -0.441877 0.516660 -0.021410 0.202980 -0.093101 0.108699 0.406357 0.044552 -0.142899 -0.182110 
uxuzgxfp 0.240704 -0.056231 -0.311007 0.917204 1.117391 -0.619560 -0.091653 -0.180320 -0.378948 -0.163262 0.322014 0.067007 -0.106600 1.266312 0.420749 -0.452445 -0.054543 -0.797790 -0.108359 0.553789 0.271208 -0.114815 -1.002113 -0.421637 -0.069618 -1.066752 -0.151800 -0.400140 -0.229450 0.416503 0.267130 -0.241237 0.026165 0.967318 0.054313 0.097320 0.291503 0.491000 0.792899 0.925509 -0.403608 0.496719 -0.036700 -0.494763 0.327226 -0.503729 0.060602 0.559836 0.151748 0.320716 0.705451 -0.569938 0.579427 -0.065981 -0.529900 -0.213545 0.181120 -0.044579 -0.737462 -0.162702 0.688417 -0.591348 -0.749940 -0.480181 -0.200608 -0.146305 -0.766111 0.331442 -0.815549 0.075763 -0.017176 1.082550 0.017115 -0.233016 0.093683 0.274480 -0.675277 0.458604 -0.183578 0.058826 -0.317147 0.296910 0.060597 -0.601893 -1.249103 0.183377 0.467520 0.297643 0.132733 0.291379 -0.076338 0.029681 0.061096 1.163305 -0.865438 0.654831 -0.456639 -0.407978 -0.207403 -0.472831 
uxuzgzfp -0.428596 -0.094966 -0.412825 0.300418 0.817254 0.352793 0.584171 -0.257685 0.061054 0.131275 -1.284597 0.756706 -0.267286 0.661012 -0.698987 0.383257 -0.458309 0.026634 0.121853 0.714772 0.620047 0.275696 0.083119 -0.184551 -0.165160 0.060801 -0.551025 -0.089807 -0.209496 0.549052 -0.508168 0.167609 -0.412474 0.091575 0.201879 -0.369332 -0.049409 -0.147054 0.520115 -0.878121 -0.089774 -0.298368 0.620804 -0.147095 -0.042194 -0.449234 -0.682199 -0.407896 0.388644 0.341271 0.017891 0.082842 0.127671 -0.294304 -0.386444 -0.336958 0.289791 0.084457 0.494298 -0.047892 -0.451556 0.390266 -0.350171 -0.055576 -0.532014 0.039042 -0.301160 0.065281 -0.159433 0.395359 0.067961 -0.296960 0.006853 -0.219588 0.091268 0.396808 0.304337 0.305632 -0.493875 0.038252 0.014899 -0.043933 -0.344854 0.238080 -0.304670 -0.007622 0.324071 0.026334 -0.167562 -0.300931 -0.379247 0.256370 0.115436 0.119378 0.027120 -0.254062 0.440322 0.070523 -0.261088 -0.160896 
扣 -0.086475 -0.212606 -0.296679 0.621185 0.222528 -0.565196 -0.038822 -0.481568 -0.281777 -0.375749 0.264111 -0.358132 0.457938 0.152254 0.298231 -0.062611 -0.200273 -0.799751 0.116891 0.228844 0.636990 -0.237188 -0.222890 -0.567807 -0.191452 -0.180796 -0.008550 -0.546593 -0.515725 0.225785 -0.310460 -0.174549 0.341703 0.274133 0.290998 0.308583 0.316490 0.392025 0.489339 0.411918 0.026530 0.092778 0.018866 0.064653 0.051940 0.059957 -0.077027 0.577880 -0.270170 -0.451831 0.216868 -0.306219 0.627388 -0.361736 -0.359766 -0.419259 0.409424 -0.054200 0.000741 0.163465 0.438450 -0.276260 -0.798471 0.346186 -0.202388 -0.581611 -0.797826 0.272510 -0.328033 -0.232338 0.052464 0.221242 0.075267 -0.022404 -0.359822 0.419071 -0.121182 0.221209 -0.451401 0.035916 0.034775 0.137819 0.203969 -0.667796 -0.952605 0.420262 0.284848 0.172118 -0.435313 0.199697 -0.050739 0.297449 -0.477175 0.950789 -0.454302 0.346021 -0.132054 -0.041042 -0.382582 0.070582 
uxuzgzbz -0.403167 -0.057980 -0.650845 0.341557 0.635628 0.337113 0.430203 -0.246805 -0.228947 0.060370 -1.543169 0.903010 -0.164995 0.430456 -0.856753 0.560420 -0.426244 -0.137406 0.354750 0.619253 0.701282 0.301075 0.312453 -0.045677 -0.163903 -0.029655 -0.588293 0.071420 -0.345948 0.784862 -0.871335 0.323722 -0.280494 -0.161828 0.383688 -0.155633 -0.140303 -0.197324 0.290628 -1.120453 -0.168787 -0.215969 0.681742 -0.010053 -0.185308 -0.152217 -0.985931 -0.497174 0.209533 0.280095 -0.094662 0.107651 0.100665 -0.518793 -0.353584 -0.338367 0.238427 -0.058535 0.493143 0.144790 -0.582919 0.603033 -0.333559 0.116297 -0.588449 -0.049336 -0.299155 0.156234 -0.109923 0.239806 0.279887 -0.361063 -0.043273 -0.339485 -0.289930 0.525709 0.587064 0.106253 -0.532799 0.072124 0.174931 -0.284031 -0.460983 0.451097 0.081444 0.179473 0.347905 -0.102511 -0.397115 -0.512215 -0.458524 0.424031 -0.203757 -0.034097 0.187058 -0.250183 0.559434 0.247214 -0.339676 -0.149834 
uxuzgxuz -0.295025 -0.112096 -1.061643 -0.112517 -0.157523 0.415788 0.146400 -0.114335 -0.061758 0.634566 -0.292267 0.929721 0.541062 0.463539 0.067672 -0.094349 -0.956869 1.057116 1.015403 0.544050 -0.499998 -0.157949 -0.425773 -0.115076 0.501747 -0.529416 -0.350600 0.287489 -0.314175 -0.039304 -0.842763 -0.120640 -0.209371 -0.135419 1.301938 0.714577 -0.341991 -0.773917 -0.661027 0.252071 1.138362 0.101831 0.172702 -0.380982 -0.638927 0.214926 0.079416 0.209691 0.365650 0.128799 -0.531197 -0.371216 0.418665 -0.178624 1.736427 -0.042803 0.436579 -0.013817 0.341456 -0.321767 0.376635 -0.080833 -0.548478 0.212694 -0.271393 0.186081 0.446878 0.088699 0.072744 0.627862 0.944203 0.056314 0.334621 -1.314665 -0.656394 -0.665761 -0.661779 -0.099198 -0.392839 -0.098553 0.008694 -0.409656 -0.383124 -0.036683 -0.635986 0.206644 0.493569 -0.166979 -0.762921 0.620376 0.051416 -0.192850 -0.616253 0.177470 -0.527771 -0.124667 -0.970763 -0.011589 -1.019020 -0.097595 
金表链 0.189760 -0.067019 -0.298459 0.402451 0.478248 -0.338650 -0.045168 -0.241857 -0.433240 -0.092673 0.307039 -0.249259 0.301460 0.087274 0.170569 -0.119998 0.085899 -0.821153 0.121128 0.217338 0.142520 -0.187408 -0.420757 -0.293944 -0.055682 -0.717635 -0.075445 -0.467097 0.027260 0.113197 -0.033785 -0.143245 0.162411 0.389334 0.241874 0.502788 0.156571 0.333550 0.467272 0.415773 0.068866 0.213651 0.327775 -0.142010 0.086115 -0.006749 0.004093 0.263435 0.036031 -0.192246 0.457502 -0.430880 0.565249 -0.228619 -0.312199 -0.243274 0.133210 0.035581 -0.034714 0.000896 0.396530 -0.366293 -0.735731 0.115420 -0.337269 -0.216749 -0.738993 0.486420 -0.277210 -0.104169 0.014275 0.502666 0.008764 -0.231071 -0.419421 0.592516 -0.378387 0.365831 -0.330283 -0.076046 -0.145150 0.230182 0.025047 -0.476132 -0.805512 0.446463 -0.085675 0.061790 -0.231709 0.321693 -0.157223 0.206949 -0.197294 0.721378 -0.338575 0.160170 -0.243295 -0.002511 -0.479313 -0.113355 
圈 0.049537 0.093172 -0.008748 0.648564 0.611812 -0.399340 -0.376868 -0.172587 -0.285431 -0.286695 -0.453225 -0.277763 0.029860 0.651667 -0.248682 0.022079 0.217974 -1.522750 0.049288 0.546043 0.170421 -0.182218 -0.343732 -0.234859 -0.612150 -0.321122 -0.314879 -0.669344 0.039951 -0.141755 0.343508 -0.264659 -0.055093 0.691682 -0.400935 0.449401 0.154289 0.368928 0.236609 0.187740 0.016863 0.148548 0.424888 0.103431 0.046795 -0.219930 0.016273 0.074586 0.017820 -0.409973 0.610606 -0.629935 0.079103 -0.102584 -1.090349 -0.240395 0.286683 -0.062859 0.597048 0.335676 0.056886 -0.203351 -1.049470 0.185176 -0.430300 -0.236169 -1.156129 0.774125 -0.533307 -0.103515 -0.081051 0.798675 0.057173 -0.120898 -0.595253 0.994715 0.056755 0.382398 -1.063700 0.173610 0.060390 0.556345 0.056020 -0.462870 -1.025855 0.405918 -0.339691 0.013828 0.014392 0.113328 -0.193105 0.127687 -0.087237 0.866863 -0.127506 0.515636 -0.053308 -0.017530 -0.619283 0.280921 
耳钉 0.344190 0.214541 -0.296234 0.971963 1.400840 -0.702624 -0.275478 0.033590 -0.382871 -0.255040 -0.272364 0.141353 -0.227312 1.505065 -0.049055 -0.291868 0.055272 -1.098310 0.302439 1.040284 -0.120474 -0.149715 -1.102186 -0.248184 -0.193834 -1.588422 -0.411546 -0.661120 0.206207 0.196828 0.778546 -0.357174 -0.253710 1.414568 0.216931 0.424597 0.090611 0.395043 0.888315 0.932582 -0.250731 0.639267 0.326274 -0.778472 0.209346 -0.413838 0.117798 0.408680 0.573718 0.355041 0.723039 -0.961785 0.466891 0.169254 -0.482868 -0.222889 0.104973 0.046033 -0.337768 -0.578826 0.377513 -0.344714 -1.099537 -0.477312 -0.369689 0.141224 -0.964614 0.551097 -0.731030 0.327335 0.080316 1.431287 -0.183500 -0.411048 -0.268143 0.467737 -0.952350 0.457681 -0.626498 0.378637 -0.485529 0.608346 -0.020507 -0.443224 -1.129272 0.081156 -0.121589 0.342336 0.574144 0.797907 -0.077570 0.010457 0.201456 1.148716 -0.640421 0.488239 -0.770648 -0.281667 -0.501618 -0.574786 
普通发圈 -0.153976 0.080458 -0.153262 0.053897 -0.148845 -0.364389 -0.390515 -0.046383 -0.288185 -0.184021 0.096386 -0.653343 0.296191 -0.048109 0.092517 0.026109 -0.140054 -1.343509 0.386388 0.334182 0.047647 -0.472173 -0.140892 0.012338 -0.527988 -0.212423 -0.287073 -0.763368 0.005462 -0.260229 -0.027752 -0.356573 -0.109664 0.365712 -0.049053 1.048066 0.169202 0.073082 -0.254600 0.302711 0.899297 -0.160741 0.399128 0.287082 -0.404837 0.363392 -0.112211 0.233525 -0.071923 -0.825874 0.365135 -0.698347 0.142819 -0.248447 -0.601411 -0.279317 0.505479 -0.195682 1.278878 0.245240 0.167916 -0.186987 -1.088685 0.555148 -0.431032 -0.185810 -1.012380 0.773973 -0.212835 -0.138689 0.176803 0.320742 0.119008 -0.234390 -1.163377 0.856921 -0.098363 0.286759 -1.374056 -0.022602 0.222367 0.596878 0.042528 -0.477224 -1.148304 0.731615 -0.607216 -0.169720 -0.494138 0.513215 -0.180929 -0.043755 -0.414756 0.719470 -0.106758 0.302812 -0.702229 0.299019 -0.849209 0.450350 
各种钻 -0.056031 0.101493 -0.290776 0.505870 0.564393 -0.386034 -0.161078 -0.178207 -0.246478 -0.290604 -0.030542 -0.302991 0.028011 0.538772 -0.095758 -0.111968 0.124427 -1.042499 0.159389 0.550039 0.051011 -0.110417 -0.504626 -0.160349 -0.306179 -0.401783 -0.101819 -0.628460 0.033523 -0.121871 0.238507 -0.311251 -0.077698 0.682086 -0.224801 0.369756 0.064920 0.181369 0.251854 0.305372 0.165333 0.141675 0.248545 -0.071718 0.056928 -0.120448 0.201273 0.240080 -0.008483 -0.111967 0.469198 -0.685095 0.292354 -0.147152 -0.714545 -0.291133 0.240411 -0.179688 0.229700 -0.155391 0.285813 -0.227796 -0.868771 0.035417 -0.356889 -0.118934 -0.730818 0.394960 -0.270113 -0.032971 -0.038753 0.622205 0.044866 -0.217679 -0.418459 0.635541 -0.293658 0.225472 -0.632399 0.324152 -0.206175 0.505281 0.045652 -0.301042 -0.989377 0.219204 -0.148984 0.045879 -0.070970 0.442289 -0.024454 0.047022 -0.021066 0.790410 -0.424127 0.497240 -0.309715 0.005879 -0.505081 -0.061974 
发箍 -0.066293 0.247799 -0.062033 -0.056873 -0.083892 -0.352340 -0.450941 0.087307 -0.196402 -0.122379 -0.231237 -0.574939 0.118120 0.080238 -0.169582 0.099126 -0.146663 -1.330293 0.494872 0.603331 -0.159322 -0.345778 -0.298069 0.148582 -0.548565 -0.322211 -0.427446 -0.788954 0.245323 -0.365038 0.093434 -0.279684 -0.282716 0.591356 0.024350 1.072858 0.094991 0.045263 -0.248105 0.173632 0.928632 -0.040217 0.593004 0.126264 -0.489913 0.260589 -0.150074 0.025402 0.271755 -0.579783 0.303861 -0.793632 0.171104 -0.157600 -0.530249 -0.274897 0.338402 -0.195811 1.505321 0.002747 -0.043606 0.030627 -1.330706 0.588000 -0.603120 -0.014185 -0.939414 0.920090 -0.157160 -0.088370 0.203103 0.406932 0.037904 -0.434461 -1.300994 0.867331 -0.212330 0.317768 -1.522179 0.138546 0.173324 0.682945 -0.025091 -0.245200 -0.964257 0.567573 -0.849117 -0.150587 -0.136710 0.740082 -0.193311 -0.061650 -0.224299 0.648357 -0.028242 0.220348 -0.711712 0.357063 -0.804738 0.309074 
头饰 -0.152981 0.263273 -0.078349 0.023347 0.114837 -0.264952 -0.397037 0.036455 -0.204811 -0.143968 -0.610809 -0.431040 0.039481 0.235054 -0.430269 0.178167 -0.142821 -1.436070 0.483275 0.665311 -0.147997 -0.298431 -0.172414 0.128909 -0.634029 -0.237961 -0.430991 -0.808754 0.274003 -0.426947 0.161169 -0.240886 -0.286954 0.575017 -0.064636 1.047740 0.126851 0.019633 -0.224407 -0.072815 0.867575 0.003007 0.690471 0.156606 -0.493051 0.157639 -0.223610 -0.082458 0.326430 -0.569332 0.337091 -0.782975 0.064647 -0.148297 -0.676444 -0.290453 0.326649 -0.200274 1.591290 0.023525 -0.185400 0.120132 -1.324952 0.559535 -0.673061 0.025148 -0.959440 0.919517 -0.174203 -0.044573 0.251198 0.432782 0.000541 -0.413657 -1.214842 1.070386 -0.042712 0.278383 -1.576384 0.170027 0.237239 0.720365 -0.054921 -0.176805 -0.983759 0.558257 -0.878327 -0.208257 -0.096608 0.629560 -0.210733 0.028178 -0.193528 0.585207 0.057140 0.224080 -0.559888 0.358004 -0.888733 0.420923 
钥匙扣 0.008066 -0.194864 -0.450552 0.609132 0.413130 -0.467156 -0.096945 -0.455214 -0.438397 -0.156631 0.429982 -0.052637 0.625968 0.195372 0.362842 -0.276982 -0.188917 -0.567537 0.192097 0.185965 0.357342 -0.310068 -0.406660 -0.689979 0.118927 -0.560233 0.111608 -0.426807 -0.538636 0.237418 -0.324719 -0.254681 0.273350 0.303625 0.324690 0.321401 0.192526 0.313647 0.311895 0.738822 0.064462 0.224896 -0.019859 -0.135714 0.088462 -0.044345 -0.100730 0.607548 -0.221448 -0.115013 0.349876 -0.303328 0.695843 -0.272803 -0.015438 -0.234365 0.194304 -0.098358 -0.316136 0.010517 0.681797 -0.480293 -0.689229 0.263169 -0.072184 -0.424921 -0.640123 0.235495 -0.413943 -0.120020 0.205006 0.422199 0.190802 -0.157448 -0.333664 0.164972 -0.333711 0.315973 -0.257220 -0.045063 -0.117402 -0.011309 0.213734 -0.580985 -1.022074 0.324038 0.442989 0.186437 -0.466666 0.304827 -0.033621 0.046665 -0.498259 0.937402 -0.526808 0.333226 -0.287872 -0.198515 -0.512322 -0.114394 
uxuzgxvz -0.217577 -0.157455 -0.782567 0.014876 -0.108908 0.239083 0.152960 -0.129867 -0.116010 0.401957 -0.067540 0.730406 0.670415 0.079942 0.122260 -0.111040 -0.655319 0.650702 0.669225 0.228364 -0.321655 -0.335169 -0.265735 -0.284584 0.425547 -0.495538 -0.206888 0.207352 -0.478076 -0.051408 -0.879152 -0.097515 -0.050801 -0.153861 1.143550 0.676913 -0.208462 -0.651377 -0.374687 0.244003 0.919627 0.010950 0.086593 -0.337650 -0.575713 0.150603 -0.023904 0.309790 0.145579 -0.039471 -0.417575 -0.233509 0.362568 -0.153482 1.494969 -0.111015 0.434399 -0.077681 0.331364 -0.181929 0.425855 -0.233281 -0.404748 0.261313 -0.161929 0.108213 0.394459 0.120695 -0.160030 0.377055 0.804556 0.041870 0.176784 -1.036598 -0.445071 -0.460200 -0.468792 -0.113099 -0.395445 -0.161898 0.124217 -0.403809 -0.287195 -0.088771 -0.755089 0.263936 0.545663 -0.165836 -0.967163 0.526709 -0.005110 -0.125078 -0.630297 0.224250 -0.375704 -0.061576 -0.729951 0.033758 -0.931299 -0.007933 
布 -0.365702 0.097469 -0.229585 -0.165813 -0.203072 0.258252 -0.074090 -0.034885 -0.113129 -0.153246 -0.203686 -0.062438 -0.148835 0.599140 0.009890 0.171226 -0.581076 -0.413738 0.472735 0.316914 0.208621 -0.100135 0.168105 0.012917 -0.339152 0.158092 -0.402341 -0.281860 -0.291153 0.178621 -0.278556 -0.132593 -0.036078 0.037674 -0.008290 0.321467 -0.021241 -0.401705 -0.328203 -0.135174 0.418679 -0.265861 0.143434 0.138338 -0.048962 0.181267 -0.227661 0.075717 -0.101024 -0.339042 0.066232 -0.245400 0.180272 -0.116378 -0.311719 -0.063048 0.521483 -0.156226 0.497627 0.229709 -0.257664 0.207641 -0.568676 0.119008 -0.189452 0.002917 -0.256126 0.074748 -0.084186 0.159475 0.305862 -0.103000 0.107840 -0.052710 -0.474788 0.507919 0.090471 0.064206 -0.526259 -0.082961 0.044859 0.005021 -0.200838 -0.133767 -0.592470 0.588418 0.256079 -0.247658 -0.472073 -0.122435 -0.221733 -0.218624 -0.288346 0.480588 -0.055503 0.163342 -0.556951 0.125573 -0.604950 0.159287 
纸 -0.491751 0.062311 -0.366069 0.248668 0.527982 0.329768 0.336204 -0.064761 -0.183938 -0.028541 -0.704172 0.358820 -0.114769 0.468602 -0.343736 0.249551 -0.182602 -0.111551 0.269615 0.484590 0.299632 -0.063217 0.184181 -0.108053 -0.040634 -0.132568 -0.505168 0.073088 -0.254476 0.551008 -0.558053 0.100316 -0.192055 -0.216173 0.193591 -0.150923 -0.078220 -0.198543 0.356386 -0.517709 -0.074991 -0.266964 0.399765 -0.047383 0.032318 -0.342644 -0.750854 -0.137178 0.083445 0.169811 0.102754 -0.040399 0.140537 -0.246844 -0.310636 -0.224928 0.290906 0.012018 0.336235 0.156125 -0.328172 0.191102 -0.191698 0.058192 -0.341063 -0.120839 -0.161849 0.055774 -0.166546 0.176572 0.184226 -0.084064 0.043907 -0.206430 -0.217518 0.472326 0.327417 0.213165 -0.134826 -0.163557 -0.040810 -0.116272 -0.171287 0.203388 -0.205399 0.186362 0.437618 -0.176345 -0.468436 -0.376686 -0.536700 0.015031 -0.217496 0.184392 -0.004324 -0.206451 0.261298 0.030864 -0.361212 -0.208864 
uxuzgxcr 0.201016 0.024802 -0.216765 0.780795 0.903470 -0.418507 -0.068363 0.033458 -0.359213 -0.256532 0.456243 0.051133 -0.054465 0.868875 0.598457 -0.468087 0.167654 -0.592318 -0.131016 0.264566 0.321491 -0.208553 -0.801598 -0.423822 -0.078830 -0.871537 -0.095200 -0.295734 -0.325878 0.448929 0.208663 -0.209412 0.038234 0.746357 0.121089 0.101305 0.313410 0.273136 0.662117 0.881994 -0.282199 0.155346 -0.109050 -0.309909 0.383372 -0.321268 0.074333 0.639190 -0.127747 0.193768 0.617855 -0.319828 0.495518 -0.012288 -0.519572 -0.180818 0.317270 -0.142443 -0.733834 0.167296 0.604026 -0.710733 -0.567113 -0.449370 -0.188406 -0.241345 -0.554889 0.306471 -0.893559 0.080169 0.025177 0.885235 0.116789 -0.081187 0.103097 0.266111 -0.628346 0.455451 -0.125498 -0.096083 -0.118786 0.059389 -0.013715 -0.693515 -1.224801 0.285686 0.622895 0.228305 -0.314454 -0.019517 -0.131695 -0.080144 -0.088925 1.071690 -0.843091 0.619464 -0.441575 -0.319224 -0.201601 -0.295256 
uxuzgxcz 0.228505 0.049049 -0.288159 0.813307 1.107251 -0.518993 -0.150396 -0.099241 -0.236070 -0.064624 0.284405 0.205600 -0.223418 1.344920 0.380622 -0.417101 -0.039913 -0.556237 0.035694 0.617636 0.028216 -0.050428 -1.100974 -0.305260 -0.004917 -1.134648 -0.179265 -0.292974 -0.118421 0.326937 0.343979 -0.238037 -0.043184 0.992736 0.070036 0.049204 0.109221 0.388592 0.680080 0.950486 -0.306892 0.556059 -0.047980 -0.603414 0.293909 -0.534620 0.092192 0.543729 0.282281 0.434279 0.609655 -0.532376 0.518018 0.093120 -0.238525 -0.088946 0.061503 -0.085312 -0.755146 -0.309938 0.616935 -0.468079 -0.635750 -0.536968 -0.162400 -0.021569 -0.566280 0.269651 -0.741227 0.219349 0.016230 1.074305 -0.023368 -0.348597 0.098430 0.101757 -0.844691 0.409656 -0.129550 0.161916 -0.412183 0.248672 -0.003843 -0.443143 -1.130791 0.082292 0.477425 0.343319 0.240036 0.387380 -0.099241 -0.130036 0.084019 1.018049 -0.849323 0.524207 -0.569601 -0.370422 -0.295657 -0.597750 
uxuzgxyp -0.172339 -0.125670 -0.849921 0.065375 -0.017326 0.297257 0.065728 -0.096127 -0.094480 0.494205 0.042879 0.584122 0.408654 0.330779 0.278479 -0.138998 -0.757598 0.650352 0.528739 0.223938 -0.267140 -0.179216 -0.291853 -0.212174 0.443172 -0.451688 -0.166394 0.202196 -0.430562 0.062892 -0.706659 -0.109256 -0.137885 -0.129241 0.936901 0.523567 -0.111491 -0.505151 -0.461138 0.299910 0.873139 -0.087615 0.104196 -0.282999 -0.378517 0.196345 -0.037535 0.230226 0.077798 0.141900 -0.277198 -0.268471 0.340332 -0.205261 1.122096 -0.018306 0.419072 -0.082158 0.196355 -0.060430 0.292478 -0.275930 -0.443291 0.155341 -0.185753 0.010064 0.271760 0.143077 -0.114709 0.467704 0.742268 0.105526 0.234136 -0.921599 -0.479216 -0.492963 -0.589343 0.083814 -0.358599 -0.135885 0.016167 -0.310650 -0.267643 -0.165091 -0.663194 0.279338 0.596799 -0.120899 -0.925396 0.382672 -0.048971 -0.148584 -0.623842 0.322085 -0.527885 -0.036751 -0.752070 -0.076328 -0.800416 0.000425 
工艺品 -0.170340 0.047427 -0.188665 0.346656 0.284088 0.037152 -0.147474 -0.030715 -0.226171 -0.166041 0.217113 -0.165431 0.226799 0.194864 0.442740 -0.080428 -0.044766 -0.850056 0.003430 0.069030 0.454048 -0.362043 0.076919 -0.432848 -0.230432 -0.371495 0.087786 -0.404413 -0.245043 0.473847 -0.502985 -0.140620 0.042984 -0.088232 -0.112644 0.167578 0.187541 -0.109511 0.195524 0.310500 -0.037818 -0.244389 0.144970 0.111255 0.068450 -0.027090 -0.505169 0.530405 -0.236787 -0.350112 0.574442 -0.030571 0.510252 -0.210147 -0.636482 -0.032100 0.402049 -0.176129 -0.012347 0.559263 0.262683 -0.208955 -0.302969 0.184940 -0.451520 -0.422218 -0.669456 0.207069 -0.625254 0.013100 0.222953 0.385574 0.263105 0.237354 -0.173398 0.458177 -0.036976 0.442710 -0.515398 -0.027248 -0.011067 0.050181 0.239604 -0.273736 -1.018572 0.619506 0.421878 -0.138456 -0.816235 -0.239924 -0.319598 -0.111921 -0.426672 0.824154 -0.357916 0.349457 -0.317879 -0.347393 -0.617450 0.196121 
西服裙 -0.373251 0.326490 0.173008 0.856378 0.419388 0.427195 0.544144 0.343255 -0.141598 -0.282788 -2.061825 0.929529 -0.082907 0.464753 -1.166765 0.405142 0.040510 0.087810 0.401391 0.638647 0.446744 0.524912 0.340933 -0.261418 -0.270106 0.387358 -0.152754 0.225704 -0.360246 0.233902 0.274221 0.389196 -0.825639 0.054989 0.396940 -0.479397 0.236055 -0.684463 0.597512 -1.016502 -0.129327 -0.603678 0.407578 -0.047559 -0.074774 -0.571507 -1.077366 0.002474 0.443048 0.528871 -0.045300 -0.118040 0.321405 0.114591 0.056351 -0.478632 0.178459 -0.701144 0.546087 0.289130 -0.381681 0.434652 -0.056246 -0.021282 -0.794608 0.014854 0.529043 -0.206444 -0.782488 0.295849 0.522432 0.203019 0.090980 -0.168834 0.392948 0.842915 0.359231 0.496649 -0.800348 0.271327 0.810016 -0.209902 -0.507368 0.088020 -0.467387 -0.009279 0.856956 -0.300131 -0.164270 -0.627852 0.107886 0.125682 0.074427 0.185287 0.306899 -0.096058 0.209118 0.324962 -0.199798 0.156316 
塑料镜盒 -0.147080 -0.115303 -0.202614 -0.016463 -0.006563 0.101924 0.201956 -0.111554 -0.325413 -0.062760 -0.285668 0.224066 0.310746 -0.197262 -0.016996 0.127183 -0.186569 -0.294145 0.017128 0.069630 0.648009 -0.223891 0.368829 -0.087508 0.010799 -0.147892 -0.173748 0.024987 -0.551145 0.575678 -0.823008 0.103518 -0.093485 -0.349574 0.541874 0.221397 0.165687 -0.175807 0.210870 -0.276537 0.087066 -0.305066 0.493465 0.103973 -0.171314 0.008113 -0.598391 -0.072461 -0.217198 -0.192513 0.030468 0.094620 0.283120 -0.624967 -0.306991 -0.379846 0.552196 0.080843 0.437224 0.496276 -0.073029 -0.103885 -0.435897 0.211734 -0.298830 -0.318757 -0.437768 0.214904 -0.204036 -0.117846 0.190205 -0.275856 0.120005 -0.128984 -0.435639 0.387545 0.256643 0.275253 -0.326545 -0.293465 0.100095 -0.156210 -0.229503 -0.140449 -0.319263 0.497716 0.436769 -0.126862 -0.980556 -0.370406 -0.381910 0.257157 -0.334562 0.454634 -0.172980 -0.045878 0.208863 0.000245 -0.485657 0.051262 
钱包 -0.210394 -0.012819 -1.025729 -0.110132 -0.203946 0.325501 -0.092082 -0.171205 0.074093 0.689896 0.149705 0.752360 0.185291 0.926345 0.346944 -0.406594 -1.356815 1.061440 1.147922 0.649918 -0.493050 0.086045 -0.537919 -0.096423 0.410530 -0.679314 -0.403016 0.282162 -0.340584 0.134738 -0.935641 -0.189639 -0.360800 -0.135867 1.344634 0.704623 -0.281927 -0.857360 -0.715976 0.514087 1.076827 0.130910 -0.063144 -0.511504 -0.473730 0.212404 0.078757 0.268369 0.599908 0.300571 -0.306102 -0.346745 0.620094 0.084593 1.604059 0.128651 0.463616 -0.064533 -0.102854 -0.183975 0.251838 0.176743 -0.766731 0.003721 -0.189693 0.023862 0.382921 -0.032940 0.051522 0.802289 1.035620 -0.003836 0.296769 -1.205579 -0.695003 -0.896499 -1.115796 0.163985 -0.358138 -0.016816 -0.078402 -0.345905 -0.295906 -0.088308 -0.717778 0.342717 0.708681 -0.103403 -0.654093 0.647023 0.047744 -0.557076 -0.800496 0.514494 -0.857300 0.161002 -1.515432 -0.225772 -1.033068 -0.297368 
手镯 0.328488 0.104234 -0.238523 0.872384 1.251951 -0.744329 -0.259911 -0.168914 -0.256455 -0.071734 -0.078121 0.068322 -0.183326 1.410133 0.115752 -0.283560 -0.013094 -1.051920 0.218579 0.978799 -0.077271 -0.138641 -1.146835 -0.280343 -0.095915 -1.507681 -0.311179 -0.606090 0.252766 0.226881 0.556367 -0.301887 -0.123571 1.315771 0.089610 0.380609 0.148557 0.548264 0.757622 0.953260 -0.175433 0.708870 0.235678 -0.696998 0.142332 -0.502958 0.003136 0.396576 0.657363 0.327910 0.710083 -0.880081 0.563836 0.080247 -0.304300 -0.230926 0.023845 0.036857 -0.352243 -0.553240 0.595114 -0.435927 -1.014033 -0.470414 -0.370766 0.044573 -0.947902 0.529389 -0.729030 0.174282 0.002926 1.375124 -0.170151 -0.461995 -0.219906 0.410414 -0.848708 0.508011 -0.575603 0.330904 -0.515489 0.584322 0.056594 -0.428379 -1.144101 0.085152 -0.051198 0.292967 0.647227 0.820072 -0.081137 0.058187 0.207194 1.144705 -0.638147 0.347476 -0.692724 -0.261902 -0.453148 -0.560109 
uxuzgzfx -0.249482 0.113133 -0.193704 0.259312 0.453002 0.208122 0.398826 0.038920 -0.046920 -0.026903 -1.268788 0.489304 -0.206713 0.673830 -0.557969 0.259540 -0.322497 -0.151581 0.213041 0.489395 0.384732 0.188119 0.241657 -0.073263 -0.153846 -0.182451 -0.375573 0.010075 -0.141742 0.511544 -0.370818 0.283160 -0.416605 0.152388 0.405199 -0.046609 0.122671 -0.294337 0.422991 -0.642528 -0.012508 -0.106853 0.520885 -0.142851 -0.191977 -0.573573 -0.855569 -0.189428 0.390258 0.343569 0.049339 -0.055261 0.179874 -0.201820 -0.128430 -0.291279 0.230907 -0.137406 0.371406 0.124354 -0.393783 0.360447 -0.452026 -0.019230 -0.525937 -0.036430 -0.107641 0.128287 -0.254560 0.192424 0.221434 -0.036851 0.008986 -0.228194 -0.068216 0.408561 0.198264 0.216044 -0.458982 0.118409 0.140711 -0.080833 -0.160319 0.241698 -0.231835 0.086155 0.356721 -0.082402 -0.081761 -0.260800 -0.261134 0.312021 0.010162 0.248975 0.032638 0.034454 0.249474 0.065873 -0.228362 -0.021876 
珠 0.065898 -0.210659 -0.252707 0.818851 0.871403 -0.548492 0.066598 -0.294047 -0.439914 -0.280769 0.269181 -0.150528 0.012592 0.757342 0.306412 -0.249457 -0.025669 -1.072531 -0.340342 0.393729 0.715901 -0.203266 -0.460766 -0.479663 -0.209753 -0.582265 0.007517 -0.386881 -0.532636 0.384700 -0.074833 -0.223480 0.146346 0.704307 -0.293889 -0.045475 0.286801 0.434165 0.594143 0.550365 -0.357588 0.209856 0.040645 -0.162414 0.295141 -0.468118 -0.184637 0.500579 -0.304676 0.013008 0.618928 -0.281907 0.527531 -0.372756 -0.910460 -0.338719 0.300075 -0.062172 -0.412543 0.164132 0.481439 -0.541018 -0.654725 -0.188215 -0.243713 -0.380235 -0.859850 0.292564 -0.747712 -0.241084 -0.145483 0.718620 0.076313 0.110971 0.085164 0.593625 -0.147380 0.427848 -0.277722 -0.023431 -0.218658 0.164901 0.045107 -0.622032 -1.186662 0.306776 0.468545 0.205488 -0.416920 -0.077713 -0.114695 0.097883 0.000418 1.150549 -0.630957 0.733427 -0.038185 -0.350103 -0.342741 -0.191354 
uxuzgxcp 0.169312 -0.009725 -0.216875 0.750108 0.969303 -0.383652 -0.024372 -0.043717 -0.379475 -0.105632 0.214546 0.220458 -0.006190 0.880357 0.371070 -0.319948 0.127443 -0.503500 -0.133042 0.382756 0.132837 -0.197162 -0.850107 -0.401916 0.045932 -0.992759 -0.137168 -0.241286 -0.164460 0.440914 0.184608 -0.125426 0.010850 0.789033 0.168234 0.088719 0.226780 0.336830 0.733858 0.741045 -0.295058 0.331110 0.054392 -0.453205 0.275799 -0.459036 -0.014318 0.545916 0.119018 0.285856 0.513813 -0.385210 0.480332 0.008316 -0.312435 -0.216515 0.175532 -0.060812 -0.657167 -0.086799 0.645588 -0.693079 -0.526676 -0.389775 -0.258434 -0.078411 -0.494771 0.365284 -0.883381 0.120955 0.094336 0.977673 0.050307 -0.236971 0.158859 0.268417 -0.600721 0.450831 -0.101805 0.005708 -0.264192 0.104637 -0.004828 -0.542663 -1.118802 0.127972 0.497782 0.299764 -0.062991 0.156500 -0.200531 0.018104 0.123302 0.932990 -0.708448 0.473818 -0.364829 -0.259020 -0.154762 -0.453343 
uxuzgxyr -0.113537 -0.071450 -0.748492 0.047139 0.016650 0.203540 0.103978 -0.175326 -0.048914 0.340573 -0.122597 0.569328 0.302870 0.476908 0.107914 -0.246544 -0.830442 0.499868 0.632768 0.344468 -0.169226 -0.002036 -0.395877 -0.205629 0.366285 -0.448602 -0.203152 0.191490 -0.321649 0.079315 -0.656381 -0.091045 -0.256773 -0.023316 0.953399 0.476004 -0.123684 -0.450543 -0.295956 0.268583 0.687051 0.043657 0.041363 -0.332151 -0.378106 0.034206 -0.000148 0.165580 0.240513 0.186645 -0.292392 -0.256031 0.393710 -0.127840 1.008949 -0.079743 0.319923 -0.092894 0.114122 -0.122437 0.313371 -0.047858 -0.515293 0.043512 -0.232403 0.001603 0.239789 0.098758 -0.047376 0.415777 0.740174 0.001311 0.222954 -0.825257 -0.368834 -0.399944 -0.584116 -0.016426 -0.235229 -0.008845 0.031620 -0.304766 -0.234359 -0.101221 -0.705500 0.170665 0.579547 -0.079162 -0.660213 0.318001 0.012552 -0.178498 -0.483161 0.396637 -0.575184 0.188563 -0.720853 -0.074593 -0.669533 -0.167501 
uxuzgxyz -0.171940 -0.042825 -0.817303 -0.000165 -0.099571 0.246924 0.083697 -0.146746 0.057485 0.490270 0.072544 0.666834 0.140333 0.748602 0.441748 -0.210667 -0.973372 0.711286 0.714317 0.497747 -0.288482 -0.086153 -0.494977 -0.119885 0.409806 -0.673570 -0.277471 0.248342 -0.391072 0.314560 -0.873747 -0.105862 -0.240776 -0.030199 0.998681 0.397960 -0.162102 -0.508047 -0.389236 0.437718 0.675351 0.202522 0.062809 -0.371953 -0.329983 0.151108 -0.089327 0.328026 0.427821 0.250371 -0.248902 -0.187539 0.475216 -0.015540 1.220647 0.041366 0.450628 -0.029369 -0.086046 -0.147353 0.142517 0.109019 -0.461010 0.015323 -0.127417 0.064459 0.274906 0.038566 -0.111911 0.541725 0.613129 0.067595 0.112671 -0.933700 -0.302081 -0.776991 -0.679965 0.199368 -0.082216 -0.120954 -0.179335 -0.227593 -0.306216 -0.015929 -0.647557 0.373734 0.644856 -0.030157 -0.596463 0.490091 -0.245320 -0.338531 -0.531013 0.436380 -0.665450 -0.018840 -0.951320 -0.177879 -0.760315 -0.355574 
uxuzgxcx 0.133269 -0.029448 -0.299770 0.669728 0.834564 -0.313626 -0.071106 -0.100891 -0.316899 -0.072828 0.408798 0.164963 0.018107 0.883428 0.477945 -0.374542 -0.019751 -0.489006 -0.074610 0.301791 0.192716 -0.216754 -0.689212 -0.348156 -0.054178 -0.801306 -0.116747 -0.236917 -0.273577 0.364247 0.060644 -0.173474 0.086415 0.641725 0.021367 0.077973 0.186155 0.236069 0.465175 0.815422 -0.182186 0.219523 -0.092794 -0.347865 0.314414 -0.352972 0.021868 0.577111 -0.070233 0.092881 0.550431 -0.308845 0.432016 -0.014137 -0.315022 -0.131666 0.282732 -0.173827 -0.638008 0.060312 0.622257 -0.615035 -0.463564 -0.379726 -0.193005 -0.239873 -0.476207 0.271066 -0.715783 0.126222 0.098911 0.781676 0.167202 -0.154268 -0.008970 0.199813 -0.535385 0.382481 -0.151387 -0.107618 -0.222651 0.099688 0.017506 -0.523383 -1.129994 0.260458 0.557471 0.223001 -0.266911 0.025372 -0.213639 -0.095543 -0.076351 0.937718 -0.746725 0.544958 -0.416871 -0.356300 -0.343218 -0.267145 
书包 -0.314458 -0.027383 -1.302548 0.117195 0.015846 0.534063 0.032012 -0.182105 0.165242 0.703793 0.025817 0.948292 0.137366 1.093967 0.700010 -0.229804 -1.308804 0.995686 1.017353 0.630870 -0.507811 -0.084067 -0.764536 -0.122409 0.513527 -0.875312 -0.461395 0.328530 -0.381993 0.300890 -1.057732 -0.199488 -0.410183 0.074222 1.320455 0.536924 -0.363172 -0.767980 -0.529876 0.479046 1.056303 0.263033 0.040170 -0.584102 -0.496220 0.193343 -0.042745 0.480888 0.483266 0.396720 -0.389323 -0.278568 0.599352 0.106082 1.723898 0.174910 0.558542 -0.060212 -0.049586 -0.261509 0.259078 0.032102 -0.502398 0.068489 -0.129584 0.227292 0.458333 -0.005091 -0.076494 0.813006 0.753159 0.097162 0.129471 -1.327544 -0.583838 -1.191148 -0.994214 0.107821 -0.161782 -0.284838 -0.319193 -0.345425 -0.427574 0.045348 -0.835526 0.363733 0.774932 -0.051997 -0.654124 0.721774 -0.324819 -0.494776 -0.660866 0.410864 -0.842656 -0.111745 -1.378493 -0.187238 -0.941230 -0.497298 
uxuzgzbr -0.360428 0.077961 -0.357910 0.161292 0.459349 0.267289 0.362793 0.037033 -0.030955 0.024369 -1.195114 0.688648 -0.126247 0.586843 -0.607364 0.396321 -0.442337 -0.094622 0.417010 0.645360 0.308309 0.065322 0.177544 -0.004957 -0.086135 -0.231591 -0.447061 0.033172 -0.220911 0.499960 -0.595795 0.231388 -0.349321 -0.007279 0.425966 -0.032967 -0.073689 -0.361195 0.204944 -0.623693 -0.060801 -0.075056 0.535090 -0.168214 -0.159924 -0.351311 -0.834550 -0.318302 0.439030 0.297513 -0.102790 0.009759 0.134931 -0.260167 0.048614 -0.204415 0.212212 -0.007944 0.403385 0.013995 -0.506307 0.353643 -0.398495 -0.013737 -0.478828 0.025125 -0.096133 0.140855 -0.107729 0.253191 0.283191 -0.130767 -0.023816 -0.339675 -0.176923 0.396449 0.331851 0.184582 -0.386464 0.192239 0.129145 -0.082520 -0.261144 0.287126 -0.020591 0.037511 0.396453 -0.155087 -0.230822 -0.178752 -0.404157 0.250494 -0.080076 0.116817 -0.008569 -0.114558 0.134720 0.118162 -0.298094 -0.193441 
吊坠 0.249679 0.050982 -0.202450 1.042065 1.364239 -0.704061 -0.140391 -0.152219 -0.333176 -0.224805 -0.096891 0.088877 -0.172522 1.413752 0.067757 -0.256036 0.069394 -1.106040 0.038326 0.926431 0.112063 -0.117468 -1.118758 -0.365443 -0.131006 -1.381961 -0.238167 -0.571145 0.023785 0.328038 0.514994 -0.231678 -0.115035 1.307677 0.011993 0.196237 0.179498 0.561810 0.872340 0.857805 -0.370867 0.643311 0.200905 -0.669152 0.257579 -0.634339 -0.050938 0.478396 0.492888 0.429817 0.734696 -0.808291 0.573532 0.007726 -0.513293 -0.252878 -0.004402 -0.033777 -0.490095 -0.468302 0.596121 -0.453953 -0.910692 -0.489627 -0.421449 -0.032295 -0.923625 0.509952 -0.855434 0.096792 -0.006263 1.355434 -0.132391 -0.352671 -0.026825 0.519641 -0.722246 0.509525 -0.479619 0.382540 -0.425815 0.509885 0.081868 -0.466789 -1.229605 0.031883 0.186122 0.363446 0.436214 0.627566 -0.074248 0.101104 0.214090 1.209553 -0.732940 0.473183 -0.503527 -0.288886 -0.389787 -0.558431 
头带 -0.210777 0.139732 -0.153801 0.188510 0.206661 -0.365296 -0.286811 -0.023502 -0.194460 -0.227240 -0.238764 -0.576869 0.034667 0.162728 -0.086250 0.124018 -0.087763 -1.509553 0.156903 0.381912 0.188914 -0.322055 -0.050634 -0.020943 -0.648098 -0.043857 -0.276146 -0.741868 0.027104 -0.243436 0.079386 -0.278030 -0.145145 0.463886 -0.307870 0.742150 0.185900 0.104790 -0.051007 0.063473 0.582222 -0.149521 0.478521 0.234703 -0.301475 0.128031 -0.283006 0.093090 -0.068936 -0.622948 0.406963 -0.560735 0.074684 -0.264048 -0.979518 -0.266147 0.375197 -0.178597 1.206379 0.227347 -0.049423 -0.111339 -1.077913 0.482670 -0.522108 -0.172922 -1.048282 0.726966 -0.283973 -0.182730 0.134426 0.322689 0.044590 -0.095103 -0.897399 1.062164 0.079345 0.282675 -1.348782 0.087594 0.145312 0.556634 -0.005043 -0.341152 -1.093616 0.558017 -0.548594 -0.118474 -0.320155 0.262968 -0.197051 0.058906 -0.215550 0.680386 -0.016862 0.384825 -0.370838 0.262797 -0.691072 0.429792 
摆件 -0.166331 -0.076811 -0.398227 0.564555 0.491492 0.011428 0.088899 -0.126546 -0.424333 -0.179533 0.114467 0.054435 0.261566 0.173370 0.409929 -0.121268 -0.175449 -0.728301 -0.196633 -0.011043 0.813177 -0.294333 0.208274 -0.541243 -0.233607 -0.229932 0.068077 -0.280876 -0.669711 0.576915 -0.691468 -0.074275 0.024631 -0.103453 -0.049277 -0.016086 0.205669 -0.090167 0.370503 0.078568 -0.146372 -0.347063 0.206095 0.147491 0.114924 -0.127502 -0.657276 0.476638 -0.552529 -0.287389 0.513498 0.126618 0.490406 -0.410751 -0.828352 -0.127803 0.499727 -0.164280 -0.079383 0.691505 0.236520 -0.296582 -0.369351 0.186694 -0.465190 -0.553094 -0.603153 0.180223 -0.668302 -0.049344 0.265854 0.185467 0.307832 0.274242 -0.010722 0.595883 0.151876 0.431319 -0.423180 -0.170609 0.088579 -0.239085 0.057250 -0.434548 -1.136745 0.610729 0.780879 -0.111703 -1.139275 -0.567963 -0.303395 0.058120 -0.465111 0.881051 -0.441811 0.502101 -0.020422 -0.356788 -0.487261 0.222849 
uxuzgxbp -0.124812 0.124223 -0.171621 -0.095675 -0.098743 -0.228751 -0.353168 -0.042891 -0.211652 0.030451 0.085818 -0.415728 0.177370 -0.033710 0.191838 -0.033688 -0.179809 -0.867688 0.340115 0.250572 -0.010463 -0.349954 -0.172025 0.057531 -0.398549 -0.212690 -0.233611 -0.479420 0.089295 -0.125813 -0.103229 -0.220023 -0.103295 0.197103 0.044312 0.820860 0.078320 -0.094039 -0.287649 0.252294 0.740586 -0.049573 0.346189 0.155667 -0.370200 0.308980 -0.162751 0.109379 0.024517 -0.509327 0.338906 -0.482226 0.184458 -0.177576 -0.388560 -0.112530 0.381753 -0.128203 0.974763 0.164040 0.114450 -0.155737 -0.902854 0.443161 -0.394812 -0.125633 -0.741063 0.700949 -0.210493 -0.042967 0.215455 0.226578 0.116176 -0.316742 -1.134223 0.549115 -0.165712 0.310252 -1.042682 -0.083150 0.182192 0.464467 -0.042049 -0.258033 -0.884874 0.652437 -0.378617 -0.187503 -0.378239 0.395158 -0.218696 -0.091193 -0.358667 0.531765 -0.161287 0.217216 -0.626791 0.132351 -0.786490 0.362240 
uxuzgxfr 0.106610 -0.031768 -0.259858 0.829114 1.015509 -0.423830 -0.033260 -0.172583 -0.240225 -0.054931 0.021015 0.196298 -0.081815 0.996257 0.217058 -0.267680 -0.034263 -0.560363 -0.009287 0.475776 0.133842 -0.067637 -0.750993 -0.377526 -0.009811 -0.870126 -0.130358 -0.331057 -0.088693 0.313382 0.226609 -0.165984 -0.039009 0.814404 0.053578 0.024621 0.193555 0.323149 0.685350 0.644186 -0.244542 0.358508 0.046632 -0.484847 0.222805 -0.515789 -0.047610 0.442797 0.217707 0.310133 0.532966 -0.485054 0.464270 -0.010704 -0.228971 -0.190433 0.114090 -0.045022 -0.519555 -0.236469 0.556399 -0.438489 -0.525906 -0.430873 -0.240229 -0.028615 -0.601507 0.267316 -0.685504 0.102096 0.054225 0.931118 -0.052154 -0.242747 0.094209 0.233878 -0.539246 0.366132 -0.251812 0.092639 -0.323490 0.158994 0.000482 -0.405230 -1.013431 0.052556 0.328441 0.254902 0.133276 0.298698 -0.064213 0.002232 0.099728 0.876388 -0.568292 0.319441 -0.317963 -0.300150 -0.259552 -0.355528 
水晶 -0.007860 0.047629 -0.247099 0.645544 0.832539 -0.278168 -0.073735 -0.137716 -0.120006 -0.133770 -0.129637 0.020694 -0.251698 1.020611 0.063523 -0.178959 -0.170986 -0.668307 0.081997 0.497189 0.219473 -0.031073 -0.547833 -0.180753 -0.210381 -0.572041 -0.200840 -0.362983 -0.015095 0.290702 0.135932 -0.143716 -0.084096 0.632571 -0.163476 0.001524 0.132983 0.238282 0.507521 0.369869 -0.239155 0.285854 0.131489 -0.324216 0.209568 -0.397924 -0.165913 0.274452 0.204685 0.177071 0.501343 -0.345408 0.302203 -0.022681 -0.530853 -0.169062 0.154776 -0.150188 -0.254277 -0.131568 0.197740 -0.135264 -0.502545 -0.318314 -0.293633 -0.129634 -0.582082 0.240397 -0.477108 0.142827 -0.020906 0.658565 -0.003379 -0.140887 -0.001095 0.362582 -0.315848 0.351720 -0.350465 0.191989 -0.247144 0.290398 0.027050 -0.193109 -0.869750 0.202217 0.215536 0.126370 0.177914 0.164486 -0.249040 0.030429 0.081625 0.851184 -0.491832 0.463038 -0.263315 -0.196278 -0.195280 -0.231193 
戒指 0.246770 0.110759 -0.243433 0.811596 1.100413 -0.537827 -0.253397 -0.059674 -0.333124 -0.120270 -0.027380 0.055850 -0.086259 1.225380 0.152726 -0.336533 -0.008262 -0.873042 0.150787 0.820736 -0.115492 -0.197149 -0.990079 -0.302913 -0.078321 -1.290926 -0.269777 -0.536357 0.128103 0.202637 0.451968 -0.257166 -0.108153 1.133624 0.132196 0.383157 0.106043 0.354806 0.655279 0.876874 -0.097445 0.548309 0.191200 -0.635443 0.157677 -0.380495 0.127097 0.451841 0.408375 0.286625 0.569848 -0.801867 0.467870 0.055044 -0.281448 -0.161914 0.096936 -0.066008 -0.341551 -0.449470 0.602763 -0.448205 -0.843981 -0.449502 -0.321410 0.057270 -0.806604 0.485044 -0.654508 0.189842 0.092063 1.206977 -0.133138 -0.374950 -0.191575 0.362841 -0.848836 0.431404 -0.503179 0.250553 -0.425799 0.516730 0.083522 -0.454627 -1.169509 0.112393 0.025077 0.274843 0.349172 0.670266 -0.068490 -0.004074 0.134990 1.095872 -0.698261 0.419428 -0.727587 -0.292111 -0.456719 -0.392172 
男童恤 -0.284869 0.287350 0.198026 0.757548 0.176063 0.425612 0.415309 0.350198 -0.047824 -0.226563 -1.887314 0.851465 0.034676 0.343072 -1.068839 0.344324 0.103281 0.149531 0.470438 0.619186 0.422652 0.466824 0.263229 -0.262746 -0.225293 0.373690 -0.091660 0.183387 -0.389365 0.131924 0.216331 0.385524 -0.826063 0.013479 0.494664 -0.381131 0.245186 -0.714617 0.520990 -0.888311 -0.032419 -0.604365 0.407417 -0.030087 -0.130644 -0.529987 -1.000549 0.097142 0.427612 0.461136 -0.043491 -0.081932 0.376433 0.084029 0.226382 -0.505768 0.279128 -0.703950 0.628121 0.293821 -0.299874 0.448521 0.021370 0.032987 -0.802569 0.053269 0.584237 -0.202096 -0.789846 0.288361 0.472740 0.217705 0.080911 -0.148161 0.306434 0.670624 0.259835 0.537382 -0.881933 0.249082 0.914788 -0.140335 -0.395885 0.059910 -0.538126 -0.009616 0.798077 -0.336236 -0.291912 -0.567239 0.148214 0.049505 0.030377 0.208387 0.290831 -0.164289 0.100829 0.312941 -0.363977 0.241955 
uxuzgxyx -0.143905 -0.125234 -0.856863 0.089319 -0.086791 0.194795 -0.025622 -0.147575 -0.050641 0.403446 -0.055685 0.552170 0.364961 0.405407 0.191362 -0.124670 -0.837502 0.561586 0.672742 0.397128 -0.251623 -0.130212 -0.327722 -0.115858 0.323984 -0.545404 -0.312992 0.164114 -0.356797 0.092159 -0.727678 -0.156299 -0.241060 -0.017816 1.017167 0.635309 -0.170861 -0.521248 -0.379875 0.337289 0.836411 0.086380 0.123509 -0.332532 -0.490184 0.176903 -0.016191 0.243933 0.335842 0.177465 -0.227245 -0.292347 0.488615 -0.123602 1.198326 -0.000156 0.405066 0.001766 0.189933 -0.165789 0.306702 -0.036063 -0.609733 0.109619 -0.171820 0.040554 0.176711 0.139285 -0.052525 0.481784 0.716274 0.080946 0.129097 -0.915756 -0.605266 -0.526301 -0.624888 0.117217 -0.398600 -0.134795 -0.055490 -0.242364 -0.297758 -0.108617 -0.596429 0.294197 0.470623 -0.112804 -0.663618 0.484562 -0.057377 -0.179532 -0.476387 0.307899 -0.485558 -0.033759 -0.898919 -0.098325 -0.847375 -0.149102 
礼品 -0.263791 -0.024884 -0.396664 0.388536 0.420631 0.145522 0.082776 -0.077607 -0.295889 -0.128399 -0.090774 0.142394 0.214976 0.221050 0.302869 -0.097027 -0.174439 -0.508612 0.012723 -0.049559 0.558036 -0.267366 0.232308 -0.366318 -0.162071 -0.079307 -0.006661 -0.126097 -0.498589 0.544039 -0.625352 -0.049409 -0.089890 -0.217263 0.118407 0.025657 0.138587 -0.201918 0.269395 -0.000000 -0.016640 -0.333421 0.219670 -0.006355 0.051180 -0.156220 -0.645377 0.318510 -0.366092 -0.130528 0.403199 0.093059 0.453468 -0.396341 -0.567682 -0.142984 0.444644 -0.193535 0.036370 0.588014 0.100377 -0.150759 -0.306110 0.118758 -0.361198 -0.467399 -0.443034 0.091417 -0.402468 -0.027106 0.284009 0.068654 0.238728 0.033142 -0.206508 0.470093 0.113806 0.410841 -0.401911 -0.166566 0.017925 -0.190528 0.054237 -0.241829 -0.916679 0.509828 0.616088 -0.132470 -0.911341 -0.512986 -0.331828 -0.100641 -0.400112 0.628767 -0.309426 0.326526 -0.084753 -0.252696 -0.469950 0.152879 
工具 -0.247064 -0.370733 -0.815143 0.085272 0.166808 0.189904 0.447689 -0.061326 -0.468345 0.245344 -0.460478 0.682141 0.997686 -0.570814 -0.184595 0.056799 -0.113130 0.211363 0.075936 0.052845 0.102477 -0.668046 0.128258 -0.330931 0.371471 -0.350244 0.071237 0.233514 -0.688707 0.003383 -0.837646 -0.004106 0.027612 -0.262412 0.905456 0.704080 -0.022777 -0.404972 -0.297179 -0.147381 0.743404 -0.349059 0.399101 -0.004274 -0.537082 0.151779 -0.091813 0.189539 -0.352308 -0.310214 -0.314427 -0.069247 0.089915 -0.481680 0.909734 -0.356533 0.415927 0.019335 0.681616 0.001003 0.597457 -0.626251 -0.294543 0.371742 -0.291837 -0.029137 0.160212 0.324843 -0.335736 0.087435 0.657544 0.021842 0.253543 -0.728201 -0.220606 0.137972 0.166199 -0.142980 -0.422013 -0.270350 0.363574 -0.461555 -0.252058 -0.247377 -0.681224 0.181408 0.500364 -0.299394 -1.475300 0.028383 0.025812 0.239335 -0.541806 0.093133 -0.154284 -0.069514 -0.037729 0.174740 -0.974135 0.276397 
勺 -0.231958 -0.235166 -0.488224 0.238466 0.346105 0.100672 0.486554 -0.032097 -0.417844 0.065571 -0.230587 0.475602 0.453938 0.228491 0.246884 0.035524 -0.308697 -0.168950 -0.047350 0.146910 0.558923 -0.466900 0.252923 -0.421225 0.284501 -0.527728 0.010754 0.091687 -0.607493 0.723274 -0.985793 0.028528 0.023453 -0.376742 0.429525 0.151394 0.131253 -0.075523 0.163451 0.080806 -0.203145 -0.123284 0.250047 -0.144438 0.116383 -0.264107 -0.768043 0.070854 -0.169262 -0.060176 0.114164 0.331522 0.351798 -0.545602 -0.011221 -0.183920 0.262300 0.134089 -0.154136 0.457234 -0.023677 -0.149186 -0.148606 0.153067 -0.279780 -0.413532 -0.328695 0.103394 -0.356587 -0.067669 0.229734 -0.061456 0.266734 0.003862 -0.066092 0.204511 0.210488 0.494570 -0.039660 -0.219304 -0.083073 -0.399221 -0.050788 -0.079481 -0.313088 0.404787 0.732939 -0.171249 -1.025323 -0.329658 -0.306284 0.137971 -0.346119 0.388160 -0.197601 0.036299 0.017468 -0.264946 -0.479950 -0.059642 
儿童印花恤 -0.319426 0.292853 0.026074 0.507291 0.355704 0.360030 0.324048 0.208570 0.061509 -0.193606 -1.866473 0.705825 -0.271332 0.572237 -1.209504 0.496705 -0.160333 -0.127907 0.567722 0.804273 0.294891 0.509917 0.250999 -0.033468 -0.367682 0.370250 -0.373043 0.037146 -0.119638 0.118919 0.142624 0.316005 -0.683435 0.151434 0.270040 -0.307115 0.063951 -0.599745 0.370393 -1.061521 0.004175 -0.384688 0.478302 -0.051182 -0.181332 -0.529770 -0.931186 -0.243168 0.578967 0.416485 -0.044738 -0.186158 0.142874 -0.011004 -0.082648 -0.415386 0.155299 -0.506502 0.766783 0.127411 -0.600598 0.683014 -0.303997 0.066865 -0.724292 0.094441 0.212291 -0.045397 -0.423103 0.304557 0.420777 0.054247 0.031190 -0.284954 -0.036774 0.771994 0.347731 0.325005 -0.830716 0.405799 0.653717 -0.039976 -0.429852 0.319336 -0.324892 -0.025796 0.478390 -0.315271 -0.003522 -0.365413 -0.017838 0.171779 0.017601 0.204449 0.317514 -0.074970 0.280064 0.354776 -0.332037 0.099518 
uxuzgryz -0.094913 0.168872 -0.058158 -0.005942 -0.038781 -0.307426 -0.425379 -0.030075 -0.129735 -0.125751 -0.397963 -0.507044 0.090204 0.119395 -0.321421 0.143943 -0.129867 -1.276066 0.424829 0.564923 -0.131715 -0.254534 -0.168452 0.107610 -0.542753 -0.189884 -0.360578 -0.693118 0.259641 -0.406852 0.197240 -0.249489 -0.202485 0.499220 -0.048365 0.925068 0.070365 0.061750 -0.216342 0.010607 0.775254 0.010741 0.549688 0.194619 -0.423688 0.209351 -0.091295 -0.062540 0.213271 -0.544895 0.268946 -0.753272 0.045263 -0.143798 -0.543064 -0.241463 0.281336 -0.099582 1.372486 -0.017409 -0.089112 0.055803 -1.164478 0.499176 -0.518552 -0.003533 -0.890668 0.786978 -0.107062 -0.077707 0.191471 0.353169 -0.018042 -0.365295 -1.129384 0.888142 -0.079132 0.197061 -1.389363 0.130398 0.185896 0.667050 -0.050262 -0.223222 -0.815207 0.518238 -0.765199 -0.166990 -0.073239 0.587673 -0.119392 0.033223 -0.198550 0.561399 0.050756 0.205382 -0.516472 0.321603 -0.798274 0.367193 
uxuzgxur -0.189645 -0.131157 -0.814705 -0.089341 -0.195971 0.302977 0.064863 -0.133561 -0.025314 0.481916 0.063946 0.621145 0.396187 0.348761 0.325564 -0.180169 -0.850777 0.785319 0.670977 0.284247 -0.326970 -0.170086 -0.314248 -0.139466 0.416124 -0.456486 -0.178448 0.246628 -0.378386 0.081757 -0.826094 -0.131642 -0.199136 -0.212071 1.038995 0.571052 -0.213081 -0.586212 -0.507941 0.352562 0.913953 -0.014905 -0.000176 -0.262077 -0.460394 0.201761 0.076638 0.265519 0.210021 0.156794 -0.318055 -0.184491 0.383423 -0.086278 1.348305 0.022265 0.395137 -0.045874 0.114488 -0.107353 0.368617 -0.124669 -0.438522 0.138623 -0.101324 0.024509 0.340602 0.002169 0.037254 0.464291 0.752464 -0.020350 0.206538 -0.918689 -0.431302 -0.676670 -0.673267 0.002974 -0.228698 -0.179979 -0.031901 -0.351101 -0.271502 -0.092135 -0.556093 0.258550 0.571414 -0.121452 -0.782621 0.453688 -0.017231 -0.268924 -0.552438 0.260457 -0.528644 -0.046931 -0.885124 -0.118343 -0.819122 -0.135819 
uxuzgrzr -0.047951 0.064413 -0.115071 0.068648 -0.007952 -0.237895 -0.324312 -0.092533 -0.182884 -0.085797 -0.127979 -0.450711 0.191734 0.073704 -0.111388 0.044352 -0.062913 -1.140426 0.237639 0.308702 0.002516 -0.335593 -0.086816 -0.096736 -0.389929 -0.223970 -0.197736 -0.616316 0.061779 -0.215723 0.004171 -0.210128 -0.142952 0.373740 0.017859 0.754458 0.126210 0.060827 -0.076880 0.085562 0.610944 -0.032882 0.428284 0.122017 -0.310194 0.093075 -0.150212 0.064815 0.020270 -0.501368 0.330099 -0.584381 0.155010 -0.203103 -0.462223 -0.288206 0.320834 -0.133331 0.975091 0.093249 0.070094 -0.116325 -0.948491 0.330331 -0.466806 -0.098248 -0.840412 0.568165 -0.211163 -0.112432 0.176314 0.366178 -0.017749 -0.236518 -0.823827 0.759294 -0.047318 0.197156 -1.049176 0.019190 0.110690 0.456786 0.022271 -0.269976 -0.942119 0.541366 -0.438655 -0.159654 -0.339238 0.358111 -0.178530 0.045756 -0.195679 0.612900 -0.071092 0.214143 -0.390986 0.140239 -0.729497 0.272250 
九分裤 -0.313763 0.292100 -0.207467 0.333023 0.808530 0.367019 0.474360 0.063966 0.164205 0.045284 -2.120858 0.999998 -0.527642 0.907025 -1.396529 0.675905 -0.405951 0.029115 0.714734 1.071418 0.242973 0.534903 0.133045 0.105289 -0.279058 0.004847 -0.647376 0.147028 0.027709 0.421826 -0.216221 0.359861 -0.706475 0.295384 0.405316 -0.418936 -0.115606 -0.501480 0.476332 -1.224020 -0.154297 -0.074933 0.701339 -0.310710 -0.255913 -0.715382 -1.116613 -0.603839 1.059275 0.765998 -0.156282 -0.123352 0.163736 -0.147084 -0.096532 -0.404726 0.075622 -0.260992 0.697862 -0.258504 -0.863157 0.832860 -0.573109 0.020149 -0.877870 0.125151 0.072989 0.177328 -0.270440 0.419509 0.482927 -0.050521 0.011380 -0.658388 -0.237551 0.653871 0.218926 0.289899 -0.737470 0.754756 0.304354 -0.098207 -0.550604 0.755856 -0.074448 -0.180687 0.372484 -0.173444 0.313796 -0.105839 -0.336806 0.374418 0.110914 0.171413 0.179774 -0.147201 0.531914 0.283530 -0.304943 -0.366261 
uxuzgxvp -0.167765 -0.182312 -0.881197 -0.028213 -0.089689 0.274393 0.171581 -0.177827 -0.179614 0.444871 -0.168344 0.653314 0.666417 0.087290 0.091983 -0.093541 -0.667092 0.570741 0.538997 0.243906 -0.245208 -0.305916 -0.127667 -0.210960 0.386592 -0.471277 -0.122281 0.216986 -0.430106 0.042778 -0.825210 -0.110192 -0.158809 -0.182330 1.121635 0.721427 -0.125138 -0.592521 -0.500163 0.152101 0.978182 -0.130454 0.162459 -0.254956 -0.556915 0.184834 -0.052805 0.225336 0.065715 0.027956 -0.311754 -0.239565 0.373512 -0.216489 1.277182 -0.152937 0.452991 -0.026533 0.344732 -0.107835 0.493382 -0.264985 -0.504329 0.237483 -0.220070 -0.022224 0.268948 0.180953 -0.138477 0.405767 0.796477 0.035388 0.234638 -0.960217 -0.530689 -0.387200 -0.388314 -0.039185 -0.351003 -0.156619 0.077829 -0.426771 -0.292030 -0.132843 -0.752388 0.273207 0.559625 -0.227836 -1.019080 0.351193 0.016518 -0.124718 -0.590022 0.234321 -0.375336 -0.038902 -0.690737 0.022007 -0.986323 -0.007172 
uxuzgxvx -0.107583 -0.135305 -0.761567 -0.035076 0.000401 0.185423 0.124427 -0.105743 -0.085706 0.398818 -0.160277 0.537617 0.531244 0.147816 0.085927 -0.065139 -0.540485 0.475057 0.507748 0.243665 -0.232424 -0.275385 -0.212905 -0.121799 0.350007 -0.502018 -0.182483 0.129878 -0.382430 0.038363 -0.645295 -0.086763 -0.151708 -0.079940 0.878582 0.584113 -0.157146 -0.470538 -0.350388 0.210273 0.757270 -0.039489 0.167423 -0.225921 -0.435039 0.167709 -0.016118 0.228729 0.067133 0.070207 -0.314118 -0.274153 0.276765 -0.173668 1.102730 -0.145085 0.388115 0.009650 0.301513 -0.110381 0.328066 -0.193974 -0.458069 0.184884 -0.219982 0.042684 0.199660 0.189265 -0.162098 0.369679 0.647996 0.073943 0.211488 -0.845702 -0.437668 -0.351505 -0.432138 0.017331 -0.298388 -0.064783 0.014007 -0.301419 -0.260959 -0.142581 -0.558861 0.237402 0.455883 -0.132339 -0.786374 0.384588 -0.005263 -0.083445 -0.453084 0.254330 -0.358995 0.006125 -0.598261 -0.026877 -0.828368 -0.039966 
剪刀 -0.206856 -0.316093 -0.767161 0.054597 0.192444 0.110994 0.524612 -0.138323 -0.476811 0.130467 -0.571133 0.602918 1.046533 -0.676387 -0.411787 0.231778 -0.132573 0.114719 0.110922 0.105119 0.155910 -0.506634 0.240830 -0.325100 0.378147 -0.220203 0.130303 0.139744 -0.603045 -0.050609 -0.728860 -0.007427 0.006185 -0.315431 0.828473 0.660709 -0.035216 -0.438084 -0.226494 -0.273749 0.706387 -0.352960 0.407338 -0.019074 -0.618703 0.187831 -0.244091 0.051168 -0.392522 -0.162469 -0.410317 -0.189056 0.096265 -0.610793 0.858406 -0.429584 0.341428 -0.068729 0.731790 0.044726 0.434025 -0.552441 -0.372305 0.462958 -0.387547 -0.095711 0.168360 0.360310 -0.325050 0.069113 0.761822 -0.098966 0.234007 -0.702300 -0.380608 0.183377 0.264843 -0.184702 -0.546671 -0.075573 0.431461 -0.510938 -0.306466 -0.198799 -0.664864 0.194409 0.541023 -0.294656 -1.428924 0.056548 0.108024 0.452802 -0.522050 0.074824 -0.044272 -0.039929 0.128902 0.272249 -0.907295 0.387069 
毛绒玩具 -0.188313 0.000653 -0.376825 0.487120 0.379365 -0.043247 0.097058 -0.007173 -0.341847 -0.045101 0.474371 0.211401 0.157355 0.406636 0.783040 -0.367980 -0.211868 -0.103979 -0.057675 -0.080484 0.495236 -0.340020 -0.244026 -0.407446 -0.032143 -0.308582 -0.006083 0.005914 -0.678410 0.568877 -0.492494 -0.031853 0.067510 -0.035197 0.204742 0.051818 0.210316 -0.141918 0.261225 0.570934 0.051969 -0.218630 -0.135462 -0.068437 0.179918 -0.104183 -0.314478 0.632369 -0.399950 -0.112864 0.300787 0.081935 0.478452 -0.247476 -0.296504 -0.075903 0.568326 -0.252824 -0.512248 0.561037 0.422467 -0.597129 -0.279483 -0.015806 -0.217197 -0.457639 -0.271531 0.156517 -0.659781 0.122330 0.325626 0.143787 0.320347 -0.110705 -0.122925 0.132382 -0.341454 0.421305 -0.090199 -0.348086 0.112050 -0.266436 -0.070469 -0.624790 -1.149229 0.549772 0.951741 -0.027148 -0.983287 -0.418757 -0.336417 -0.133241 -0.343684 0.747085 -0.755845 0.522280 -0.344615 -0.309073 -0.364337 0.041729 
化妆包 -0.223623 0.007224 -1.060004 0.004825 -0.080939 0.408577 -0.006629 -0.166874 0.043152 0.610004 0.013494 0.817108 0.145238 0.926561 0.340470 -0.274331 -1.252936 0.990095 0.995992 0.590837 -0.427690 0.018619 -0.494041 -0.104741 0.400392 -0.645363 -0.394886 0.246753 -0.304836 0.237603 -0.882149 -0.155806 -0.310913 -0.109624 1.166199 0.553969 -0.304777 -0.760418 -0.570403 0.404542 0.973657 0.104021 -0.017273 -0.436049 -0.435970 0.187882 -0.008795 0.249834 0.547408 0.371739 -0.339256 -0.295226 0.552607 -0.020101 1.476881 0.115101 0.450957 -0.074066 -0.046738 -0.228624 0.211737 0.173738 -0.634729 -0.024493 -0.207785 0.066407 0.368033 -0.033022 0.085768 0.717324 0.905113 0.022544 0.213299 -1.147766 -0.641283 -0.878737 -0.957044 0.101848 -0.230031 -0.030767 -0.209347 -0.370068 -0.315285 0.009394 -0.679802 0.317551 0.735411 -0.131780 -0.603742 0.609878 -0.053461 -0.450851 -0.704603 0.433437 -0.765995 0.039868 -1.244159 -0.191777 -0.935972 -0.332752 
灯具 -0.098314 -0.280978 -0.428707 0.417975 0.262866 -0.112921 0.230242 -0.227361 -0.395496 -0.063095 0.385854 0.168332 0.390872 0.087222 0.432252 -0.206747 -0.230092 -0.182933 -0.174780 -0.074105 0.639144 -0.392132 -0.034083 -0.440274 0.036109 -0.232933 0.072393 -0.074249 -0.869524 0.445367 -0.719169 -0.146029 0.104202 -0.095193 0.270219 0.109974 0.219089 0.038579 0.188521 0.381288 0.096975 -0.184134 -0.008745 0.042066 0.064597 -0.077031 -0.257632 0.503364 -0.484058 -0.232692 0.207981 0.126971 0.355865 -0.467428 -0.203531 -0.202498 0.518573 -0.071707 -0.217970 0.445875 0.526258 -0.547656 -0.349625 0.142285 -0.053035 -0.413486 -0.354945 0.147993 -0.544470 0.002949 0.259775 0.060599 0.284700 -0.038570 0.002449 0.106575 -0.076503 0.262282 -0.100956 -0.297182 0.085514 -0.306634 -0.118121 -0.525673 -0.965670 0.425652 0.776598 0.044369 -1.117841 -0.332977 -0.233061 -0.034055 -0.406276 0.731245 -0.531255 0.387028 -0.050202 -0.244837 -0.441494 0.036384 
箱 -0.183735 -0.099726 -0.621971 0.069750 0.012031 0.254247 0.113496 -0.180280 -0.067568 0.316708 -0.001471 0.446866 0.161543 0.423581 0.283508 -0.092085 -0.608912 0.393665 0.524780 0.314136 -0.053654 -0.174700 -0.092517 -0.184932 0.260069 -0.426520 -0.228165 0.086747 -0.353320 0.415134 -0.797518 -0.024054 -0.119041 -0.200246 0.658262 0.225772 -0.079133 -0.315733 -0.189964 0.206054 0.489040 0.029995 0.168665 -0.207222 -0.217638 0.072309 -0.323848 0.236910 0.221459 0.127473 -0.103023 -0.094661 0.393724 -0.161722 0.699345 0.025828 0.395789 -0.006613 0.075115 0.057295 0.136488 -0.035557 -0.313573 0.060212 -0.147482 -0.063807 -0.028817 0.050008 -0.127005 0.317731 0.492826 0.010209 0.115721 -0.597886 -0.359517 -0.365371 -0.337831 0.165207 -0.122637 -0.153346 -0.130318 -0.226516 -0.176651 0.014425 -0.505624 0.297925 0.571679 -0.064782 -0.694705 0.154911 -0.332258 -0.215973 -0.475251 0.339777 -0.416816 -0.128193 -0.547145 -0.174245 -0.687606 -0.248571 
女童套装 -0.347675 0.264813 0.114692 0.618041 0.178707 0.458662 0.451854 0.313281 -0.102996 -0.181445 -1.781065 0.861980 0.078688 0.258832 -0.931725 0.337302 0.056263 0.176476 0.429330 0.575779 0.368598 0.331169 0.281928 -0.208675 -0.166805 0.304549 -0.114523 0.192431 -0.341313 0.177622 0.118374 0.363202 -0.735232 -0.075383 0.533342 -0.280947 0.219271 -0.665222 0.407203 -0.869109 0.076645 -0.613979 0.438415 -0.041371 -0.114665 -0.454745 -0.936670 0.010191 0.355695 0.396294 -0.115378 -0.113042 0.330710 0.043722 0.272686 -0.451038 0.262087 -0.602956 0.612596 0.312186 -0.293161 0.370113 -0.036115 0.077922 -0.740102 0.079814 0.448940 -0.131433 -0.683522 0.280183 0.521164 0.134213 0.071364 -0.174906 0.202323 0.586002 0.280726 0.452625 -0.817862 0.185533 0.825122 -0.162893 -0.417351 0.068024 -0.431837 -0.014507 0.672894 -0.317752 -0.279847 -0.475350 0.096296 0.050790 0.007220 0.099581 0.311556 -0.217353 0.080942 0.343212 -0.357222 0.282992 
