2764 100
女裤 0.084014 0.014183 0.300206 -0.264492 -0.257104 -0.022966 -0.152032 0.032311 0.135729 -0.076444 0.403906 -0.400346 -0.161232 -0.492204 0.037488 -0.008950 0.192156 0.126479 -0.077603 -0.265081 -0.255245 0.056595 0.098178 0.154632 0.051104 0.351371 0.179749 0.088902 0.252871 -0.331702 0.480318 0.038611 0.131274 -0.008917 -0.373164 -0.244816 -0.076371 0.144979 -0.097586 -0.024644 -0.216296 0.022068 -0.193406 0.071166 0.113673 0.056304 0.152707 -0.204961 -0.050166 0.024811 -0.064874 0.179840 -0.211398 0.111765 -0.087097 0.134376 -0.185701 0.058475 -0.114990 -0.054821 -0.071758 0.056948 0.349167 -0.049841 0.246691 0.056941 0.115303 -0.124721 0.328468 -0.153409 -0.223415 -0.263737 -0.078491 0.243718 0.215383 -0.064240 0.164903 -0.252533 0.301931 0.093277 -0.015255 0.149455 0.127732 0.190719 0.584185 -0.273351 -0.316625 0.047093 0.304465 -0.064873 0.061685 -0.062451 0.245473 -0.374265 0.297224 -0.092977 0.227665 0.080136 0.419536 -0.041196 
uxuzgx -0.221269 0.161169 0.561813 -0.438326 -0.849322 -0.445088 -0.152634 0.113655 -0.499904 -0.179076 -1.288736 0.984206 0.672007 1.422631 -0.108992 -0.396534 -0.765948 0.236530 0.049253 -0.039611 1.013980 0.692129 0.339814 0.112156 -0.856334 -1.145048 -1.142981 -0.103446 -0.643585 1.718894 -2.891655 -0.291070 0.054299 -0.575324 1.079585 0.700996 0.055120 -0.328961 -0.444713 0.472744 -0.062768 0.611573 -0.467524 0.737255 -0.291939 1.586688 0.691215 0.121762 -0.273088 -0.752060 -0.000228 -0.286586 0.061953 0.253894 -0.394236 0.435005 0.163040 0.380059 0.068613 0.255267 -0.282254 0.394255 0.130326 -0.064778 0.386928 -0.073831 0.534679 0.215822 -0.246765 0.260013 -0.051140 0.344112 0.223262 -0.028528 -0.994301 -0.315586 -0.689875 0.054681 -0.633527 -0.229123 0.109943 -0.318167 0.056232 -0.772068 0.144343 0.985506 -0.062344 -0.109947 1.309116 -0.215977 0.337350 0.102953 -0.315195 0.015824 -0.505681 -0.170353 -0.432895 -0.259812 -0.750486 1.035748 
uxuzgz 0.014834 0.043917 -0.130122 -0.076863 0.549932 0.347720 0.520577 -0.499104 0.762209 0.486188 0.816801 -0.849744 -1.448899 0.175016 0.062474 0.038234 -1.002744 0.524748 0.778857 0.242618 -0.998027 -0.429469 0.125072 0.168022 0.170993 -0.187770 -0.452705 0.199472 0.678961 -0.340184 0.488358 0.076958 0.328117 0.003019 -0.517076 -0.718939 -0.583451 -0.392314 0.802506 -0.516292 0.310955 -0.174124 1.022315 -1.421336 -0.127169 -1.842965 -1.903315 0.278558 0.711638 1.538695 0.241320 -1.090272 0.902517 -0.725271 0.151310 -0.623297 0.372532 0.156426 0.705725 -0.234627 -0.074055 -0.285701 -1.743070 0.336294 -0.570896 -0.497158 -0.751964 0.394197 0.001401 0.875736 0.921751 -0.021527 0.276002 -2.690826 -1.063785 0.441489 -0.509477 0.389757 -0.230865 -0.086931 -0.331035 -0.055534 -0.480234 0.621662 -0.299083 0.013717 1.009363 -0.009931 -1.537525 0.684195 -0.817986 0.381464 -0.423275 0.716104 -0.802084 0.390697 -0.126987 0.040343 0.468167 -0.921069 
uxuzgr -0.860739 -0.182951 -3.477319 2.422714 2.104985 1.046340 0.796954 -0.063398 0.600056 -0.132898 0.104962 0.188438 0.766170 0.286296 -0.299423 0.566237 0.912478 -1.880695 -0.337025 0.689571 0.210419 -0.699186 0.062724 -0.337022 0.007335 1.032211 0.292504 -1.329764 -0.876244 0.040263 -0.219402 -0.412720 -1.007276 0.520756 -0.100856 0.732874 1.053263 0.303816 -0.858834 0.244954 1.656258 -1.114858 1.083722 0.108229 -0.264872 -0.260515 0.047784 0.341947 -0.246855 -1.278906 0.622431 0.746660 -0.552827 -0.479883 -0.920874 -0.334911 0.112140 -0.828529 0.595648 0.955382 0.445382 -0.427837 -0.143032 0.238774 -1.590477 -0.363719 -1.577649 0.622731 -0.585588 -0.543764 -0.236053 0.125845 0.481007 1.086709 0.243974 0.923427 0.457727 0.938288 -1.050319 -0.104388 -0.047426 0.412157 -0.169065 -0.198004 -1.547639 0.370711 -1.415212 0.332673 -0.881948 -0.548439 -0.418639 -1.560858 -0.070984 1.094736 -0.030575 0.832447 -0.243175 -0.230107 -0.803180 0.556943 
包 -0.942887 -0.081608 -2.937947 1.806432 1.732478 1.054204 1.633023 -0.265392 -0.595557 0.823099 -0.976679 1.826563 0.465094 1.639493 0.732424 -0.604653 -1.311019 1.592336 0.400077 0.065775 0.617333 0.247908 0.147815 0.025757 0.006182 -0.264474 0.320804 0.596324 0.149143 0.157728 -0.738750 -0.053772 0.184991 -0.908238 1.438756 0.144444 -0.391144 -1.243096 -0.305386 -0.014324 0.550271 0.142146 -0.488681 -0.068738 -0.306092 0.824550 0.298184 0.201529 0.527230 0.229501 -0.578441 0.020772 0.554729 -0.110305 0.954831 0.379741 0.239152 0.285863 -0.673708 0.004012 -0.239504 0.424049 -0.276252 -0.340717 0.311032 0.080484 0.637002 -0.533817 -0.269697 0.589794 0.764989 0.322541 0.488022 -1.013830 -0.623478 -1.485333 -0.709918 0.241555 0.519276 -0.102485 -0.597167 -1.200450 -0.016128 -0.618684 -0.002704 0.463471 1.488331 -0.145031 0.103467 0.504588 0.712309 0.592263 -1.197187 -0.203003 -0.930735 -0.106387 -0.883076 -0.242293 -0.653532 0.021823 
袜 0.146552 0.513927 0.121972 -0.138043 0.915780 0.417750 0.743088 -0.202122 0.086244 0.180909 -0.831411 0.277749 -1.286383 0.365039 -0.934797 0.794814 -1.553954 0.018763 1.303222 1.362777 0.293186 -0.247268 0.265096 -0.256915 -0.216300 -1.133036 -1.189725 0.614443 -0.592646 1.105789 -1.611224 0.298188 -0.617694 0.270308 0.592043 -0.052608 -0.339430 -0.142906 1.030044 -1.109702 -0.370431 -0.187544 1.154326 -0.961331 -0.022979 -1.900678 -2.229614 -0.655418 0.259889 1.351941 0.031221 -0.572098 0.493006 -0.878863 -0.220360 -0.444184 0.450435 0.156354 0.447154 0.016362 -0.643480 -0.058516 -1.624020 0.401230 -1.033430 -0.898542 -0.583483 0.625553 0.307034 0.882718 0.887991 -1.010543 0.010997 -1.881732 -0.331358 1.570063 0.327375 -0.622602 -0.005027 0.480307 0.162512 -0.085981 -0.346062 0.936131 0.946370 -0.791849 0.552200 0.260778 -0.814299 -0.059690 -1.124087 0.666499 0.464834 -0.066085 -0.167503 0.345079 0.796480 0.443767 -0.641224 -0.942774 
链 0.253882 -0.162015 0.591937 0.196036 -0.311353 -0.939804 -1.156517 -0.132671 -0.540570 0.138914 -1.323005 1.177197 0.473582 3.041723 0.184626 -0.234273 0.008469 -1.362950 -0.755683 0.589828 0.879593 0.448228 -1.427143 -0.724211 -0.024260 -0.768871 -0.249107 -0.926823 0.308400 0.663054 -0.214424 0.063670 -0.133242 0.698815 0.136089 0.652188 0.623243 0.473319 0.474255 0.662182 -0.350718 0.793598 -0.322307 0.486688 0.060484 -0.002455 0.458151 0.768737 0.306931 -0.022549 0.715942 -0.619641 0.585992 -0.104719 -0.451141 -0.171550 -0.079150 -0.311950 -0.726432 -0.204573 0.360336 0.120959 -0.958920 -0.365505 -0.251582 0.231281 -0.037326 0.129969 -1.207340 -0.285673 -0.280300 1.768191 0.137587 0.670446 0.062786 -0.413545 -0.602625 0.892963 -0.512834 -0.212290 -0.185920 -0.083717 -0.387023 -1.009822 -2.092426 1.026267 0.343564 0.176675 0.677072 -0.065855 0.398549 -0.299768 -0.520380 1.555693 -1.184272 0.491188 -0.658594 -0.614507 1.308772 0.495065 
夹子 -0.215265 -0.286946 -2.372029 0.842955 1.537233 -0.599682 0.906124 -0.370329 -1.011616 0.303138 -0.217234 -0.403976 1.007517 -0.188484 -0.533628 0.590169 0.634918 -1.095778 0.187866 -0.501139 -0.163614 -0.285376 0.700635 1.039025 0.196979 -0.011491 0.004851 -0.901377 0.448949 0.013126 0.066926 -0.347800 0.749867 -0.466852 -0.248143 0.803133 0.726270 0.312523 -0.229250 -0.224992 1.317038 -0.018596 0.894457 0.124811 -0.535422 0.946181 -1.003891 0.374767 -0.276894 -1.289216 0.476649 -0.195300 0.656227 -0.765786 0.280429 -0.627363 -0.165094 0.374272 1.771539 -0.247376 0.445848 -0.676822 -1.026848 0.776847 -1.035645 -0.237773 -1.787959 0.893991 -0.362523 -0.427632 0.116942 -0.335952 0.074684 -0.140507 -2.041043 0.245189 -0.436198 1.456334 -1.341884 -1.625967 0.064809 0.156231 -0.764431 -0.780144 -0.291638 1.764683 -0.824311 -0.342137 -0.582203 0.508405 -0.679318 -0.035981 -0.632097 0.575296 0.738578 -0.884425 -0.452797 0.311553 -0.316985 0.253196 
uxuzfz -0.473406 0.471409 -0.237433 2.091377 1.700268 0.071050 1.163723 0.152261 -0.679597 -0.387441 -1.983875 0.824648 0.306722 -0.333145 -1.169675 0.629138 0.106061 -0.808720 0.929357 1.694239 1.100221 0.156921 -0.531612 -0.793612 -0.193931 -0.573879 -0.464106 0.480436 -1.823703 0.830150 0.195047 0.370208 -1.479256 0.826010 0.610630 0.356503 0.491605 -0.140371 1.130580 -0.619487 -0.520060 -0.988217 0.468675 -0.034477 0.271334 -1.459240 -1.015434 -0.069133 -0.284764 0.651002 0.262734 -0.454319 0.572122 0.444798 0.360610 -0.912491 0.394239 -1.179209 0.382823 0.315780 0.127917 0.067004 0.032829 0.125330 -0.770631 -0.190771 0.387687 0.059047 -0.749071 0.244411 0.640666 0.336628 -0.536206 0.880205 1.107112 1.641126 0.946784 -0.054242 -0.557761 0.486910 1.254693 0.782483 -0.121108 0.189983 -0.792913 -0.662736 0.578280 -0.287329 -0.649672 -0.788972 0.081545 -0.339411 0.882903 0.498486 0.866479 0.464956 0.237685 0.315063 -1.007599 -0.152346 
人造花 -0.259160 0.165376 -1.720229 0.758929 0.824144 0.598687 -0.554412 -0.498833 0.452550 -0.305865 -0.023191 -0.584655 -0.919390 1.532407 -0.914316 -0.409343 -0.970761 -0.840451 0.410992 1.159810 -0.282308 0.822684 0.253867 -0.361454 -1.001367 0.469602 -0.351353 -0.508722 -0.069592 0.499284 0.108103 -0.178698 -0.151640 0.497829 -0.039747 0.104773 0.086657 -0.122404 0.031206 -0.073650 -0.495572 -0.029859 -1.019946 0.269235 0.473637 -0.579830 -0.287937 -0.327264 -0.826965 -0.094243 1.210702 -0.655214 -0.408408 -0.651202 -1.843929 -0.080713 0.038164 -0.535909 -0.776699 0.009719 0.193243 0.132250 -0.780288 -0.705243 -0.710869 -1.086463 -0.713396 -0.074463 -0.225366 0.506164 0.502557 0.428734 0.537996 -0.807787 -0.660002 0.955407 -0.256932 -0.486661 -0.348139 0.059303 0.129919 0.402110 -0.622089 -0.513681 0.544178 -0.103038 -0.425963 0.055929 -0.236188 -1.044018 0.323836 -0.908585 -0.776158 2.418911 -2.033273 1.883193 -0.768270 -0.469259 -0.941573 0.048243 
打底裤 0.016521 0.318485 -0.176163 0.587824 1.168551 0.469772 0.743931 -0.449537 -0.261392 0.377542 -1.703044 0.959329 -1.018112 0.607837 -1.035077 0.723651 -0.783696 -0.279411 1.118894 1.413446 0.115298 -0.204627 0.268083 -0.208765 0.000282 -0.118548 -0.552904 0.653139 -0.286798 0.511591 -0.004046 0.454594 -0.486145 0.377787 -0.261371 -0.606411 -0.055149 0.147644 1.122496 -0.894231 -0.765721 -0.638561 0.806293 -0.848464 0.336853 -2.197588 -2.318511 -0.386210 0.223741 1.348722 0.444647 -0.332823 0.575968 -0.998027 -0.493748 -0.877465 0.383619 -0.147360 0.265169 0.202340 -0.135215 -0.125991 -1.118073 0.483783 -1.063843 -1.005611 -0.797252 0.362841 -0.004797 0.514785 0.598486 -1.041646 0.127195 -1.045308 -0.178729 1.522430 0.495241 -0.281710 0.015141 0.483042 0.438886 0.212102 -0.283036 1.039018 0.598338 -0.687079 0.572086 0.109242 -1.156396 -0.393073 -0.969143 0.356511 0.739673 0.525807 -0.012845 0.519295 1.141217 0.162227 0.088357 -1.225698 
玩具 -0.117120 0.262962 -0.168836 -0.166596 -0.639445 0.595813 -0.437613 0.014956 -0.700432 0.042537 -0.668549 1.412160 0.222772 0.131682 0.568310 -0.258596 -0.617750 0.248994 0.065076 0.567162 1.691179 0.142293 -0.010162 -0.330676 -0.359020 -0.054124 -0.355872 0.626604 -0.797504 1.509542 -1.260538 0.414963 -0.207625 -0.552299 1.522543 0.132937 0.397381 -0.136924 0.101605 -0.124393 -0.455488 -0.257451 -0.402147 0.589201 0.154641 0.373164 0.027368 -0.114145 -0.555060 -0.377139 -0.093924 0.762486 0.298765 -0.225890 -0.583947 -0.002827 0.618183 -0.096912 -1.240060 1.081582 0.069443 -0.009024 0.006084 -0.108781 -0.451273 -0.784064 0.023765 0.112696 -1.268965 0.452859 0.471940 -0.110661 0.533535 0.387994 -0.146573 -0.008214 0.359460 0.147635 0.216260 -0.191638 0.300534 -0.993669 -0.383311 -0.946387 -0.998848 0.653481 1.530238 0.173119 -0.432810 -1.047433 -0.000718 0.287183 -0.513589 0.842384 -1.238183 0.946820 -0.026255 -0.339688 -1.370223 -0.135527 
饰品 0.154447 -0.089722 -0.499334 0.565498 0.439037 -0.457945 -0.528816 -0.063359 -0.369269 -0.244830 -0.680809 0.453985 0.464805 2.536336 0.106221 -0.269816 0.306870 -1.106955 -0.632975 0.192249 0.144937 0.299958 -1.155234 -0.512606 -0.083771 -0.674492 -0.283039 -1.177807 0.074658 0.485977 -0.135168 -0.240674 -0.273796 0.815947 0.096676 0.646709 0.537424 0.120610 0.298877 0.792428 0.105829 0.567087 -0.069663 0.461004 -0.160066 0.085696 0.660214 0.690142 0.214461 -0.437946 0.721084 -0.717577 0.334964 -0.176697 -0.776033 -0.107882 0.188097 -0.285016 -0.035518 -0.092812 0.071927 -0.105643 -1.502707 0.017479 -0.326314 0.104912 -0.484566 0.249515 -0.683875 0.003603 -0.147481 1.564162 0.214847 0.593178 -0.305290 -0.381068 -0.756711 0.824324 -0.652297 -0.093999 0.057242 0.304851 -0.408493 -0.669212 -1.196309 0.885100 -0.387131 0.172565 0.687871 0.064755 0.296756 -0.730617 -0.296447 1.431990 -0.888376 0.780128 -0.918281 -0.472737 0.805768 0.447407 
项链 0.326100 -0.182336 0.690571 0.052735 -0.334688 -0.986036 -0.849778 0.032622 -0.371595 0.046101 -1.454595 1.255226 0.782207 3.519926 0.074338 -0.379294 -0.180806 -0.911091 -0.619922 0.359920 0.474947 0.448147 -1.330201 -0.609736 -0.193506 -1.415813 -0.559225 -1.105326 0.105424 0.842994 -1.057093 -0.272898 -0.105677 0.695618 0.479483 0.963587 0.346742 0.049134 0.206001 0.910929 0.059354 1.070178 -0.266778 0.463073 -0.322949 0.538169 0.974551 0.917768 0.506051 -0.269925 0.478860 -0.967443 0.434324 0.275231 -0.132025 0.024571 0.101476 -0.119246 -0.182414 -0.350998 0.207908 0.129754 -1.153344 -0.308662 -0.000914 0.463653 0.244231 0.261761 -0.937045 -0.091687 -0.137949 2.129112 0.012277 0.231871 -0.328979 -0.708661 -1.088439 0.811397 -0.845297 -0.163573 -0.175390 -0.045090 -0.224477 -0.908699 -1.979335 1.117939 0.145795 0.044176 0.957462 0.367982 0.506253 -0.133803 -0.597459 1.218632 -1.054891 0.219579 -0.916696 -0.610984 1.051844 0.780607 
耳环 0.418025 -0.091695 0.506047 -0.180975 -0.111613 -0.717177 -0.650316 0.167931 -0.299489 -0.155738 -0.923821 0.960062 0.650748 2.974266 0.079444 -0.466874 0.053932 -0.559073 -0.524760 -0.009807 0.300372 0.277468 -0.919334 -0.415209 -0.250572 -1.563251 -0.600854 -1.035173 -0.033722 0.834786 -0.987571 -0.430635 -0.189110 0.709525 0.790070 0.967941 0.327383 -0.148797 0.303262 1.046617 0.037234 0.830649 -0.097140 0.267895 -0.290171 0.711547 1.091714 0.846071 0.378342 -0.576348 0.362957 -0.740814 0.099598 0.230683 -0.285576 -0.000966 0.426221 0.016002 0.070329 -0.156383 0.005412 0.037413 -1.401364 -0.043127 -0.068848 0.368574 -0.064366 0.125130 -0.744718 0.217557 -0.058327 1.811637 0.175553 0.254609 -0.490979 -0.604504 -0.996082 0.761452 -0.695401 -0.094279 -0.138780 -0.193390 -0.358798 -0.718377 -1.414974 1.012672 0.015290 0.032090 0.676509 0.258458 0.326698 -0.341138 -0.558394 1.139752 -0.938293 0.262895 -0.943316 -0.628243 0.239833 0.515114 
杯 0.064959 -0.280725 -0.081109 -0.022630 0.013440 -0.297165 -0.162349 -0.195853 -0.184831 0.270070 -0.100268 0.492332 -0.146291 0.131326 0.705946 -0.053941 -0.544251 -0.679269 -0.434828 0.506543 1.216916 -0.664295 0.077408 -0.606222 0.621023 0.049782 0.299928 0.142120 0.070282 0.233757 -0.115589 0.168058 -0.130448 -0.364139 0.403651 -0.094406 0.423900 0.097498 0.711141 0.398646 -0.293304 -0.304327 0.733641 -0.683156 0.492061 -0.601804 -1.298234 0.486680 -0.116546 0.373394 0.455524 0.603065 0.524731 -0.940061 -0.660247 -0.385855 0.206124 0.360654 -0.686864 0.418200 -0.172576 -0.028985 -0.345661 0.451435 -0.585178 -0.644632 -0.932978 -0.235045 -0.521625 0.050758 -0.085613 0.022193 0.335083 0.000950 -0.308132 0.149660 0.190674 1.309422 -0.350858 -0.399592 -0.232271 -0.687660 -0.031581 -0.235224 -1.063825 0.881525 0.877658 -0.153683 -1.481246 -0.322669 -0.369514 -0.106458 -0.316807 1.254764 -0.737006 0.377106 -0.465714 -0.384117 0.094275 -0.381024 
刀具 0.367610 -0.167649 0.476218 -1.086137 -0.740682 -0.809450 -0.229970 -0.038967 -0.462119 -0.200421 -0.422752 0.346103 0.726287 -1.071811 -0.182378 0.192985 0.154789 -0.294354 -0.232018 0.183004 0.502829 -0.329421 0.273832 -0.268925 0.280752 -0.542968 0.189661 -0.240469 -0.509047 0.229282 -0.879001 -0.092795 0.325483 -0.404858 0.875083 0.655759 -0.081467 -0.035902 -0.131032 0.044090 0.694864 -0.110232 0.421604 -0.042644 -0.503604 0.590714 -0.342990 0.418197 -0.526122 -0.437227 -0.313249 -0.241951 0.279710 -0.544165 0.498913 -0.311816 0.171336 0.361347 0.476560 -0.175188 0.460483 -0.417168 -0.510827 0.475747 -0.578527 -0.156751 -0.282943 0.510188 -0.549502 0.242289 0.754021 0.090773 0.031445 -0.659962 -0.868183 0.280046 -0.188845 0.272894 -0.969768 -0.331999 0.117209 -0.587389 -0.401112 -0.652547 -1.427548 0.709126 0.693717 -0.183885 -1.376505 0.492437 0.017555 1.115722 -0.845174 0.626156 -0.635179 -0.003807 -0.267954 -0.072553 -2.136110 0.347213 
手链 0.152272 -0.299668 0.121285 0.352285 -0.150491 -0.755205 -0.691150 -0.091032 -0.090710 0.187177 -1.329609 1.203568 0.786698 3.401651 0.087764 -0.409512 -0.135873 -1.019606 -0.691153 0.313061 0.479586 0.362174 -1.099323 -0.640890 -0.257198 -1.081096 -0.412413 -1.182107 0.068332 0.692739 -1.083284 -0.327495 -0.167773 0.582173 0.486928 0.977805 0.599593 0.052096 0.048417 0.917568 0.392897 0.981735 -0.237405 0.352686 -0.316021 0.495798 0.882671 0.876025 0.405286 -0.607668 0.525612 -0.751629 0.263175 0.163931 -0.189808 0.020882 0.123053 -0.223938 -0.200502 -0.148455 0.281886 0.099257 -0.971653 -0.219586 -0.071571 0.334367 0.026143 0.212933 -0.832905 -0.102125 -0.224341 1.841783 0.199508 0.320286 -0.209000 -0.661077 -0.905541 0.813725 -0.802226 -0.228036 -0.298930 -0.063242 -0.257299 -0.900308 -1.951982 1.180628 -0.038294 -0.016322 0.898256 0.110118 0.437196 -0.269578 -0.623860 1.435225 -1.077856 0.357331 -0.936942 -0.660779 0.522778 0.818467 
车 0.180034 0.005722 -0.353357 -0.108241 -0.649810 0.456171 -0.456062 -0.177173 -0.865035 0.040294 -0.444058 1.240230 0.408888 0.093448 0.324696 -0.353012 0.031039 0.142013 -0.375555 0.120808 1.109008 -0.042919 -0.205857 -0.015548 0.017883 -0.024529 0.183825 0.381373 -0.391318 0.877390 -0.671515 0.275876 -0.013238 -0.462149 1.083855 0.169144 0.110544 0.151007 0.149757 0.149776 -0.002557 0.030043 -0.294650 0.456909 0.036683 0.383466 0.221592 0.089209 -0.533340 -0.544437 0.020251 0.475632 0.046946 -0.186329 -0.441980 -0.116492 0.345488 -0.045843 -1.126258 0.760826 0.257189 -0.269643 -0.166377 -0.066489 -0.409001 -0.523017 -0.311287 0.239792 -1.121799 0.401565 0.403565 0.070619 0.492507 -0.072069 -0.267875 0.070827 -0.133333 0.328847 0.010513 -0.370522 0.158936 -1.088112 -0.545573 -1.113116 -1.265333 0.814749 1.439203 0.026456 -0.986621 -0.434819 -0.029908 0.570873 -0.673159 1.134649 -1.344577 0.364928 -0.380517 -0.226922 -1.477743 -0.222851 
西装套装 0.013341 0.303883 0.270224 1.070049 0.593346 -0.352770 0.402172 0.030736 -0.995691 -0.705075 -0.976922 0.631338 0.412991 -1.190753 -0.218620 -0.203970 0.460677 -0.389054 0.052829 0.675418 1.129327 0.389274 -0.092411 -0.574324 0.033278 -0.437941 -0.057458 0.300259 -0.961448 0.719258 0.288963 0.431157 -0.898567 0.229836 0.852380 0.444298 0.349075 0.062961 0.808258 -0.201084 -0.419044 -0.615358 -0.071446 0.280556 0.448653 -0.093740 -0.276250 0.023400 -0.758976 0.198811 -0.013820 -0.512225 0.548814 0.303586 -0.077409 -0.621433 0.043481 -0.526039 -0.441576 0.231602 0.274667 -0.118839 -0.123126 -0.062397 -0.366541 -0.180573 0.393357 -0.031172 -0.607398 0.194906 0.771638 0.450070 -0.336523 0.608384 0.381834 1.015144 0.458787 0.066370 -0.584117 -0.136074 0.758887 0.067431 -0.371241 -0.584234 -1.130675 0.202497 0.918072 -0.184674 -0.694954 -0.518583 0.513423 0.302833 -0.055513 0.926183 -0.212170 0.432552 -0.011589 -0.097016 -0.927781 0.200669 
女童外衣 -0.339101 0.439543 -0.173161 1.734713 1.336379 0.035234 0.820112 0.065668 -0.609593 -0.369249 -1.665480 0.734283 0.168284 -0.396351 -0.914075 0.495360 0.114348 -0.778226 0.722958 1.488705 1.090501 0.139951 -0.489746 -0.742452 -0.146372 -0.374219 -0.340393 0.428025 -1.511107 0.776418 0.223294 0.439318 -1.266575 0.675772 0.560785 0.215878 0.467659 0.019577 1.098823 -0.538822 -0.596932 -0.887325 0.396990 -0.005394 0.308925 -1.367081 -1.041461 -0.044113 -0.320163 0.614269 0.320426 -0.344081 0.593360 0.252289 0.093742 -0.858164 0.382380 -1.000640 0.104774 0.357592 0.151180 0.061991 -0.088421 0.129452 -0.773427 -0.347957 0.230487 0.039183 -0.767164 0.240957 0.553165 0.257099 -0.410996 0.820316 0.933168 1.483982 0.861893 0.014857 -0.473253 0.409105 1.092702 0.583470 -0.154092 0.091599 -0.791994 -0.505533 0.605323 -0.164958 -0.686965 -0.816170 0.031096 -0.285235 0.737601 0.684822 0.530491 0.539043 0.269317 0.206330 -0.808806 -0.234799 
手包 -0.721132 -0.179129 -1.896612 1.228483 1.283274 0.527427 1.412001 -0.034339 -0.370135 0.736189 -1.239296 1.698672 0.741478 2.113926 0.400714 -0.399914 -1.168815 1.185186 0.330132 0.024098 0.314474 0.065462 0.026490 0.029482 -0.095163 -1.041171 -0.151439 0.242579 -0.063473 0.389738 -1.475878 -0.282139 0.116025 -0.668916 1.293435 0.493717 -0.325825 -1.206862 -0.488249 0.200291 0.888228 0.376859 -0.165115 -0.163796 -0.594695 0.990177 0.501634 0.390045 0.725366 0.029098 -0.506440 -0.339096 0.365380 0.203307 1.185613 0.435114 0.185297 0.279122 0.033524 -0.130716 -0.165772 0.370232 -0.257822 -0.287566 0.353926 0.418629 0.666747 -0.211588 -0.230578 0.480145 0.620220 0.640135 0.366373 -1.114307 -0.755080 -1.349452 -0.950643 0.376852 -0.066797 -0.162950 -0.476051 -0.863642 0.137433 -0.470890 -0.426525 0.601884 1.011321 -0.346267 0.311798 0.809336 0.488896 0.550218 -1.053784 -0.356125 -0.545739 -0.470458 -0.859404 -0.250593 -0.653568 0.401254 
绳 0.532488 -0.139804 0.557302 -0.632665 -0.613086 -0.390341 -0.551620 -0.689260 0.011226 0.467676 -0.695547 0.368881 -0.070656 0.692507 -0.235125 0.404897 -0.343642 -0.967279 -0.684863 -0.272406 -0.194326 -0.188627 0.156400 -0.233363 -0.072712 0.427308 -0.334097 -0.459014 0.107981 -0.078832 -0.051302 -0.346762 0.108761 0.236805 -0.078978 0.448370 0.390488 0.664686 0.484090 0.006574 1.040961 0.087028 0.759020 -0.266233 -0.450560 -0.670207 -0.155152 0.118077 -0.298807 -0.665427 0.667734 -0.473073 0.320930 -0.596038 -0.368220 -0.706619 0.534981 0.310298 0.778985 -0.110809 0.313117 -0.688293 -1.246890 0.029114 -1.574493 -0.404382 -1.162333 0.918284 -0.386466 -0.243225 0.141725 0.447040 -0.224063 -0.584402 -0.340517 0.700142 -0.398465 0.288462 -0.719380 -0.688799 -0.195270 0.068248 -0.239970 -0.519373 -1.497880 0.659327 -0.441245 0.036770 -0.455044 -0.157737 -0.453012 0.420220 0.303364 0.960436 -0.344673 0.185820 -0.002041 -0.319672 0.629137 0.188472 
办公用笔 0.177701 0.008725 0.231232 -0.217164 -0.321654 0.146891 -0.404621 -0.338694 -0.176461 0.464445 0.823121 -0.285201 -0.401652 -1.129487 -0.142277 0.118356 -0.305926 0.313820 0.579797 0.250785 0.115535 0.146371 0.388374 0.075481 -0.232930 0.034173 -0.416522 0.223838 -0.479403 0.391167 -0.024095 0.211723 0.297399 -0.212041 -0.090060 -0.567763 -0.270543 0.071534 0.716104 -0.720120 -0.048273 -0.651262 0.561802 -0.486415 0.099634 -1.063071 -1.374377 0.132479 -0.386142 0.516849 0.308902 -0.179204 0.887975 -0.780016 0.143753 -0.422298 0.483782 -0.185497 0.086664 0.035428 0.707914 -0.374572 -0.627404 0.138590 -0.964242 -0.520790 -0.934634 0.319705 -0.852486 0.755647 0.926217 -0.238078 -0.076078 -1.385226 -0.852498 0.840261 -0.079098 0.530400 -0.819856 -0.706843 0.162607 -0.568681 -0.561906 -0.340577 -1.501693 0.179819 1.237973 0.119300 -1.748355 0.105488 -0.709909 0.240696 -0.736916 0.849978 -0.783060 0.039044 -0.093794 0.128886 -1.654706 -0.632031 
线 0.458849 -0.170671 0.719838 -0.676795 -0.661423 -0.585531 -0.201530 -0.469650 0.105450 0.029466 -0.559294 0.218098 -0.039776 -0.178063 0.010657 0.212457 -0.035925 -0.632599 -0.523609 -0.428842 -0.344057 -0.206337 0.329289 -0.204606 -0.141143 0.168706 -0.290986 -0.555611 -0.104208 0.090135 -0.498933 -0.256621 -0.147921 0.177679 0.179349 0.366461 0.199934 0.359097 0.507225 -0.084822 0.826519 -0.115815 0.558408 -0.205925 -0.524396 -0.509315 -0.242154 0.106792 -0.320313 -0.251073 0.488650 -0.578324 0.569032 -0.290706 -0.280082 -0.709993 0.308145 0.257672 0.986064 -0.005623 0.142452 -0.447627 -1.074093 0.143686 -1.042633 -0.281067 -0.574283 0.789673 -0.480519 0.088694 0.585236 0.299049 -0.392307 -0.905671 -0.392425 0.700410 -0.568042 0.102640 -0.834016 -0.369758 0.015238 0.085629 -0.308437 -0.321271 -1.308840 0.679899 -0.236085 -0.070995 -0.793377 0.107299 -0.293845 0.506482 0.071774 0.557004 -0.531505 0.102670 0.055615 -0.242514 -0.380892 0.232646 
帽 -0.528701 0.103949 -0.597461 0.505738 0.288052 0.132567 -0.089275 -0.026001 0.015363 -0.228247 0.081730 -0.240600 -0.151170 -0.003934 0.052576 0.087180 -0.404179 -0.778688 0.456330 0.631777 0.810069 0.230339 0.170311 -0.176911 -0.476261 0.262412 -0.413624 -0.162249 -0.771184 0.897149 -0.197864 0.053356 -0.630800 0.130420 0.599034 0.322901 0.470633 -0.027666 0.071115 -0.257281 0.021049 -0.441041 0.002293 0.146580 0.146989 -0.400706 -0.291420 -0.084738 -0.506773 -0.257215 0.218158 0.065058 0.281235 -0.322974 -0.675556 -0.232403 0.294158 -0.476215 -0.102866 0.376122 0.068468 0.022178 -0.341568 -0.070884 -0.608760 -0.298278 -0.603255 0.178303 -0.586390 0.050721 0.308375 0.008882 0.165039 0.559581 0.052462 0.625486 0.324555 0.111438 -0.287519 0.134167 0.069783 -0.108071 -0.226582 -0.509963 -0.410767 0.310802 0.190913 0.285578 -0.180971 -0.659551 -0.056979 -0.594450 -0.200053 0.729827 -0.190806 0.654025 -0.453726 0.103173 -0.536762 -0.044155 
背包 -0.633978 -0.139463 -1.426403 1.056041 0.822993 0.606143 1.252878 -0.039246 -0.408757 0.719397 -1.327279 1.913093 0.619583 1.858474 0.699481 -0.317619 -1.035322 1.188459 0.132053 -0.089872 0.383750 -0.106233 -0.151822 -0.014756 -0.063706 -1.039144 -0.047370 0.458324 -0.121194 0.416714 -1.544956 -0.234763 0.051712 -0.610437 1.268404 0.283641 -0.421290 -1.080644 -0.275707 0.117638 0.783173 0.555418 -0.050026 -0.212071 -0.593673 0.843762 0.281897 0.648335 0.552382 0.181133 -0.671567 -0.171677 0.397817 0.311653 1.324744 0.387557 0.433925 0.279221 -0.013104 -0.010557 -0.145158 0.218822 0.006393 -0.159030 0.565451 0.585568 0.928511 -0.228530 -0.359962 0.417140 0.318882 0.506433 0.169342 -1.116034 -0.374423 -1.494380 -0.706585 0.266045 0.158057 -0.209839 -0.549977 -0.966814 0.057932 -0.328630 -0.681857 0.458804 1.400217 -0.267676 -0.004037 0.759046 0.153376 0.864375 -0.833365 -0.492474 -0.601556 -0.677949 -0.633039 -0.186001 -0.894327 0.119184 
架及笼 -0.149858 -0.267747 -0.378902 0.029436 -0.125647 -0.062656 -0.271315 -0.107418 -0.403691 -0.103030 0.099356 0.107778 -0.149209 -0.107148 0.410673 0.007025 0.372697 -0.362881 -0.273923 0.344859 0.555597 -0.181413 0.166845 0.035280 0.418835 0.031981 0.096698 -0.041180 0.151606 0.535847 -0.259375 0.206822 0.154691 -0.439451 0.477320 0.285185 0.524347 -0.007738 0.417141 0.073778 -0.073752 -0.144547 0.408304 -0.221580 0.300309 -0.229130 -0.935395 0.723045 -0.001854 -0.061134 0.410543 -0.085246 0.280725 -0.790798 -0.513343 -0.460835 0.419351 0.145485 -0.573891 0.190677 0.178248 -0.305285 -0.375988 0.276721 -0.551422 -0.429643 -0.997784 0.045663 -0.753437 0.050526 -0.044190 0.165154 0.521195 -0.245751 -0.560345 0.085689 -0.109056 0.740654 -0.047416 -0.544794 -0.144036 -0.403760 -0.147571 -0.530005 -0.617987 0.895410 0.905930 -0.060092 -1.257975 -0.295507 -0.766992 -0.081129 -0.650150 1.343166 -0.790672 0.118897 -0.399720 -0.221262 0.032446 -0.534860 
皮筋 -0.547980 -0.090560 -1.970391 1.654952 1.267298 0.470527 0.473590 -0.315740 0.251664 0.053288 -0.492348 0.297913 0.143342 1.157150 -0.275172 0.262447 -0.052624 -1.199571 0.139048 0.598231 0.044879 -0.117385 -0.100175 -0.295956 -0.300607 0.511601 -0.296461 -0.764571 -0.278825 0.064088 0.048213 -0.282282 -0.464180 0.426621 -0.295940 0.389606 0.546369 0.230001 -0.211106 0.147999 0.799492 -0.331395 0.599070 0.065332 -0.058809 -0.551152 -0.158088 0.105533 -0.063498 -0.580301 0.498537 -0.043456 -0.141048 -0.376597 -0.741084 -0.349971 0.218249 -0.431955 0.415796 0.553458 0.176419 -0.318480 -0.728535 0.178870 -0.882410 -0.413049 -1.040334 0.528109 -0.274960 -0.162082 -0.105841 0.257599 0.397513 0.219548 -0.161990 0.609702 0.046262 0.437028 -0.653673 -0.068466 0.070758 0.455775 -0.259825 -0.247000 -0.505436 0.277018 -1.000431 0.293853 -0.017947 -0.383235 -0.203879 -0.854483 0.015889 0.799118 -0.174580 0.749386 -0.136282 -0.098767 0.056385 0.327753 
板 0.035997 0.033074 0.154078 -0.390941 -0.460629 -0.221128 -0.239504 -0.020267 -0.243232 -0.000564 0.014242 -0.008159 -0.069678 -0.397219 0.119043 0.010547 0.139072 -0.096581 0.107053 0.382306 0.033363 -0.385145 -0.178075 -0.044196 0.103158 -0.402768 -0.248779 0.141170 -0.074744 0.177923 -0.523563 0.124955 -0.036168 0.005060 0.114257 0.131713 0.123297 0.051096 0.035150 -0.119862 0.340843 -0.054341 0.342645 -0.288039 -0.162368 -0.336589 -0.714210 0.273033 0.151010 -0.149584 0.125150 -0.140471 0.466808 -0.526852 0.273839 -0.428361 0.277323 0.080933 0.240879 -0.042925 0.264376 -0.425004 -0.480071 0.167062 -0.352567 -0.412198 -0.380297 0.235735 -0.541365 0.189861 0.207439 0.223190 0.102172 -0.693483 -0.434096 0.320915 -0.253779 0.336552 -0.246265 -0.214003 -0.204492 -0.367059 -0.376476 -0.198061 -0.874639 0.276969 0.540531 0.144304 -0.883562 0.337761 -0.459619 0.266552 -0.316985 0.519163 -0.344737 -0.019289 -0.174793 -0.130201 -0.873206 -0.463400 
发绳 -0.589001 -0.074496 -2.224921 1.881885 1.654614 0.443707 0.549314 -0.254105 0.351350 0.009180 -0.513568 0.188331 0.241352 1.404341 -0.412316 0.339626 0.150611 -1.527248 0.036463 0.745332 -0.022360 -0.180876 -0.252579 -0.364375 -0.324951 0.420976 -0.355915 -1.048081 -0.440399 0.127098 -0.013517 -0.357434 -0.657823 0.703356 -0.362137 0.621278 0.700872 0.229077 -0.227194 0.207613 0.953248 -0.425084 0.725931 0.013956 -0.128430 -0.610981 -0.121721 0.228966 -0.018449 -0.690144 0.659371 -0.183768 -0.098793 -0.396185 -0.776247 -0.398947 0.212625 -0.552767 0.713991 0.466267 0.247149 -0.349520 -0.916387 0.236269 -1.071102 -0.294658 -1.227965 0.639826 -0.396071 -0.247009 -0.118540 0.497773 0.343952 0.387434 -0.164696 0.715541 0.034569 0.637619 -0.906197 -0.093369 0.072634 0.646028 -0.291144 -0.219630 -0.834983 0.345709 -1.237190 0.266680 -0.035083 -0.340989 -0.195184 -1.164612 0.067748 0.970863 -0.105153 0.812929 -0.330965 -0.144438 0.082580 0.459070 
针钉 0.526403 -0.007427 0.557810 -0.378380 0.223202 -0.957985 0.084884 0.036072 -0.425918 -0.275047 -0.814488 0.011464 0.161912 -0.151166 -0.370285 0.318799 0.120476 -0.702319 0.182642 0.133065 0.118650 0.103811 0.083567 0.007508 -0.219100 -0.482782 -0.446952 -0.453761 -0.312200 0.315060 -0.443014 -0.064670 -0.174506 0.342288 0.426795 0.613922 0.130433 0.353510 0.650329 -0.152444 0.125740 0.017273 0.720463 -0.088662 -0.425970 -0.065344 -0.475736 -0.119616 -0.110412 -0.018175 0.235019 -0.479605 0.561136 -0.289978 -0.063923 -0.506318 0.045787 0.289062 1.030509 -0.255679 -0.091178 -0.147755 -1.235191 0.450041 -0.886156 -0.241346 -0.571287 0.684490 -0.134262 0.052742 0.406534 0.075715 -0.457197 -0.510922 -0.391466 0.968064 -0.272083 0.153117 -0.830419 -0.084578 0.309564 0.238288 -0.556510 -0.319237 -0.353471 0.480355 -0.295694 -0.049108 -0.509437 0.143724 -0.373693 0.714388 0.101418 0.527886 -0.168704 -0.180473 0.357853 0.223198 -0.048930 0.030319 
圣诞灯具 -0.055650 -0.025221 -0.681641 0.492047 -0.127541 0.237234 -0.489670 -0.160974 -0.660298 -0.097923 -0.562092 0.969308 0.132755 -0.170289 0.269071 -0.147190 -0.148646 -0.542081 -0.235898 0.629200 1.330417 -0.230584 -0.072690 -0.529537 -0.033487 0.374927 0.124359 0.064272 -0.695441 0.718755 -0.356614 0.311344 -0.371723 -0.097742 0.963174 0.103569 0.597134 0.260095 0.316297 -0.015400 -0.147214 -0.382027 -0.107339 0.303984 0.210846 -0.070285 -0.287925 0.158409 -0.584421 -0.435124 0.149039 0.596752 0.162907 -0.573243 -0.743764 -0.294371 0.450879 -0.219396 -0.969392 0.612681 0.273414 -0.083305 -0.261882 -0.103617 -0.818244 -0.761032 -0.468601 -0.056472 -1.033867 0.126740 0.365132 0.082044 0.284549 0.646375 0.220237 0.420953 0.424332 0.224258 0.052238 -0.078704 0.124509 -0.730608 -0.377067 -0.795689 -0.981519 0.279636 0.736204 0.405304 -0.677511 -0.858588 0.067625 -0.050743 -0.370494 1.273023 -1.016325 0.896347 -0.065945 -0.352522 -0.717434 -0.201722 
珍珠 -0.267724 -0.099329 -0.934015 0.997014 0.906729 -0.194561 0.091866 0.019257 0.091135 -0.027607 -0.805529 0.405526 0.373244 2.312272 -0.295918 0.047669 0.070620 -1.165577 -0.201221 0.418647 -0.053558 0.099538 -0.740766 -0.382257 -0.277781 -0.736195 -0.609409 -1.225218 -0.202251 0.468922 -0.600982 -0.415352 -0.314478 0.768425 -0.241391 0.717356 0.443956 0.149772 -0.064839 0.580082 0.511057 0.333002 0.282473 0.077228 -0.195836 0.011376 0.428238 0.560180 0.281778 -0.487087 0.532818 -0.593284 0.103533 -0.027831 -0.438650 -0.147861 0.040075 -0.377283 0.576651 -0.088980 0.036969 -0.042200 -0.930970 0.135935 -0.458583 0.198822 -0.559295 0.435435 -0.277336 -0.192722 -0.265918 0.978203 0.113310 0.269333 -0.238970 0.100574 -0.543151 0.560833 -0.686968 -0.005425 -0.213593 0.532275 -0.151966 -0.260578 -0.756026 0.557148 -1.045002 0.252892 0.699598 0.201398 0.040511 -0.829165 -0.009464 0.688051 -0.241077 0.363582 -0.482066 -0.168815 0.715098 0.428856 
垫 -0.201166 -0.112404 -0.246521 0.005007 0.201256 0.252655 0.196206 -0.084622 -0.073155 0.298675 0.257412 -0.093632 -0.503686 -0.111375 0.249550 0.162531 -0.533361 0.075618 0.323857 0.576734 0.321183 -0.536401 -0.035748 -0.018898 0.180784 -0.310230 -0.331192 0.294004 -0.030015 0.409449 -0.401840 0.035586 0.168899 -0.282770 0.282031 0.061419 -0.073414 -0.273641 0.120320 -0.126390 0.205865 -0.091672 0.526514 -0.611750 0.151764 -0.448283 -0.766034 0.420773 0.247707 0.429531 0.231693 -0.336818 0.325205 -0.517174 -0.040523 -0.392102 0.449654 0.111375 0.067687 0.097291 0.123155 -0.176009 -0.249143 -0.010619 -0.130219 -0.091676 -0.194494 0.085047 -0.342972 0.314693 0.142182 -0.147080 0.115648 -0.835197 -0.531576 0.296023 -0.019444 0.281724 0.122902 -0.372200 -0.158580 -0.255432 -0.194976 0.015094 -0.507411 0.360106 1.014880 -0.254991 -1.304917 -0.118329 -0.610940 0.005812 -0.065920 0.556082 -0.569771 0.107501 -0.226347 -0.030328 -0.244793 -0.588715 
发夹 -0.651804 -0.131543 -2.588563 1.870088 2.002173 0.203436 0.993105 -0.068881 0.043966 0.023756 -0.552024 0.170294 0.695586 1.353052 -0.544628 0.425945 0.332135 -1.284788 0.080410 0.421408 -0.202616 -0.214597 -0.156715 0.080958 -0.181398 -0.131744 -0.349195 -1.199116 -0.368003 0.185707 -0.479165 -0.482795 -0.378570 0.501364 -0.198461 0.877914 0.629203 0.024070 -0.490304 0.171164 1.305457 -0.245314 0.723683 0.053970 -0.408938 0.143844 -0.011669 0.433997 0.160613 -0.885642 0.501165 -0.253533 0.039076 -0.239481 -0.177981 -0.283704 0.016210 -0.376026 1.273763 0.086442 0.232679 -0.279531 -0.827707 0.374997 -0.866931 0.091747 -0.974685 0.665725 -0.263944 -0.361857 -0.109977 0.465876 0.238941 0.261346 -0.615139 0.338049 -0.261318 0.813204 -1.046155 -0.340102 -0.043456 0.545831 -0.286727 -0.219535 -0.670088 0.632554 -1.332156 -0.006020 0.156849 0.209965 -0.200064 -0.950400 -0.071463 0.495244 0.323083 0.100574 -0.465926 0.067861 -0.059228 0.593047 
扣 -0.074122 -0.058426 -0.807106 0.577886 0.129419 -0.310661 -0.399362 -0.552532 -0.260549 -0.117792 -0.760222 0.416962 0.340187 0.928709 0.006981 0.040051 -0.245664 -0.753808 0.113150 0.419504 0.742090 0.232303 -0.295470 -0.533534 -0.244249 0.391776 -0.127118 -0.613309 -0.011446 0.356390 0.062353 0.107093 0.211565 0.000285 0.473373 0.112442 0.259967 0.378524 0.462028 0.099659 -0.101475 0.186136 -0.214184 0.349111 -0.005052 0.117057 -0.138197 0.415542 -0.250524 -0.419580 0.287100 -0.369306 0.533025 -0.483807 -0.545342 -0.358944 0.191159 -0.111353 -0.339745 0.011084 0.205341 0.129081 -0.812281 0.188183 -0.450707 -0.641822 -0.767566 0.109225 -0.399371 -0.126415 0.011726 0.222276 0.125821 0.261700 -0.605897 0.027407 -0.215900 0.450315 -0.403980 -0.102012 0.030356 -0.070293 -0.209796 -0.807987 -0.486492 0.671256 -0.114840 0.352538 0.121031 -0.132556 0.131317 -0.089822 -0.711295 1.167071 -0.788703 0.393061 -0.366096 -0.230464 -0.242793 0.062764 
金表链 0.012533 -0.057882 -0.932532 0.651973 0.405812 -0.095100 -0.012317 -0.234471 -0.195330 -0.004883 -0.151190 0.275376 0.473554 0.968536 0.074801 -0.129651 0.165100 -0.469323 -0.230779 -0.187192 0.101227 0.216578 -0.352740 -0.160986 -0.064500 -0.124419 -0.089245 -0.657784 0.137064 0.200175 -0.313096 -0.121710 0.255725 0.070784 0.178190 0.335960 0.136016 0.161238 0.023859 0.390786 0.152338 0.300653 0.000082 0.280718 -0.161509 0.339879 0.170961 0.466471 0.037763 -0.447099 0.318881 -0.339143 0.351834 -0.218706 -0.289254 -0.070906 0.023993 -0.046174 -0.186583 0.124335 0.130101 -0.020045 -0.590260 0.103269 -0.466785 -0.163774 -0.473760 0.304213 -0.354242 -0.039368 -0.009437 0.546479 0.178394 -0.053603 -0.537578 0.093128 -0.560137 0.684380 -0.420387 -0.325750 -0.147439 -0.111171 -0.274228 -0.696560 -0.848167 0.874580 -0.209586 0.098706 0.063277 0.089461 0.023756 -0.122909 -0.501050 0.868343 -0.629348 0.162416 -0.412453 -0.273952 -0.183231 0.259952 
圈 -0.084319 0.052599 -0.782576 0.942228 0.625139 0.084867 -0.274853 -0.243345 0.286017 -0.012128 -0.421920 0.257966 0.099124 1.824870 -0.243097 0.027644 0.056893 -1.130490 0.037496 0.629308 -0.024110 0.083178 -0.542459 -0.411613 -0.319906 -0.011824 -0.525622 -0.808478 -0.090066 0.270347 -0.116421 -0.204065 -0.371125 0.629378 -0.229458 0.411487 0.408260 0.231129 -0.010685 0.343830 0.284885 0.070636 0.368325 0.051457 -0.005556 -0.470262 0.114093 0.275999 0.161712 -0.326740 0.547549 -0.454466 -0.044263 -0.180542 -0.799247 -0.229039 0.223263 -0.386163 0.158848 0.388000 0.149708 -0.122241 -1.038140 0.108474 -0.513338 -0.245291 -0.828035 0.458195 -0.411924 -0.001004 -0.231417 0.773100 0.347473 0.194011 -0.291884 0.230383 -0.169255 0.606134 -0.589789 0.020322 0.029116 0.413585 -0.241446 -0.293636 -0.701104 0.376356 -0.675286 0.302423 0.283057 -0.290883 -0.096919 -0.873129 -0.068143 1.055438 -0.488612 0.805460 -0.239913 -0.340362 0.357537 0.343980 
耳钉 0.218535 -0.063915 0.183765 0.226190 0.198069 -0.618591 -0.323891 0.194025 -0.252077 -0.120618 -0.956026 0.821110 0.599510 2.887340 -0.046113 -0.384098 -0.014313 -0.564823 -0.361267 0.106678 0.160692 0.313329 -0.894370 -0.385598 -0.281199 -1.514726 -0.646213 -1.007215 -0.122708 0.737106 -0.981369 -0.435317 -0.214672 0.691541 0.571866 0.941696 0.284114 -0.198501 0.211512 0.872651 0.146653 0.829738 -0.060607 0.224505 -0.288074 0.627234 1.000462 0.757788 0.444262 -0.474532 0.343741 -0.843157 0.143174 0.289825 -0.169404 0.006359 0.313839 -0.071081 0.211875 -0.256849 -0.017749 0.077009 -1.258192 -0.087454 -0.061566 0.401878 0.004715 0.231848 -0.609187 0.179568 -0.014280 1.688814 0.112634 0.121022 -0.453181 -0.461921 -1.022928 0.696622 -0.733130 -0.017048 -0.128362 0.033059 -0.266087 -0.649749 -1.250591 0.890156 -0.164573 0.055236 0.725592 0.349785 0.316787 -0.326684 -0.454210 0.962551 -0.742596 0.230698 -0.851056 -0.492221 0.300440 0.595028 
普通发圈 -0.689752 -0.094228 -2.372901 1.762791 1.506181 0.414861 0.690522 -0.135334 0.013569 -0.072588 -0.518548 0.361607 0.541042 1.020323 -0.292643 0.302055 0.102241 -1.153151 0.097717 0.613032 0.264843 -0.111284 -0.064072 -0.140075 -0.266187 0.244636 -0.220339 -0.843712 -0.519233 0.352079 -0.324973 -0.336903 -0.512599 0.310631 0.042945 0.640799 0.609907 0.086160 -0.391683 0.150914 0.900035 -0.420552 0.328436 0.219243 -0.148137 0.048544 0.016227 0.260378 -0.140161 -0.835961 0.441238 0.041989 -0.107780 -0.304007 -0.524454 -0.248155 0.165863 -0.474062 0.462765 0.386575 0.259115 -0.203733 -0.409670 0.138026 -0.732970 -0.224176 -0.846788 0.389069 -0.329242 -0.285942 -0.102624 0.243468 0.323897 0.557387 -0.223024 0.354067 0.062186 0.503200 -0.672208 -0.095002 0.036709 0.340002 -0.197813 -0.380063 -0.554511 0.377975 -0.983205 0.189735 0.082731 -0.254290 -0.026259 -0.861537 -0.139701 0.606090 -0.013008 0.471734 -0.364616 -0.019987 -0.273635 0.431970 
各种钻 -0.158555 0.036251 -0.553677 0.632129 0.521006 -0.164177 -0.114681 -0.170908 0.016950 -0.039157 -0.586591 0.210068 0.000702 1.918419 -0.232569 -0.059438 0.044086 -0.696792 -0.082452 0.429465 -0.111736 0.239607 -0.635012 -0.313363 -0.230138 -0.352113 -0.328784 -0.783480 0.095335 0.328547 -0.147650 -0.158509 -0.148189 0.574786 -0.298678 0.219766 0.180264 0.072076 0.225951 0.234752 0.011923 0.269839 0.049969 0.061876 0.017991 -0.371308 0.048180 0.379336 0.153568 0.013601 0.550847 -0.732005 0.272766 -0.282150 -0.554783 -0.273790 0.137225 -0.327887 0.010388 -0.275604 0.173114 -0.011426 -0.961094 -0.022674 -0.303055 -0.089209 -0.366719 0.148229 -0.251541 0.043666 -0.052173 0.848844 0.178845 -0.128261 -0.308330 0.097230 -0.484791 0.386904 -0.380474 0.194066 -0.198874 0.388281 -0.253931 -0.206903 -0.552036 0.257973 -0.349921 0.187366 0.286493 0.110068 0.064312 -0.475309 -0.089736 0.938158 -0.625607 0.570604 -0.403444 -0.234370 0.499204 0.110532 
发箍 -0.611364 -0.055179 -2.253504 1.772252 1.725597 0.286078 0.842316 -0.052777 0.038367 0.013342 -0.645868 0.343018 0.462966 1.456019 -0.354190 0.293799 0.110282 -1.062111 0.100461 0.534175 -0.055455 -0.099760 -0.268510 -0.057601 -0.258554 -0.037887 -0.337683 -0.965900 -0.326756 0.185214 -0.295562 -0.383096 -0.479854 0.546526 -0.175191 0.663102 0.525317 0.004611 -0.301444 0.193911 0.941092 -0.222026 0.474150 0.038568 -0.248021 -0.077589 0.003329 0.314369 0.144254 -0.621411 0.432810 -0.224914 0.070739 -0.245473 -0.289943 -0.239856 0.095972 -0.423766 0.848557 0.132634 0.148435 -0.175818 -0.759429 0.209264 -0.688905 0.000755 -0.724555 0.485318 -0.197452 -0.280612 -0.101709 0.477525 0.228211 0.262361 -0.324222 0.255384 -0.176600 0.564970 -0.744018 -0.094384 -0.025414 0.484275 -0.199662 -0.180048 -0.401881 0.315603 -1.148141 0.137514 0.303010 0.042899 -0.053906 -0.880870 0.033469 0.459894 0.154561 0.300117 -0.363339 0.026996 0.234351 0.435379 
头饰 -0.665406 -0.044489 -2.280189 1.860171 1.858436 0.379142 0.861326 -0.114725 0.221453 0.033647 -0.569896 0.244683 0.361154 1.540269 -0.467825 0.300538 0.072307 -1.165285 0.110007 0.597870 -0.164300 -0.110157 -0.225623 -0.141006 -0.300303 0.010784 -0.362841 -0.994192 -0.397164 0.151768 -0.311917 -0.430334 -0.526886 0.599681 -0.254683 0.697726 0.559168 0.008966 -0.347023 0.150985 1.007826 -0.235365 0.607306 -0.026504 -0.254584 -0.276870 -0.010412 0.272302 0.181285 -0.587683 0.490859 -0.245293 -0.047414 -0.223254 -0.392619 -0.255644 0.106444 -0.492193 0.878406 0.206592 0.142022 -0.202865 -0.783436 0.194407 -0.801371 -0.025574 -0.789592 0.541085 -0.217027 -0.201878 -0.054242 0.518751 0.269648 0.169665 -0.243395 0.424887 -0.153210 0.565658 -0.803891 -0.085448 -0.011068 0.553450 -0.188745 -0.088474 -0.564007 0.271670 -1.195903 0.132180 0.180143 -0.017457 -0.129599 -0.964958 0.036322 0.562132 0.079778 0.423097 -0.348196 -0.033295 0.085930 0.483988 
钥匙扣 -0.025259 -0.116109 -0.670615 0.318813 -0.166937 -0.269661 -0.522025 -0.415341 -0.375705 -0.097150 -0.670745 0.703186 0.706329 0.735108 0.115664 -0.170590 -0.032019 -0.632926 -0.090731 0.152050 0.780283 0.144562 -0.287051 -0.606107 -0.051729 0.114759 0.037200 -0.660169 -0.233056 0.416112 -0.387605 0.023427 0.103012 -0.087665 0.625795 0.271221 0.310276 0.240562 0.119648 0.355459 0.065258 0.225269 -0.215799 0.444493 -0.093708 0.539014 0.069098 0.488253 -0.249882 -0.509171 0.201424 -0.022568 0.399566 -0.319881 -0.320718 -0.135608 0.080246 -0.167958 -0.426688 0.119014 0.246473 0.132022 -0.525720 0.214644 -0.306596 -0.393229 -0.551405 0.036808 -0.590942 -0.106594 0.086960 0.388141 0.228050 0.435359 -0.608910 -0.162425 -0.223759 0.684283 -0.528911 -0.228291 0.002198 -0.369102 -0.186160 -0.875454 -1.046300 0.872667 0.123507 0.246142 0.085162 -0.066615 0.234440 -0.149874 -0.884171 1.185515 -0.790932 0.299802 -0.511133 -0.314369 -0.618180 0.230803 
布 -0.669995 0.006868 -1.485366 0.973395 1.109083 0.607157 0.764740 -0.187137 0.049443 0.102056 -0.005096 -0.040770 -0.188213 0.606489 -0.071210 0.039551 -0.522030 -0.061037 0.429164 0.393360 0.018881 -0.003604 0.267093 0.066057 -0.236848 0.098972 -0.349738 -0.026134 -0.181681 0.423107 -0.238453 -0.157648 -0.018015 -0.066526 0.062121 0.136770 0.039393 -0.334284 -0.205849 -0.146228 0.358675 -0.280614 0.149901 -0.233964 0.056515 -0.184597 -0.311202 0.092652 -0.061307 0.010135 0.221408 -0.256351 0.184251 -0.240091 -0.233942 -0.123182 0.178508 -0.100534 0.077511 0.092205 0.075797 -0.071864 -0.281801 -0.098306 -0.243489 -0.116212 -0.268485 0.080696 -0.165839 0.186265 0.270897 0.034619 0.290594 -0.391575 -0.356664 0.270820 -0.074282 0.096134 -0.116611 -0.166514 -0.215652 -0.102012 -0.167224 -0.156938 0.101457 0.187477 0.088631 -0.038827 -0.202732 -0.103365 -0.098489 -0.447461 -0.100346 0.445158 -0.197964 0.184916 -0.482236 0.066687 -0.290387 -0.140485 
纸 -0.188190 0.128897 -0.055872 -0.059637 0.156409 0.184366 0.234871 -0.100501 0.026303 0.172093 0.248273 -0.387918 -0.408749 -0.063274 -0.135923 0.067976 -0.496878 0.175555 0.611104 0.334630 -0.148646 -0.138034 0.265285 0.110544 -0.059712 -0.337112 -0.533105 0.292589 -0.147895 0.357238 -0.572045 -0.045527 0.125860 -0.301826 0.130154 -0.106010 -0.166234 -0.256794 0.321933 -0.256154 0.097201 -0.191532 0.374604 -0.465749 -0.028319 -0.614542 -1.049912 0.138269 0.045107 0.481463 0.217366 -0.485845 0.439770 -0.344737 0.014820 -0.266302 0.192901 0.035916 0.378789 -0.015969 -0.046574 -0.063838 -0.408132 0.174465 -0.467771 -0.344202 -0.231060 0.237389 -0.143710 0.409648 0.513920 -0.084647 0.206586 -1.229560 -0.706643 0.599001 -0.184811 0.201982 -0.183970 -0.300599 -0.093626 -0.158630 -0.191114 0.094329 -0.216710 0.160395 0.668760 -0.161011 -0.932701 0.002390 -0.541615 0.115356 -0.357233 0.385554 -0.329649 0.024659 -0.179628 0.048954 -0.570122 -0.472481 
工艺品 -0.460764 0.016992 -1.517532 0.864982 0.558111 0.594688 0.110039 -0.079043 -0.084793 0.001644 -0.417734 0.670350 0.489473 0.051916 0.114383 0.081152 0.121250 -0.642557 -0.188464 0.287315 0.786753 -0.093251 0.224846 -0.328484 -0.169218 0.379894 0.116257 -0.282160 -0.521970 0.774565 -0.937559 -0.035194 -0.339321 -0.288262 0.561999 0.283785 0.482214 -0.039261 -0.312740 0.120959 0.312485 -0.506619 0.153512 0.349176 -0.038139 0.407888 -0.043230 0.223326 -0.389412 -0.668863 0.255420 0.575054 -0.066557 -0.265808 -0.634512 0.025299 0.205191 -0.185655 -0.323355 0.708910 0.220553 0.065417 0.237606 0.042845 -0.758874 -0.424799 -0.629404 0.013133 -0.641539 -0.040141 0.072793 -0.013003 0.405158 0.673255 -0.110015 0.200657 0.210722 0.446434 -0.442846 -0.095980 0.005691 -0.267907 -0.054791 -0.393639 -0.779961 0.578649 0.027449 0.108458 -0.448909 -0.572540 -0.062158 -0.522630 -0.395685 0.906043 -0.545944 0.505575 -0.327715 -0.407924 -0.936727 0.286723 
西服裙 -0.292430 0.428628 0.005805 1.260129 1.112945 0.208737 0.765365 0.042689 -0.385658 -0.212283 -1.307807 0.489751 -0.184673 -0.223075 -0.877638 0.449544 -0.292594 -0.391488 0.867280 1.291876 0.654953 0.100172 -0.143038 -0.532837 -0.207734 -0.422625 -0.494908 0.541291 -1.190016 0.712362 -0.010431 0.307291 -1.018864 0.508539 0.324865 0.063453 0.191546 -0.116887 0.820745 -0.626524 -0.503441 -0.711689 0.326286 -0.194184 0.211811 -1.273668 -1.083580 -0.174057 -0.154256 0.751553 0.243285 -0.417129 0.414975 0.128391 0.050442 -0.620551 0.233069 -0.778014 0.209463 0.219687 0.033096 -0.003124 -0.220971 0.094761 -0.591520 -0.399227 0.192659 0.115698 -0.393266 0.319752 0.634377 -0.031254 -0.260975 0.101908 0.629517 1.408148 0.680407 -0.207468 -0.269623 0.344914 0.760345 0.399254 -0.207691 0.299921 -0.233116 -0.546467 0.560590 -0.094173 -0.578664 -0.578534 -0.093844 -0.135506 0.638974 0.354150 0.405836 0.469154 0.299489 0.192103 -0.666410 -0.378267 
塑料镜盒 0.087421 -0.056033 -0.427324 0.170104 0.412725 -0.098931 0.013746 -0.219919 -0.301387 0.022353 -0.003683 -0.002980 -0.020503 -0.244741 0.025753 0.048335 0.061879 -0.337019 -0.022990 -0.001495 0.182518 -0.075386 0.145451 0.109161 0.166495 -0.101338 -0.077703 -0.067167 -0.080947 0.335613 -0.218607 0.076203 0.166672 -0.202690 0.313398 0.081831 0.159988 0.129486 0.389612 -0.062446 0.042325 -0.076920 0.461272 -0.167844 -0.003306 -0.208579 -0.620205 0.070820 -0.199846 -0.026163 0.242008 -0.172309 0.379514 -0.569819 -0.247413 -0.353462 0.241687 0.171842 0.142617 0.099739 0.109470 -0.264186 -0.495025 0.159795 -0.530341 -0.330942 -0.664475 0.164963 -0.351695 0.063380 0.211941 -0.014432 0.091543 -0.443665 -0.559189 0.394304 -0.148450 0.493256 -0.408593 -0.493131 -0.071865 -0.125400 -0.329442 -0.352740 -0.525990 0.605800 0.442394 -0.058308 -0.968965 0.025411 -0.432256 0.266478 -0.339058 0.865659 -0.486692 0.050134 -0.096155 -0.040415 -0.264145 -0.261900 
钱包 -0.655869 -0.166353 -1.754640 1.010510 1.087421 0.447684 1.238988 -0.054225 -0.310486 0.613178 -0.946616 1.409908 0.670479 1.530716 0.207057 -0.398607 -0.880066 1.052916 0.326465 0.122061 0.346945 0.107188 0.058726 0.035198 -0.112179 -0.795272 -0.034630 0.188912 -0.155148 0.333627 -1.336541 -0.229108 -0.028821 -0.605610 1.286186 0.523186 -0.217458 -1.037297 -0.508211 0.101552 0.826730 0.259687 -0.058577 -0.110101 -0.500063 0.873723 0.512408 0.345083 0.595075 -0.068543 -0.434814 -0.185127 0.332935 0.218735 1.052105 0.319178 0.230170 0.242756 0.012562 -0.042626 -0.104318 0.263187 -0.265836 -0.217445 0.293745 0.323969 0.530794 -0.205118 -0.263592 0.448857 0.549374 0.409038 0.269602 -0.829017 -0.597867 -1.119648 -0.770923 0.334478 -0.152444 -0.055142 -0.283958 -0.761520 0.139356 -0.422951 -0.391063 0.471365 0.845793 -0.250104 0.184675 0.584294 0.506612 0.423625 -0.950515 -0.290897 -0.508330 -0.375746 -0.860939 -0.189455 -0.835243 0.399464 
手镯 0.210544 -0.202583 0.131321 0.194925 0.015891 -0.681269 -0.442114 -0.014481 -0.210003 0.097940 -1.048520 1.011549 0.721055 2.792601 0.141160 -0.314701 -0.038371 -0.682892 -0.481080 0.180357 0.308185 0.272323 -0.913253 -0.438485 -0.121804 -1.144285 -0.395833 -0.996367 0.055893 0.591205 -0.831448 -0.340031 -0.109174 0.529928 0.486678 0.862609 0.383556 -0.047612 0.122298 0.824526 0.301426 0.804567 -0.075552 0.233129 -0.295184 0.576173 0.836173 0.793566 0.467672 -0.490137 0.342027 -0.666064 0.272740 0.165857 -0.033546 -0.013027 0.212199 -0.073878 -0.011249 -0.221558 0.154811 0.049135 -1.000866 -0.112432 -0.040195 0.360254 0.024088 0.139937 -0.664194 0.000703 -0.131570 1.636071 0.081645 0.215033 -0.319642 -0.632131 -0.907732 0.785790 -0.684283 -0.167735 -0.253857 -0.099631 -0.196357 -0.715025 -1.548338 0.987822 0.018978 -0.030339 0.703913 0.323283 0.325691 -0.177277 -0.551227 1.039241 -0.783577 0.113054 -0.852930 -0.498020 0.461022 0.619753 
珠 0.159762 -0.064028 0.242139 0.002476 -0.387719 -0.320301 -0.822590 -0.212692 -0.252269 0.016109 -0.678714 0.536875 -0.028327 1.485081 0.133469 -0.206189 -0.219326 -0.809750 -0.271622 0.559225 0.656334 0.242835 -0.598297 -0.590455 -0.203839 -0.210354 -0.314390 -0.488518 -0.124766 0.639177 -0.229232 0.076643 -0.132753 0.423080 0.269275 0.177451 0.385491 0.214901 0.446291 0.332057 -0.285331 0.280705 -0.119466 0.193245 0.120758 -0.383618 -0.087184 0.442553 -0.160589 -0.047230 0.562885 -0.328087 0.377654 -0.375055 -0.795373 -0.282725 0.263807 -0.264069 -0.674897 0.120748 0.151203 0.023845 -0.745604 -0.098005 -0.383741 -0.345225 -0.408214 0.033430 -0.718514 0.010629 -0.110533 0.884869 0.215941 0.294024 -0.134231 0.106544 -0.239275 0.495616 -0.324763 -0.085252 -0.041513 -0.047576 -0.329364 -0.667471 -1.014043 0.555279 0.225847 0.256360 0.017221 -0.370152 0.140481 -0.370639 -0.319358 1.507840 -1.110701 0.916382 -0.443906 -0.471876 0.348557 0.041729 
书包 -0.577242 -0.153658 -1.341692 0.932976 0.806954 0.475203 1.158510 0.006457 -0.275057 0.588664 -1.165313 1.656504 0.676669 1.892415 0.573785 -0.295192 -0.940837 1.002938 0.140082 -0.060726 0.292514 -0.079334 -0.126886 -0.014810 -0.117105 -1.090123 -0.145455 0.244059 -0.164422 0.457915 -1.664625 -0.297262 0.066174 -0.493742 1.182467 0.401357 -0.368746 -1.011125 -0.332622 0.160356 0.848306 0.544479 -0.003474 -0.177171 -0.605698 0.883991 0.369497 0.630869 0.556675 0.028807 -0.556346 -0.236051 0.341399 0.332374 1.217837 0.378738 0.385888 0.262192 0.187410 -0.051683 -0.125635 0.169158 -0.091365 -0.110413 0.509412 0.565314 0.771274 -0.136887 -0.324256 0.409434 0.311708 0.559524 0.175735 -1.055610 -0.508848 -1.391336 -0.780594 0.302974 -0.010261 -0.221067 -0.481175 -0.817671 0.051982 -0.326239 -0.688166 0.525537 1.090597 -0.221047 0.073718 0.780571 0.156590 0.700936 -0.836140 -0.445974 -0.551151 -0.614092 -0.683252 -0.142370 -0.915731 0.236121 
吊坠 0.252649 -0.111526 0.521736 0.100617 -0.127331 -0.684677 -0.651513 -0.019681 -0.258149 -0.028049 -1.115139 0.918448 0.501037 2.737175 0.012781 -0.259440 -0.076277 -0.804155 -0.416965 0.393535 0.396374 0.355027 -1.037082 -0.568498 -0.166675 -1.128604 -0.487439 -0.882349 -0.050126 0.720436 -0.696469 -0.174883 -0.220760 0.694996 0.415192 0.705287 0.350044 0.041445 0.352485 0.701190 -0.083976 0.770100 -0.158759 0.219294 -0.130955 0.170884 0.633570 0.740878 0.387084 -0.170817 0.453244 -0.783321 0.343073 0.078878 -0.254949 -0.106310 0.203607 -0.228031 -0.204449 -0.234443 0.127349 0.112037 -1.077060 -0.139729 -0.150686 0.203014 0.022779 0.172224 -0.729989 0.037741 -0.054998 1.614539 0.052396 0.255921 -0.199949 -0.356374 -0.777001 0.642640 -0.602221 0.023951 -0.092114 0.015182 -0.207242 -0.632905 -1.499199 0.783777 0.163394 0.103617 0.559677 0.168233 0.295444 -0.216609 -0.416482 1.231827 -0.921557 0.368626 -0.726424 -0.480126 0.612584 0.444220 
头带 -0.538755 -0.038701 -1.921539 1.529952 1.371159 0.263551 0.413428 -0.139402 0.165132 -0.022837 -0.431693 0.216720 0.234458 1.185237 -0.208958 0.221165 0.036373 -1.274643 -0.017219 0.628827 0.180137 -0.084301 -0.267848 -0.332177 -0.261866 0.230460 -0.261610 -0.864077 -0.367324 0.265703 -0.098779 -0.282570 -0.549214 0.546474 -0.122475 0.542155 0.598735 0.122666 -0.140951 0.195884 0.689421 -0.321596 0.415277 0.066352 -0.075677 -0.297759 -0.052142 0.258816 -0.080437 -0.568493 0.532390 -0.068277 0.003296 -0.359905 -0.668613 -0.313704 0.129695 -0.485524 0.394518 0.282348 0.221592 -0.225627 -0.710194 0.125517 -0.769174 -0.206072 -0.839911 0.376362 -0.354283 -0.223142 -0.067107 0.444107 0.267579 0.483430 -0.067549 0.426985 0.005065 0.485221 -0.664539 -0.006281 -0.028564 0.403297 -0.242265 -0.248229 -0.646407 0.245603 -0.920079 0.245713 0.092710 -0.299659 -0.019045 -0.928570 -0.015999 0.792313 -0.149487 0.651794 -0.345105 -0.104950 0.129002 0.339171 
摆件 -0.109427 0.016288 -1.098837 0.551781 0.217958 0.394006 -0.308180 -0.200155 -0.262985 0.024795 -0.208165 0.548916 0.216808 -0.035765 0.233860 -0.058852 -0.048495 -0.674681 -0.192093 0.415933 0.896798 -0.056090 0.033971 -0.520696 -0.090335 0.430950 0.152452 -0.197092 -0.480099 0.660243 -0.483892 0.130035 -0.285247 -0.118097 0.629930 0.153624 0.416757 0.135244 0.065702 0.019919 0.060264 -0.410895 0.106041 0.280616 0.087428 0.036444 -0.248400 0.162640 -0.531917 -0.449776 0.341861 0.446769 0.129754 -0.479698 -0.768852 -0.133817 0.275592 -0.224539 -0.578564 0.598903 0.258159 -0.006069 -0.237271 0.025630 -0.858918 -0.577968 -0.707136 0.026631 -0.764972 0.063527 0.216716 0.065178 0.349674 0.552865 -0.056428 0.370049 0.218588 0.436313 -0.345283 -0.145382 0.013116 -0.426196 -0.303232 -0.575691 -1.004898 0.538951 0.388529 0.205030 -0.699417 -0.637019 0.030351 -0.329239 -0.501682 1.289616 -0.904970 0.799238 -0.371470 -0.456098 -0.843764 0.048525 
水晶 -0.045548 0.048828 0.149563 0.125259 -0.098774 -0.050728 -0.305436 -0.077929 0.070213 0.035200 -0.578296 0.330574 -0.062854 1.491912 -0.105509 -0.142888 -0.394399 -0.286159 0.042104 0.395194 0.329785 0.171339 -0.379400 -0.239624 -0.297226 -0.517109 -0.495673 -0.326628 -0.062874 0.714047 -0.791284 -0.081185 -0.191908 0.221673 0.153525 0.169689 0.130725 -0.044725 0.191560 0.210194 -0.153283 0.289211 0.009036 0.029612 -0.003450 -0.170554 -0.003215 0.269928 0.155774 0.079532 0.332300 -0.368840 0.127954 -0.068358 -0.387549 -0.109766 0.227118 -0.171170 -0.143987 0.022286 -0.043519 0.128382 -0.483376 -0.125675 -0.138667 -0.160301 -0.051743 0.082838 -0.352701 0.226553 -0.009231 0.605501 0.161604 -0.158622 -0.195904 0.004587 -0.302831 0.244891 -0.300913 0.091921 -0.046053 0.071289 -0.129220 -0.105517 -0.471072 0.325655 0.089179 0.079164 0.345055 -0.132502 -0.086771 -0.252946 -0.082869 0.760367 -0.626650 0.450369 -0.317509 -0.278654 0.124871 0.130746 
戒指 0.074357 -0.084998 0.036120 0.278902 0.100528 -0.383483 -0.290563 0.100179 -0.201889 -0.012950 -0.940547 0.852122 0.633807 2.447183 0.064807 -0.333252 -0.079420 -0.481545 -0.420381 0.186341 0.253215 0.272903 -0.761402 -0.383605 -0.201975 -1.058197 -0.430402 -0.811782 -0.088682 0.623722 -0.935520 -0.289699 -0.148384 0.451778 0.503900 0.766753 0.261862 -0.190209 0.028174 0.685374 0.244194 0.666486 -0.114063 0.219124 -0.263810 0.578671 0.900079 0.652096 0.347688 -0.380929 0.178327 -0.593881 0.142112 0.232594 -0.029646 0.088594 0.216984 -0.164017 0.037223 -0.149066 0.088975 0.112268 -0.765450 -0.196453 -0.053871 0.343809 0.144827 0.191749 -0.562275 0.075015 -0.007300 1.417653 0.118639 0.112738 -0.326153 -0.495547 -0.866800 0.626534 -0.641050 -0.054718 -0.205027 -0.046629 -0.141990 -0.592801 -1.377678 0.792711 0.074553 -0.018077 0.563969 0.275206 0.310238 -0.159238 -0.498445 0.935386 -0.778476 0.210456 -0.814515 -0.449534 0.123188 0.628383 
男童恤 -0.306047 0.364926 -0.199859 1.481176 1.260748 0.134168 0.771092 0.050330 -0.464491 -0.211913 -1.505885 0.679086 0.041139 -0.104387 -0.841003 0.429079 -0.063340 -0.521431 0.761636 1.298397 0.780016 0.160492 -0.356842 -0.609703 -0.161022 -0.374479 -0.362266 0.395252 -1.237272 0.632880 0.120166 0.341352 -1.075346 0.592808 0.441961 0.160503 0.309125 -0.096465 0.924778 -0.500516 -0.529743 -0.686528 0.315234 -0.091465 0.225639 -1.213171 -0.932053 -0.065130 -0.171396 0.642301 0.279657 -0.337325 0.479680 0.169898 0.115443 -0.679280 0.325114 -0.836229 0.191421 0.211853 0.072823 0.072452 -0.134167 0.088072 -0.622337 -0.281892 0.223886 0.037205 -0.539724 0.242863 0.508796 0.177095 -0.328977 0.457523 0.715120 1.236134 0.659213 -0.045227 -0.365050 0.388953 0.870368 0.507137 -0.116226 0.181461 -0.469925 -0.509806 0.492027 -0.144758 -0.550582 -0.606596 0.014100 -0.202194 0.622534 0.482221 0.426070 0.416131 0.224012 0.182563 -0.641416 -0.272721 
礼品 -0.269295 0.041097 -0.941475 0.512141 0.326312 0.461123 -0.018556 -0.142214 -0.071006 -0.017297 -0.140194 0.346468 0.180557 -0.246279 0.119242 -0.040135 -0.157864 -0.405904 0.072585 0.302600 0.691380 -0.137898 0.211406 -0.298460 -0.138267 0.350276 -0.024204 0.042752 -0.507676 0.645789 -0.629611 0.059367 -0.280919 -0.288234 0.560647 0.082619 0.270229 -0.031604 0.038792 -0.048951 0.120419 -0.458989 0.251307 0.022485 0.065434 -0.073787 -0.424640 0.080914 -0.428309 -0.181457 0.266052 0.368885 0.143482 -0.386237 -0.563997 -0.155999 0.222236 -0.205554 -0.254942 0.598281 0.172738 0.038676 -0.001730 0.060125 -0.644291 -0.548542 -0.500548 0.023716 -0.533232 0.140691 0.310878 -0.060202 0.266326 0.108147 -0.209104 0.483471 0.186939 0.418501 -0.445638 -0.150669 0.052456 -0.304353 -0.139521 -0.306038 -0.841444 0.389860 0.389547 0.058514 -0.741079 -0.564950 -0.126765 -0.344736 -0.366103 0.902863 -0.621873 0.580754 -0.268791 -0.304565 -0.966498 0.006668 
工具 0.156269 -0.162051 0.290483 -0.631655 -0.499837 -0.327208 -0.160846 0.243564 -0.342184 -0.071318 -0.418033 0.525589 0.685631 -0.354377 0.009455 -0.002668 0.155161 -0.178626 -0.281624 0.078520 0.435413 -0.460843 0.080956 -0.188009 0.035527 -0.745338 -0.029986 -0.067175 -0.718503 0.380119 -1.134945 -0.140340 -0.015501 -0.166496 0.901337 0.738018 0.021279 -0.182807 -0.256070 0.079634 0.749080 -0.137500 0.431305 0.045216 -0.380684 0.554923 0.175760 0.312472 -0.248337 -0.615117 -0.243363 -0.109627 0.054699 -0.046779 0.476815 -0.172064 0.200954 0.167491 0.558898 -0.067440 0.326975 -0.349393 -0.230131 0.180523 -0.288146 0.119421 -0.057802 0.348762 -0.546334 0.119284 0.419565 0.327343 0.010136 -0.381208 -0.305801 0.151139 -0.210405 0.254426 -0.700759 -0.317252 0.113686 -0.443241 -0.176207 -0.444743 -1.410609 0.549070 0.552307 -0.276577 -1.004064 0.345695 -0.034317 0.537765 -0.686445 0.383993 -0.416112 -0.097965 -0.358056 -0.089366 -1.804914 0.342534 
勺 -0.018623 -0.222847 -0.365491 0.082747 0.191755 -0.047367 0.134895 -0.107651 -0.312541 0.195765 -0.236534 0.445773 0.153207 -0.141596 0.375392 -0.043238 -0.227538 -0.199510 -0.109334 0.181626 0.521950 -0.395258 0.050793 -0.324967 0.409441 -0.116615 0.208665 0.121312 -0.043887 0.138390 -0.228551 0.064051 0.059042 -0.356167 0.532140 0.174032 0.130103 -0.028221 0.353594 0.098139 -0.024434 -0.126167 0.360604 -0.338549 0.153260 -0.230648 -0.759077 0.283252 -0.099224 0.129629 0.075503 0.186799 0.385427 -0.525020 0.002768 -0.302770 0.157151 0.204043 -0.292347 0.234976 0.001616 -0.054403 -0.266337 0.218113 -0.411505 -0.337849 -0.445677 -0.075737 -0.406626 0.068084 0.256584 0.065886 0.192400 -0.198531 -0.351122 0.168167 0.005420 0.715922 -0.223493 -0.315271 -0.157015 -0.524271 -0.098667 -0.250449 -0.703988 0.580607 0.846954 -0.199140 -1.129636 0.019042 -0.197806 0.241187 -0.494796 0.717747 -0.457843 0.042413 -0.331538 -0.215665 -0.361145 -0.280421 
儿童印花恤 -0.269576 0.298550 -0.389728 1.197513 1.264369 0.245160 0.792911 -0.102082 -0.067769 -0.046526 -0.887997 0.142030 -0.452749 0.027409 -0.890284 0.483594 -0.352291 -0.425977 0.912511 1.164826 0.152747 0.086712 -0.111337 -0.330861 -0.191963 -0.244080 -0.518701 0.274322 -0.770975 0.378676 0.201660 0.203974 -0.741433 0.562992 -0.038708 -0.069260 0.092269 -0.119114 0.772557 -0.617804 -0.300814 -0.609995 0.489922 -0.452130 0.174084 -1.525504 -1.256411 -0.154306 0.020969 0.802590 0.395097 -0.569573 0.429839 -0.138310 0.011925 -0.661772 0.259863 -0.624977 0.496282 0.078974 0.041019 -0.023674 -0.552281 0.159294 -0.662328 -0.381032 -0.193756 0.193087 -0.243833 0.375397 0.566991 -0.054790 -0.164786 -0.361730 0.233336 1.284879 0.434653 -0.105844 -0.348167 0.295790 0.620448 0.532959 -0.206710 0.460674 -0.053331 -0.573612 0.265827 -0.096647 -0.679892 -0.362886 -0.287337 -0.206784 0.523525 0.470488 0.320394 0.434568 0.270851 0.239997 -0.384728 -0.436369 
九分裤 -0.123718 0.244647 -0.256047 0.611112 1.165688 0.365715 0.945522 -0.248355 0.096826 0.331938 -0.715525 0.199359 -0.816559 0.140234 -0.763034 0.553380 -0.738772 0.057396 1.060013 0.985152 -0.198703 -0.249167 0.204201 -0.093746 -0.069262 -0.441793 -0.606802 0.454409 -0.400842 0.331753 -0.270075 0.156631 -0.416243 0.251418 -0.102857 -0.337394 -0.231217 -0.244603 0.799970 -0.736324 -0.086299 -0.499837 0.896237 -0.934306 0.025120 -1.734725 -1.796749 -0.155785 0.385483 1.170511 0.244088 -0.618972 0.595603 -0.542504 0.180818 -0.659066 0.388919 -0.191664 0.773498 -0.083113 -0.078878 -0.173292 -0.967651 0.369532 -0.778569 -0.500413 -0.425071 0.375873 -0.004814 0.579137 0.721021 -0.481583 -0.032098 -1.435979 -0.291490 1.150854 0.105313 -0.094644 -0.258992 0.260164 0.313100 0.204405 -0.218684 0.856434 0.103107 -0.503977 0.589068 -0.099329 -1.144749 0.110726 -0.806906 0.291391 0.362340 0.217845 0.099314 0.158184 0.515016 0.258867 -0.353556 -0.800510 
剪刀 0.217396 -0.126686 0.131637 -0.553100 -0.294293 -0.369915 0.058382 0.127525 -0.362048 -0.143572 -0.398939 0.430916 0.697012 -0.434831 -0.216538 0.153694 0.117758 -0.187055 -0.149620 0.124841 0.332008 -0.340304 0.133316 -0.200703 0.104774 -0.688397 0.059321 -0.159690 -0.602640 0.251915 -0.854757 -0.164084 0.039197 -0.203354 0.796730 0.685118 -0.051333 -0.202164 -0.169475 0.035031 0.731375 -0.136949 0.382562 -0.010622 -0.477879 0.503708 0.012152 0.238361 -0.275068 -0.425481 -0.362694 -0.246218 0.081041 -0.166121 0.601380 -0.215254 0.115570 0.116402 0.594657 -0.106836 0.279225 -0.378700 -0.364209 0.243249 -0.352255 0.100231 -0.037651 0.405297 -0.453769 0.212642 0.588786 0.156321 -0.053196 -0.485854 -0.479617 0.133904 -0.224677 0.163125 -0.778342 -0.230494 0.140796 -0.417582 -0.237151 -0.374985 -1.233781 0.498978 0.548226 -0.228200 -0.991469 0.461799 0.055621 0.743940 -0.678154 0.331524 -0.356008 -0.043862 -0.274759 -0.003885 -1.853940 0.402617 
毛绒玩具 -0.299745 0.089186 -0.577933 0.262215 -0.147675 0.456540 0.039447 0.014982 -0.366688 0.006904 -0.486715 0.971618 0.340333 -0.074626 0.309410 -0.192778 -0.429536 0.166548 0.075476 0.358518 1.076360 -0.101149 0.097164 -0.265794 -0.167901 -0.061508 -0.071088 0.381259 -0.657222 0.861879 -1.056901 0.190049 -0.254032 -0.484722 1.050238 0.200425 0.154871 -0.239357 -0.120609 0.041756 0.087876 -0.247858 -0.127655 0.292476 -0.031418 0.378487 0.046874 0.120101 -0.322858 -0.337098 -0.124991 0.476613 0.087287 -0.079984 -0.203505 0.087440 0.367039 -0.100344 -0.646323 0.694314 0.031690 -0.020697 0.217215 -0.061497 -0.271196 -0.389161 0.085716 0.009692 -0.653564 0.297183 0.361464 -0.159456 0.357994 0.119123 -0.095376 0.016240 0.080064 0.172591 -0.027459 -0.082753 0.163121 -0.696226 -0.122196 -0.573219 -0.780547 0.403579 0.973455 -0.039256 -0.504603 -0.502870 0.011898 0.152885 -0.424607 0.423455 -0.729104 0.462312 -0.201330 -0.234319 -1.406658 0.078166 
化妆包 -0.553389 -0.107356 -1.441542 0.902760 0.981966 0.454904 1.176388 -0.068967 -0.271223 0.568367 -0.874577 1.260083 0.450368 1.443441 0.256513 -0.306509 -0.938317 1.054893 0.328681 0.062542 0.209038 0.014949 0.076547 0.053738 -0.115476 -0.830811 -0.117885 0.220899 -0.060732 0.333296 -1.224693 -0.220333 0.103888 -0.545637 0.978774 0.332547 -0.317253 -0.958455 -0.311973 0.051391 0.685650 0.280618 -0.019347 -0.182526 -0.456504 0.665257 0.242774 0.357247 0.585241 0.158883 -0.420839 -0.294466 0.357210 0.110803 0.996566 0.273787 0.249592 0.224414 0.135442 -0.135696 -0.113176 0.251505 -0.257533 -0.193760 0.254393 0.322789 0.521465 -0.140205 -0.178962 0.457371 0.535786 0.406431 0.203340 -1.027563 -0.610239 -1.024369 -0.735113 0.250720 -0.069715 -0.057561 -0.377315 -0.701158 0.112900 -0.246838 -0.359087 0.393167 0.939728 -0.273659 0.047845 0.657828 0.281345 0.514593 -0.817530 -0.304294 -0.482990 -0.425475 -0.663999 -0.101546 -0.686597 0.246702 
灯具 0.108307 -0.066027 0.065191 -0.145603 -0.514752 -0.100448 -0.558609 -0.129398 -0.369884 -0.077691 -0.332219 0.532052 0.160928 0.148139 0.179153 -0.152644 -0.170488 -0.303967 -0.186821 0.293959 0.857511 -0.051903 -0.125092 -0.382554 -0.081605 -0.023322 -0.035026 -0.080594 -0.392294 0.557736 -0.444470 0.119730 -0.066400 -0.156359 0.689290 0.129038 0.266554 0.166002 0.279471 0.183660 -0.065779 -0.036057 -0.058404 0.231095 0.075263 0.070908 -0.130063 0.272242 -0.320098 -0.271746 0.182393 0.140771 0.212125 -0.329118 -0.406628 -0.160652 0.343422 -0.050884 -0.526650 0.293111 0.265033 -0.110598 -0.331193 0.027914 -0.311214 -0.397509 -0.330236 0.015285 -0.751108 0.207128 0.232300 0.271804 0.230128 0.151815 -0.170381 0.085031 -0.063520 0.382368 -0.270484 -0.146367 0.109165 -0.451166 -0.346294 -0.669640 -1.029683 0.554231 0.670052 0.113696 -0.552786 -0.330810 -0.008294 0.038584 -0.507273 1.063740 -0.893393 0.489516 -0.280957 -0.288617 -0.720906 -0.047250 
箱 -0.230545 -0.109704 -0.612749 0.295865 0.233434 0.179485 0.451144 -0.096285 -0.198336 0.248586 -0.477743 0.683238 0.305792 0.580522 0.181152 -0.134728 -0.421460 0.363893 0.142197 0.046839 0.316449 -0.068545 0.213953 -0.015113 -0.062010 -0.451679 -0.161883 0.041392 -0.229962 0.515996 -1.113135 -0.082250 0.088904 -0.500688 0.681932 0.186453 -0.031829 -0.375119 -0.159353 0.069171 0.419866 0.162396 0.181307 -0.035929 -0.263680 0.526438 -0.062646 0.310278 0.168693 -0.102275 -0.181465 -0.081825 0.204107 -0.044159 0.378415 0.152918 0.202929 0.204390 0.126782 0.109901 -0.020937 0.070805 -0.023914 -0.000521 -0.010133 0.066469 0.027630 0.007590 -0.308658 0.196374 0.282179 0.162766 0.173510 -0.556507 -0.496916 -0.420729 -0.351520 0.305925 -0.207663 -0.231768 -0.195493 -0.477883 0.019217 -0.266562 -0.498032 0.459373 0.643904 -0.127728 -0.296055 0.208080 -0.132026 0.276267 -0.556543 0.066646 -0.377089 -0.332081 -0.361462 -0.156864 -0.754013 0.086220 
女童套装 -0.354817 0.344749 -0.319828 1.467110 1.312129 0.195239 0.874247 0.054014 -0.429067 -0.221411 -1.329657 0.582318 0.053153 -0.269188 -0.777262 0.433668 -0.064126 -0.508012 0.738840 1.270328 0.734249 0.051004 -0.252727 -0.519818 -0.129012 -0.355490 -0.354040 0.406586 -1.221870 0.611967 0.107493 0.285200 -1.024836 0.516042 0.410000 0.164885 0.313549 -0.102435 0.818197 -0.561130 -0.346949 -0.773341 0.420563 -0.157151 0.259527 -1.174389 -0.956216 -0.095615 -0.207370 0.583940 0.214121 -0.321877 0.461129 0.133073 0.163545 -0.667583 0.290048 -0.790256 0.219203 0.262284 0.070518 -0.004260 -0.130401 0.118363 -0.626258 -0.251740 0.093242 0.083262 -0.470636 0.226024 0.552064 0.062892 -0.312909 0.417493 0.672705 1.237836 0.690792 -0.047645 -0.379368 0.311290 0.821431 0.466778 -0.149498 0.206945 -0.488151 -0.483754 0.476718 -0.156665 -0.641531 -0.564342 -0.064836 -0.198198 0.582350 0.395403 0.505484 0.375135 0.222713 0.242118 -0.706294 -0.238999 
球玩具 -0.088730 0.162831 -0.053617 0.012908 -0.309163 0.338889 -0.132959 -0.023942 -0.311486 0.081271 -0.548925 0.924420 0.051714 0.109154 0.201349 -0.095357 -0.465395 0.178735 0.170405 0.471140 0.916093 -0.038400 0.031321 -0.330567 -0.174767 -0.106447 -0.280508 0.418228 -0.521928 0.813273 -0.852389 0.250826 -0.231897 -0.279116 0.885298 0.039515 0.159875 -0.155317 0.130320 -0.093334 -0.195327 -0.239217 -0.079888 0.116423 0.078234 -0.022827 -0.216774 0.047218 -0.201253 -0.040493 -0.044074 0.300223 0.230080 -0.173515 -0.229096 -0.107563 0.418144 -0.093724 -0.599506 0.572231 0.035363 0.054723 -0.028096 -0.037049 -0.295491 -0.465388 0.009765 -0.017578 -0.675286 0.319041 0.292389 -0.045128 0.260264 0.053091 -0.075909 0.093338 0.173780 0.102839 0.031355 -0.006749 0.172756 -0.584990 -0.120757 -0.362493 -0.602495 0.286873 0.947985 0.121819 -0.406162 -0.496632 -0.046624 0.175872 -0.260887 0.539327 -0.664511 0.436180 -0.012486 -0.218743 -0.941610 -0.158452 
女袜 -0.014003 0.257362 -0.028296 0.191468 0.842399 0.244846 0.661154 -0.130035 0.086381 0.156261 -0.492557 0.020624 -0.719928 -0.090458 -0.674586 0.578431 -0.763832 -0.102967 0.924701 0.977563 0.092023 -0.293301 0.158615 -0.179722 -0.098560 -0.670818 -0.754638 0.354010 -0.563015 0.561364 -0.709629 0.193684 -0.513194 0.230783 0.254292 -0.010071 -0.142433 -0.165620 0.808285 -0.784424 0.031501 -0.411433 1.020706 -0.809182 -0.085044 -1.507022 -1.703336 -0.236210 0.201860 0.926658 0.145190 -0.552430 0.549422 -0.564841 0.126508 -0.586817 0.415759 -0.076008 0.673156 -0.024913 -0.198855 -0.192555 -1.082253 0.380956 -0.911229 -0.516918 -0.519681 0.459846 -0.026162 0.601439 0.739435 -0.463787 -0.081886 -1.314178 -0.286702 1.251585 0.199631 -0.091256 -0.395256 0.168975 0.261740 0.073672 -0.288926 0.598337 -0.001950 -0.404291 0.568029 0.019700 -1.112998 0.085146 -0.867078 0.359539 0.243817 0.194484 0.025743 0.153860 0.402653 0.339471 -0.648383 -0.671038 
塑料巧板 -0.132167 0.051329 -0.090055 -0.142363 -0.352062 0.252205 -0.149507 0.027222 -0.330100 0.049758 -0.502902 0.816333 0.202060 0.188043 0.224973 -0.151146 -0.463707 0.184586 0.096903 0.353730 0.878935 -0.027044 0.064878 -0.207234 -0.186540 -0.274492 -0.290062 0.293640 -0.565162 0.884335 -1.179142 0.108338 -0.143494 -0.415262 1.010945 0.209644 0.132419 -0.216675 -0.006654 0.019458 0.046774 -0.080017 -0.069978 0.181550 -0.023068 0.286873 -0.010380 0.095346 -0.216759 -0.241349 -0.102234 0.267084 0.137118 -0.119521 -0.111707 0.001345 0.385188 0.034829 -0.440972 0.486576 -0.002525 0.009529 -0.002050 -0.032112 -0.236465 -0.353052 0.025395 0.084042 -0.654052 0.300123 0.341598 0.046376 0.298234 -0.147828 -0.258022 0.007349 -0.024542 0.158762 -0.146331 -0.160060 0.091008 -0.657781 -0.159826 -0.507201 -0.710087 0.453782 0.910099 -0.013547 -0.436139 -0.326298 -0.048380 0.272373 -0.515051 0.475382 -0.738252 0.311306 -0.253346 -0.206112 -1.155730 -0.003222 
连衣裙 -0.206992 0.321767 0.012884 1.118130 0.890915 0.127567 0.570220 0.068901 -0.483757 -0.155708 -1.272437 0.659134 0.002595 -0.240446 -0.679933 0.354616 -0.134782 -0.418336 0.614191 1.164238 0.776962 0.072611 -0.285085 -0.553778 -0.093677 -0.362955 -0.303795 0.468142 -1.134661 0.612308 0.044341 0.327590 -0.919138 0.439266 0.491725 0.148131 0.268654 -0.076413 0.801120 -0.480606 -0.421616 -0.639568 0.297993 -0.120452 0.222719 -1.083883 -0.865237 -0.062685 -0.170503 0.577988 0.188438 -0.249280 0.431883 0.107183 0.099186 -0.609113 0.273669 -0.681423 0.031516 0.255219 0.072635 -0.021351 -0.156437 0.087639 -0.582849 -0.300768 0.150287 0.040769 -0.539191 0.248834 0.547619 0.108462 -0.251002 0.313118 0.627680 1.127339 0.594047 -0.038459 -0.264111 0.269952 0.720226 0.282069 -0.203576 0.127304 -0.550377 -0.386986 0.666250 -0.125579 -0.633913 -0.562272 -0.036307 -0.053439 0.485380 0.445135 0.287913 0.447897 0.227864 0.122684 -0.654333 -0.308235 
鱼钩 -0.003309 -0.110015 -0.134791 -0.054672 -0.059967 -0.133914 0.010904 -0.030468 -0.240146 0.010931 -0.303441 0.235510 0.265671 -0.013481 0.029169 0.126166 -0.007306 -0.215131 -0.052486 0.072098 0.353356 -0.187669 0.109573 -0.039911 0.088942 -0.288797 -0.100478 -0.085091 -0.148348 0.350631 -0.649746 -0.014881 0.091109 -0.243615 0.427569 0.341344 0.059820 -0.071662 0.044723 0.035781 0.280358 -0.011762 0.368091 -0.138976 -0.125489 0.112033 -0.276760 0.240168 -0.067474 -0.194072 0.049288 -0.131000 0.254068 -0.341211 0.116459 -0.189586 0.202060 0.201272 0.262195 0.020601 0.054677 -0.169574 -0.332411 0.216695 -0.343479 -0.149664 -0.400588 0.231194 -0.329908 0.096771 0.170941 0.046252 0.104003 -0.344683 -0.489723 0.106779 -0.222182 0.343617 -0.396016 -0.293803 -0.034238 -0.313476 -0.098368 -0.260880 -0.533060 0.576535 0.339873 -0.170595 -0.686651 0.122029 -0.319456 0.241830 -0.350273 0.398287 -0.284199 -0.152348 -0.211887 -0.031335 -0.633037 -0.008467 
手套 0.074337 0.056596 -0.128603 -0.086255 -0.041447 0.115322 -0.054383 -0.062296 -0.288353 0.057208 -0.306798 0.506614 -0.094420 -0.074892 0.049183 0.042826 -0.405986 -0.064293 0.128394 0.436089 0.673179 -0.132051 0.126756 -0.233938 -0.039312 -0.124773 -0.049259 0.238329 -0.364738 0.463767 -0.372902 0.224834 -0.188324 -0.089197 0.717763 0.007438 0.057892 -0.038160 0.384435 -0.257380 -0.004611 -0.251195 0.212148 -0.126219 0.024644 -0.328445 -0.571294 0.037212 -0.269174 0.180374 -0.024944 0.072422 0.380568 -0.382877 -0.166935 -0.277966 0.305236 -0.054582 -0.252552 0.235591 0.134336 -0.170550 -0.460917 0.063390 -0.381168 -0.398711 -0.298511 0.066548 -0.496747 0.359453 0.481941 -0.087284 0.131759 -0.342926 -0.130130 0.294492 0.163538 0.053242 -0.148395 -0.073518 0.107171 -0.463986 -0.349841 -0.293809 -0.642933 0.167167 0.754654 0.119758 -0.867378 -0.188019 -0.237551 0.286904 -0.274099 0.690876 -0.560901 0.327901 0.004651 -0.001388 -0.844331 -0.308055 
蝴蝶结 -0.389964 -0.025984 -1.379968 1.006015 1.076799 0.311538 0.338953 -0.287214 0.286970 0.031329 -0.170091 -0.273195 -0.230288 0.846620 -0.333489 0.269040 -0.200602 -0.874909 0.255176 0.549706 -0.128677 -0.146505 -0.027317 -0.144531 -0.268702 0.292743 -0.348191 -0.619226 -0.209631 0.141660 0.128443 -0.191825 -0.286007 0.433974 -0.224951 0.180630 0.392626 0.092856 0.101980 -0.042167 0.550060 -0.321810 0.438571 -0.172999 -0.041333 -0.698117 -0.517167 0.113640 0.001470 -0.194021 0.590565 -0.316765 0.106927 -0.455859 -0.569734 -0.439468 0.255584 -0.340582 0.488170 0.069778 0.200280 -0.246322 -0.745772 0.085139 -0.759635 -0.332289 -0.882817 0.323849 -0.217347 -0.037094 0.099673 0.182626 0.211709 -0.170300 -0.263046 0.625620 -0.086190 0.339028 -0.517864 -0.053703 0.015046 0.456152 -0.253440 -0.086543 -0.335841 0.192936 -0.561064 0.140207 -0.274024 -0.177411 -0.317283 -0.657580 0.001528 0.782341 -0.218260 0.590946 -0.244416 0.013262 0.082789 -0.025446 
铅笔 0.138779 0.075549 0.121683 0.111139 0.163137 0.052334 -0.105821 -0.288428 -0.184255 0.273173 0.257531 -0.082517 -0.487843 -0.666438 -0.254940 0.138918 -0.240488 -0.039750 0.499386 0.646256 0.265835 -0.023154 0.098030 -0.129268 -0.037212 -0.037553 -0.304436 0.218838 -0.408822 0.354402 0.245982 0.329167 -0.126722 0.018354 0.056303 -0.278960 0.031288 0.101526 0.813826 -0.539504 -0.158138 -0.460813 0.497448 -0.513167 0.261274 -1.158992 -1.329129 0.062841 -0.162977 0.592343 0.323131 -0.257218 0.747708 -0.657267 -0.063448 -0.563475 0.398140 -0.215055 0.016599 0.075202 0.391252 -0.264448 -0.688878 0.211782 -0.837913 -0.531888 -0.704935 0.195800 -0.586121 0.511872 0.649104 -0.101757 -0.014023 -0.800229 -0.412975 0.866742 0.108444 0.404848 -0.511553 -0.351765 0.254227 -0.286276 -0.484099 -0.163107 -1.011977 0.067190 1.004055 0.058164 -1.429718 -0.009084 -0.512841 0.233859 -0.306285 0.831271 -0.550697 0.284984 -0.029299 0.118750 -0.913687 -0.649524 
休闲包 -0.540820 -0.109758 -1.330978 0.947545 0.891577 0.415972 1.099426 0.038595 -0.284337 0.539592 -1.106481 1.481112 0.646545 1.809399 0.390326 -0.285729 -0.861846 0.845542 0.162533 0.020848 0.292409 0.006333 -0.119454 0.003018 -0.110161 -1.046644 -0.168110 0.171600 -0.184455 0.440442 -1.464728 -0.269258 0.032723 -0.430165 1.068152 0.429928 -0.294207 -0.930548 -0.308446 0.177568 0.737613 0.411477 -0.026757 -0.103315 -0.535949 0.798848 0.385935 0.493052 0.539273 -0.005307 -0.437743 -0.294875 0.311738 0.241340 1.034293 0.300399 0.294740 0.186969 0.154194 -0.078196 -0.112497 0.222066 -0.190432 -0.143822 0.374105 0.483748 0.649880 -0.109565 -0.294845 0.367527 0.372474 0.597207 0.208747 -0.891541 -0.526707 -1.130734 -0.735121 0.343855 -0.105262 -0.152192 -0.410026 -0.698655 0.059209 -0.334824 -0.603526 0.518380 0.875514 -0.214795 0.162286 0.690879 0.284689 0.505876 -0.779658 -0.293887 -0.494180 -0.458077 -0.679708 -0.185004 -0.775982 0.311622 
马 -0.119033 0.031604 -0.335340 0.143896 -0.048672 0.283603 0.009062 -0.031494 -0.140780 0.039689 -0.340881 0.584354 0.137817 0.110566 0.198407 -0.074104 -0.221302 -0.014677 0.081227 0.307108 0.621733 -0.090274 0.038229 -0.157942 -0.085139 -0.090877 -0.144361 0.152316 -0.353455 0.639923 -0.753645 0.067466 -0.152402 -0.262885 0.573985 0.089262 0.106679 -0.091280 0.002479 0.047988 0.041257 -0.185651 0.042306 0.098324 -0.023066 0.068329 -0.151342 0.123937 -0.136935 -0.125659 0.058233 0.229593 0.146629 -0.136141 -0.196749 -0.053436 0.280313 -0.091181 -0.334685 0.446000 0.044716 -0.036163 -0.050793 0.021267 -0.266199 -0.335290 -0.145420 0.086755 -0.477333 0.180811 0.222235 0.032438 0.275242 -0.023906 -0.157101 0.083591 0.019570 0.218755 -0.126588 -0.101859 0.087271 -0.406319 -0.122666 -0.296717 -0.596050 0.361613 0.609135 -0.012202 -0.441557 -0.315859 -0.135776 0.030439 -0.293618 0.502738 -0.515162 0.259681 -0.176115 -0.183512 -0.749745 -0.023683 
球 -0.004210 0.109294 0.081294 0.096407 -0.009802 0.105793 -0.004866 -0.128862 -0.106105 0.097902 -0.580427 0.581882 -0.096679 0.798272 0.014521 -0.034545 -0.402476 0.057536 0.146915 0.360705 0.376590 0.086212 -0.129343 -0.204939 -0.155867 -0.279684 -0.328774 0.110645 -0.170792 0.522021 -0.611268 0.106511 -0.146609 0.029671 0.431019 0.017487 0.024517 -0.145103 0.303423 -0.013292 -0.159420 0.052632 0.028380 -0.058152 -0.014057 -0.214477 -0.162025 0.094662 0.071605 0.211951 0.107597 -0.222668 0.246094 -0.110005 -0.117392 -0.140514 0.301808 -0.071212 -0.217577 0.125446 -0.059634 0.070986 -0.412113 -0.078536 -0.212106 -0.257024 0.013446 0.061630 -0.359885 0.253323 0.223611 0.238860 0.117231 -0.311186 -0.179145 0.005996 -0.193720 0.097943 -0.065268 0.065845 0.017864 -0.185171 -0.100898 -0.165070 -0.382204 0.189177 0.558977 0.053430 -0.131609 -0.112408 -0.061691 0.076901 -0.125151 0.464507 -0.535730 0.251503 -0.101834 -0.141867 -0.185059 -0.077727 
尺 0.187763 -0.089376 0.331743 -0.442366 -0.132180 -0.283307 0.010558 0.033952 -0.189846 0.043638 -0.167714 0.105864 0.234400 -0.405685 -0.223574 0.129908 -0.077869 -0.030500 0.192314 0.181486 0.030898 -0.294290 0.153550 -0.045564 0.035573 -0.584236 -0.179840 -0.019502 -0.428192 0.192713 -0.638935 -0.036038 0.032390 -0.137025 0.401693 0.294201 -0.162507 -0.172757 0.006064 -0.176654 0.522450 -0.206062 0.547769 -0.283354 -0.261906 -0.058963 -0.438299 0.235190 -0.084428 -0.025278 -0.140891 -0.365636 0.325829 -0.186909 0.642340 -0.247357 0.223437 0.123210 0.701737 -0.149082 0.277585 -0.280117 -0.440012 0.279334 -0.359777 0.015384 -0.139745 0.319783 -0.340266 0.267109 0.529455 0.072966 -0.128907 -0.827893 -0.507907 0.324071 -0.218330 0.220906 -0.691085 -0.277515 0.050653 -0.243085 -0.263006 -0.127099 -0.970209 0.300636 0.610739 -0.214488 -1.013820 0.448589 -0.236910 0.527713 -0.475646 0.239091 -0.234786 -0.213853 -0.140505 0.059783 -1.261059 -0.056408 
树脂玩具 -0.257423 -0.011853 -1.163323 0.824367 0.647660 0.207565 0.156231 -0.038391 -0.072086 -0.040578 -0.425503 0.535346 0.500784 0.633417 -0.062586 0.135895 0.206865 -0.796027 -0.191696 0.281729 0.431085 -0.121262 -0.070196 -0.273135 -0.135000 -0.015512 -0.091727 -0.601908 -0.442504 0.523940 -0.706756 -0.161056 -0.303310 0.101129 0.303873 0.476870 0.427745 0.028968 -0.198135 0.237138 0.518553 -0.227102 0.322273 0.237526 -0.168862 0.263188 0.128482 0.333214 -0.155796 -0.646568 0.307998 0.121564 0.034353 -0.161030 -0.401002 -0.114689 0.146893 -0.253479 0.209261 0.369286 0.199187 -0.065815 -0.330455 0.162988 -0.676251 -0.126735 -0.611680 0.280003 -0.476115 -0.099640 0.012876 0.276879 0.232505 0.510817 -0.163735 0.200158 -0.028408 0.533594 -0.597804 -0.135031 0.003749 0.023156 -0.153861 -0.350869 -0.841569 0.547977 -0.329890 0.070726 -0.202506 -0.142592 -0.054155 -0.538991 -0.272993 0.715106 -0.322638 0.329455 -0.348802 -0.239019 -0.473833 0.404043 
流行饰品 -0.005687 -0.097773 -0.189050 0.410190 0.336131 -0.436692 -0.134859 0.054494 -0.132422 0.001885 -0.952911 0.728935 0.602245 2.494239 -0.091431 -0.205582 -0.089585 -0.576566 -0.257191 0.167328 0.105743 0.238256 -0.734997 -0.331706 -0.222286 -1.044454 -0.481887 -0.869699 -0.067009 0.546816 -0.902626 -0.360555 -0.157019 0.503603 0.359360 0.769243 0.251965 -0.159210 0.012124 0.640260 0.355690 0.654926 -0.003956 0.221786 -0.352204 0.472851 0.717577 0.627905 0.402497 -0.421115 0.294828 -0.704159 0.183906 0.147701 -0.039539 -0.012242 0.169532 -0.103386 0.301915 -0.222296 0.053531 0.046422 -0.952000 -0.070492 -0.062553 0.331484 0.002966 0.247378 -0.494220 0.035358 -0.048267 1.350602 0.093146 0.050436 -0.405604 -0.441112 -0.800417 0.605450 -0.693079 -0.079005 -0.131797 0.092917 -0.157325 -0.504080 -1.113112 0.757613 -0.239190 0.021479 0.685136 0.310715 0.261030 -0.260420 -0.369441 0.727910 -0.560788 0.122645 -0.723100 -0.372841 0.327262 0.602279 
瓶 0.088826 -0.035018 -0.254225 0.070764 -0.016959 0.030053 -0.203987 -0.171985 -0.423501 0.096102 -0.202319 0.453623 0.003142 -0.253305 0.218594 -0.013948 -0.163692 -0.236581 -0.025522 0.370938 0.704950 -0.200179 0.065428 -0.339307 0.160814 -0.013625 0.069761 0.114033 -0.263268 0.428055 -0.216638 0.241121 -0.081536 -0.204736 0.544996 0.024935 0.169433 0.056303 0.468004 -0.089004 -0.124903 -0.295317 0.236443 -0.151060 0.164507 -0.338365 -0.721213 0.182475 -0.298837 0.085459 0.188041 0.148055 0.421052 -0.562589 -0.265001 -0.304667 0.271257 0.022737 -0.431491 0.278424 0.165349 -0.122653 -0.384454 0.155855 -0.525316 -0.500573 -0.522879 0.037549 -0.606513 0.252528 0.396964 -0.009140 0.190868 -0.132093 -0.291039 0.280970 0.142356 0.493116 -0.227136 -0.292768 0.094484 -0.511202 -0.274294 -0.397543 -0.815924 0.469521 0.862616 -0.007239 -1.011800 -0.278731 -0.172867 0.165802 -0.391908 0.955521 -0.657196 0.391744 -0.194550 -0.164374 -0.627504 -0.268978 
手电筒 0.047094 -0.041865 0.035891 -0.077221 -0.380927 -0.093545 -0.264485 -0.084922 -0.423723 -0.018393 -0.470641 0.749360 0.334497 0.198234 0.165686 -0.153469 -0.253379 -0.052428 -0.094195 0.205846 0.843032 -0.037060 -0.072190 -0.311831 -0.094981 -0.298318 -0.148430 -0.007537 -0.502100 0.608977 -0.820708 0.097216 -0.109447 -0.248106 0.820979 0.241920 0.156910 0.001648 0.192631 0.192333 0.113250 0.020219 -0.002946 0.223531 -0.072260 0.305280 -0.006577 0.293943 -0.238390 -0.258801 -0.016987 0.033149 0.239532 -0.152263 -0.049101 -0.070423 0.343074 -0.013239 -0.328488 0.236169 0.186583 -0.074050 -0.270256 0.019936 -0.241964 -0.205868 -0.087855 0.032582 -0.689573 0.271332 0.346782 0.281905 0.157183 -0.048524 -0.226467 -0.082355 -0.189968 0.347978 -0.307475 -0.177489 0.101377 -0.518531 -0.276560 -0.694087 -1.032992 0.551179 0.770512 0.054908 -0.468680 -0.143663 0.024712 0.233822 -0.568251 0.758187 -0.753131 0.256529 -0.302840 -0.205459 -0.903021 0.107442 
鞋 0.016224 -0.023214 -0.294656 0.163297 0.103834 0.173833 -0.087403 -0.130472 -0.317824 0.058818 -0.299593 0.478665 -0.138488 -0.059525 0.119005 -0.024335 -0.259077 -0.184565 0.097076 0.495625 0.665940 -0.122168 -0.052769 -0.351117 0.071172 0.025897 0.008013 0.209468 -0.307991 0.427325 -0.112307 0.264496 -0.256431 -0.064899 0.651710 0.016456 0.146399 0.023951 0.419584 -0.183443 -0.201988 -0.247643 0.114326 -0.076220 0.149829 -0.463386 -0.634999 0.072531 -0.221140 0.222166 0.161709 0.120222 0.333687 -0.487684 -0.321118 -0.233527 0.307351 -0.098812 -0.527431 0.333761 0.130183 -0.105775 -0.406874 0.037068 -0.447605 -0.458718 -0.321455 -0.006658 -0.598372 0.286048 0.411411 -0.008638 0.194749 -0.147972 -0.048884 0.343124 0.175891 0.196426 -0.079783 -0.106407 0.169530 -0.429905 -0.315551 -0.325788 -0.682040 0.237305 0.905141 0.052019 -0.894363 -0.330118 -0.175251 0.166214 -0.357404 0.875081 -0.736468 0.535788 -0.111257 -0.122837 -0.632574 -0.358485 
熊熊 -0.403136 0.139666 -0.790756 0.626598 0.351905 0.488737 0.438942 0.016092 -0.165694 0.061648 -0.553836 0.781552 0.283312 0.239851 0.087642 -0.098247 -0.401027 0.246900 0.223744 0.351662 0.653382 0.005876 0.055386 -0.187137 -0.219927 -0.155175 -0.131392 0.262916 -0.574071 0.618496 -0.847457 0.061500 -0.301668 -0.278422 0.747410 0.191161 0.067905 -0.362647 -0.155448 -0.014390 0.197720 -0.243256 -0.094063 0.151088 -0.126890 0.222562 0.063374 0.065968 -0.107794 -0.139241 -0.111146 0.216730 0.083867 0.083820 0.080736 0.048777 0.254443 -0.214201 -0.260715 0.417902 -0.015593 0.083429 0.201313 -0.099692 -0.199574 -0.170971 0.253870 0.000562 -0.380025 0.227691 0.311591 -0.023786 0.198289 -0.023122 -0.013940 -0.006943 0.035706 0.083943 -0.060802 0.028715 0.123956 -0.367594 -0.013085 -0.290964 -0.474177 0.142954 0.623997 -0.067470 -0.196814 -0.266856 0.069866 0.024270 -0.296752 0.140560 -0.348796 0.249264 -0.181212 -0.113076 -1.088945 0.136565 
织带 0.049212 0.015007 0.142527 -0.092221 0.150191 0.050749 -0.060847 -0.295643 0.110248 0.165797 -0.070383 -0.168377 -0.561638 0.224137 -0.126452 0.209716 -0.445971 -0.310724 0.285110 0.473079 -0.003579 -0.246961 -0.033773 -0.178738 -0.060034 -0.125012 -0.431287 -0.055943 -0.164288 0.243105 0.079968 0.069083 -0.124435 0.210513 0.040394 -0.085600 0.133135 0.016762 0.653321 -0.259780 0.211665 -0.257234 0.581277 -0.526761 0.004897 -1.148986 -1.016383 0.178381 0.094925 0.418698 0.430138 -0.526510 0.548267 -0.513583 -0.131453 -0.632169 0.439870 -0.064060 0.365583 -0.020814 0.165182 -0.281626 -0.915298 0.137397 -0.743103 -0.354441 -0.633822 0.301301 -0.419786 0.304206 0.473909 0.128383 0.028098 -0.804823 -0.294064 0.663544 -0.112849 0.297665 -0.327352 -0.147555 0.055273 0.051181 -0.300774 0.021657 -0.734805 0.202944 0.541422 -0.003361 -0.911901 -0.046630 -0.529393 0.059941 -0.012110 0.764455 -0.381429 0.375347 -0.118489 0.019494 -0.065000 -0.424267 
陀螺 -0.091318 0.006256 -0.199937 0.020459 -0.269316 0.266092 -0.191945 -0.068953 -0.260437 0.082097 -0.370675 0.733606 0.181762 0.350489 0.271690 -0.201120 -0.367463 0.115121 0.004945 0.296724 0.699867 -0.043582 -0.056924 -0.268534 -0.122299 -0.159293 -0.119518 0.178056 -0.365872 0.640012 -0.790784 0.096829 -0.098646 -0.301554 0.772457 0.113058 0.111067 -0.155662 0.045635 0.096679 -0.006358 -0.032028 -0.137127 0.144128 0.020959 0.182199 -0.004058 0.196882 -0.152277 -0.144805 -0.000851 0.179604 0.135883 -0.138487 -0.135231 -0.020578 0.333375 -0.063290 -0.549627 0.380419 0.097459 0.016608 -0.076682 -0.083435 -0.205342 -0.334240 -0.007143 -0.009219 -0.618843 0.286627 0.279512 0.183418 0.283578 -0.153852 -0.180397 -0.058094 -0.103118 0.208718 -0.082104 -0.130366 0.024510 -0.584230 -0.160989 -0.501411 -0.773442 0.413399 0.885866 0.035026 -0.423137 -0.286210 -0.015814 0.161886 -0.527315 0.636927 -0.809879 0.305337 -0.297907 -0.237798 -0.886448 -0.034475 
笔记本 0.012241 0.037437 -0.232899 0.140935 0.320326 0.105560 0.175581 -0.238918 -0.012494 0.215564 0.011718 -0.067033 -0.332995 -0.117029 -0.148373 0.127554 -0.312979 -0.069165 0.392662 0.403880 -0.019323 -0.196719 0.062514 -0.055981 0.033572 -0.166743 -0.273071 0.089120 -0.192902 0.245815 -0.053165 0.084420 -0.067219 -0.002873 0.087539 -0.121581 -0.072847 -0.099173 0.504474 -0.352356 0.164964 -0.286153 0.522661 -0.470202 -0.061707 -0.861751 -0.996626 0.152804 0.046033 0.455639 0.199757 -0.394976 0.525697 -0.426639 0.065251 -0.459367 0.305914 -0.054086 0.355773 0.056287 0.145691 -0.248334 -0.731815 0.213417 -0.619110 -0.360553 -0.561660 0.251744 -0.373385 0.423737 0.586402 -0.017507 0.040655 -0.949735 -0.463475 0.594419 -0.101188 0.309760 -0.389442 -0.213588 0.080626 -0.110027 -0.317502 0.038376 -0.671362 0.136882 0.687935 -0.043804 -1.069193 0.127366 -0.465564 0.179569 -0.275341 0.600249 -0.391959 0.208142 -0.100815 0.031042 -0.525786 -0.418140 
裙 -0.156390 0.247145 -0.056258 0.868794 0.730158 0.086287 0.366534 -0.004932 -0.318628 -0.123353 -0.964672 0.449800 -0.054930 0.001400 -0.525876 0.300372 -0.141260 -0.450541 0.497825 0.974843 0.608650 0.046160 -0.254189 -0.498179 -0.097254 -0.288412 -0.293481 0.257757 -0.867988 0.548084 0.033317 0.252200 -0.707030 0.377427 0.359484 0.113415 0.247378 -0.042576 0.701109 -0.368951 -0.338556 -0.507838 0.292039 -0.132306 0.189625 -0.965398 -0.799590 0.015050 -0.133260 0.494083 0.259372 -0.267341 0.400198 -0.040130 -0.022665 -0.534859 0.268478 -0.572227 0.040259 0.191737 0.102904 -0.045273 -0.296264 0.084497 -0.582735 -0.316253 -0.017769 0.062294 -0.503833 0.234504 0.449666 0.163102 -0.122443 0.129036 0.412955 0.955061 0.423674 0.023309 -0.277255 0.194786 0.553254 0.233468 -0.201852 0.067854 -0.559499 -0.251455 0.554883 -0.066050 -0.634643 -0.451042 -0.092434 -0.079541 0.296648 0.586219 0.030501 0.464912 0.130384 0.085997 -0.527080 -0.271547 
挂件 -0.279111 -0.012404 -1.051143 0.695706 0.339684 0.347524 0.036014 -0.162387 -0.065410 0.004843 -0.383200 0.552991 0.315850 0.449603 0.067455 -0.016104 -0.073768 -0.479449 -0.083177 0.326917 0.580736 -0.070895 -0.024567 -0.318671 -0.145029 0.214699 -0.013026 -0.290941 -0.351826 0.455356 -0.502053 -0.011936 -0.225578 -0.097894 0.463372 0.200326 0.326657 0.085197 -0.087951 0.102964 0.249611 -0.204548 0.068299 0.210165 -0.014229 0.138623 0.002311 0.229089 -0.201494 -0.404686 0.190119 0.221240 0.016909 -0.201295 -0.443440 -0.132253 0.210346 -0.213387 -0.310402 0.427641 0.134647 -0.002732 -0.105790 -0.005068 -0.531926 -0.368639 -0.400865 0.096002 -0.505713 0.017397 0.093358 0.182325 0.270575 0.282952 -0.119358 0.140960 0.012842 0.328913 -0.300680 -0.103318 0.038137 -0.203067 -0.101224 -0.397677 -0.722304 0.408217 0.115500 0.149210 -0.268473 -0.374759 -0.058165 -0.274303 -0.334309 0.798908 -0.564894 0.447414 -0.246561 -0.269989 -0.637470 0.132856 
储钱罐 -0.108494 -0.110345 -0.377315 0.137548 0.158530 0.138205 0.100036 -0.026654 -0.129287 0.130451 -0.100367 0.298394 0.105864 -0.139663 0.163196 0.056431 -0.174546 -0.132812 -0.026712 0.215477 0.416139 -0.270170 0.150466 -0.123438 0.082418 -0.148182 -0.058333 0.039013 -0.293703 0.382068 -0.599133 0.036140 -0.074400 -0.253120 0.433064 0.148048 0.121512 -0.151622 0.109800 -0.004609 0.235355 -0.274715 0.429946 -0.228125 -0.011557 -0.061462 -0.500911 0.237100 -0.116150 -0.056875 0.059221 0.138185 0.256414 -0.307930 -0.012867 -0.161564 0.202176 0.045227 -0.018522 0.222474 0.104800 -0.122439 -0.108221 0.190186 -0.392997 -0.241788 -0.358601 0.082932 -0.354590 0.147804 0.243378 -0.017382 0.178462 -0.228115 -0.299067 0.199831 0.010346 0.477587 -0.366116 -0.265417 -0.028339 -0.351196 -0.091877 -0.176547 -0.711870 0.448076 0.564275 -0.106512 -0.857219 -0.023007 -0.257164 0.110201 -0.326146 0.449690 -0.334875 0.086934 -0.206927 -0.118744 -0.701175 -0.054265 
牛仔长裤 -0.235499 0.253997 -0.274963 1.058251 0.979972 0.209914 0.643485 -0.064066 -0.351061 -0.030001 -1.082901 0.553445 -0.088562 -0.013597 -0.624321 0.369887 -0.167850 -0.376079 0.607489 1.022071 0.565938 -0.021900 -0.173266 -0.410195 -0.084692 -0.253336 -0.302084 0.327936 -0.837571 0.496456 0.060553 0.223813 -0.708487 0.404085 0.273299 0.020096 0.210551 -0.115199 0.745309 -0.451663 -0.294190 -0.577020 0.411671 -0.210201 0.152386 -1.075746 -0.988304 -0.046012 -0.088228 0.524724 0.223920 -0.243433 0.429165 -0.105259 0.059013 -0.590990 0.313252 -0.536053 0.187649 0.224941 0.081180 -0.046898 -0.298657 0.140810 -0.655445 -0.339682 -0.095976 0.105293 -0.444946 0.252295 0.493270 -0.001514 -0.164152 0.037730 0.342492 1.010705 0.445210 0.011238 -0.279241 0.225702 0.600815 0.251861 -0.182953 0.188477 -0.390764 -0.325112 0.513412 -0.098934 -0.678563 -0.398144 -0.166139 -0.071254 0.374120 0.471692 0.180468 0.384942 0.243983 0.140622 -0.583908 -0.342797 
蜡染娃娃 -0.231734 0.054605 -0.515761 0.255785 -0.000017 0.313638 0.141670 0.044941 -0.233730 -0.000694 -0.530162 0.802557 0.410225 0.146492 0.165430 -0.104410 -0.241872 0.061584 0.005413 0.262924 0.748682 -0.065781 0.100920 -0.202992 -0.205355 -0.205002 -0.153446 0.085579 -0.611544 0.763540 -1.128469 0.031026 -0.250677 -0.325366 0.851289 0.302922 0.160657 -0.231423 -0.185812 0.075138 0.273696 -0.203933 0.037434 0.218118 -0.155837 0.435774 0.115405 0.157802 -0.186110 -0.376249 -0.080632 0.279626 0.037083 0.022150 -0.016582 0.050746 0.278749 -0.083076 -0.212873 0.510659 0.057343 0.004793 0.116977 -0.007046 -0.268607 -0.214840 0.033107 0.097073 -0.519166 0.198313 0.267835 0.036110 0.223689 0.075896 -0.148029 0.001269 -0.027290 0.206369 -0.287776 -0.102077 0.104096 -0.465614 -0.077997 -0.404072 -0.738635 0.392935 0.549371 -0.038563 -0.327359 -0.239094 -0.000481 0.044095 -0.364535 0.344482 -0.472481 0.189221 -0.235674 -0.222039 -1.127132 0.212917 
球网 -0.068924 0.061339 -0.222981 0.272977 0.457218 0.009438 0.244186 -0.110039 0.053404 0.103950 -0.423313 0.187712 -0.072717 0.600529 -0.309747 0.202819 -0.228206 -0.255130 0.234870 0.402540 -0.040733 -0.052064 -0.060733 -0.083644 -0.100314 -0.382903 -0.355637 -0.137309 -0.251835 0.276470 -0.424707 -0.061095 -0.177424 0.184761 0.078531 0.217780 0.017137 -0.093245 0.188471 -0.115487 0.210825 -0.033037 0.377523 -0.262368 -0.141888 -0.446519 -0.407078 0.102417 0.143344 0.151630 0.142143 -0.416093 0.211441 -0.220238 0.042658 -0.223837 0.241110 -0.056680 0.432204 -0.067883 0.044039 -0.106885 -0.602320 0.087784 -0.408794 -0.118548 -0.234765 0.296459 -0.152528 0.185789 0.274208 0.158102 0.026019 -0.564696 -0.238005 0.334648 -0.196491 0.132711 -0.355814 0.023169 0.018903 0.065646 -0.135629 0.053217 -0.359643 0.047208 0.092848 -0.029206 -0.345682 0.117558 -0.271233 0.055740 -0.032012 0.329367 -0.166591 0.071648 -0.060620 0.012529 -0.220875 -0.071047 
合金项链 0.089966 -0.132786 0.124714 0.240030 0.057859 -0.551586 -0.367725 0.023131 -0.218218 0.058759 -1.027980 0.900927 0.581428 2.489758 0.010819 -0.221376 -0.135777 -0.629687 -0.351535 0.285875 0.313750 0.231978 -0.863868 -0.440238 -0.147331 -1.054015 -0.440648 -0.812048 -0.047152 0.626844 -0.858222 -0.239645 -0.134808 0.495230 0.437934 0.722563 0.246836 -0.072717 0.118280 0.612000 0.205943 0.649197 -0.045186 0.223725 -0.285751 0.353039 0.604645 0.702007 0.393375 -0.252296 0.320646 -0.703595 0.298831 0.121764 -0.036530 -0.029745 0.145987 -0.128250 0.033843 -0.202759 0.134669 0.040000 -0.906079 -0.133028 -0.094719 0.288855 0.052452 0.214423 -0.661278 -0.002228 -0.032358 1.462614 0.073736 0.072930 -0.294987 -0.449113 -0.788348 0.634581 -0.663550 -0.093829 -0.136079 -0.043057 -0.166311 -0.599039 -1.437230 0.795675 0.077018 0.028825 0.514949 0.294760 0.279430 -0.155496 -0.457828 0.885325 -0.724013 0.174698 -0.698268 -0.409264 0.426544 0.528923 
鱼 -0.113965 0.020456 -0.523745 0.224532 -0.036631 0.311714 -0.119756 -0.061171 -0.203582 -0.003505 -0.380007 0.707222 0.254547 0.136318 0.177154 -0.097356 -0.162531 -0.142171 -0.100334 0.354979 0.756407 -0.102815 -0.034320 -0.325713 -0.058113 0.054869 0.013913 0.088941 -0.411176 0.562609 -0.607068 0.124074 -0.215361 -0.195055 0.738197 0.207894 0.215868 -0.058698 -0.054430 0.082255 0.102775 -0.194898 -0.043733 0.171738 0.021373 0.148616 0.017869 0.145944 -0.262815 -0.289387 0.046156 0.323735 0.047928 -0.178779 -0.284087 -0.070606 0.267164 -0.135872 -0.512251 0.468852 0.128785 -0.046982 -0.011730 -0.076513 -0.418716 -0.360956 -0.174081 0.034897 -0.611577 0.142804 0.238606 0.114280 0.262331 0.131237 -0.045849 0.096938 0.080713 0.205310 -0.119069 -0.085108 0.082417 -0.484149 -0.131285 -0.441471 -0.806933 0.358701 0.593206 0.052592 -0.519776 -0.383040 -0.003440 0.073015 -0.389926 0.714332 -0.700535 0.411274 -0.223810 -0.253617 -0.961812 0.001159 
时装包 -0.463833 -0.085221 -1.165402 0.807083 0.776518 0.311991 0.897155 -0.003785 -0.292313 0.452665 -1.015063 1.312005 0.566303 1.584363 0.280370 -0.270741 -0.779860 0.688025 0.167949 0.092113 0.358945 0.047950 -0.086960 -0.061400 -0.100445 -0.897396 -0.220412 0.115134 -0.204576 0.467736 -1.287501 -0.201620 -0.014644 -0.394270 1.029264 0.454370 -0.180830 -0.802092 -0.273030 0.197456 0.609844 0.285882 -0.042699 -0.083333 -0.437183 0.697120 0.335608 0.359760 0.469553 -0.032223 -0.319583 -0.271999 0.284626 0.150606 0.770715 0.213761 0.202718 0.164964 0.087544 -0.030687 -0.084037 0.192142 -0.254015 -0.135366 0.181555 0.276568 0.481131 -0.077154 -0.297224 0.372704 0.425611 0.548623 0.246384 -0.737107 -0.515943 -0.846414 -0.683271 0.318547 -0.172391 -0.137061 -0.269432 -0.618593 0.031670 -0.402068 -0.579960 0.540542 0.773445 -0.212008 0.131314 0.525789 0.297805 0.379492 -0.698963 -0.092679 -0.488498 -0.274651 -0.618229 -0.197448 -0.683613 0.311582 
圆珠笔 0.084433 0.013273 0.068754 0.042192 0.096141 0.064724 -0.050357 -0.222039 -0.064089 0.166792 0.224584 -0.173785 -0.387690 -0.618449 -0.210793 0.191489 -0.282558 -0.104499 0.445480 0.498530 0.141415 -0.122890 0.125198 -0.108215 -0.025284 -0.110172 -0.313377 0.143607 -0.368180 0.262957 0.059907 0.192926 -0.062692 0.058861 0.042174 -0.231796 -0.052706 0.031668 0.669862 -0.498390 -0.006703 -0.484691 0.597323 -0.507754 0.086543 -1.093399 -1.231383 0.126764 -0.170616 0.517769 0.305347 -0.287450 0.640185 -0.616255 0.003218 -0.524225 0.366615 -0.175463 0.194278 0.063155 0.330819 -0.301911 -0.695156 0.218529 -0.771098 -0.453956 -0.698220 0.259584 -0.551297 0.485985 0.657914 -0.128584 -0.030317 -0.927438 -0.450012 0.847583 0.026991 0.346799 -0.555913 -0.301264 0.186466 -0.228877 -0.421297 -0.063662 -0.971278 0.090627 0.843364 0.015739 -1.397762 0.034780 -0.567818 0.164339 -0.292923 0.789478 -0.481957 0.240411 -0.016572 0.085460 -0.889103 -0.539630 
棉服 -0.244281 0.281009 -0.230647 1.072254 0.959268 0.168123 0.630112 0.003176 -0.405137 -0.150670 -1.039878 0.522298 -0.014068 -0.346098 -0.602695 0.395322 -0.082013 -0.414593 0.610287 1.063911 0.709005 -0.013812 -0.167309 -0.442967 -0.074498 -0.244895 -0.263135 0.374431 -0.984010 0.554009 0.066788 0.284822 -0.791839 0.345567 0.387377 0.080861 0.275945 -0.038811 0.729073 -0.493060 -0.310670 -0.668603 0.410796 -0.126890 0.186148 -1.033696 -0.935527 -0.085074 -0.206452 0.479970 0.183429 -0.188339 0.416458 -0.017973 0.078243 -0.579953 0.319075 -0.592959 0.120712 0.276509 0.077906 -0.039923 -0.146822 0.133375 -0.616840 -0.314603 -0.020459 0.076733 -0.484960 0.231342 0.498374 -0.029990 -0.211079 0.264345 0.471371 1.079480 0.595612 -0.000784 -0.277615 0.206729 0.696521 0.272731 -0.165250 0.129739 -0.454161 -0.347253 0.548741 -0.103888 -0.681009 -0.486359 -0.143856 -0.071441 0.428404 0.431983 0.303640 0.364958 0.209270 0.197324 -0.690558 -0.286219 
女士拉绒保暖裤 -0.130617 0.173526 -0.289873 0.518390 0.906816 0.366986 0.704854 -0.225320 0.020852 0.260352 -0.663685 0.273154 -0.646016 0.125957 -0.581075 0.434833 -0.652181 0.034839 0.853886 0.887003 0.004391 -0.207654 0.146247 -0.148239 -0.025503 -0.351166 -0.473802 0.397208 -0.369755 0.343255 -0.230106 0.196391 -0.367687 0.175937 0.040679 -0.253550 -0.165944 -0.171004 0.683385 -0.631707 -0.112456 -0.443812 0.724656 -0.733323 0.059111 -1.403045 -1.500368 -0.142351 0.227565 0.957809 0.170661 -0.419241 0.489070 -0.514336 0.086030 -0.552602 0.333524 -0.162622 0.449854 0.034595 -0.087858 -0.127011 -0.741155 0.278471 -0.663219 -0.470479 -0.386052 0.253487 -0.041510 0.500551 0.612957 -0.471201 0.003610 -1.062607 -0.170112 0.937835 0.201093 -0.086276 -0.157404 0.212561 0.221819 0.094232 -0.207780 0.617963 0.053347 -0.427343 0.572122 -0.031327 -1.004990 0.001227 -0.632563 0.277547 0.274096 0.225568 0.014803 0.197017 0.415255 0.210041 -0.379138 -0.702730 
